tree
version=v4
num_class=1
num_tree_per_iteration=1
label_index=0
max_feature_idx=119
objective=regression
feature_names=flow_bulk_buy_days_20d flow_bulk_net_qty_20d flow_bulk_net_qty_5d flow_bulk_unique_buyers_20d fund_debt_equity fund_div_yield fund_eps_growth fund_ev_ebitda fund_ev_revenue fund_gross_margin fund_net_margin fund_op_margin fund_pb fund_pe fund_rev_growth fund_roe macro_brent_chg20 macro_dxy_chg20 macro_fedfunds macro_india10y macro_us10y macro_us10y_chg20 macro_vix macro_vix_chg5 macro_yield_curve pattern_bear_count pattern_bull_count pattern_doji pattern_engulfing pattern_hammer pattern_net smc_base smc_bos_dn smc_bos_up smc_choch_dn smc_choch_up smc_demand_zone smc_dist_bear_ob smc_dist_bull_ob smc_doji smc_ema_20 smc_ema_200 smc_ema_200_dist smc_ema_20_dist smc_ema_50 smc_ema_50_dist smc_ema_9 smc_ema_9_dist smc_ema_stack smc_engulfing_bear smc_engulfing_bull smc_equal_high smc_equal_low smc_fvg_bear smc_fvg_bear_mit smc_fvg_bear_pct smc_fvg_bull smc_fvg_bull_mit smc_fvg_bull_pct smc_hammer smc_liq_sweep_high smc_liq_sweep_low smc_order_block_bear smc_order_block_bull smc_pinbar smc_shooting_star smc_supply_zone smc_swing_high smc_swing_low smc_trendline_break_dn smc_trendline_break_up smc_vp_in_value smc_vp_poc smc_vp_poc_dist smc_vp_vah smc_vp_val tech_adx_14 tech_adx_strong tech_atr_14 tech_atr_pct tech_bb_bandwidth tech_bb_pctb tech_cci_20 tech_cmf_20 tech_consec_updown tech_di_diff tech_donchian_20 tech_ema20_50_ratio tech_golden_death tech_ha_streak tech_macd_hist tech_macd_line tech_mean_rev_z tech_mfi_14 tech_mom_12_1m tech_mom_12m tech_mom_1m tech_mom_3m tech_mom_6m tech_obv_slope tech_price_vs_sma200 tech_price_vs_sma50 tech_price_vs_vwap20 tech_range_52w tech_resistance_dist_20d tech_ret_20d tech_ret_5d tech_rsi_14 tech_rsi_2 tech_rsi_7 tech_stoch_d tech_stoch_k tech_supertrend_10_3 tech_support_dist_20d tech_vol_20d tech_vol_regime tech_vol_sma_ratio tech_volume_spike tech_vwap20_slope_5d tech_williams_r
feature_infos=[-2.4453191206064231:5.3444243051030256] [-409495468.24346685:473735433.57861257] [-409878898.00359333:268894314.41865027] [-5.5984546528164696:16.369860810079203] [0:43.805000305175781] [0:986] none [-2968.694091796875:1086.56103515625] [-50.9739990234375:2618.294921875] [-109.57099914550781:100] [-84.76300048828125:8698.6787109375] [-7047.05908203125:117.94000244140625] [-32.927410125732422:53.565418243408203] [0:2437.4072265625] [-82.599998474121094:404.5] [-35.009998321533203:84.882003784179688] [-72.9803466796875:357.78509521484375] [-6.8979659080505371:8.9221487045288086] [-0.84870147153968967:3.3745622401449458] [-0.38272206613368276:2.1987521763215714] [-0.68863734606502947:1.7497526674850725] [-1.3939628516275697:1.4027274965743688] [-13.238783893732396:49.719293852074216] [-29.924751391366708:45.729083188658102] [-1.690000057220459:2.5999999046325684] [-0.53208955271760849:1] [-1.155893717275756:1.990874523336271] [-0.73741336735996788:1] [-1.476251041243307:1.4998781225943043] [-0.64977594258958282:1] [-2.1145941364538414:2.4389710296209399] [-0.790725333542876:1] [0:1] [0:1] [0:1] [0:1] [-0.40000000000000002:1] [-2.5556616721409822:1.6058591790593955] [-1.5952884970975583:0.97078435685641484] [-0.73741336735996788:1] [-387.33728340515836:15610.375285690345] [-18.234825875938441:11779.96117595931] [-1.049188241918467:0.46827746829683869] [-0.79783094136754784:0.4118347413977157] [-180.75606041306401:14374.254417001401] [-0.9022430635235118:0.43130128529645584] [-466.62923495891391:16138.60931618989] [-0.56926132077241987:0.36801514214750342] [-1.3419543543836716:1.3500100521371792] [-0.53208955271760849:1] [-0.50152318192844803:1] [-0.71192749804528244:1] [-0.70736829053495298:1] [-0.80158935168765633:1] [-0.92224368330805617:1] [0:18.590642929077148] [-0.86570109530829531:1] [-0.91577186416272238:1] [0:0.33675214648246765] [-0.53279815679999998:1] [-0.73833023127970887:1] [-0.70739358423268484:1] [-0.69027304029196723:1] [-0.72141022901558927:1] [-0.80662819143552933:1] [-0.59403034482617334:1] [-0.58478164750269324:1] [-0.77146788667535848:0.9904632200395852] [-0.70753672557964553:0.99374168998180934] [-0.85599874999302616:1] [-0.88401038139483767:1] [-0.89498608322307749:1] [-4999.6669816969297:19815.278976973132] [-1.3371823588436658:1.1790646437244492] [-2074.5262247665669:17050.658662759641] [-1515.6762128906557:16977.837355497642] [0:90.168426513671875] [0:1] [-89.620566979294836:1227.5740924282054] [0.14595524966716766:136.43037414550781] [-0.28232995096052738:0.89346159410439641] [-0.56213229894638062:1.5531297922134399] [-742.85576697981912:636.97908614967218] [-0.70430077635193999:0.96589136899613526] [-22.911958493480522:13.307441678043162] [-58.738888962687291:68.223104514028449] [-0.79330281384207479:0.89974999883442996] [-12.39291342314057:12.370280784908623] [-0.11640735518620615:0.33246920350809406] [-21.054920772901426:14.189941360579827] [-1858.78271484375:1902.987060546875] [-1853.3936217802216:2037.5841359803971] [-5.2233102559057443:5.0807692761066621] [-64.434591866627869:67.487829668313339] [-284.80216683810886:699.69013224561877] [-310.93379990553785:704.76090242039481] [-73.970005277247481:96.040457046060979] [-89.325460786138748:132.71295063016328] [-72.423406341595609:170.82547469724011] [-413150432.45998216:955178671.79070997] [-48.25245967971874:84.065832738273116] [-39.71609475802849:85.360551998656959] [-37.433105395738096:73.199710707976223] [-53.677977542749275:74.355156557738638] [-36.869125282869277:23.330644784637705] [-94.925376892089844:55617.6484375] [-94.925376892089844:125.42372894287109] [0.37716767191886902:98.807228088378906] [0:100] [0.0024039126001298428:99.961448669433594] [0:100] [0:100] [-1.9296310188227324:1.9152937400155854] [-35.220165285391388:91.686390370355838] [-1.3983096999904117:2.0733423040831047] [-1.1649016547379429:0.87415088490157999] [-8.0659568355205895:18.564231615180553] [-8.0659568355205895:18.564231615180553] [-20.524499791563571:37.30408903953424] [-100:0]
tree_sizes=3061 2283 2266 2456 3021 2417 2443 3066 3038 2380 3036 2314 2985 2281 2354 3132 2297 2889 2302 3020 3006 3117 3084 2775 3082 2349 3101 3044 3021 2545 3034 2374 2371 3070 3058 3005 2459 2537 3006 2376 3082 2317 3093 3115 2306 2409 2865 2509 2284 2329 3111 3130 2530 3118 3031 3055 3039 2233 3028 3055 3077 3062 3116 2377 3098 2450 2286 3067 2341 3141 3047 2998 2869 2378 3081 2925 3077 3046 2423 3034 2880 2333 2281 3040 2289 3012 3027 3095 2989 3142 3129 2995 3026 3005 2998 2330 2875 2310 3123 2360

Tree=0
num_leaves=31
num_cat=0
split_feature=85 17 18 20 16 19 17 17 22 17 22 16 16 19 16 20 16 22 16 17 18 22 17 63 17 43 96 74 22 78
split_gain=638.052 593.931 563.856 607.848 1121.89 591.829 329.252 349.993 319.137 317.951 454.568 249.76 407.538 228.332 211.16 203.718 191.85 185.863 126.467 124.532 89.7246 67.2906 25.9303 24.5974 17.6675 15.8687 9.94943 6.81874 6.4 5.20825
threshold=-9.7789256842343253 -1.0122565031051634 0.24032914602138614 0.30167520520641494 29.114095687866214 0.59907224813416848 -0.58861589431762684 -0.57653397321701039 0.3525604019812239 -1.4017031788825987 0.18892734834730976 -6.4951009750366202 -11.226428985595701 0.52202522624114966 -15.300022125244139 0.2705399083401559 29.114095687866214 19.837426874201707 -6.8119068145751944 3.5498111248016362 0.37712767168465172 5.1100988171886739 2.0539978742599492 -0.014192174832560104 0.30203607678413397 -0.044137698386815589 -10.74598839027799 150.0604690160126 6.544285716520954 32.959835352913565
decision_type=2 2 2 2 2 2 2 2 2 2 2 2 2 2 2 2 2 2 2 2 2 2 2 2 2 2 2 2 2 2
left_child=16 9 3 5 -5 -3 8 -8 -4 10 14 12 -11 -13 -2 -12 17 18 20 -20 -1 22 25 26 29 -18 -23 -24 -25 -19
right_child=1 2 6 4 -6 -7 7 -9 -10 11 15 13 -14 -15 -16 -17 21 24 19 -21 -22 23 27 28 -26 -27 -28 -29 -30 -31
leaf_value=-0.00056052002973651198 -0.010552035519849606 -0.0046389032659226049 -0.0029323849909121051 -0.0080007333884814444 0.0004818547465444681 0.0013883759253489779 0.0057127341029085971 -0.0033112061909309144 -0.0065966382827301363 0.00099976843775352315 -0.0039836824943761681 -0.0010417217673246348 -0.0064689037098879954 -0.005521975489945246 -0.0023001238809535326 -0.0066369173036317317 -0.010923573628999414 0.013614638471431881 -0.0018917925518698205 -0.011343393046953079 0.0047642808699172147 0.0058521561680239158 0.0050435752801926484 -0.0128361694857007 -0.0054240316313852992 0.00022602676701774955 0.012771972737703367 0.016767998077499766 0.0034971643344039001 0.0049131590145206185
leaf_weight=3980 1322 231561 15905 47560 7528 6996 1808 197292 26276 4256 27729 57727 10707 5166 58167 21351 87 382 21801 597 1973 101 101 20 23 137 608 26 20 31
leaf_count=3980 1322 231561 15905 47560 7528 6996 1808 197292 26276 4256 27729 57727 10707 5166 58167 21351 87 382 21801 597 1973 101 101 20 23 137 608 26 20 31
internal_value=-0.0038407 -0.00396182 -0.00430767 -0.00490852 -0.00684155 -0.00446215 -0.00357641 -0.00322926 -0.00521497 -0.00296945 -0.00368346 -0.00197377 -0.00434455 -0.00140973 -0.0024835 -0.0051379 -0.000917521 -0.00123728 -0.00144072 -0.00214372 0.00120428 0.00745057 7.4028e-05 0.0109074 0.0119916 -0.0041044 0.0117862 0.00744385 -0.0046695 0.0129615
internal_weight=751238 721351 534926 293645 55088 238557 241281 199100 42181 186425 108569 77856 14963 62893 59489 49080 29887 28787 28351 22398 5953 1100 351 749 436 224 709 127 40 413
internal_count=751238 721351 534926 293645 55088 238557 241281 199100 42181 186425 108569 77856 14963 62893 59489 49080 29887 28787 28351 22398 5953 1100 351 749 436 224 709 127 40 413
is_linear=0
shrinkage=0.408333


Tree=1
num_leaves=23
num_cat=0
split_feature=23 21 24 23 17 17 19 23 17 43 23 19 19 17 103 103 79 114 60 21 100 29
split_gain=783.921 729.316 730.463 670.593 556.886 530.59 481.246 346.955 347.086 148.07 122.02 82.3504 59.4454 42.0156 31.664 26.2933 17.2493 17.1226 11.4314 8.28446 8.11318 5.22927
threshold=15.54908743454256 0.20268744904396158 2.1700000762939458 -3.7252308371952196 2.5275173187255864 -0.16475897282361981 0.38522200936388812 6.5069233499736194 0.63507071137428295 -0.042360392898180436 0.7365163098795916 0.51300971806766882 0.34587879623139278 0.87013268470764171 5.1684600260681757 10.397325507673395 1.9353252649307253 0.048114340781561828 -0.0061802789422351111 -0.18018487688173263 4.1312864511119303 -0.40495390606599851
decision_type=2 2 2 2 2 2 2 2 2 2 2 2 2 2 2 2 2 2 2 2 2 2
left_child=1 2 3 5 -5 -1 12 8 -4 11 -11 -8 17 15 -9 18 -14 -3 21 -20 -17 -2
right_child=13 6 7 4 -6 -7 9 14 -10 10 -12 -13 16 -15 -16 20 -18 -19 19 -21 -22 -23
leaf_value=0.0035847117168762901 0.0048339019314600877 0.0036391430908557154 -0.0011752075289725584 -0.00019750710972249027 0.001878990064330593 0.00036981378750480668 0.0080794865126089105 0.0054300721400316306 -0.0064961579754399456 0.0022224663850205157 0.00045303817615013897 0.0022567542277656841 -0.00051020030441577551 -0.0038438738758773787 -0.0010164446388020447 -0.0061476070433855055 0.011226413919365328 0.0084366683032094832 0.0032514607461846686 0.0085967540989198687 0.0051115443557500848 0.010508700107670896
leaf_weight=13582 26 290 3127 659606 20817 19592 818 645 4944 12555 11825 708 20 38 146 20 902 194 55 257 20 1051
leaf_count=13582 26 290 3127 659606 20817 19592 818 645 4944 12555 11825 708 20 38 146 20 902 194 55 257 20 1051
internal_value=-1.62971e-11 -1.78611e-05 -9.36619e-05 -4.93682e-05 -0.000133978 0.00168605 0.00198723 -0.00366033 -0.00443463 0.00160067 0.00136424 0.00537798 0.00910959 0.00912865 0.0042402 0.00947362 0.0109718 0.00556212 0.00976135 0.00765447 -0.000518031 0.0103717
internal_weight=751238 749771 722459 713597 680423 33174 27312 8862 8071 25906 24380 1526 1406 1467 791 1429 922 484 1389 312 40 1077
internal_count=751238 749771 722459 713597 680423 33174 27312 8862 8071 25906 24380 1526 1406 1467 791 1429 922 484 1389 312 40 1077
is_linear=0
shrinkage=0.0125


Tree=2
num_leaves=23
num_cat=0
split_feature=23 21 24 23 17 17 19 23 17 18 18 17 20 19 106 103 84 79 54 115 86 28
split_gain=707.489 658.207 659.243 605.21 502.59 478.857 434.324 313.127 313.245 223.184 324.889 251.792 56.9973 53.6495 28.7233 23.1299 16.837 15.5675 11.3541 8.8308 7.18116 6.48778
threshold=15.54908743454256 0.20268744904396158 2.1700000762939458 -3.7252308371952196 2.5275173187255864 -0.16475897282361981 0.38522200936388812 6.5069233499736194 0.63507071137428295 0.22982848047152829 0.23523321188579002 1.6935076713562014 -0.016302887604685231 0.34587879623139278 7.3089568614959726 10.397325507673395 -1.7899026971067962 1.9353252649307253 0.7377660675816734 0.11560370578163438 0.16132215242607642 0.002837250900043874
decision_type=2 2 2 2 2 2 2 2 2 2 2 2 2 2 2 2 2 2 2 2 2 2
left_child=1 2 3 5 -5 -1 13 8 -4 11 -11 -8 21 16 -9 18 -3 -15 20 -17 -14 -2
right_child=12 6 7 4 -6 -7 9 14 -10 10 -12 -13 15 17 -16 19 -18 -19 -20 -21 -22 -23
leaf_value=0.0041420449924521605 -0.0012285600953242362 0.010369737270962048 -0.0013579228878297068 -0.00022821453422707839 0.0021711261886710113 0.0004273107956391922 0.0027777735399818373 0.005594081968297541 -0.0075061492474445051 -0.012604151798292319 0.0012948854810866529 0.010167337373713219 0.011807711762500214 -0.00058952391211668296 -0.0071840600747629622 0.0066814519700960874 0.0043874840209997112 0.012971841414411479 0.00028832953440118166 -0.0074346358139590436 0.006774053757476358 -0.01347458523538857
leaf_weight=13582 20 165 3127 659606 20817 19592 5501 748 4944 397 18686 1322 1296 20 43 21 319 902 21 20 69 20
leaf_count=13582 20 165 3127 659606 20817 19592 5501 748 4944 397 18686 1322 1296 20 43 21 319 902 21 20 69 20
internal_value=-1.25918e-11 -2.06381e-05 -0.000108224 -5.70437e-05 -0.000154809 0.00194819 0.00229619 -0.00422943 -0.0051241 0.00184954 0.00100573 0.00420955 0.0105479 0.0105259 0.00489944 0.0110497 0.00642689 0.0126777 0.0113826 -0.000204445 0.0115533 -0.00735157
internal_weight=751238 749771 722459 713597 680423 33174 27312 8862 8071 25906 19083 6823 1467 1406 791 1427 484 922 1386 41 1365 40
internal_count=751238 749771 722459 713597 680423 33174 27312 8862 8071 25906 19083 6823 1467 1406 791 1427 484 922 1386 41 1365 40
is_linear=0
shrinkage=0.0152036


Tree=3
num_leaves=25
num_cat=0
split_feature=23 21 24 23 85 17 19 23 17 16 20 18 19 96 43 100 84 115 79 82 5 28 113 29
split_gain=638.509 594.032 594.967 546.202 489.072 432.169 391.978 282.597 282.704 212.348 172.822 51.5103 48.4186 26.4192 20.4563 18.0544 15.6183 15.5032 14.0497 13.564 7.99196 5.80078 4.47601 3.85371
threshold=15.54908743454256 0.20268744904396158 2.1700000762939458 -3.7252308371952196 -9.7789256842343253 -0.16475897282361981 0.38522200936388812 6.5069233499736194 0.63507071137428295 54.809246063232429 0.52306925926363379 0.14772432545318928 0.34587879623139278 4.1307190399117673 1.0000000180025095e-35 -0.16458427052459076 -0.82805285988588473 0.14090575703665423 1.9353252649307253 11.208151110432562 5.5000000000000009 0.0023559443070920471 5.4036803945209195 -0.40495390606599851
decision_type=2 2 2 2 2 2 2 2 2 2 2 2 2 2 2 2 2 2 2 2 2 2 2 2
left_child=1 2 3 5 -5 -1 12 8 -4 10 -8 21 16 -9 22 -11 -3 20 -14 -19 -16 -2 23 -13
right_child=11 6 7 4 -6 -7 9 13 -10 15 -12 14 18 -15 17 -17 -18 19 -20 -21 -22 -23 -24 -25
leaf_value=0.002823449267654933 -0.00086523170227354243 0.0054874023199745839 -0.00092563625180444402 0.0013538856973060627 -0.00016413895698334357 0.00029127889586057166 0.001535316268955692 0.0041367752965161316 -0.0051166102934927949 0.008737571986661103 -0.00082420851262292262 0.0039182819832455033 -0.00040185229827395899 -0.0016472625275460182 0.0024880008817410796 0.0017865654477479836 0.00091018471641070916 0.0059145647395740858 0.0088423316814178095 -0.0037892100827937778 0.007682405228310445 -0.0091739089055494841 0.0034833578629927201 0.0083362489658380008
leaf_weight=13582 20 367 3127 26272 654151 19592 20888 682 4944 481 4488 24 20 109 47 49 117 30 902 40 141 20 24 1121
leaf_count=13582 20 367 3127 26272 654151 19592 20888 682 4944 481 4488 24 20 109 47 49 117 30 902 40 141 20 24 1121
internal_value=9.52527e-11 -1.4068e-05 -7.37714e-05 -3.88841e-05 -0.000105526 0.00132799 0.00156521 -0.00288301 -0.00349287 0.00126075 0.00111801 0.00719006 0.00717505 0.00333973 0.0075323 0.00809493 0.00438093 0.00475203 0.00864181 0.000369551 0.0063838 -0.00501957 0.00814591 0.00824365
internal_weight=751238 749771 722459 713597 680423 33174 27312 8862 8071 25906 25376 1467 1406 791 1427 530 484 258 922 70 188 40 1169 1145
internal_count=751238 749771 722459 713597 680423 33174 27312 8862 8071 25906 25376 1467 1406 791 1427 530 484 258 922 70 188 40 1169 1145
is_linear=0
shrinkage=0.0109091


Tree=4
num_leaves=31
num_cat=0
split_feature=21 24 22 19 17 21 18 19 18 18 18 17 17 19 21 20 18 43 20 19 20 18 21 44 114 56 79 54 107 69
split_gain=527.294 542.569 487.704 555.097 542.296 537.831 469.013 353.633 275.173 192.274 287.629 216.566 191.679 199.109 168.864 121.09 114.514 109.092 65.7113 43.6978 39.8177 26.3037 22.4785 19.2233 15.0076 13.439 12.6798 8.86856 8.63302 6.72978
threshold=0.20268744904396158 2.1700000762939458 6.2800928262589624 0.34587879623139278 -1.0122565031051634 0.081280771319701975 0.23722066668403444 0.38522200936388812 -0.022393495410707991 0.22982848047152829 0.23523321188579002 1.6935076713562014 1.9768081307411196 0.57769756632774982 -0.10171703352907831 0.45899511392825515 0.55186075571581428 -0.030915352385868265 0.2931510779739766 0.34587879623139278 0.39386956817627633 0.26509816922809876 0.21127836650709181 82.380643913120267 0.046313350062630466 -0.016982079014262682 1.9353252649307253 0.29240509288900024 69.16397857666017 -0.26074581106699141
decision_type=2 2 2 2 2 2 2 2 2 2 2 2 2 2 2 2 2 2 2 2 2 2 2 2 2 2 2 2 2 2
left_child=1 2 4 21 5 -1 -6 19 -5 11 29 17 13 18 23 -15 -12 -9 -3 24 -16 -4 -13 -14 25 -2 -21 -26 -28 -11
right_child=7 12 3 8 6 -7 -8 9 -10 10 16 22 14 15 20 -17 -18 -19 -20 26 -22 -23 -24 -25 27 -27 28 -29 -30 -31
leaf_value=0.0010578860542318422 0.0056482521088346447 -0.00031012494444623498 0.0039335159113798191 -0.0051573535649631621 -0.00088945113041373491 -0.0020500516321477467 0.00018502922298413603 0.010735385944106463 0.0047381309870030272 -0.0048110879792107467 0.00090355665392577173 0.012683369679301379 0.0017622592491322931 -0.0064500151125652912 -0.0067796733335801634 0.004128565089487367 0.0056369985961498368 0.0021559307972835126 0.0065513435838624083 -0.00062212713807821291 -0.010427574295235274 -0.016415953731443913 0.0078286953813428671 0.01100954601556739 0.012083160414023398 -0.0057270520820952306 0.013964234596551066 0.0021418569290560054 0.0026894189853860872 -0.014523187512828726
leaf_weight=164764 241 1007 21 959 280030 19702 237107 517 12022 24 16903 857 301 2358 2323 400 1786 4984 785 20 1595 456 465 93 171 38 880 34 22 373
leaf_count=164764 241 1007 21 959 280030 19702 237107 517 12022 24 16903 857 301 2358 2323 400 1786 4984 785 20 1595 456 465 93 171 38 880 34 22 373
internal_value=9.30064e-11 -9.14891e-05 -3.73073e-05 0.00331497 -0.00010161 0.000725941 -0.000396803 0.00242472 0.00400708 0.0019535 0.00103782 0.00451493 -0.00446333 -0.00191807 -0.00714908 -0.00491578 0.0013559 0.00296225 0.0026956 0.011108 -0.00826472 -0.0155201 0.0109758 0.00394499 0.00678232 0.00409893 0.0133788 0.0104344 0.0136892 -0.0139361
internal_weight=751238 723923 715061 13458 701603 184466 517137 27315 12981 25909 19086 6823 8862 4550 4312 2758 18689 5501 1792 1406 3918 477 1322 394 484 279 922 205 902 397
internal_count=751238 723923 715061 13458 701603 184466 517137 27315 12981 25909 19086 6823 8862 4550 4312 2758 18689 5501 1792 1406 3918 477 1322 394 484 279 922 205 902 397
is_linear=0
shrinkage=0.0177778


Tree=5
num_leaves=25
num_cat=0
split_feature=23 16 16 23 24 21 20 24 19 23 24 16 16 20 79 92 108 15 24 74 78 25 70 108
split_gain=553.13 501.825 1046.41 448.327 598.406 395.03 357.555 181.729 156.986 130.68 143.537 72.2599 49.1029 44.791 22.1004 18.7911 13.281 9.39952 7.75747 7.50778 7.43936 5.40031 5.12784 3.61178
threshold=15.54908743454256 54.809246063232429 50.825675964355476 -3.7252308371952196 1.9950000047683718 0.22355011183617277 0.33759583726549597 0.75499999523162853 0.51022968824174442 -1.9607052230217989 0.61500000953674328 61.849666595458991 61.849666595458991 -0.016302887604685231 2.9025276899337773 0.26077854844826981 30.992570877075199 15.929999828338625 0.66500002145767223 101.34153159969584 0.076144531434963816 -0.0031236890926747067 0.72694540889405068 84.661975860595717
decision_type=2 2 2 2 2 2 2 2 2 2 2 2 2 2 2 2 2 2 2 2 2 2 2 2
left_child=1 2 3 4 -1 -5 7 11 14 18 -11 -3 -9 21 -8 20 -10 19 -4 -17 -15 -2 -22 -19
right_child=13 6 9 5 -6 -7 8 12 16 10 -12 -13 -14 15 -16 17 -18 23 -20 -21 22 -23 -24 -25
leaf_value=0.0033511266560166219 -0.018128623271530322 -0.0010216662103560798 -0.020810358096152032 -0.00026502439577782717 -0.0076045532254906921 0.0031173769919431815 0.0089797874932696573 -0.01221994304510907 0.0080761619131184785 -0.01803946393636887 0.0012791151274522191 0.0049766610860519957 -0.002328163970851776 0.0031725175272334701 0.018630873634277834 0.0064677530079865 0.00230071911738492 0.020465611004746045 -0.017288824982254661 -0.0080480528669757447 0.015875157741211225 -0.0014270728453993798 0.0042752516540614047 0.00761909613555128
leaf_weight=31946 20 1236 968 683401 2801 18313 136 387 403 389 406 6455 785 25 1240 63 420 26 485 26 1247 20 20 20
leaf_count=31946 20 1236 968 683401 2801 18313 136 387 403 389 406 6455 785 25 1240 63 420 26 485 26 1247 20 20 20
internal_value=-1.43296e-10 -2.72788e-05 -9.92302e-05 -5.19711e-05 0.00246798 -0.000176752 0.00477756 0.00274228 0.0129807 -0.0155816 -0.00817362 0.00401269 -0.00559448 0.0139419 0.017677 0.0146068 0.00512879 0.00653857 -0.0196349 0.00222718 0.0154498 -0.00977785 0.015692 0.0148802
internal_weight=751238 749771 738709 736461 34747 701714 11062 8863 2199 2248 795 7691 1172 1467 1376 1427 823 135 1453 89 1292 40 1267 46
internal_count=751238 749771 738709 736461 34747 701714 11062 8863 2199 2248 795 7691 1172 1467 1376 1427 823 135 1453 89 1292 40 1267 46
is_linear=0
shrinkage=0.0227273


Tree=6
num_leaves=25
num_cat=0
split_feature=23 21 24 23 17 17 19 23 17 18 18 17 20 19 106 86 84 79 88 67 78 46 30 28
split_gain=560.397 503.91 534.75 492.215 497.394 418.435 358.174 256.631 260.749 194.106 285.614 202.872 45.3664 42.4061 27.4164 19.2109 15.771 12.8029 11.1555 8.62858 6.68522 6.31506 6.2766 5.42783
threshold=15.54908743454256 0.20268744904396158 2.1700000762939458 -3.7252308371952196 2.5275173187255864 -0.16475897282361981 0.38522200936388812 6.5069233499736194 0.78782388567924511 0.22982848047152829 0.23523321188579002 1.6935076713562014 -0.016302887604685231 0.34587879623139278 7.3089568614959726 0.15537078678459607 -1.7899026971067962 1.9353252649307253 0.058806596026897091 -0.089633515012193299 0.076144531434963816 1098.7327597840961 -0.036367360417189055 0.002837250900043874
decision_type=2 2 2 2 2 2 2 2 2 2 2 2 2 2 2 2 2 2 2 2 2 2 2 2
left_child=1 2 3 5 -5 -1 13 8 -4 11 -11 -8 23 16 -9 20 -3 -15 19 -17 -14 -22 -20 -2
right_child=12 6 7 4 -6 -7 9 14 -10 10 -12 -13 15 17 -16 18 -18 -19 22 -21 21 -23 -24 -25
leaf_value=0.0038984505633798388 -0.0010036757066845894 0.0098775002990507486 -0.0015714556478132918 -0.00021496416975440129 0.002227195416371874 0.00034559639662833498 0.0025772174822082518 0.0052552144373067067 -0.0072036417193454784 -0.012220989252434637 0.0011125490690500465 0.0093637394436251048 0.0026328313337432015 -0.00065099751493997039 -0.0075178058911355575 0.011519121235167537 0.0039537009641590409 0.011932093848234094 0.003707514067490896 0.00052695522092497402 0.010898479227275938 0.0024920808727091005 -0.0084687814447614879 -0.01246404723326365
leaf_weight=13582 20 165 3554 659606 20817 19592 5501 748 4517 397 18686 1322 25 20 43 48 319 902 20 27 1264 22 21 20
leaf_count=13582 20 165 3554 659606 20817 19592 5501 748 4517 397 18686 1322 25 20 43 48 319 902 20 27 1264 22 21 20
internal_value=6.25374e-11 -1.87929e-05 -9.72022e-05 -5.00401e-05 -0.000140248 0.0018002 0.0020553 -0.00389485 -0.00472355 0.0016403 0.00083516 0.00389215 0.00960492 0.00970181 0.00456085 0.0100629 0.00597318 0.0116591 0.00399527 0.00756194 0.0105998 0.0107547 -0.00252913 -0.00673386
internal_weight=751238 749771 722459 713597 680423 33174 27312 8862 8071 25906 19083 6823 1467 1406 791 1427 484 922 116 75 1311 1286 41 40
internal_count=751238 749771 722459 713597 680423 33174 27312 8862 8071 25906 19083 6823 1467 1406 791 1427 484 922 116 75 1311 1286 41 40
is_linear=0
shrinkage=0.0155556


Tree=7
num_leaves=31
num_cat=0
split_feature=85 17 23 18 24 20 22 23 23 21 21 17 24 16 19 16 24 16 22 21 19 23 21 24 22 68 103 22 99 74
split_gain=503.585 459.768 562.655 421.858 604.315 584.51 553.247 366.579 347.05 340.854 396.496 358.235 246.838 146.63 114.438 110.61 115.072 90.3072 85.5211 85.2623 71.7603 54.9681 58.9138 43.4085 18.903 19.2196 15.3008 14.3954 9.16401 7.62604
threshold=-9.7789256842343253 -1.0122565031051634 -3.2542111671387204 0.24032914602138614 0.64499998092651378 0.30834133138502945 5.7036871999840288 15.54908743454256 -0.06772137708071739 0.023280106492766923 0.18424624298806802 -1.4017031788825987 -0.095000002533197389 29.114095687866214 0.40940394524777585 -6.8119068145751944 2.1700000762939458 -9.1326131820678693 1.0000000180025095e-35 0.049265469623130741 0.34587879623139278 0.51135098799380685 0.095083480001635509 -0.32500000298023218 7.094703909646797 -0.11977127504842955 10.617155984675014 2.0621109412544123 -69954.079161261165 189.14548536585133
decision_type=2 2 2 2 2 2 2 2 2 2 2 2 2 2 2 2 2 2 2 2 2 2 2 2 2 2 2 2 2 2
left_child=13 2 12 4 5 -3 -6 8 -5 11 -11 -4 18 14 20 17 -17 -16 -2 -14 27 22 28 -22 25 -23 -9 -1 -15 -24
right_child=1 3 9 7 6 -7 -8 26 -10 10 -12 -13 19 21 15 16 -18 -19 -20 -21 23 24 29 -25 -26 -27 -28 -29 -30 -31
leaf_value=0.00087858591232201869 0.0019106962806386906 -0.0011824016647699377 0.00012448582403853383 0.00096598042770793555 -0.00030612613780269513 -0.0043252621561160531 0.004916476148082243 0.012702290126871902 -0.00052236813178715004 -0.0015627527076821342 0.0046864910286152457 0.002205288454021701 0.0069666905265382863 -0.013984717706139687 0.0022572182508491067 0.0014947591573151134 -0.0070942455227271609 0.0072669234810513687 -0.0098494397466861675 0.0022350820326738751 -0.0066817030792946557 0.0031566089925950717 0.0070948142054665991 0.0086003680928323587 0.015741151326393706 0.01196027000151785 -9.8365689800841743e-05 -0.012690694292421187 -0.0026892091614451317 0.017161132792126783
leaf_weight=49 441 116350 76725 110615 141148 27970 8177 929 129700 41455 4267 53521 7723 62 3334 20661 612 2329 506 1787 74 128 141 1652 323 361 37 76 49 36
leaf_count=49 441 116350 76725 110615 141148 27970 8177 929 129700 41455 4267 53521 7723 62 3334 20661 612 2329 506 1787 74 128 141 1652 323 361 37 76 49 36
internal_value=2.76078e-11 -0.000102875 0.000731932 -0.000393811 -0.000890725 -0.00179151 -2.01377e-05 0.000210947 0.000162706 0.000470505 -0.000979543 0.000979534 0.00513117 0.00248299 0.00221571 0.00189307 0.00124766 0.00431754 -0.00437297 0.00607759 0.00691082 0.00947767 0.00215051 0.00794517 0.0120765 0.00965584 0.012212 -0.00737154 -0.00899841 0.0091422
internal_weight=751238 721351 186425 534926 293645 144320 149325 241281 240315 175968 45722 130246 10457 29887 28787 26936 21273 5663 947 9510 1851 1100 288 1726 812 489 966 125 111 177
internal_count=751238 721351 186425 534926 293645 144320 149325 241281 240315 175968 45722 130246 10457 29887 28787 26936 21273 5663 947 9510 1851 1100 288 1726 812 489 966 125 111 177
is_linear=0
shrinkage=0.0195207


Tree=8
num_leaves=31
num_cat=0
split_feature=85 17 23 21 21 111 21 21 23 16 16 16 23 23 16 23 21 16 17 21 16 21 19 23 68 20 19 19 79 118
split_gain=459.94 439.722 511.526 334.807 334.066 312.268 312.119 315.404 303.105 264.561 253.007 230.36 199.101 187.262 165.191 141.162 186.661 140.101 137.824 128.786 126.861 76.0509 35.9786 30.9414 29.2725 18.72 18.4795 12.5362 9.98999 5.58585
threshold=-6.9889774234240063 -1.0122565031051634 -3.2542111671387204 -0.057378767508638726 0.20268744904396158 99.997699737548842 0.023280106492766923 0.18424624298806802 8.4894056727875569 29.114095687866214 -11.567918777465819 12.658122539520265 15.54908743454256 -0.28413344869301138 24.567191123962406 0.51135098799380685 0.095083480001635509 -8.1005921363830549 1.5853953361511233 -0.066144064910283726 -6.8119068145751944 0.049265469623130741 0.51711399203319275 1.6296529551801036 -0.12431886277142362 0.043688929563629915 0.50595825666416172 0.51472904464597058 1.6158402562141421 -3.0401471858292535
decision_type=2 2 2 2 2 2 2 2 2 2 2 2 2 2 2 2 2 2 2 2 2 2 2 2 2 2 2 2 2 2
left_child=9 2 17 10 5 -5 8 -8 -4 12 18 -12 14 -6 20 16 26 19 -3 -2 -1 -19 -16 24 -17 -14 -11 -18 -25 -27
right_child=1 3 6 4 13 -7 7 -9 -10 15 11 -13 25 -15 22 23 27 21 -20 -21 -22 -23 -24 28 -26 29 -28 -29 -30 -31
leaf_value=0.0033066697663566699 -0.010126998329143258 0.0022034621838860806 0.0010766884517546347 -0.00096863051898599215 0.0046074720709861159 0.0081211849024962895 -0.0017127934163088656 0.0046728387188678484 -0.017786618661925914 0.0085812153277935455 4.2575021619469173e-05 0.0057064338117604248 -0.0072492359336504509 0.00029349181022973763 0.0064105477963581486 0.0039044603636324074 0.013682649332623011 0.0073987980461144107 0.0077718941405220772 0.0041887741838440122 0.00092690155724926523 0.0023036830555447805 -0.015186706883889629 0.0011639238052099238 0.01281074516829203 0.00445143419286014 -0.013085512806602586 0.0058960311255518236 0.016800244535746023 0.014071893156531734
leaf_weight=13337 486 6665 125777 381314 7758 1804 39662 4050 406 20 85116 3554 21 12455 41 254 257 7293 3091 774 52667 1720 345 20 566 30 288 159 660 648
leaf_count=13337 486 6665 125777 381314 7758 1804 39662 4050 406 20 85116 3554 21 12455 41 254 257 7293 3091 774 52667 1720 345 20 566 30 288 159 660 648
internal_value=5.63756e-12 -0.000171943 0.000751719 -0.000503606 -0.000781744 -0.000925829 0.000466132 -0.00112115 0.00101599 0.00169164 0.000636148 0.000269589 0.00144646 0.00194925 0.00132462 0.00908766 0.00118357 0.00547476 0.00396771 -0.00133302 0.00140777 0.00642647 -0.0128927 0.0129027 0.010052 0.0130184 -0.0116786 0.0107065 0.0163404 0.0136462
internal_weight=751238 681925 180168 501757 403331 383118 169895 43712 126183 69313 98426 88670 67089 20213 66390 2224 724 10273 9756 1260 66004 9013 386 1500 820 699 308 416 680 678
internal_count=751238 681925 180168 501757 403331 383118 169895 43712 126183 69313 98426 88670 67089 20213 66390 2224 724 10273 9756 1260 66004 9013 386 1500 820 699 308 416 680 678
is_linear=0
shrinkage=0.0217964


Tree=9
num_leaves=24
num_cat=0
split_feature=23 21 24 17 24 23 23 17 20 18 21 22 22 23 18 93 92 115 106 78 113 28 30
split_gain=494.41 459.15 542.216 441.527 539.044 480.938 240.414 263.837 211.742 270.661 265.973 157.428 150.509 74.3114 40.7428 26.5942 16.4095 20.5982 8.29741 6.21578 4.89223 4.70925 4.2866
threshold=15.54908743454256 0.20268744904396158 2.1700000762939458 2.5275173187255864 0.51499998569488536 -3.7252308371952196 6.5069233499736194 0.78782388567924511 0.52306925926363379 0.42504537244700252 0.27249010910165 -1.5629682794396762 -0.45479277102586385 -0.25749689968584394 0.14772432545318928 7.1100588074021909 0.26077854844826981 0.14333079983364042 4.4008636474609384 0.076144531434963816 5.4036803945209195 0.0023559443070920471 -0.017441456130719322
decision_type=2 2 2 2 2 2 2 2 2 2 2 2 2 2 2 2 2 2 2 2 2 2 2
left_child=1 2 3 5 -5 -1 7 -4 11 10 -10 18 -13 -11 21 -8 19 22 -3 -16 -21 -2 -18
right_child=14 8 6 4 -6 -7 15 -9 9 13 -12 12 -14 -15 16 -17 17 -19 -20 20 -22 -23 -24
leaf_value=0.0013218342178417312 -0.00084130397709933217 0.0087923999532237476 -0.0011579488437547889 -0.0008300352939627784 0.0029121434717803403 -0.00015298990365508996 0.0042202842580262682 -0.0053959889933417431 -0.0069671202585891781 0.0055910063005863144 0.00043811366878216611 -0.00049670348294801321 0.0021840890042141969 0.00080277847095043585 0.0017309245439009239 -0.0012365177549044483 0.0074456417628696999 -0.0046209230983958538 0.0011382196946577593 0.0077046352240856203 0.0030243845517334703 -0.0088266389326615777 0.0022480185276602025
leaf_weight=31363 20 466 3554 8141 14487 659606 642 4517 1309 679 1318 3335 18944 1241 25 149 70 34 20 1236 31 20 31
leaf_count=31363 20 466 3554 8141 14487 659606 642 4517 1309 679 1318 3335 18944 1241 25 149 70 34 20 1236 31 20 31
internal_value=-4.3739e-11 -1.32046e-05 -6.91933e-05 -3.36681e-05 0.0015658 -8.60478e-05 -0.0029298 -0.0035298 0.00146781 -0.000824716 -0.00325182 0.00192571 0.00178279 0.00249612 0.00674872 0.00319239 0.00707339 0.00321313 0.00847741 0.00747675 0.00759012 -0.00483397 0.00585033
internal_weight=751238 749771 722459 713597 22628 690969 8862 8071 27312 4547 2627 22765 22279 1920 1467 791 1427 135 486 1292 1267 40 101
internal_count=751238 749771 722459 713597 22628 690969 8862 8071 27312 4547 2627 22765 22279 1920 1467 791 1427 135 486 1292 1267 40 101
is_linear=0
shrinkage=0.0116364


Tree=10
num_leaves=31
num_cat=0
split_feature=85 111 79 17 18 24 21 21 22 17 24 110 24 24 117 19 17 18 21 97 47 78 92 97 71 94 88 61 56 117
split_gain=424.574 392.045 480.384 370.822 398.593 512.449 285.046 391.364 332.087 268.879 102.223 93.6281 92.5476 123.729 63.9922 49.4723 39.2884 27.3782 21.828 21.3029 16.1713 14.8927 13.3431 11.5346 10.4951 7.0832 6.88027 6.44519 5.60938 2.08045
threshold=-9.7789256842343253 99.997699737548842 1.6683681011199953 -1.0122565031051634 0.24032914602138614 0.64499998092651378 0.021794079920464657 0.17793514475696359 9.7228173657418662 -0.58861589431762684 2.1700000762939458 1.0000000180025095e-35 0.61500000953674328 -0.28499999642372126 1.4254580449663055 0.84547830825292458 3.5498111248016362 0.48752087903141855 0.11237381982304966 -5.1940401132405105 0.0055543308390937724 -0.71192431523837729 -1.3151380618449064 -2.8332918804294396 -0.38366387217674874 -0.85876302747966526 0.056535711544357221 -0.033150670998060398 -0.013457515349063217 0.042764472911307534
decision_type=2 2 2 2 2 2 2 2 2 2 2 2 2 2 2 2 2 2 2 2 2 2 2 2 2 2 2 2 2 2
left_child=10 3 20 6 5 -5 8 -8 -2 -6 11 23 13 -13 -14 17 18 -4 19 -12 21 -3 24 27 -18 -20 -22 -1 -24 -17
right_child=1 2 15 4 9 -7 7 -9 -10 -11 16 12 14 -15 -16 29 22 -19 25 -21 26 -23 28 -25 -26 -27 -28 -29 -30 -31
leaf_value=-0.0022909152878734557 0.001019328975932262 0.0017924207697301016 0.0097161035109397994 -0.0015265837713321737 -0.0010906336259856363 -6.0336761350118922e-05 -0.0011154028957877833 0.0041819798193680809 -0.013716031803947659 0.0004494548405802822 -0.013530614447334537 0.0028541751890439138 0.0040419116779521983 -1.0212115289475049e-05 -0.00088731825000621257 -0.014175785192637709 -0.007895809610684713 -0.0012232125333199897 0.0019782331327921443 0.0058298288425430661 -0.0051610730474984101 -0.0067426206475660663 -0.0095327354321506474 0.0032043044034217021 0.0015052327403315795 0.0095253150571353619 -0.012107272966099598 -0.01199317696890315 -0.00020903343955675763 -0.0061936869457131271
leaf_weight=24 136582 77 2607 143713 42075 148354 43505 4736 470 198518 46 10176 9432 8456 882 20 66 72 85 28 55 335 335 20 81 69 212 166 21 20
leaf_count=24 136582 77 2607 143713 42075 148354 43505 4736 470 198518 46 10176 9432 8456 882 20 66 72 85 28 55 335 335 20 81 69 212 166 21 20
internal_value=-8.77071e-11 -8.46826e-05 0.00584551 -0.00011275 -0.000347322 -0.000781811 0.000561574 -0.000595339 0.000968796 0.000180124 0.00204389 0.00220595 0.00229042 0.00155419 0.00362039 0.00913366 -0.00441974 0.0094221 0.00160624 -0.00620504 -0.00732159 -0.00514748 -0.0071512 -0.00943697 -0.00271564 0.00535972 -0.0106764 -0.0107676 -0.00898274 -0.0101847
internal_weight=751238 721351 3398 717953 532660 292067 185293 48241 137052 240593 29887 29156 28946 18632 10314 2719 731 2679 228 74 679 412 503 210 147 154 267 190 356 40
internal_count=751238 721351 3398 717953 532660 292067 185293 48241 137052 240593 29887 29156 28946 18632 10314 2719 731 2679 228 74 679 412 503 210 147 154 267 190 356 40
is_linear=0
shrinkage=0.0175


Tree=11
num_leaves=23
num_cat=0
split_feature=23 21 23 17 23 20 22 111 20 20 23 20 22 22 20 92 103 54 95 60 115 25
split_gain=516.579 466.364 377.69 470.366 453.342 367.633 506.769 406.244 238.027 225.652 231.344 238.57 164.931 150.852 43.027 29.0393 18.3904 9.76394 8.26391 8.07243 7.86016 5.37135
threshold=15.54908743454256 0.20268744904396158 -3.7252308371952196 -0.16475897282361981 -4.445188229880352 0.28744995442827365 3.7254044977072405 99.997699737548842 0.24265094104366661 0.52306925926363379 -0.25749689968584394 0.6390040233368125 -1.5629682794396762 -0.45479277102586385 -0.016302887604685231 0.28276175199921344 10.397325507673395 0.7377660675816734 -0.25292859165786291 -0.0061802789422351111 0.11560370578163438 -0.0031236890926747067
decision_type=2 2 2 2 2 2 2 2 2 2 2 2 2 2 2 2 2 2 2 2 2 2
left_child=1 2 3 8 -5 7 -7 -4 -1 12 15 -12 18 -14 21 -11 17 19 -3 -16 -18 -2
right_child=14 9 5 4 -6 6 -8 -9 -10 10 11 -13 13 -15 16 -17 20 -19 -20 -21 -22 -23
leaf_value=0.0014248557035748755 -0.0099566240981221188 0.01046365291944572 5.1484581048254755e-05 -0.0013619622873918644 0.0025413575695452289 -0.00034687517896604453 -0.0023428203552369633 0.0051331928984216539 0.0047371569616931463 0.0071873974875324882 -0.0054708685547710514 0.00078764473482070396 -0.00051193558132311533 0.0023710990402759234 0.0086585957688753885 0.0018347638169431996 0.0048594033789067037 -0.00044575315855798262 0.0070164167773682715 0.0063509154661757052 -0.0060900634154677398 -0.00079543647123500702
leaf_weight=7067 20 322 434999 13217 7172 229254 21763 2472 6515 499 1814 2002 3335 18944 1060 232 21 21 164 305 20 20
leaf_count=7067 20 322 434999 13217 7172 229254 21763 2472 6515 499 1814 2002 3335 18944 1060 232 21 21 164 305 20 20
internal_value=-1.05756e-10 -1.44992e-05 -7.51139e-05 0.00121155 1.10629e-05 -0.0001386 -0.000519922 8.01996e-05 0.0030137 0.00158889 -0.000953401 -0.00218745 0.00209667 0.00193953 0.00741035 0.00548861 0.00776876 0.00801283 0.00930039 0.00814296 -0.0004818 -0.00537603
internal_weight=751238 749771 722459 33971 20389 688488 251017 437471 13582 27312 4547 3816 22765 22279 1467 731 1427 1386 486 1365 41 40
internal_count=751238 749771 722459 33971 20389 688488 251017 437471 13582 27312 4547 3816 22765 22279 1467 731 1427 1386 486 1365 41 40
is_linear=0
shrinkage=0.0125


Tree=12
num_leaves=31
num_cat=0
split_feature=16 16 85 111 106 20 17 17 24 24 16 19 17 21 17 17 16 110 79 107 9 89 91 79 34 29 111 87 79 111
split_gain=432.621 924.336 374.603 328.949 417.759 318.331 309.305 232.7 168.342 153.428 137.001 131.591 115.595 105.561 92.7577 72.641 65.2921 23.1006 19.2322 14.1703 12.166 12.0986 12.1819 11.1498 11.1485 10.5912 8.8152 6.70161 6.29295 6.14819
threshold=54.809246063232429 50.825675964355476 -7.8189165004862149 99.997699737548842 5.0602834224700937 0.33120723417101555 -1.0122565031051634 0.44033524394035345 0.75499999523162853 2.2150000333786015 29.114095687866214 0.51022968824174442 -1.4885912537574766 0.11303664668532513 -2.6892039775848384 -3.33385157585144 -6.3573403358459464 94.105583190917983 2.6315082311630253 60.371994018554695 61.068500518798835 1.0000000180025095e-35 -3.8706774497702776 1.909628212451935 1.0000000180025095e-35 -0.02257712173984841 46.532049179077156 -0.44101850411550542 6.5735950469970712 94.447021484375014
decision_type=2 2 2 2 2 2 2 2 2 2 2 2 2 2 2 2 2 2 2 2 2 2 2 2 2 2 2 2 2 2
left_child=1 2 9 6 -5 8 -4 24 12 10 -1 18 14 -14 -2 17 -11 -10 20 -20 -7 22 -13 -9 28 -23 -26 -25 -3 -17
right_child=5 7 3 4 -6 11 -8 23 15 16 -12 21 13 -15 -16 29 -18 -19 19 -21 -22 25 -24 27 26 -27 -28 -29 -30 -31
leaf_value=0.0014218329466297555 0.00078499706600866355 -0.0013533829553699574 0.00048204671726708017 -0.0059714640505620521 0.009046007414040682 0.0085682376652277265 -0.00037818153813701781 -0.0017725824333234912 -0.0081366634869235628 0.0039213869494681029 0.0077379340032682513 0.0023445604763228569 0.00045755962778438623 0.0091907355385529924 0.0079109352386159282 0.0013502743404236329 -0.006372927346636692 0.0054973957206146213 0.013597884983805044 0.0011018195849019699 -0.0073298540982333097 0.0068537908127615631 0.0074819204124539143 -0.015131261335478888 -8.6009477071874324e-05 -0.0016997764259576798 0.012279720005043515 -0.012981128626734961 0.0066863721566118722 0.010965170877531539
leaf_weight=51303 807 289 176193 757 2459 53 504799 23 734 234 1096 255 4453 479 1950 375 1086 41 1276 29 21 61 332 1000 31 175 43 828 34 22
leaf_count=51303 807 289 176193 757 2459 53 504799 23 734 234 1096 255 4453 479 1950 375 1086 41 1276 29 21 61 332 1000 31 175 43 828 34 22
internal_value=7.4815e-11 -5.18605e-05 -1.73825e-05 -0.000128979 0.00551111 0.00346975 -0.000155615 -0.0113696 0.00197499 0.001404 0.00155394 0.0094848 0.00292622 0.00130573 0.00582511 -0.00426564 -0.00454803 -0.00741538 0.0128231 0.0133202 0.00405662 0.00389123 0.00525019 -0.0140035 0.000910757 0.000511103 0.00709948 -0.0141574 -0.000507093 0.00188309
internal_weight=751238 740175 737927 684208 3216 11063 680992 2248 8861 53719 52399 2202 7689 4932 2757 1172 1320 775 1379 1305 74 823 587 1851 397 236 74 1828 323 397
internal_count=751238 740175 737927 684208 3216 11063 680992 2248 8861 53719 52399 2202 7689 4932 2757 1172 1320 775 1379 1305 74 823 587 1851 397 236 74 1828 323 397
is_linear=0
shrinkage=0.0176768


Tree=13
num_leaves=23
num_cat=0
split_feature=23 21 24 17 24 23 19 23 17 20 23 22 19 20 103 103 84 79 54 60 52 28
split_gain=444.038 399.944 492.431 406.086 499.676 431.845 319.965 224.207 242.808 149.418 223.812 137.365 42.1667 37.2607 27.418 16.4456 14.702 12.3822 9.04654 7.48728 7.2946 4.71478
threshold=15.54908743454256 0.20268744904396158 2.1700000762939458 2.5275173187255864 0.51499998569488536 -3.7252308371952196 0.38522200936388812 6.5069233499736194 0.63507071137428295 0.52306925926363379 -0.25749689968584394 4.913757223316181 0.34587879623139278 -0.016302887604685231 5.1684600260681757 10.397325507673395 -1.7899026971067962 1.9353252649307253 0.7377660675816734 -0.0061802789422351111 -0.002716340810058148 0.002837250900043874
decision_type=2 2 2 2 2 2 2 2 2 2 2 2 2 2 2 2 2 2 2 2 2 2
left_child=1 2 3 5 -5 -1 12 8 -4 11 -11 -8 16 21 -9 18 -3 -14 19 -15 -17 -2
right_child=13 6 7 4 -6 -7 9 14 -10 10 -12 -13 17 15 -16 20 -18 -19 -20 -21 -22 -23
leaf_value=0.0016151235201611782 -0.0008842696119099856 0.0087844456800005664 -0.0010731355439371787 -0.0010359792284904985 0.0036084294388286035 -0.00018637299118467077 0.0015565471660837298 0.0053522833805791162 -0.0064136544290084611 0.0065267113582681609 -0.002538971116563172 0.0059737607288098387 -0.0010570063814520838 0.0096678788135495953 -0.0018462062613681365 -0.0072011240869760511 0.0032691989026870289 0.010875638644076769 -0.00084864305598395223 0.0070009168436537027 0.0054567023260252822 -0.011183904245495797
leaf_weight=31363 20 165 3127 8141 14487 659606 19639 645 4944 730 3814 1723 20 1060 146 20 319 902 21 305 21 20
leaf_count=31363 20 165 3127 8141 14487 659606 19639 645 4944 730 3814 1723 20 1060 146 20 319 902 21 305 21 20
internal_value=-6.41482e-11 -1.61311e-05 -8.34903e-05 -3.98491e-05 0.00193748 -0.000104603 0.00176566 -0.00359762 -0.00434454 0.00138743 -0.00108256 0.00191283 0.0087347 0.00824445 0.00402361 0.00864469 0.0051494 0.0106168 0.00892165 0.00907196 -0.000717847 -0.00603409
internal_weight=751238 749771 722459 713597 22628 690969 27312 8862 8071 25906 4544 21362 1406 1467 791 1427 484 922 1386 1365 41 40
internal_count=751238 749771 722459 713597 22628 690969 27312 8862 8071 25906 4544 21362 1406 1467 791 1427 484 922 1386 1365 41 40
is_linear=0
shrinkage=0.015


Tree=14
num_leaves=24
num_cat=0
split_feature=23 21 24 17 24 23 19 23 17 18 18 17 19 18 106 82 115 84 79 70 117 49 65
split_gain=400.744 360.95 444.419 366.493 450.957 389.74 288.768 202.347 219.587 160.338 234.227 168.588 38.0555 33.8012 24.5271 14.161 15.5759 14.0465 11.1749 7.52186 5.56376 4.31159 2.63945
threshold=15.54908743454256 0.20268744904396158 2.1700000762939458 2.5275173187255864 0.51499998569488536 -3.7252308371952196 0.38522200936388812 6.5069233499736194 0.78782388567924511 0.22982848047152829 0.23523321188579002 1.6935076713562014 0.34587879623139278 0.14772432545318928 7.3089568614959726 29.394515649180306 0.14333079983364042 1.5089821507197059 1.9353252649307253 0.8419567504461557 1.3517124872802129 -0.0097559436677097742 -0.0069394235622589938
decision_type=2 2 2 2 2 2 2 2 2 2 2 2 2 2 2 2 2 2 2 2 2 2 2
left_child=1 2 3 5 -5 -1 12 8 -4 11 -11 -8 17 22 -9 19 21 -3 -14 20 -15 -17 -2
right_child=13 6 7 4 -6 -7 9 14 -10 10 -12 -13 18 15 -16 16 -18 -19 -20 -21 -22 -23 -24
leaf_value=0.0019917267666367216 -0.01248811717861547 0.0076215273057929876 -0.0017368343045251131 -0.0012775418407752741 0.0044498179932695864 -0.00022983005825977937 0.0027723202436782451 0.0057838811618173341 -0.0082063895620474222 -0.014004607935407379 0.0011094122852670042 0.010516161550319642 -0.0013034718108358972 0.011642521112959492 -0.0093384138823275273 0.0047076780644532013 -0.0083214281092271886 -0.0023038301325850759 0.013411544909951414 -0.00034334051248791449 0.0045982188942444912 0.014023524765895849 -0.0024847077811136842
leaf_weight=31363 20 422 3554 8141 14487 659606 5501 748 4517 397 18686 1322 20 1254 43 48 29 62 902 21 44 31 20
leaf_count=31363 20 422 3554 8141 14487 659606 5501 748 4517 397 18686 1322 20 1254 43 48 29 62 902 21 44 31 20
internal_value=-1.75104e-12 -1.98924e-05 -0.000102958 -4.91408e-05 0.00238925 -0.000128994 0.00217736 -0.00443649 -0.00535757 0.00171094 0.000794982 0.00427274 0.0107714 0.0101668 0.00496181 0.0106617 0.00388311 0.0063501 0.0130923 0.0112167 0.0114037 0.00836326 -0.00748641
internal_weight=751238 749771 722459 713597 22628 690969 27312 8862 8071 25906 19083 6823 1406 1467 791 1427 108 484 922 1319 1298 79 40
internal_count=751238 749771 722459 713597 22628 690969 27312 8862 8071 25906 19083 6823 1406 1467 791 1427 108 484 922 1319 1298 79 40
is_linear=0
shrinkage=0.0194712


Tree=15
num_leaves=31
num_cat=0
split_feature=85 17 23 18 24 19 22 23 17 23 22 19 17 24 23 17 24 22 22 22 23 17 21 22 18 17 17 21 21 22
split_gain=366.58 341.32 434.117 301.551 384.274 495.983 303.087 267.495 258.919 294.097 263.245 250.898 304.129 195.036 174.783 202.465 165.768 165.487 198.21 177.784 203.807 162.783 141.334 137.166 106.152 103.658 96.1202 86.9028 70.748 67.1219
threshold=-6.0893753398893571 -1.0122565031051634 -3.2542111671387204 0.24032914602138614 0.64499998092651378 0.50234398614947307 5.7036871999840288 1.6061346397672305 -1.4017031788825987 -2.3574961967655104 0.18892734834730976 0.58282273901551795 2.944859623908997 -0.095000002533197389 1.4706935539258128 0.13249077647924426 2.0749999284744267 3.5813598106961195 3.2693278828366403 5.5357521025310321 1.8648416433215884 -1.5867497920989988 0.042278127234290357 5.1100988171886739 0.24428995145139606 -0.82106477022171009 0.24574419111013415 0.17200212740176871 0.049265469623130741 1.0000000180025095e-35
decision_type=2 2 2 2 2 2 2 2 2 2 2 2 2 2 2 2 2 2 2 2 2 2 2 2 2 2 2 2 2 2
left_child=7 2 13 4 5 -3 -6 14 10 -10 -4 12 -5 29 16 25 23 18 26 20 -19 -21 -13 -1 -20 -16 -9 -18 -15 -2
right_child=1 3 8 11 6 -7 -8 17 9 -11 -12 22 -14 28 15 -17 27 19 24 21 -22 -23 -24 -25 -26 -27 -28 -29 -30 -31
leaf_value=0.00046979731215261798 0.00089096453625896752 -0.00073866070399934681 0.00035324819654407319 0.00011633401349336142 -0.00019196209820626116 -0.0033193524696261472 0.0024325341503366334 0.00075296930191121167 -0.0048735700198102427 0.00083383204903721272 -0.00086468745153769162 -0.00019280338131373844 0.0038121172128838783 0.0036525712006166581 0.0006609408333148924 0.00070742987459244467 -0.0038644414676178569 0.008187012637794663 0.0081858752999827561 -0.0065338767072357831 -0.00095964031048449607 0.0025878031160514138 -0.002563100718921013 0.0046311190864630368 0.00068050589015612609 -0.0082347834632936906 0.0032749345175018987 0.0017850025769581919 0.0010615665258451666 -0.0054038373517688761
leaf_weight=60639 428 124668 53285 199610 127596 10844 6180 3550 1231 69077 42923 6324 3028 7520 220 1041 1747 345 1255 273 6033 6551 7214 1080 316 867 4711 461 1738 483
leaf_count=60639 428 124668 53285 199610 127596 10844 6180 3550 1231 69077 42923 6324 3028 7520 220 1041 1747 345 1255 273 6033 6551 7214 1080 316 867 4711 461 1738 483
internal_value=-4.05901e-11 -9.37813e-05 0.000341799 -0.000252311 -0.000510765 -0.000945174 -7.07192e-05 0.000697024 0.000200023 0.000733903 -0.000190131 6.96424e-05 0.00017156 0.00266335 0.000322514 -0.00294066 0.000431138 0.00177101 0.00290781 0.000924402 -0.000464878 0.00222288 -0.00145586 0.000542615 0.0066762 -0.00643436 0.00219117 -0.00268492 0.00316616 -0.00244646
internal_weight=751238 662149 176685 485464 269288 135512 133776 89089 166516 70308 96208 216176 202638 10169 66055 2128 63927 23034 9832 13202 6378 6824 13538 61719 1571 1087 8261 2208 9258 911
internal_count=751238 662149 176685 485464 269288 135512 133776 89089 166516 70308 96208 216176 202638 10169 66055 2128 63927 23034 9832 13202 6378 6824 13538 61719 1571 1087 8261 2208 9258 911
is_linear=0
shrinkage=0.0115741


Tree=16
num_leaves=23
num_cat=0
split_feature=23 16 16 24 24 22 20 24 19 24 62 16 24 20 79 103 8 54 115 60 107 28
split_gain=401.468 380.77 838.389 315.49 384.628 368.135 274.211 149.346 115.014 105.214 119.819 61.2092 41.3436 32.2193 18.7944 15.4719 12.6562 7.76699 6.63714 6.60355 6.13444 4.06591
threshold=15.54908743454256 54.809246063232429 50.825675964355476 -0.90500000119209278 0.60500001907348644 0.92655633201083465 0.33759583726549597 0.75499999523162853 0.51118575352348217 0.61500000953674328 -0.024481580346552349 61.849666595458991 0.79500001668930065 -0.016302887604685231 2.9697341918945317 10.397325507673395 14.760499954223635 0.7377660675816734 0.11560370578163438 -0.0061802789422351111 64.599597930908217 0.002837250900043874
decision_type=2 2 2 2 2 2 2 2 2 2 2 2 2 2 2 2 2 2 2 2 2 2
left_child=1 2 3 5 -5 -1 7 11 14 20 -11 -3 -9 21 -8 17 -10 19 -17 -15 -4 -2
right_child=13 6 9 4 -6 -7 8 12 16 10 -12 -13 -14 15 -16 18 -18 -19 -20 -21 -22 -23
leaf_value=0.00077973874436666356 -0.00045351742481698797 -0.00050292367615388989 -0.0082814119394709011 -0.00034519838097201599 0.00019380523429517237 -0.00032732727254905318 0.0036429563915713033 -0.0051375368342746648 0.0025366921917759598 -0.0070982914717444582 0.0005345341739116464 0.0020165585064718444 -0.00099519036359868931 0.0063470879042712113 0.0074448464795510991 0.0034712614119308438 -0.0017352472287181706 -0.00039613796372169112 -0.004877588734621045 0.0046151956166119931 -0.0032875296419837461 -0.0070672652472396416
leaf_weight=97365 20 1236 1330 351078 239651 48367 158 387 738 482 409 6455 785 1060 1220 21 83 21 20 305 27 20
leaf_count=97365 20 1236 1330 351078 239651 48367 158 387 738 482 409 6455 785 1060 1220 21 83 21 20 305 27 20
internal_value=3.18336e-11 -1.06061e-05 -3.92094e-05 -1.9904e-05 -0.000126532 0.000412315 0.00189949 0.00108607 0.00517797 -0.00636379 -0.00359456 0.00161166 -0.00236301 0.00542069 0.00700893 0.00567805 0.00210482 0.0058638 -0.000601348 0.00596011 -0.00818205 -0.00376039
internal_weight=751238 749771 738709 736461 590729 145732 11062 8863 2199 2248 891 7691 1172 1467 1378 1427 821 1386 41 1365 1357 40
internal_count=751238 749771 738709 736461 590729 145732 11062 8863 2199 2248 891 7691 1172 1467 1378 1427 821 1386 41 1365 1357 40
is_linear=0
shrinkage=0.0103721


Tree=17
num_leaves=30
num_cat=0
split_feature=16 16 23 16 21 24 20 17 24 17 24 21 17 17 18 79 111 98 103 108 108 76 68 34 79 105 87 79 111
split_gain=359.923 796.321 356.769 312.822 465.165 315.651 259.305 201.031 145.354 107.157 98.49 91.9779 82.9204 64.7618 31.67 27.5568 20.7555 18.7833 13.898 12.8965 15.1167 11.5968 11.5711 10.0499 9.80308 8.03671 5.99042 5.66695 5.54762
threshold=54.809246063232429 50.825675964355476 15.54908743454256 33.99922180175782 0.19619237115593671 -0.83499997854232777 0.33759583726549597 0.44033524394035345 0.75499999523162853 -1.4885912537574766 0.69499999284744274 0.11303664668532513 -2.6892039775848384 -3.33385157585144 0.14772432545318928 2.6315082311630253 98.130638122558608 3.1430494335918011 10.397325507673395 30.992570877075199 16.391142845153812 20.288520812988285 -0.086416871524055014 1.0000000180025095e-35 1.909628212451935 0.48223413527011877 -0.44101850411550542 6.5735950469970712 94.447021484375014
decision_type=2 2 2 2 2 2 2 2 2 2 2 2 2 2 2 2 2 2 2 2 2 2 2 2 2 2 2 2 2
left_child=1 2 3 5 -5 -1 8 23 9 12 19 -11 -2 16 -4 21 -10 -17 -16 20 -8 -12 -21 27 -9 -25 -26 -3 -15
right_child=6 7 14 4 -6 -7 10 24 13 11 15 -13 -14 28 18 17 -18 -19 -20 22 -22 -23 -24 25 26 -27 -28 -29 -30
leaf_value=0.00056339686393342184 0.00064730042490636353 -0.0011469122390645966 -0.0062544808551096027 0.0054157712926653015 -0.010348216960052309 -0.00022910369756157115 5.1109448846044203e-05 -0.0013647914385504045 -0.0067912853408393526 0.00031167981580095309 -0.0032146242056717172 0.0075748396618850727 0.0066503997189780832 0.0011738007363346402 0.0083984262453900144 0.01094168608334093 0.0049990544055516905 0.0039589176993925597 -0.00090613299717263464 -0.0017588611275455215 0.0070612662366044297 0.006716685653105378 0.0048229927702684357 -0.0025252429404063153 -0.012532179422378543 0.0091623104497169459 -0.010720913468690529 0.0056508822765283509 0.0093115077377720311
leaf_weight=159428 807 289 39 4638 516 571879 116 23 736 4456 50 479 1950 375 1386 1323 39 103 41 219 223 70 95 20 1000 54 828 34 22
leaf_count=159428 807 289 39 4638 516 571879 116 23 736 4456 50 479 1950 375 1386 1323 39 103 41 219 223 70 95 20 1000 54 828 34 22
internal_value=-1.51393e-11 -4.21469e-05 -1.36335e-05 -2.90846e-05 0.00383754 -5.63352e-05 0.00281986 -0.00940194 0.00161885 0.00240612 0.00766105 0.00101666 0.00489324 -0.00354812 0.00774839 0.00982733 -0.00619797 0.0104373 0.00813109 0.00253229 0.00466251 0.00257864 0.000232464 0.000768091 -0.0115832 0.00600351 -0.0117118 -0.000431355 0.00162476
internal_weight=751238 740175 737927 736461 5154 731307 11063 2248 8864 7692 2199 4935 2757 1172 1466 1546 775 1426 1427 653 339 120 314 397 1851 74 1828 323 397
internal_count=751238 740175 737927 736461 5154 731307 11063 2248 8864 7692 2199 4935 2757 1172 1466 1546 775 1426 1427 653 339 120 314 397 1851 74 1828 323 397
is_linear=0
shrinkage=0.01575


Tree=18
num_leaves=23
num_cat=0
split_feature=23 21 24 17 24 23 23 16 17 17 23 21 20 17 22 20 103 103 54 52 60 28
split_gain=360.479 357.294 441.127 360.572 445.049 385.821 199.922 221.851 187.41 369.893 254.236 145.268 186.256 117.882 45.4501 30.2703 26.3073 14.0208 8.21434 7.03676 6.9725 4.40129
threshold=15.54908743454256 0.20268744904396158 2.1700000762939458 2.5275173187255864 0.51499998569488536 -3.7252308371952196 6.5069233499736194 5.9395267963409433 0.93887352943420421 1.6535702347755434 -0.73271423425828008 0.28140085230030693 0.38358561994567736 1.273104250431061 2.0799518680032336 -0.016302887604685231 5.1684600260681757 10.397325507673395 0.7377660675816734 -0.002716340810058148 -0.0061802789422351111 0.002837250900043874
decision_type=2 2 2 2 2 2 2 2 2 2 2 2 2 2 2 2 2 2 2 2 2 2
left_child=1 2 3 5 -5 -1 7 -4 11 13 -11 12 -3 -10 -13 21 -8 18 20 -19 -17 -2
right_child=15 8 6 4 -6 -7 16 -9 9 10 -12 14 -14 -15 -16 17 -18 19 -20 -21 -22 -23
leaf_value=0.0014851595664492588 -0.00045271297761549547 0.0017537146863107218 -0.005311119126363964 -0.00095266928546624044 0.0033087656593863563 -0.00017033577654596504 0.0049524133053947556 0.00044767140730635419 -0.00094416878150144928 0.0062423681653971047 0.00088301340631620332 -0.0022212995986733331 0.0057129431887099329 -0.0054291954325098018 0.0031109784349139516 0.0085196910011904221 -0.0019028897644934929 -0.007022745056698719 -0.001230105095439487 0.0050640320612324605 0.0060175342142296953 -0.010127616357058286
leaf_weight=31363 20 5210 6227 8141 14487 659606 645 1844 4412 2627 6642 1319 4907 1737 458 1060 146 20 21 21 305 20
leaf_count=31363 20 5210 6227 8141 14487 659606 645 1844 4412 2627 6642 1319 4907 1737 458 1060 146 20 21 21 305 20
internal_value=-2.55318e-11 -1.41306e-05 -7.60284e-05 -3.58704e-05 0.00177561 -9.5193e-05 -0.00330968 -0.00399539 0.00162319 0.000562167 0.00240195 0.00299859 0.00367404 -0.00221112 -0.00084697 0.007222 0.00368709 0.00757272 0.00782135 -0.000831957 0.0079606 -0.00529016
internal_weight=751238 749771 722459 713597 22628 690969 8862 8071 27312 15418 9269 11894 10117 6149 1777 1467 791 1427 1386 41 1365 40
internal_count=751238 749771 722459 713597 22628 690969 8862 8071 27312 15418 9269 11894 10117 6149 1777 1467 791 1427 1386 41 1365 40
is_linear=0
shrinkage=0.0145833


Tree=19
num_leaves=31
num_cat=0
split_feature=85 111 79 21 21 22 16 22 20 16 20 20 21 21 18 18 79 18 22 114 43 81 22 81 110 118 114 67 10 29
split_gain=372.328 309.042 395.442 297.491 333.001 328.515 313.561 175.505 152.556 95.2002 92.666 118.527 77.7888 73.1765 188.103 119.2 71.6321 41.7866 37.9606 25.1257 18.9109 16.4187 14.6205 13.2326 8.26298 7.10798 6.67579 3.82621 5.57386 1.99488
threshold=-9.7789256842343253 99.997699737548842 1.6683681011199953 0.20268744904396158 -0.055417826530637038 -0.012820487918963506 61.849666595458991 -1.6171886449163464 0.52306925926363379 29.114095687866214 0.33002907483100158 0.32296564304089853 0.012409014646326643 0.11970362035524344 0.22329473650119705 0.23722066668403444 3.4996416568756108 0.48752087903141855 7.094703909646797 0.051334725362029383 -0.0023189647363652251 0.97543928027153026 3.411767417304628 1.1631471514701845 96.749954223632827 0.41925109745566141 -0.018991448465691726 -0.022556511948774366 12.872499942779543 -0.018194624555427748
decision_type=2 2 2 2 2 2 2 2 2 2 2 2 2 2 2 2 2 2 2 2 2 2 2 2 2 2 2 2 2 2
left_child=9 3 21 4 5 -2 -6 25 -9 10 11 16 -13 15 -15 -12 -1 19 20 -4 22 24 -11 -19 -3 -5 -23 29 -29 -20
right_child=1 2 17 7 6 -7 -8 8 -10 18 13 12 -14 14 -16 -17 -18 23 27 -21 -22 26 -24 -25 -26 -27 -28 28 -30 -31
leaf_value=0.00072514454927653988 0.0015524542741481139 -0.0053282387207684648 0.0084632804283637474 0.011366676573625736 -0.00038958153030207857 2.6593197908696244e-05 0.0026652846493278115 0.0018895820197999031 -0.0013651724725259034 0.00015535803461169223 -0.003978343813050806 0.00099317586991969119 0.010574547547992811 0.0080617603595348336 0.00014549860220442812 0.00068192514009255084 0.0027126273477223769 -0.0062570207838255629 0.0088799454558354165 0.0050648198319742325 -0.0086286880715182555 -0.0017030996331883659 0.0057320078259896793 0.006256926190722119 -0.00040829683068975331 0.0067746285375181615 -0.0096262718687236213 0.0031138401828769945 0.01150866572908631 0.012174301359075062
leaf_weight=7390 46000 290 1917 411 516512 121888 8077 20893 4073 136 1854 294 631 920 3119 4340 10239 70 56 704 26 28 612 28 112 99 249 36 39 195
leaf_count=7390 46000 290 1917 411 516512 121888 8077 20893 4073 136 1854 294 631 920 3119 4340 10239 70 56 704 26 28 612 28 112 99 249 36 39 195
internal_value=-1.601e-11 -6.97154e-05 0.00455898 -9.16225e-05 -0.00015169 0.000444667 -0.000342546 0.0015411 0.0013586 0.00168265 0.00151291 0.00216115 0.00752923 0.000337568 0.00194866 -0.000712996 0.00187948 0.00718166 0.00612452 0.00755045 0.00426973 -0.00594337 0.00471807 -0.00268161 -0.00395751 0.0104753 -0.00882537 0.0105282 0.00747915 0.0114393
internal_weight=751238 721351 3398 717953 692477 167888 524589 25476 24966 29887 28787 18554 925 10233 4039 6194 17629 2719 1100 2621 774 679 748 98 402 510 277 326 75 251
internal_count=751238 721351 3398 717953 692477 167888 524589 25476 24966 29887 28787 18554 925 10233 4039 6194 17629 2719 1100 2621 774 679 748 98 402 510 277 326 75 251
is_linear=0
shrinkage=0.0153846


Tree=20
num_leaves=31
num_cat=0
split_feature=16 16 23 17 23 21 21 17 17 17 17 21 100 17 16 18 111 8 103 104 72 34 111 23 28 114 109 81 49 116
split_gain=367.258 808.922 350.733 344.476 448.508 319.87 246.632 206.263 145.118 80.7991 91.7539 75.1843 44.2485 40.7291 41.1304 30.7445 16.2109 15.1515 12.9373 12.5707 10.6757 10.1192 8.35641 7.03743 9.49244 6.49611 8.29893 4.98861 4.43495 4.23528
threshold=54.809246063232429 50.825675964355476 15.54908743454256 -1.0122565031051634 -3.2542111671387204 -0.060571480542522933 0.12849873562404426 0.44033524394035345 -3.33385157585144 -1.4885912537574766 -2.6892039775848384 0.037273852675254696 -2.0618413215071527 -3.5365189313888545 68.702026367187514 0.14772432545318928 93.742568969726577 0.5080000013113023 10.397325507673395 0.40274093919597814 23.208327016863738 1.0000000180025095e-35 46.532049179077156 -2.0930798147956229 -0.0015769756840130391 0.037049305136348028 26.730621337890629 0.86581057310104381 -0.033043310424120016 -0.82132884834187847
decision_type=2 2 2 2 2 2 2 2 2 2 2 2 2 2 2 2 2 2 2 2 2 2 2 2 2 2 2 2 2 2
left_child=1 2 3 4 -1 -5 8 21 13 10 -10 -11 25 16 -15 -4 -2 19 -17 -14 -19 27 -23 29 -25 26 -8 -3 -27 -9
right_child=6 7 15 5 -6 -7 12 23 9 11 -12 -13 17 14 -16 18 -18 20 -20 -21 -22 22 -24 24 -26 28 -28 -29 -30 -31
leaf_value=0.0032722060986497435 -0.0073471587851120235 -0.0012248416159358808 -0.0053919755012603564 0.00048718182379327692 0.00032396595630200813 -0.00036320173795953935 0.0034255211656774309 -0.0066966680395934303 0.0002607572026692808 0.00035587020688085836 0.0058842521901919034 0.0039384991029210604 0.0032293859800120116 0.0021517661242231104 -0.0042935700769577423 0.007334429536570871 0.0029602428225593432 0.0095623110379169443 -0.00058195881323439632 -0.0059465634952770696 0.0040718221697542403 -0.00013634598543567041 0.0093233728160460796 -0.0060177644461761283 -0.010019639902614834 0.0063210230398677205 0.0090931971576601392 0.0030089938087507571 0.0099898217477547343 -0.011312314891186774
leaf_weight=10553 367 255 39 105561 175237 445110 79 40 785 4038 1950 1569 80 385 379 1386 32 94 41 45 250 31 43 135 747 69 135 68 806 929
leaf_count=10553 367 255 39 105561 175237 445110 79 40 785 4038 1950 1569 80 385 379 1386 32 94 41 45 250 31 43 135 747 69 135 68 806 929
internal_value=4.59491e-11 -3.75434e-05 -1.22011e-05 -2.57107e-05 0.000491428 -0.000200187 0.00251186 -0.00835637 0.00167228 0.00231305 0.0042702 0.00135839 0.00763396 -0.00292391 -0.00104559 0.00677447 -0.0065205 0.00406731 0.00710698 -7.39558e-05 0.00557213 0.000727847 0.00536052 -0.0103047 -0.00940711 0.00917001 0.00700092 -0.000333508 0.00970051 -0.0111218
internal_weight=751238 740175 737927 736461 185790 550671 11063 2248 9505 8342 2735 5607 1558 1163 764 1466 399 469 1427 125 344 397 74 1851 882 1089 214 323 875 969
internal_count=751238 740175 737927 736461 185790 550671 11063 2248 9505 8342 2735 5607 1558 1163 764 1466 399 469 1427 125 344 397 74 1851 882 1089 214 323 875 969
is_linear=0
shrinkage=0.0138889


Tree=21
num_leaves=31
num_cat=0
split_feature=85 17 23 22 17 24 24 17 17 16 23 22 24 23 24 23 23 21 16 16 20 20 24 20 24 21 22 21 23 24
split_gain=489.017 412.86 465.627 329.9 422.295 332.313 580.349 348.158 326.675 434.385 305.105 226.077 205.135 131.133 182.913 168.318 175.88 151.995 134.884 216.705 131.885 117.856 90.9891 89.5879 81.6674 73.2352 67.8825 67.1564 39.6625 39.4408
threshold=-9.7789256842343253 -1.0122565031051634 -3.2542111671387204 6.2800928262589624 3.1985104084014897 -0.35500000417232508 -0.33500000834465021 -0.74274355173110951 -1.4017031788825987 19.981712341308597 -2.3574961967655104 9.2962601650718941 -0.095000002533197389 0.25785710762342551 -0.90500000119209278 -0.16078388528214546 -0.17016887327007388 -0.055417826530637038 6.3761785030364999 -3.3157218694686885 0.30167520520641494 0.20088177668956189 1.9300000071525576 0.25809612677288968 1.8350000381469729 0.049265469623130741 1.0000000180025095e-35 -0.31494950654609122 3.0300891500158178 2.4700000286102299
decision_type=2 2 2 2 2 2 2 2 2 2 2 2 2 2 2 2 2 2 2 2 2 2 2 2 2 2 2 2 2 2
left_child=13 2 12 5 11 7 -7 -3 9 -4 -10 -5 26 14 17 16 -16 21 19 27 -17 -1 24 -21 -20 -14 -2 -15 -24 -6
right_child=1 3 8 4 29 6 -8 -9 10 -11 -12 -13 25 18 15 20 -18 -19 22 23 -22 -23 28 -25 -26 -27 -28 -29 -30 -31
leaf_value=-0.00022650765199537783 0.00065671525116560285 -0.0010772385596770123 -0.00043715453660763472 0.0031155579886185934 -0.0026736277336162702 -0.0033890497841737497 -0.00039523026099560045 0.00019260307871061061 -0.0036923168005292247 0.0012548530988313743 0.00064550686733307267 0.00037447761896132258 0.0028208747721511431 -0.0021074394251645347 0.00024673161567614535 -0.00014255815968587372 0.0076674926001856101 0.00047519459176680208 0.0025758253126146155 -0.002089484898442644 -0.0040511218482618466 0.0057523375970198777 -0.0045637234886947726 0.00045848352813295304 0.0061303872476884021 0.00082403853302184533 -0.0041142556544816857 0.0024408896524567045 0.0018002056713652661 -0.0061943326701879922
leaf_weight=339 441 19327 87653 5325 767 5191 354223 145424 1304 13888 73123 4295 7723 270 7620 1384 261 1728 4766 1598 1345 1125 187 3432 572 1787 506 5128 132 374
leaf_count=339 441 19327 87653 5325 767 5191 354223 145424 1304 13888 73123 4295 7723 270 7620 1384 261 1728 4766 1598 1345 1125 187 3432 572 1787 506 5128 132 374
internal_value=-8.36072e-05 -0.00012977 0.000230452 -0.000255309 0.00128532 -0.000286938 -0.00043847 4.36375e-05 0.000122159 -0.000205735 0.000569506 0.00189176 0.00205278 0.00103057 0.000394941 -0.000166329 0.00049249 0.00226057 0.00157598 0.000976447 -0.00206891 0.00436789 0.00268113 -0.00035099 0.00295672 0.00244565 -0.0018925 0.00221339 -0.00193037 -0.00382765
internal_weight=751238 721351 186425 534926 10761 524165 359414 164751 175968 101541 74427 9620 10457 29887 13802 10610 7881 3192 16085 10428 2729 1464 5657 5030 5338 9510 947 5398 319 1141
internal_count=751238 721351 186425 534926 10761 524165 359414 164751 175968 101541 74427 9620 10457 29887 13802 10610 7881 3192 16085 10428 2729 1464 5657 5030 5338 9510 947 5398 319 1141
is_linear=0
shrinkage=0.00888889


Tree=22
num_leaves=31
num_cat=0
split_feature=85 17 18 20 16 19 21 21 16 17 24 19 17 24 16 19 16 20 20 24 24 24 21 18 22 17 68 106 67 92
split_gain=374.845 330.591 336.972 524.574 857.217 492.969 284.502 342.598 771.629 318.412 298.966 259.671 269.896 238.594 136.423 109.116 97.0196 89.4737 114.996 91.8577 94.6369 87.3999 74.5934 59.0851 37.9953 21.612 24.7299 11.1832 3.80345 5.45043
threshold=-9.7789256842343253 -1.0122565031051634 0.24032914602138614 0.30167520520641494 29.114095687866214 0.59907224813416848 0.021794079920464657 0.18424624298806802 -3.6158913373947139 -1.4017031788825987 0.60500001907348644 0.58282273901551795 2.944859623908997 1.5649999976158144 -3.7479665279388423 0.38894717412064056 29.114095687866214 0.33002907483100158 0.32296564304089853 -0.48000000417232508 -0.39499999582767481 1.8949999809265139 0.012409014646326643 0.22576140322206631 7.094703909646797 1.1418549418449404 -0.11977127504842955 -5.5347881317138663 -0.022556511948774366 -0.66279712696411963
decision_type=2 2 2 2 2 2 2 2 2 2 2 2 2 2 2 2 2 2 2 2 2 2 2 2 2 2 2 2 2 2
left_child=16 6 3 5 -5 -3 9 8 -8 10 -2 12 -4 -11 -13 -9 17 18 21 23 -21 -1 -20 -19 25 27 -27 -18 -26 -30
right_child=1 2 11 4 -6 -7 7 15 -10 13 -12 14 -14 -15 -16 -17 24 19 22 20 -22 -23 -24 -25 28 26 -28 -29 29 -31
leaf_value=0.0015402135216453091 -0.0003411424704408961 -0.00042749008699531654 0.00018786775510488125 -0.002614889553492334 0.0026813790738147631 0.0035017183066567308 -0.004770911265920187 0.0066910046176134608 4.7669973504466744e-05 0.0018093795221135981 0.0016613962173926871 0.0011418861030327875 0.0041714599155753046 -0.002991143265251663 -0.0023515954148075552 0.0017986710870522204 -0.0078190280043560541 0.0092593562661432757 0.00096079045426218754 -0.0061910241511298411 -0.00013305969046905125 0.0067144867642392435 0.009854633903868374 0.0017302093361652145 0.010862209634103406 8.3703958403526085e-06 0.0064323000227409256 0.0034071748686073989 0.0096523754152252617 0.0010175495775360049
leaf_weight=16905 59776 231561 222036 47560 7528 6996 8865 1353 34863 54273 21579 2928 3677 2295 12640 3421 46 238 294 602 6163 724 631 3230 251 168 528 32 53 22
leaf_count=16905 59776 231561 222036 47560 7528 6996 8865 1353 34863 54273 21579 2928 3677 2295 12640 3421 46 238 294 602 6163 724 631 3230 251 168 528 32 53 22
internal_value=-2.60619e-05 -9.23693e-05 -0.000276673 -0.000608458 -0.00189113 -0.000312261 0.00043647 -0.000524226 -0.000929203 0.000774308 0.000190021 0.000127118 0.000252763 0.00161462 -0.00169455 0.00318521 0.00157433 0.00141191 0.0020157 0.000317137 -0.000672142 0.00175271 0.00702783 0.00224692 0.0058249 0.00406591 0.0048817 -0.00321341 0.0100012 0.00711949
internal_weight=751238 721351 534926 293645 55088 238557 186425 48502 43728 137923 81355 241281 225713 56568 15568 4774 29887 28787 18554 10233 6765 17629 925 3468 1100 774 696 78 326 75
internal_count=751238 721351 534926 293645 55088 238557 186425 48502 43728 137923 81355 241281 225713 56568 15568 4774 29887 28787 18554 10233 6765 17629 925 3468 1100 774 696 78 326 75
is_linear=0
shrinkage=0.0145833


Tree=23
num_leaves=28
num_cat=0
split_feature=85 111 79 21 21 19 18 19 20 110 47 116 19 19 19 116 19 20 108 95 81 78 97 61 40 75 116
split_gain=450.806 346.048 438.453 323.435 352.414 315.065 236.762 229.442 121.146 94.153 85.4083 89.2896 80.7825 71.2293 53.8483 51.3482 47.3931 36.5362 26.4162 17.22 16.9227 11.8705 11.274 5.75637 4.35123 3.58586 2.11407
threshold=-9.7789256842343253 99.997699737548842 1.6683681011199953 0.20268744904396158 -0.055417826530637038 0.38522200936388812 -0.0084817511262859063 0.51908991467545029 0.52306925926363379 1.0000000180025095e-35 -0.049692888195677 1.5086510507055615 0.40940394524777585 0.40999151686631136 0.39506927620943616 -0.25132710085104543 0.84547830825292458 0.38358561994567736 99.85065078735353 -16.183380258024489 1.0668648481369021 -0.52513995675887226 -2.8332918804294396 -0.033150670998060398 5.1897233730690191 77.662361283473288 0.042764472911307534
decision_type=2 2 2 2 2 2 2 2 2 2 2 2 2 2 2 2 2 2 2 2 2 2 2 2 2 2 2
left_child=9 3 20 4 6 17 -2 -6 -7 22 11 15 14 -14 -12 -11 18 -5 -4 -13 21 -3 23 -1 -25 -22 -18
right_child=1 2 16 5 7 8 -8 -9 -10 10 12 19 13 -15 -16 -17 26 -19 -20 -21 25 -23 -24 24 -26 -27 -28
leaf_value=-0.0013031150112301111 0.0020570420349376706 -0.00022993397710603783 0.0034308721498623172 0.0026459661616861602 -0.00018965012281133334 0.00079270803081244129 0.00011146868986413394 -0.00065961130006778274 -0.00069178574508699806 0.00014368253023689428 0.0010157058014326488 0.0013294229755102767 -0.0034809499591205721 0.0006123242110341135 0.0043833381531054412 0.0023573278860965045 -0.0065108873701421547 0.0053813420134431718 0.0051476891677645588 -0.0006827102744241826 -0.0064866765647114541 -0.0031768431575990904 0.0013659477065841204 -0.0061461707842110375 -0.0034103121462497206 -0.0041365106071304114 -0.0028900404458167034
leaf_weight=25 3973 107 1892 459 449383 20018 163915 75206 4109 744 596 357 267 20977 582 5135 20 890 787 1010 93 408 20 123 51 71 20
leaf_count=25 3973 107 1892 459 449383 20018 163915 75206 4109 744 596 357 267 20977 582 5135 20 890 787 1010 93 408 20 123 51 71 20
internal_value=-7.333e-05 -0.000112597 0.00239456 -0.000124463 -0.000156523 0.000746969 0.00015751 -0.000257025 0.000539888 0.000874409 0.000912384 0.00165565 0.000672187 0.000560879 0.00267951 0.00207719 0.00380817 0.00445062 0.00393522 -0.00015723 -0.00326614 -0.00256457 -0.00427015 -0.0048366 -0.00534428 -0.00546923 -0.00470046
internal_weight=751238 721351 3398 717953 692477 25476 167888 524589 24127 29887 29668 7246 22422 21244 1178 5879 2719 1349 2679 1367 679 515 219 199 174 164 40
internal_count=751238 721351 3398 717953 692477 25476 167888 524589 24127 29887 29668 7246 22422 21244 1178 5879 2719 1349 2679 1367 679 515 219 199 174 164 40
is_linear=0
shrinkage=0.007875


Tree=24
num_leaves=31
num_cat=0
split_feature=85 23 24 111 79 24 24 20 20 24 23 16 23 24 23 23 21 20 16 16 20 20 24 24 21 18 23 20 17 103
split_gain=373.836 347.388 506.957 315.512 388.136 292.505 358.907 282.045 445.849 312.419 257.374 151.426 121.64 168.702 158.99 159.53 146.683 123.329 121.734 202.161 115.039 90.0108 87.0909 79.2474 65.9388 43.5472 38.7363 28.6399 24.697 19.6413
threshold=-9.7789256842343253 -3.7252308371952196 1.9950000047683718 99.997699737548842 1.6683681011199953 -0.90500000119209278 0.61500000953674328 0.22273067734222665 0.14776087342704705 -0.095000002533197389 -3.124691282659029 5.8149333000183114 0.25785710762342551 -0.90500000119209278 -0.16078388528214546 -0.17016887327007388 -0.055417826530637038 0.30167520520641494 6.3761785030364999 -3.3157218694686885 0.20088177668956189 0.25809612677288968 1.9300000071525576 1.8350000381469729 -0.31494950654609122 0.48752087903141855 3.0300891500158178 0.21530429064900039 2.5275173187255864 5.9888957024531644
decision_type=2 2 2 2 2 2 2 2 2 2 2 2 2 2 2 2 2 2 2 2 2 2 2 2 2 2 2 2 2 2
left_child=12 2 7 5 -5 10 -7 8 -2 -9 -3 28 13 16 15 -15 20 -16 19 24 -1 -21 23 -20 -14 -6 -24 -18 -4 -13
right_child=1 3 11 4 25 6 -8 9 -10 -11 -12 29 18 14 17 -17 27 -19 22 21 -22 -23 26 -25 -26 -27 -28 -29 -30 -31
leaf_value=-0.0003181477254368006 0.0017907243480873403 -0.0026614755074815489 -0.0033300571459337833 -0.003365716445482858 0.0040733375472188915 -0.0003746036750069975 5.6232582932693896e-05 -0.0010915105451499007 -0.0012015694433095588 0.0021039437602478599 0.0002690035979436162 -0.0010832328542272685 -0.0020256123786834236 0.00018673352816207458 -0.00017723065685843593 0.0067396376136578846 -0.0034064706648408265 -0.003681721726785013 0.0022400863842245364 -0.0019680748429371699 0.005158782418626242 0.00039996573426232277 -0.004258151166452305 0.0054866707006871653 0.0021531812858589217 -0.0016404317485871562 0.0015731602607129309 0.0006449997986223584 -0.0054168068120307635 0.0013401433329221207
leaf_weight=339 6100 2067 771 625 2509 326835 219579 2386 7592 16117 134703 899 270 7620 1384 261 128 1345 4766 1598 1125 3432 187 572 5128 94 132 1600 770 304
leaf_count=339 6100 2067 771 625 2509 326835 219579 2386 7592 16117 134703 899 270 7620 1384 261 128 1345 4766 1598 1125 3432 187 572 5128 94 132 1600 770 304
internal_value=-2.57755e-05 -6.31986e-05 0.000738464 -0.000104004 0.00246661 -0.00011615 -0.00020147 0.0010283 0.000131544 0.00169188 0.000224715 -0.00266211 0.000877465 0.000309847 -0.000189939 0.00040375 0.0019711 -0.00190443 0.00136452 0.00083643 0.00389056 -0.000352346 0.00233799 0.00258798 0.00194416 0.003867 -0.00184519 0.000344891 -0.00437275 -0.000470842
internal_weight=751238 721351 34939 686412 3228 683184 546414 32195 13692 18503 136770 2744 29887 13802 10610 7881 3192 2729 16085 10428 1464 5030 5657 5338 5398 2603 319 1728 1541 1203
internal_count=751238 721351 34939 686412 3228 683184 546414 32195 13692 18503 136770 2744 29887 13802 10610 7881 3192 2729 16085 10428 1464 5030 5657 5338 5398 2603 319 1728 1541 1203
is_linear=0
shrinkage=0.00824176


Tree=25
num_leaves=24
num_cat=0
split_feature=23 21 24 17 24 22 19 23 17 18 18 17 19 18 103 114 82 115 95 70 84 113 5
split_gain=355.866 348.176 432.004 329.724 411.962 383.129 282.356 200.817 226.905 148.253 217.376 147.269 37.843 30.1412 24.8954 14.6754 12.943 14.6269 8.87775 6.75418 6.3502 5.45995 5.30234
threshold=15.54908743454256 0.20268744904396158 2.1700000762939458 2.5275173187255864 0.51499998569488536 9.7228173657418662 0.38522200936388812 6.5069233499736194 0.63507071137428295 0.22982848047152829 0.23523321188579002 1.6935076713562014 0.34587879623139278 0.26338948113608857 5.1684600260681757 0.048114340781561828 29.394515649180306 0.14333079983364042 -2.3563634435037679 0.8419567504461557 0.5170440911224029 5.1420801399549321 7.5000000000000009
decision_type=2 2 2 2 2 2 2 2 2 2 2 2 2 2 2 2 2 2 2 2 2 2 2
left_child=1 2 3 5 -5 -1 12 8 -4 11 -11 -8 15 20 -9 -3 19 22 -14 21 -2 -15 -18
right_child=13 6 7 4 -6 -7 9 14 -10 10 -12 -13 18 16 -16 -17 17 -19 -20 -21 -22 -23 -24
leaf_value=-0.00018120003219311947 0.00038245925322175035 0.0039556053810937903 -0.0014498943546859058 -0.0015124537519040629 0.0048638138515590453 -0.0093427629291031582 0.0031213259057155333 0.0076572802501417873 -0.0092558365562550957 -0.015747350245943901 0.0012123676189922071 0.011551771166459709 0.016909939549811532 0.012802224133872124 -0.0027140604772883129 0.012014218650613865 -0.00088673765015602121 -0.0096277293831726601 0.012400447127053755 -0.00044194914579391494 -0.016229493875026708 0.0046729282808303848 0.012626190607588168
leaf_weight=688613 29 290 3127 8141 14487 2356 5501 645 4944 397 18686 1322 535 1245 146 194 20 29 387 21 20 44 59
leaf_count=688613 29 290 3127 8141 14487 2356 5501 645 4944 397 18686 1322 535 1245 146 194 20 29 387 21 20 44 59
internal_value=-6.91569e-05 -9.09917e-05 -0.000186019 -0.000124214 0.00256979 -0.000212438 0.00242268 -0.00516272 -0.00623153 0.00188545 0.00085954 0.00475478 0.0123212 0.0110904 0.00574297 0.00718571 0.0116947 0.00414821 0.0150171 0.0123169 -0.00639793 0.0125247 0.0092052
internal_weight=751238 749771 722459 713597 22628 690969 27312 8862 8071 25906 19083 6823 1406 1467 791 484 1418 108 922 1310 49 1289 79
internal_count=751238 749771 722459 713597 22628 690969 27312 8862 8071 25906 19083 6823 1406 1467 791 484 1418 108 922 1310 49 1289 79
is_linear=0
shrinkage=0.02268


Tree=26
num_leaves=31
num_cat=0
split_feature=85 17 18 20 16 21 20 16 111 17 24 17 17 20 16 18 16 20 47 16 116 17 24 21 100 17 17 70 45 65
split_gain=347.881 342.087 289.983 499.509 585.182 267.243 256.081 345.536 243.728 243.644 229.006 217.784 275.873 213.965 212.469 175.809 161.262 132.158 129.627 113.288 64.2609 61.7701 85.5566 126.824 56.187 24.9149 18.7011 11.7163 11.2535 6.89481
threshold=-6.0893753398893571 -1.0122565031051634 0.24032914602138614 0.30167520520641494 29.114095687866214 0.020941959048430232 0.39777352350015788 -3.6158913373947139 99.997699737548842 -1.4017031788825987 0.60500001907348644 -0.58861589431762684 -0.57653397321701039 0.30834133138502945 29.114095687866214 0.2516983030900653 24.567191123962406 0.41348732801904881 -0.04307071150821673 -8.1005921363830549 1.3517124872802129 0.78782388567924511 0.69499999284744274 0.079220086378089083 -0.26692981639981989 0.32913795113563543 2.8186500072479252 -0.10781440817890596 -0.00042544182170914721 -0.0046705996620213961
decision_type=2 2 2 2 2 2 2 2 2 2 2 2 2 2 2 2 2 2 2 2 2 2 2 2 2 2 2 2 2 2
left_child=14 5 3 8 -5 9 7 -7 -3 10 -2 15 -13 -11 16 -4 18 -8 20 -20 -1 25 23 -23 29 27 -24 -16 -26 -18
right_child=1 2 11 4 -6 6 17 -9 -10 13 -12 12 -14 -15 21 -17 24 -19 19 -21 -22 22 26 -25 28 -27 -28 -29 -30 -31
leaf_value=0.0035862922403956179 -0.00039864205749508139 -0.00060557138175394189 -0.0072274233533877619 -0.0038094040607711422 0.0029382472164417952 -0.0051803683162734912 0.0095847096938414846 -0.00042597852251311197 0.0078396781982652802 0.0026539309331651945 0.0021220082974666155 0.008817080874111486 0.00028334063135199681 -0.00091048139037255989 -0.006085594514132436 -0.001019991337326324 -0.017429672353797492 0.0016917598594992076 0.0027009270866642536 0.00037526409522754643 -0.0004585947233239411 -0.009664465807087335 0.01228223941637387 0.0068823193199262596 0.010795758136031841 -0.014294760420193509 -0.0039629451189065927 0.013507090616889492 -0.0072688468867071719 -0.011707886919037507
leaf_weight=10773 56499 221123 2050 40380 6322 8232 1099 30924 1463 45349 21037 1626 176165 8506 25 36335 125 5039 10383 62714 1977 234 1084 1246 55 79 31 27 20 316
leaf_count=10773 56499 221123 2050 40380 6322 8232 1099 30924 1463 45349 21037 1626 176165 8506 25 36335 125 5039 10383 62714 1977 234 1084 1246 55 79 31 27 20 316
internal_value=-5.97401e-05 -0.000222524 -0.000505312 -0.00095691 -0.00289598 0.000554473 -0.000811573 -0.00142552 -0.000550063 0.00102539 0.000285259 5.72389e-05 0.000361387 0.00209096 0.00115014 -0.00135151 0.000971209 0.00310498 0.0010403 0.000705611 0.0029591 0.00681887 0.00751637 0.00426614 -0.0105233 -0.00699797 0.0118306 0.00408753 0.00597853 -0.0133297
internal_weight=751238 662149 485464 269288 46702 176685 45294 39156 222586 131391 77536 216176 177791 53855 89089 38385 86363 6138 85847 73097 12750 2726 2595 1480 516 131 1115 52 75 441
internal_count=751238 662149 485464 269288 46702 176685 45294 39156 222586 131391 77536 216176 177791 53855 89089 38385 86363 6138 85847 73097 12750 2726 2595 1480 516 131 1115 52 75 441
is_linear=0
shrinkage=0.0206229


Tree=27
num_leaves=31
num_cat=0
split_feature=85 17 22 17 18 20 19 21 21 16 22 17 22 24 21 16 19 19 19 22 24 17 17 21 21 97 67 47 84 62
split_gain=362.026 333.824 320.68 377.609 364.543 515.909 295.082 271.041 338.509 660.904 317.51 239.896 224.439 102.209 100.977 91.1616 99.9378 108.255 84.7662 47.3087 33.998 33.9548 26.0275 25.3424 19.9846 18.1964 13.0999 9.12223 7.7324 7.20219
threshold=-9.3036908456708751 -1.0122565031051634 6.2800928262589624 3.1985104084014897 0.23722066668403444 0.30167520520641494 0.58282273901551795 0.021794079920464657 0.18424624298806802 -3.6158913373947139 9.7228173657418662 -1.4017031788825987 9.2962601650718941 2.1700000762939458 0.28140085230030693 29.114095687866214 0.40940394524777585 0.40950295540694454 0.34587879623139278 7.094703909646797 2.4700000286102299 3.5498111248016362 1.1418549418449404 -0.11725231155530873 0.090615783202713518 -5.1940401132405105 -0.1593277587918682 -0.037042824121529185 -1.3841562754369063 -0.190757935306656
decision_type=2 2 2 2 2 2 2 2 2 2 2 2 2 2 2 2 2 2 2 2 2 2 2 2 2 2 2 2 2 2
left_child=13 7 4 12 5 -3 -6 10 9 -9 11 -2 -4 15 -10 16 18 -18 -1 22 -5 24 -17 -12 25 -15 29 -28 -26 -23
right_child=1 2 3 20 6 -7 -8 8 14 -11 23 -13 -14 21 -16 19 17 -19 -20 -21 -22 26 -24 -25 28 -27 27 -29 -30 -31
leaf_value=-0.0051789683783434598 0.00024083709542260692 -0.0003604669074744164 0.0044612375687695183 -0.0034689752039150979 0.00016914879000163642 -0.0017804303836957893 -0.0016687834768302772 -0.003859179636365439 0.0035666343966440544 -1.7682948774885687e-05 -0.010343879718405287 0.0013037513320580095 0.00057249719121241129 -0.0093762759803509236 -0.0012147885718358446 -0.0034568344527140778 -0.0053910572806611223 0.0010990155957716313 0.0045453179904828035 0.0084375462448736151 -0.008130891703392271 -0.005258915987279681 0.0037867082053332762 0.0034026600081812249 0.0041223346872104102 0.0027428909845184537 -0.0039099589978485441 -0.0072554729062509031 -0.0019988781799528204 0.0026728070428911248
leaf_weight=151 80640 231622 5181 724 225860 48320 14527 8764 3911 34722 441 56370 4198 49 838 86 407 30136 1934 364 369 27 785 22 151 32 278 235 41 53
leaf_count=151 80640 231622 5181 724 225860 48320 14527 8764 3911 34722 441 56370 4198 49 838 86 407 30136 1934 364 369 27 785 22 151 32 278 235 41 53
internal_value=-3.53766e-05 -9.5789e-05 -0.00025538 0.00191035 -0.000298966 -0.000605563 5.80794e-05 0.000360362 -0.000445832 -0.000791883 0.00064323 0.000678152 0.00272065 0.00121102 0.00272291 0.00131946 0.00119328 0.00101253 0.00384107 0.00465307 -0.00504285 -0.00302943 0.0030715 -0.0096907 0.000618511 -0.00458846 -0.00470883 -0.0054425 0.0028152 -4.14948e-06
internal_weight=751238 716509 530801 10472 520329 279942 240387 185708 48235 43486 137473 137010 9379 34729 4749 33863 32628 30543 2085 1235 1093 866 871 463 273 81 593 513 192 80
internal_count=751238 716509 530801 10472 520329 279942 240387 185708 48235 43486 137473 137010 9379 34729 4749 33863 32628 30543 2085 1235 1093 866 871 463 273 81 593 513 192 80
is_linear=0
shrinkage=0.0125


Tree=28
num_leaves=31
num_cat=0
split_feature=21 24 23 23 17 17 19 23 17 17 18 18 17 18 43 20 19 20 103 21 97 114 103 41 79 56 54 107 69 49
split_gain=410.144 436.348 408.505 388.839 376.613 373.314 299.295 206.007 236.716 247.518 156.319 212.492 155.968 108.211 100.706 67.1929 40.2687 34.0765 23.5476 19.011 18.2472 14.923 14.6669 13.949 13.1908 12.9802 8.81906 8.26251 6.75165 4.76742
threshold=0.20268744904396158 2.1700000762939458 15.54908743454256 -3.7252308371952196 2.5275173187255864 -0.16475897282361981 0.38522200936388812 6.5069233499736194 0.63507071137428295 -0.21263876557350156 0.22982848047152829 0.23523321188579002 1.6935076713562014 0.55186075571581428 -0.030915352385868265 0.39386956817627633 0.34587879623139278 -0.016302887604685231 5.1684600260681757 0.23144314373746436 -7.5400562058464731 0.046313350062630466 10.397325507673395 83.748951808599955 1.9353252649307253 -0.016982079014262682 0.29240509288900024 69.16397857666017 -0.26074581106699141 -0.0031236890926747067
decision_type=2 2 2 2 2 2 2 2 2 2 2 2 2 2 2 2 2 2 2 2 2 2 2 2 2 2 2 2 2 2
left_child=1 2 3 5 -5 -1 16 8 9 -3 12 28 14 -13 -8 -10 21 29 20 -14 -9 25 -19 -20 -18 -2 -23 -26 -12 -4
right_child=6 7 17 4 -6 -7 10 18 15 -11 11 13 19 -15 -16 -17 24 22 23 -21 -22 26 -24 -25 27 -27 -28 -29 -30 -31
leaf_value=0.0026250165935190173 0.0030975515361158302 -0.0043400457632694822 -0.0084504588521443873 -0.00017259317211578673 0.0014036887241892712 0.0001358001717977386 0.0065660771146985363 -0.0018591635184880546 -0.0036444552917179488 0.002196234469040742 -0.0018821164392507997 0.00043119497431520206 0.0064316974592403811 0.0034176372494188756 0.0012159746975596618 -0.0063862820492358212 -0.0013124680211051153 0.006533045881895118 -0.0031208364826793818 -0.00026928098894160298 0.0045878063030392732 0.0072767726805528649 -0.00046970089425736475 0.0054062211772075283 0.0083360706553696744 -0.0041583292665589707 0.00084251435768550344 0.0011770357827206594 -0.0081958786386033891 -0.00048355793652053063
leaf_weight=13582 241 1383 20 659606 20817 19592 517 65 2949 1744 24 16903 1263 1786 4984 1995 20 1383 113 59 580 171 41 33 880 38 34 22 373 20
leaf_count=13582 241 1383 20 659606 20817 19592 517 65 2949 1744 24 16903 1263 1786 4984 1995 20 1383 113 59 580 171 41 33 880 38 34 22 373 20
internal_value=-3.15705e-05 -8.39404e-05 -5.2404e-05 -6.48956e-05 -0.000124368 0.00115493 0.00135638 -0.00262857 -0.00317931 -0.000694612 0.00107502 0.000539147 0.002574 0.000716592 0.00171879 -0.00475084 0.00654115 0.00603638 0.00299094 0.00613264 0.00393811 0.00384601 0.00633142 -0.00119349 0.00795595 0.0021093 0.00620963 0.00816146 -0.00781419 -0.00446701
internal_weight=751238 723923 715061 713597 680423 33174 27315 8862 8071 3127 25909 19086 6823 18689 5501 4944 1406 1464 791 1322 645 484 1424 146 922 279 205 902 397 40
internal_count=751238 723923 715061 713597 680423 33174 27315 8862 8071 3127 25909 19086 6823 18689 5501 4944 1406 1464 791 1322 645 484 1424 146 922 279 205 902 397 40
is_linear=0
shrinkage=0.0115385


Tree=29
num_leaves=26
num_cat=0
split_feature=23 23 17 23 85 119 79 16 16 16 22 16 23 18 16 16 18 43 115 86 5 28 78 89 1
split_gain=334.217 328.266 332.185 493.908 303.19 294.245 363.284 284.092 246.947 219.36 245.499 218.298 111.554 178.321 152.515 93.5098 28.5619 12.3353 11.8596 8.71772 6.81971 4.27043 4.25946 6.19859 3.58488
threshold=15.54908743454256 -3.7252308371952196 -0.16475897282361981 -6.0956199431459073 -9.3036908456708751 -1.0000000180025095e-35 1.6683681011199953 -1.4008119106292722 54.809246063232429 -8.1005921363830549 1.1878639563859299 18.424209594726566 0.25785710762342551 0.37660377272940654 6.3761785030364999 12.030103206634523 0.14772432545318928 1.0000000180025095e-35 0.14090575703665423 0.1330900874305487 5.5000000000000009 0.0023559443070920471 32.959835352913565 -1.8872556214522347 -2815.8459596065654
decision_type=2 2 2 2 2 2 2 2 2 2 2 2 2 2 2 2 2 2 2 2 2 2 2 2 2
left_child=1 2 9 11 12 8 -7 -5 -6 10 -1 -4 13 -3 -14 -11 21 22 20 -20 -19 -2 24 -24 -18
right_child=16 4 3 7 5 6 -8 -9 -10 15 -12 -13 14 -15 -16 -17 17 18 19 -21 -22 -23 23 -25 -26
leaf_value=-0.005622701962929931 -0.0011089678578586741 -0.0022908143725796836 -0.0071840861773518842 0.011444384849500184 -0.00056550971152076533 -0.012916630657746358 0.015485163836465241 0.0010093163777617935 0.0049718502168766641 0.0086413723866801823 0.015313965521270357 0.017284794417052246 0.0023745450480753957 0.0052817314029859593 0.0089037039937964451 0.019389885481256162 0.011836553733562778 0.00342734254594006 0.008353289509989207 -0.016069664803791947 0.018422188161650758 -0.023386870053681463 -0.0017364825060748757 0.020024373344230378 0.019462100939920273
leaf_weight=2533 20 9061 8143 4582 668028 655 2605 8964 9493 9185 876 447 11684 6012 6455 1048 77 47 41 29 141 20 29 32 1031
leaf_count=2533 20 9061 8143 4582 668028 655 2605 8964 9493 9185 876 447 11684 6012 6455 1048 77 47 41 29 141 20 29 32 1031
internal_value=-9.21107e-05 -0.000123917 0.00306267 0.000483916 -0.000283596 -0.000438761 0.00977867 0.00453903 -0.000487924 0.00724706 -0.000242672 -0.00591079 0.00289697 0.000729563 0.00469803 0.00974217 0.0161639 0.0169603 0.0102135 -0.00176479 0.0146735 -0.0122479 0.0184493 0.00967905 0.0189322
internal_weight=751238 749771 35778 22136 713993 680781 3260 13546 677521 13642 3409 8590 33212 15073 18139 10233 1467 1427 258 70 188 40 1169 61 1108
internal_count=751238 749771 35778 22136 713993 680781 3260 13546 677521 13642 3409 8590 33212 15073 18139 10233 1467 1427 258 70 188 40 1169 61 1108
is_linear=0
shrinkage=0.0340909


Tree=30
num_leaves=31
num_cat=0
split_feature=21 24 21 17 24 22 24 24 24 19 23 17 17 20 23 20 20 22 20 19 92 93 37 97 81 84 37 79 107 76
split_gain=332.526 377.6 308.189 307.923 510.813 300.765 540.267 494.23 283.476 257.067 179.883 209.8 233.766 131.154 210.682 208.959 135.614 122.304 61.4409 32.595 27.3428 22.6332 21.8092 17.6682 16.2508 13.8484 17.4938 11.5232 7.60451 6.60849
threshold=0.20268744904396158 2.1700000762939458 -0.055417826530637038 -0.95705097913742054 1.6749999523162844 0.21354339466859076 0.56499999761581432 -0.93000000715255726 -0.37499999999999994 0.38522200936388812 6.5069233499736194 0.63507071137428295 -0.21263876557350156 0.52306925926363379 -0.25749689968584394 0.6390040233368125 0.50364475818496601 4.913757223316181 0.39386956817627633 0.34587879623139278 0.28276175199921344 7.8327959227452242 0.0074510249755464063 -7.5400562058464731 0.53803318738937389 -1.7899026971067962 0.036367572537744496 1.9353252649307253 69.16397857666017 26.902120590209964
decision_type=2 2 2 2 2 2 2 2 2 2 2 2 2 2 2 2 2 2 2 2 2 2 2 2 2 2 2 2 2 2
left_child=1 2 5 4 -4 7 -7 -1 -5 19 11 12 -3 16 20 -16 17 -11 -13 25 -15 23 -18 -12 -23 29 -27 -21 -29 -2
right_child=9 10 3 8 -6 6 -8 -9 -10 13 21 18 -14 14 15 -17 22 -19 -20 27 -22 24 -24 -25 -26 26 -28 28 -30 -31
leaf_value=0.0042556166802000025 0.011923125644091542 -0.0067859319314383555 0.00066632182279913578 0.0002442016026635227 -0.0065092850620725833 -0.00081131432079894767 0.0019836016464380799 0.00055712911755148521 -0.00086942032684407208 0.0014385324063009288 -0.003753312428792315 -0.0055109089213027061 0.0035706358311780621 0.010399906511445938 -0.0077331775465226127 0.0010809177036719131 0.0061555045123980016 0.0066795204495100347 -0.0097856013080330467 -0.0022249557371352572 0.0025715187468536354 0.011702436758867785 0.012252955306540917 0.0069519259726554521 -0.0057421760715219167 0.0007555560500478915 0.010449200312284489 0.012485213212445508 0.0012874320905191124 0.0015896891327104408
leaf_weight=18377 139 1383 131980 111920 3607 80031 35262 42038 291846 18799 60 2949 1744 499 1814 2003 370 1720 1995 20 231 23 473 602 106 226 93 880 22 26
leaf_count=18377 139 1383 131980 111920 3607 80031 35262 42038 291846 18799 60 2949 1744 499 1814 2003 370 1720 1995 20 231 23 473 602 106 226 93 880 22 26
internal_value=-4.82881e-05 -0.00012517 -7.7339e-05 -0.000300255 0.00047543 0.000606925 4.35019e-05 0.00168213 -0.000560735 0.00198929 -0.00398458 -0.00482365 -0.00100984 0.00156415 -0.001337 -0.00310791 0.00218167 0.00187786 -0.00723583 0.00982361 0.0079227 0.00457692 0.00957673 0.00598166 -0.0026319 0.0058702 0.0035816 0.0118989 0.0122121 0.0102948
internal_weight=751238 723923 715061 539353 135587 175708 115293 60415 403766 27315 8862 8071 3127 25909 4547 3817 21362 20519 4944 1406 730 791 843 662 129 484 319 922 902 165
internal_count=751238 723923 715061 539353 135587 175708 115293 60415 403766 27315 8862 8071 3127 25909 4547 3817 21362 20519 4944 1406 730 791 843 662 129 484 319 922 902 165
is_linear=0
shrinkage=0.0188125


Tree=31
num_leaves=24
num_cat=0
split_feature=23 21 24 23 23 24 23 16 20 23 20 22 22 20 8 103 86 115 106 20 46 25 117
split_gain=375.056 344.473 395.618 330.073 364.069 360.93 182.083 199.785 166.708 193.497 197.127 118.464 127.248 31.2463 26.8365 23.1843 13.7325 15.7347 7.59282 6.53018 5.84047 4.34741 4.07044
threshold=15.54908743454256 0.20268744904396158 2.1700000762939458 -3.7252308371952196 -4.445188229880352 2.1450001001358037 6.5069233499736194 12.998568534851076 0.52306925926363379 -0.25749689968584394 0.6390040233368125 -1.5629682794396762 -0.45479277102586385 -0.016302887604685231 1.0000000180025095e-35 5.1684600260681757 0.15537078678459607 0.11871730115586089 4.4008636474609384 0.37075561233604254 1098.7327597840961 -0.0031236890926747067 1.3517124872802129
decision_type=2 2 2 2 2 2 2 2 2 2 2 2 2 2 2 2 2 2 2 2 2 2 2
left_child=1 2 3 4 -1 -5 7 -4 11 14 -11 18 -13 21 -10 -8 20 19 -3 -18 22 -2 -15
right_child=13 8 6 5 -6 -7 15 -9 9 10 -12 12 -14 16 -16 -17 17 -19 -20 -21 -22 -23 -24
leaf_value=0.00015263871596353539 -0.0087379252538084991 0.0081960019613556215 -0.0039936094250612002 -0.00013657681682898579 0.0028687944182910932 0.0078468134797690121 0.0040173132242562705 0.0021743997276063402 0.0018421693338513262 -0.0049677083655598718 0.00072130359395222786 -0.00061755677556683288 0.0020303353108156569 0.0071950650081074475 0.0068325157910107811 -0.0014988743511908879 1.8864652762810389e-05 -0.0045412300952843258 0.00033058695495128635 0.0077915646397230922 0.00056314840912818909 -0.00049606626620516184 0.0034475149943473493
leaf_weight=20984 20 466 7144 679537 12190 886 645 927 263 1814 2002 3335 18944 1242 468 146 24 35 20 57 22 20 47
leaf_count=20984 20 466 7144 679537 12190 886 645 927 263 1814 2002 3335 18944 1242 468 146 24 35 20 57 22 20 47
internal_value=-3.4969e-05 -4.73234e-05 -9.94181e-05 -6.68208e-05 0.00115071 -0.000126181 -0.00272425 -0.00328518 0.00133069 -0.000854468 -0.00198306 0.00176715 0.00163397 0.00627924 0.00503708 0.00299915 0.00658467 0.00246232 0.00787232 0.00548854 0.00694942 -0.004617 0.00705842
internal_weight=751238 749771 722459 713597 33174 680423 8862 8071 27312 4547 3816 22765 22279 1467 731 791 1427 116 486 81 1311 40 1289
internal_count=751238 749771 722459 713597 33174 680423 8862 8071 27312 4547 3816 22765 22279 1467 731 791 1427 116 486 81 1311 40 1289
is_linear=0
shrinkage=0.0125


Tree=32
num_leaves=24
num_cat=0
split_feature=23 21 24 24 24 20 19 23 21 20 23 20 19 20 96 79 103 79 60 100 48 25 113
split_gain=312.739 306.397 342.374 297.266 446.286 441.598 240.221 162.84 173.81 117.369 186.819 121.556 29.6871 26.4751 21.2079 13.1647 12.1349 10.3808 7.22847 6.46733 6.2297 3.94118 3.69779
threshold=15.54908743454256 0.20268744904396158 2.1700000762939458 0.61500000953674328 -0.90500000119209278 0.3615345168725817 0.38522200936388812 6.5069233499736194 0.17200212740176871 0.52306925926363379 -0.25749689968584394 0.50364475818496601 0.34587879623139278 -0.016302887604685231 4.1307190399117673 2.5953049659729008 10.397325507673395 1.9353252649307253 -0.0061802789422351111 4.1312864511119303 0.19224262879023291 -0.0031236890926747067 3.1546571589520576
decision_type=2 2 2 2 2 2 2 2 2 2 2 2 2 2 2 2 2 2 2 2 2 2 2
left_child=1 2 3 4 -1 -5 12 8 -4 11 -11 -8 15 21 -9 -3 18 -14 22 -18 -20 -2 -15
right_child=13 6 7 5 -6 -7 9 14 -10 10 -12 -13 17 16 -16 -17 19 -19 20 -21 -22 -23 -24
leaf_value=0.00067032708309757263 -0.015232867279743179 -0.0033449470042661565 -0.0073545658605149115 0.00093365276110073375 -0.00088316472760100514 -0.0023274786372837592 0.0021888490137318027 0.0068527011431205815 0.0012178392255675218 0.0091801508394974175 -0.0036123490174449989 0.011165083800540921 -0.0024132680727076208 0.012791780387803053 -0.0041527932658875057 0.0084199259312712597 -0.010251341813393027 0.014461562417918433 0.0092888642274044416 0.0081566973379834217 -0.0037783426170949152 -0.00068862690213578872 0.0074907137422682013
leaf_weight=139147 20 58 6493 203213 346205 25032 20519 682 1578 730 3814 843 20 999 109 426 21 902 290 20 21 20 76
leaf_count=139147 20 58 6493 203213 346205 25032 20519 682 1578 730 3814 843 20 999 109 426 21 902 290 20 21 20 76
internal_value=-5.77625e-05 -7.86714e-05 -0.000169731 -0.000113528 -0.00043779 0.000575999 0.00233004 -0.00469539 -0.00567853 0.00182387 -0.00155722 0.00254307 0.0116564 0.0106286 0.00533614 0.00701009 0.0111497 0.0140955 0.0115171 -0.00127181 0.00840651 -0.00796075 0.012417
internal_weight=751238 749771 722459 713597 485352 228245 27312 8862 8071 25906 4544 21362 1406 1467 791 484 1427 922 1386 41 311 40 1075
internal_count=751238 749771 722459 713597 485352 228245 27312 8862 8071 25906 4544 21362 1406 1467 791 484 1427 922 1386 41 311 40 1075
is_linear=0
shrinkage=0.0231674


Tree=33
num_leaves=31
num_cat=0
split_feature=85 17 22 18 21 21 18 20 16 19 19 17 16 17 18 19 16 21 78 22 22 21 18 88 19 19 92 22 106 69
split_gain=310.962 287.55 254.6 335.285 356.577 340.866 249.954 428.096 527.301 379.154 205.291 273.981 197.018 171.93 199.947 172.437 148.156 130.684 129.368 119.508 96.8837 105.453 161.132 54.3783 39.6924 30.8247 9.3051 8.63076 7.87519 5.43556
threshold=-6.0893753398893571 -1.0122565031051634 0.13717908986666319 0.21451420529397189 0.18424624298806802 0.0089518184711535314 0.24032914602138614 0.30167520520641494 29.114095687866214 0.59907224813416848 0.58282273901551795 2.944859623908997 29.114095687866214 -3.0859993696212764 0.48286107822338115 0.49107456318264392 24.567191123962406 0.042278127234290357 0.030952937735550416 -0.50417908569010084 7.8785815874050558 0.092756733543300079 0.10690358859725285 0.0096152114495114977 0.51472904464597058 0.50066943628343819 -0.43989534381407397 0.53535958778416426 -2.7112107276916499 -0.029891838395131185
decision_type=2 2 2 2 2 2 2 2 2 2 2 2 2 2 2 2 2 2 2 2 2 2 2 2 2 2 2 2 2 2
left_child=12 2 13 5 -5 -4 7 9 -9 -3 11 -8 16 15 -15 -2 18 -12 25 -20 21 22 -14 26 -23 -1 -18 -25 29 -22
right_child=1 6 3 4 -6 -7 10 8 -10 -11 17 -13 20 14 -16 -17 23 -19 19 -21 28 24 -24 27 -26 -27 -28 -29 -30 -31
leaf_value=-0.001040798263188861 -0.0057340020386337101 -0.00091856070324378191 0.0057936538064804685 -0.0020586540672513395 0.0094640198646549056 -0.00054943001691532499 0.00018545879531767906 -0.0050114963768395577 0.0040473578439871299 0.0063603679992668052 -0.00033150141093521343 0.0090251752981141357 0.014258035584352909 0.002651955793730054 -0.0021911500814615218 0.0084978440661331398 0.020881513255304317 -0.0060751923312250171 -0.0023997110291339883 0.0020414422719735501 0.021318530791215089 0.014424288804874827 -0.014160008500427387 -0.0054327784727017086 0.0037060854290590682 -0.0051785381408592191 -0.0027427451651327421 -0.019022755141710108 0.0078136972818231478 0.01507487474282739
leaf_weight=4437 4274 216322 12689 58202 2378 16682 199610 40380 6322 6264 6324 3028 280 73543 8045 872 37 7214 5543 73528 467 902 431 44 436 2339 23 412 51 159
leaf_count=4437 4274 216322 12689 58202 2378 16682 199610 40380 6322 6264 6324 3028 280 73543 8045 872 37 7214 5543 73528 467 902 431 44 436 2339 23 412 51 159
internal_value=-6.90843e-05 -0.000286748 0.00072075 -0.000366447 -0.00160634 0.00219094 -0.000653428 -0.0012464 -0.00378521 -0.000713718 8.52306e-05 0.00031755 0.00154869 0.00184827 0.0021744 -0.00332239 0.001305 -0.00339214 0.00139866 0.00173011 0.00926889 0.00610827 -0.00296865 -0.0142769 0.0109317 -0.0024691 0.0118255 -0.0177114 0.0188348 0.0197327
internal_weight=751238 662149 176685 89951 60580 29371 485464 269288 46702 222586 216176 202638 89089 86734 81588 5146 86363 13538 85847 79071 2726 2049 711 516 1338 6776 60 456 677 626
internal_count=751238 662149 176685 89951 60580 29371 485464 269288 46702 222586 216176 202638 89089 86734 81588 5146 86363 13538 85847 79071 2726 2049 711 516 1338 6776 60 456 677 626
is_linear=0
shrinkage=0.0291667


Tree=34
num_leaves=31
num_cat=0
split_feature=23 24 47 111 106 20 20 21 24 24 20 22 21 24 23 24 24 21 24 20 22 23 20 20 79 19 19 105 84 95
split_gain=285.824 453.284 305.433 263.442 359.737 262.443 408.733 375.152 287.443 230.287 302.095 297.444 175.583 164.931 150.002 164.551 141.507 111.024 108.736 100.842 93.4559 80.7503 67.8268 57.6041 35.701 30.2595 29.2418 14.8477 14.7027 10.9816
