tree
version=v4
num_class=1
num_tree_per_iteration=1
label_index=0
max_feature_idx=114
objective=regression
feature_names=fund_debt_equity fund_div_yield fund_ev_ebitda fund_ev_revenue fund_gross_margin fund_net_margin fund_op_margin fund_pb fund_pe fund_rev_growth fund_roe macro_brent_chg20 macro_dxy_chg20 macro_fedfunds macro_india10y macro_us10y macro_us10y_chg20 macro_vix macro_vix_chg5 macro_yield_curve pattern_bear_count pattern_bull_count pattern_doji pattern_engulfing pattern_hammer pattern_net smc_base smc_bos_dn smc_bos_up smc_choch_dn smc_choch_up smc_demand_zone smc_dist_bear_ob smc_dist_bull_ob smc_doji smc_ema_20 smc_ema_200 smc_ema_200_dist smc_ema_20_dist smc_ema_50 smc_ema_50_dist smc_ema_9 smc_ema_9_dist smc_ema_stack smc_engulfing_bear smc_engulfing_bull smc_equal_high smc_equal_low smc_fvg_bear smc_fvg_bear_mit smc_fvg_bear_pct smc_fvg_bull smc_fvg_bull_mit smc_fvg_bull_pct smc_hammer smc_liq_sweep_high smc_liq_sweep_low smc_order_block_bear smc_order_block_bull smc_pinbar smc_shooting_star smc_supply_zone smc_swing_high smc_swing_low smc_trendline_break_dn smc_trendline_break_up smc_vp_in_value smc_vp_poc smc_vp_poc_dist smc_vp_vah smc_vp_val tech_adx_14 tech_adx_strong tech_atr_14 tech_atr_pct tech_bb_bandwidth tech_bb_pctb tech_cci_20 tech_cmf_20 tech_consec_updown tech_di_diff tech_donchian_20 tech_ema20_50_ratio tech_golden_death tech_ha_streak tech_macd_hist tech_macd_line tech_mean_rev_z tech_mfi_14 tech_mom_12_1m tech_mom_12m tech_mom_1m tech_mom_3m tech_mom_6m tech_obv_slope tech_price_vs_sma200 tech_price_vs_sma50 tech_price_vs_vwap20 tech_range_52w tech_resistance_dist_20d tech_ret_20d tech_ret_5d tech_rsi_14 tech_rsi_2 tech_rsi_7 tech_stoch_d tech_stoch_k tech_supertrend_10_3 tech_support_dist_20d tech_vol_20d tech_vol_regime tech_vol_sma_ratio tech_volume_spike tech_vwap20_slope_5d tech_williams_r
feature_infos=[0:3.1340699195861816] [0:857] [0:1093.8409423828125] [0:240.27799987792969] [0:100] [0:43.383998870849609] [0:60.646999359130859] [0:51.834121704101562] [0:79.368423461914062] [-82.199996948242188:272.70001220703125] [0:76.338996887207031] [-71.725059509277344:281.14035034179688] [-4.8091545104980469:7.5745401382446289] [-0.043026440042421066:1.0967896511011443] [0:0.84532822270522345] [-0.063295312829442674:0.69083841110677735] [-0.45392621566718333:0.40521309794036842] [-2.9890418503201488:22.709053259573619] [-23.808181889547697:21.316829528430244] [-1.690000057220459:2.5999999046325684] [-0.5319615766992527:0.9992645143996941] [-1.0628315929730392:1.9791219631804298] [-0.67349822346411647:0.9954099847910769] [-1.4669140946255508:1.4798140142109801] [-0.62305241613723616:0.99968968103926759] [-1.9950166420077586:2.3784988211752616] none [0:1] [0:1] [0:1] [0:1] none [-0.36999739338545556:0.50829922834220265] [-0.98284209838307524:0.97075639260327273] [-0.67349822346411647:0.9954099847910769] [-252.1691788764706:3231.5449367996007] [0:2310.7716825660318] [-0.8349719193629479:0.23931757466626927] [-0.73831681388566051:0.23411247854777853] [-61.910352952286303:2841.8544975347322] [-0.89720852535283646:0.24028411416939077] [-398.81930938623464:3660.0428799695474] [-0.53840709505305473:0.21829998034735865] [-1.1485631110359575:1.254985794337955] [-0.5319615766992527:0.9992645143996941] [-0.50459681130708023:1] [-0.65359925223746362:1] [-0.63994523352097399:1] [-0.74180742016094225:0.99688656833578548] [-0.92230931873329103:0.96406606982913723] [0:0.35594946146011353] [-0.74781033084743698:0.99498528054535651] [-0.91613445985692965:0.96902823767919932] [0:0.16626125574111938] [-0.54442065246792593:1] [-0.70216444562303149:0.9990727926256886] [-0.7225610136440066:0.99987844476948951] [-0.69352895368488121:0.99635182319032223] [-0.73514182286132668:0.99455564611728886] [-0.78672268367964737:0.97172456064889412] [-0.5346158527356667:1] none [-0.62832043909730528:0.98852471780053663] [-0.60430788286790538:0.98829371306724567] [-0.86011518411535048:0.99440906804643492] [-0.86233682614105767:0.99329476593342281] [-0.88787356934420281:0.95500554027983064] [-2290.1379336503451:6250.2702862520564] [-0.70097983057247282:0.37941860502685038] [-1477.5663353844357:5207.5417671969117] [-1273.1970174699318:3879.6948223819491] [6.3845200538635254:74.0830078125] [0:1] [-36.860302833901869:262.7111617622752] [0.97351664304733276:31.776361465454102] [-0.27246955278549673:0.45937248967605593] [-0.53495562076568604:1.5145539045333862] [-621.80280555133709:605.88624799642844] [-0.55762957565893934:0.46316884494252136] [-10.356521260431272:8.8604114194892336] [-41.355482187426446:35.982825345413438] [-0.66966981162878181:0.77135796489534947] [-8.5974984243462345:4.7009594503051195] [-0.060040024858495022:0.16258163412323556] [-15.88353608803971:15.635729733045009] [-525.95452880859375:518.525634765625] [-431.79585591821842:464.14298055878311] [-4.546768630053081:4.3966442422194394] [-50.098707691982611:39.927979366462985] [-125.60209352335028:87.499084835949319] [-123.19436361849307:86.096135106637831] [-35.216788573266825:51.31557473489049] [-41.102165673975236:53.035093813448526] [-54.475861946753461:83.287293946730415] [-108138648.36699642:110277158.22831069] [-44.033486668741283:36.848258229850813] [-34.733054999834842:29.694725578690829] [-27.149604740590092:21.493226668359952] [-43.058672241098378:43.393305418590558] [-33.29118305809412:16.611633244096993] [-73.887420654296875:77.211166381835938] [-53.813125610351562:66.1416015625] [7.610039234161377:92.276603698730469] [0.0054137185215950012:99.999488830566406] [2.9372127056121826:98.431373596191406] [1.4834244251251221:98.542396545410156] [0.55116403102874756:99.544540405273438] [-1.9238176763219954:1.9048142995822039] [-24.519601589347737:69.116187345911513] [-0.56832654410366956:0.8669946791251828] [-0.95407781408258563:0.8494401344447603] [-5.0452978943812345:11.901823849053637] [-5.0452978943812345:11.901823849053637] [-16.754347173669828:11.12444301626447] [-99.448837280273438:-0.4554564356803894]
tree_sizes=2758 3046 2618 2702 2694 2753 2688 2677 2666 2632 2795 2783 2519 2668 2614 2682 2871 2594 2527 2985 2818 2774 2514 2449 2127 2772 2485 2207 3003 2194 2526 2541 2988 2998 2397 3000 2221 2977 2200 2839 2542 2784 2537 2992 2996 2914 2705 2703 2533 2776 2612 2603 3005 2881 2946 2731 2800 2974 2612 2363 2474 2970 2528 2795 2989 2946 2548 2387 2594 2970 3023 2819 2649 2797 2178 2805 2965 2817 3035 2214 2670 2953 2803 2744 2903 2529 2195 2962 2653 2979 2804 2952 2605 2961 2942 2143 2510 2221 2904 2976

Tree=0
num_leaves=29
num_cat=0
split_feature=18 19 18 97 19 19 17 14 18 16 14 16 14 13 18 14 18 42 13 18 93 110 56 56 45 45 59 106
split_gain=65.2035 117.206 67.5947 65.4539 64.7899 83.5923 68.5655 64.4282 61.7112 49.2685 46.2946 34.5953 33.334 32.9176 39.0043 23.147 25.2484 21.2804 18.3048 15.2111 20.2604 12.7168 10.4018 10.2367 9.21421 6.85061 5.48571 4.43023
threshold=-3.8345077345444607 1.9950000047683718 -5.9862516548763729 -3.9793352328418812 -1.0249999761581419 0.60500001907348644 0.24375714717580269 0.40897657677882343 1.2851746423241479 -0.03759952271316843 0.39579021098860517 -0.087198938069668358 0.64120944991532547 -0.020844341186860012 -3.9727738354185225 0.35085628686645137 0.52696723231373344 0.0062117601988465427 0.058097543174850615 -6.777170951611331 0.5799685832478364 0.0062649799763330747 -0.0061129719968917341 -0.0041977931671972812 -0.0063848756526297982 -0.012237961161332895 -0.060508986750692849 4.9398634433746347
decision_type=2 2 2 2 2 2 2 2 2 2 2 2 2 2 2 2 2 2 2 2 2 2 2 2 2 2 2 2
left_child=1 2 10 12 6 9 11 -7 -8 -6 21 -5 15 26 -15 -2 -17 -12 22 20 -20 -1 24 -21 -3 -14 -4 -27
right_child=3 18 13 4 5 7 8 -9 -10 -11 17 -13 25 14 -16 16 -18 -19 19 23 -22 -23 -24 -25 -26 27 -28 -29
leaf_value=0.0061645834687267531 -0.0072697603659913164 -0.0014364268588111023 -0.0067836492403929687 0.015956117521311184 0.0099064022824225471 0.012319863756485694 0.0088058108553057159 0.0096749968724553683 0.01311938079990441 0.0082111967699787028 0.0053454161638518318 0.01184117806648473 0.011114078565728146 0.015134525755925556 0.023889962784862995 0.011299684633604168 0.016320014895968276 0.011164138294372019 -0.0020168580535554008 -0.0085242406901160968 0.018410317027687102 0.019811560891980599 0.021508018269431075 0.0072163511768395493 0.012860959188199227 -0.0067442348248039118 0.0072163511768395493 0.0038135732976510893
leaf_weight=33 21 42 28 1140 9604 4681 6366 21348 1766 27929 574 3367 22 1824 240 700 1035 482 67 124 29 207 20 20 34 37 20 30
leaf_count=33 21 42 28 1140 9604 4681 6366 21348 1766 27929 574 3367 22 1824 240 700 1035 482 67 124 29 207 20 20 34 37 20 30
internal_value=0.00974528 0.0123772 0.0135115 0.00961902 0.00952702 0.00926155 0.0108621 0.0101506 0.00974257 0.00864497 0.0098409 0.012882 0.0134188 0.0157639 0.0161526 0.0140366 0.0142945 0.00800131 0.000872601 -0.00214129 0.00415385 0.0179351 0.00840732 -0.00633805 0.00495977 0.00122899 -0.000950316 -0.00201686
internal_weight=81790 3744 3408 78046 76201 63562 12639 26029 8132 37533 1296 4507 1845 2112 2064 1756 1735 1056 336 240 96 240 96 144 76 89 48 67
internal_count=81790 3744 3408 78046 76201 63562 12639 26029 8132 37533 1296 4507 1845 2112 2064 1756 1735 1056 336 240 96 240 96 144 76 89 48 67
is_linear=0
shrinkage=0.408333


Tree=1
num_leaves=31
num_cat=0
split_feature=15 16 18 13 13 18 18 15 12 12 13 18 13 18 12 96 18 13 15 16 15 18 12 15 75 13 13 12 75 56
split_gain=68.6467 76.2992 66.9523 65.5569 78.7902 74.1134 105.895 64.4648 62.0724 57.9496 59.2466 59.1205 57.4827 49.6836 49.0224 44.7521 50.6997 43.1516 40.6959 39.217 36.8607 30.6484 28.4511 28.3421 25.2421 23.9843 20.6416 12.8353 11.1562 9.38758
threshold=0.28739787496503061 0.21090761417344778 0.62492348588151014 0.35339028954994817 0.48286107822338115 1.983535588422517 -0.46813042748201211 0.40666187827560424 1.7953964471817019 -0.78542655706405629 0.0067757324260361027 0.5567460198737858 0.53363482843849963 -0.16078388528214546 -1.9805768132209776 -4.9737660626378366 0.9499283562935964 -0.0070064090780493351 0.34955518385472356 -0.0034926953614153248 0.51758480040464738 9.4514848234225131 -0.62534934282302845 0.38625812060138937 -0.016410344268914644 -0.014643154942645861 0.058097543174850615 2.510766983032227 -0.00032347624054583629 -0.0061129719968917341
decision_type=2 2 2 2 2 2 2 2 2 2 2 2 2 2 2 2 2 2 2 2 2 2 2 2 2 2 2 2 2 2
left_child=2 3 9 5 7 6 -2 -5 -7 11 17 12 -1 26 21 27 -17 -11 22 -12 -6 25 -15 -20 -13 -4 29 -16 -28 -3
right_child=1 13 14 4 20 8 -8 -9 -10 10 19 24 -14 18 15 16 -18 -19 23 -21 -22 -23 -24 -25 -26 -27 28 -29 -30 -31
leaf_value=0.0009609288860441764 -0.00016666271770303067 -0.0027834084865294003 -0.0071569004096090792 0.0011931645651366287 -0.0014438661553609425 0.0023116970270772681 -0.0024377025871993988 -0.00096236051952776824 -0.0023634836712004381 0.0016581151383607427 -1.5416009657585224e-05 0.0057119223138978404 -0.0029242387278757701 -0.0023795070126652715 0.0055443998859052296 0.0027959472857282033 0.00070549313872001027 -0.0010201846375100007 -0.0046426942569572326 0.0019390070503118983 -0.0079217843659636043 -0.011608231502274672 0.0087329066837102988 0.00051639248970253716 -0.0062285419276295814 -0.00047756188110465044 0.0073935818010976827 -0.0036631350219249719 0.0038989350511618552 0.0068415912985801703
leaf_weight=12816 5328 76 96 7104 2928 1536 8063 3120 624 1008 6672 31 624 48 440 2230 9689 13920 192 2112 144 48 144 1247 257 672 261 25 315 20
leaf_count=12816 5328 76 96 7104 2928 1536 8063 3120 624 1008 6672 31 624 48 440 2230 9689 13920 192 2112 144 48 144 1247 257 672 261 25 315 20
internal_value=8.26024e-12 -0.00046173 0.000284022 -0.000636528 7.91961e-06 -0.00118753 -0.0015341 0.000535375 0.000961089 1.41456e-05 -0.00036004 0.000660466 0.000780546 0.00172777 0.00104949 0.00124503 0.00109661 -0.000839335 0.000549274 0.0004545 -0.00174752 -0.00191811 0.0059548 -0.000171964 -0.00494328 -0.00131248 0.00458807 0.00504937 0.00548245 -0.0007782
internal_weight=81790 31150 50640 28847 13296 15551 13391 10224 2160 37440 23712 13728 13440 2303 13200 12384 11919 14928 1631 8784 3072 816 192 1439 288 768 672 465 576 96
internal_count=81790 31150 50640 28847 13296 15551 13391 10224 2160 37440 23712 13728 13440 2303 13200 12384 11919 14928 1631 8784 3072 816 192 1439 288 768 672 465 576 96
is_linear=0
shrinkage=0.0125


Tree=2
num_leaves=27
num_cat=0
split_feature=11 15 19 16 15 15 16 12 19 11 11 12 16 15 102 97 15 56 12 101 19 102 89 106 101 88
split_gain=72.7696 65.9232 81.5668 82.2844 60.9809 59.9683 53.1483 47.331 75.4957 64.2447 44.9006 43.0799 73.4077 35.9496 35.8191 35.5231 33.6919 18.9608 14.6796 17.0141 13.7817 6.798 6.57114 6.04587 4.82052 2.90202
threshold=58.580030441284187 0.28739787496503061 -1.0249999761581419 0.2025480638112562 0.077975838272173095 0.51758480040464738 -0.10630964354577645 1.5365285873413088 1.9750000238418581 -5.2606325149536124 10.598539829254152 -0.91876938939094532 0.0089022513380970485 0.44429485230241111 57.601078033447273 1.5817050800337549 0.068703163326819597 -0.025970461689285095 2.8454874753952031 -5.7661781311035147 0.82499998807907116 65.71292877197267 2.7475235622895364 92.029769897460952 6.0258874893188485 -1.8706752258006352
decision_type=2 2 2 2 2 2 2 2 2 2 2 2 2 2 2 2 2 2 2 2 2 2 2 2 2 2
left_child=1 4 10 6 11 -5 -4 8 -6 -9 15 12 -1 -12 17 -3 -13 22 19 -19 21 24 25 -23 -16 -2
right_child=14 2 3 5 7 -7 -8 9 -10 -11 13 16 -14 -15 20 -17 -18 18 -20 -21 -22 23 -24 -25 -26 -27
leaf_value=0.0013165409594837502 0.0080795637958309911 0.0022792622391512528 0.0012130338323243896 0.0029926790534802448 0.00040904091265634086 -0.0028092056309022033 -0.0014593641207757877 0.0069953517258436971 0.008972339827011077 0.0014407743053553204 -0.003353234895253568 -0.00069654743870290435 -0.0052349910686937881 0.0065513699200442626 0.00016814811866029583 -0.0013425358755596497 -0.0039812810145838963 -0.0013225977832707052 -0.0064082930446450245 0.0061051145927607277 -0.0087037129772277889 0.00052598721967046932 0.0047023901160682295 -0.0080417501778084783 0.0046202077649837173 0.013801129630248472
leaf_weight=4656 27 3811 1872 1871 28224 528 21215 576 240 2928 720 12000 432 96 121 749 768 83 27 505 39 47 33 32 105 85
leaf_count=4656 27 3811 1872 1871 28224 528 21215 576 240 2928 720 12000 432 96 121 749 768 83 27 505 39 47 33 32 105 85
internal_value=6.30747e-11 -5.30465e-05 -0.000605219 -0.000964199 0.00028898 0.00171573 -0.00124267 0.0006865 0.000481244 0.00235386 0.0010966 -0.000422709 0.000760279 -0.00218799 0.00387692 0.00168437 -0.000894125 0.00571935 0.00455331 0.00505664 -0.00019358 0.0008946 0.010665 -0.00294449 0.00223658 0.0124218
internal_weight=81790 80686 30862 25486 49824 2399 23087 31968 28464 3504 5376 17856 5088 816 1104 4560 12768 760 615 588 344 305 145 79 226 112
internal_count=81790 80686 30862 25486 49824 2399 23087 31968 28464 3504 5376 17856 5088 816 1104 4560 12768 760 615 588 344 305 145 79 226 112
is_linear=0
shrinkage=0.0152036


Tree=3
num_leaves=28
num_cat=0
split_feature=11 15 19 18 16 18 18 11 11 12 14 18 17 11 102 19 15 12 79 19 107 102 102 105 106 14 66
split_gain=65.6745 59.4957 73.614 100.026 133.73 78.0888 66.0199 104.105 62.5693 67.4381 58.1537 50.2374 48.7838 35.655 32.3267 30.288 16.1372 18.5757 23.4823 12.438 7.87659 7.86542 6.13519 6.60977 5.4564 4.95808 3.03923
threshold=58.580030441284187 0.28739787496503061 -1.0249999761581419 -0.3922457289382757 0.20123630336100587 6.061572070506144 0.62492348588151014 -14.971622467041014 23.778176307678226 -2.1177474260330196 0.53895364514462252 3.0479946094119597 4.2774324347330497 10.598539829254152 57.601078033447273 -0.03499999921768903 0.31489418664164598 0.21653120964765551 1.9500354062677523 0.82499998807907116 -0.13377019824856359 41.243383407592781 65.71292877197267 63.561662673950202 92.029769897460952 0.51133344918028112 -0.28615872911949608
decision_type=2 2 2 2 2 2 2 2 2 2 2 2 2 2 2 2 2 2 2 2 2 2 2 2 2 2 2
left_child=1 6 11 4 -4 -5 8 15 12 -10 -9 13 -1 -3 16 -8 17 21 -19 22 25 -2 23 -16 -24 -18 -13
right_child=14 2 3 5 -6 -7 7 10 9 -11 -12 26 -14 -15 19 -17 20 18 -20 -21 -22 -23 24 -25 -26 -27 -28
leaf_value=-3.8429867601895149e-06 0.00090907440275622383 0.00098858384075479013 -0.0001601734058200695 -0.0012988070785496452 0.0044645470193024478 0.003402313525327529 -0.0011789755421605977 0.00081557660203131449 -0.00017437407423642057 -0.0059862718941888432 0.0034885297772620835 0.0047845630970868198 0.0045042273199016412 -0.0014914544844093491 -0.0029088383498676327 -0.0069921011139046059 0.0085595325643366034 -0.0033896913233491567 0.0068249868350767108 -0.0059329368017770195 0.00052581127024879139 0.0047505104921080864 0.00035854220620898717 0.0023096643117341133 -0.0054817061735825106 0.0042271787624854557 0.0095640829137780461
leaf_weight=35376 77 4464 8446 15792 816 432 192 11712 528 432 1056 20 288 816 34 240 125 97 37 39 22 360 47 192 32 42 76
leaf_count=35376 77 4464 8446 15792 816 432 192 11712 528 432 1056 20 288 816 34 240 125 97 37 39 22 360 47 192 32 42 76
internal_value=5.04625e-11 -3.61594e-05 -0.000412551 -0.000657252 0.000247273 -0.00117363 0.000196985 0.000858443 -4.14174e-05 -0.00278973 0.00103665 0.000747502 3.25613e-05 0.000605305 0.00264272 -0.00440849 0.00389863 0.00298408 -0.00056922 -0.000131955 0.00666165 0.00407364 0.00060981 0.00152458 -0.00200713 0.00746996 0.00856835
internal_weight=81790 80686 30862 25486 9262 16224 49824 13200 36624 960 12768 5376 35664 5280 1104 432 760 571 134 344 189 437 305 226 79 167 96
internal_count=81790 80686 30862 25486 9262 16224 49824 13200 36624 960 12768 5376 35664 5280 1104 432 760 571 134 344 189 437 305 226 79 167 96
is_linear=0
shrinkage=0.0109091


Tree=4
num_leaves=28
num_cat=0
split_feature=11 15 19 16 15 15 16 11 14 11 11 15 97 14 16 11 102 56 101 84 19 85 89 102 105 106 102
split_gain=59.2713 53.6949 66.4366 68.7123 52.942 52.2398 47.5633 46.7786 58.5778 55.0324 36.5718 32.4445 31.9401 29.7192 38.1673 33.8651 29.1749 16.4009 12.4163 15.1117 11.2253 8.33702 5.86605 5.53701 5.98189 4.9244 2.76159
threshold=58.580030441284187 0.28739787496503061 -1.0249999761581419 0.2025480638112562 0.077975838272173095 0.51758480040464738 -0.22523903969764428 -3.2197486162185665 0.555155289833973 -2.7436171770095821 10.598539829254152 0.44429485230241111 1.5817050800337549 0.50230901240607795 -0.1813203316634919 31.818993568420414 57.601078033447273 -0.025970461689285095 -5.7661781311035147 1.4218174968218296 0.82499998807907116 -2.2239928245544429 2.7475235622895364 65.71292877197267 60.735580444335945 92.029769897460952 29.242444038391117
decision_type=2 2 2 2 2 2 2 2 2 2 2 2 2 2 2 2 2 2 2 2 2 2 2 2 2 2 2
left_child=1 4 10 6 13 -5 -4 8 -6 -9 12 -12 -3 14 -1 -15 17 22 21 -20 23 -19 26 24 -18 -25 -2
right_child=16 2 3 5 7 -7 -8 9 -10 -11 11 -13 -14 15 -16 -17 20 18 19 -21 -22 -23 -24 25 -26 -27 -28
leaf_value=0.0066843001356831303 0.0084019777509901274 0.0024371242695495773 0.0058643676747602439 0.0032396944373601811 0.001434904464284193 -0.00309228237178992 -0.0014057752819805862 -0.0054063237736296371 0.0081201060392238483 0.00040507098545949747 -0.0036034039725308061 0.0073990927170962109 -0.001578631801609469 -0.0068363782320240585 -0.00045456500695968238 0.009001938364020098 -0.004761174420515696 0.0060608734116243679 0.0065963186040098364 -0.0050378264321221241 -0.0091850649189745247 -0.0057566351949432755 0.004826652835113833 0.00055507650893912527 0.003534947747080869 -0.0084864931305249532 0.014928399017433716
leaf_weight=240 27 3811 288 1871 10080 528 22799 528 432 20928 720 96 749 384 17184 48 32 29 494 38 39 54 33 47 194 32 85
leaf_count=240 27 3811 288 1871 10080 528 22799 528 432 20928 720 96 749 384 17184 48 32 29 494 38 39 54 33 47 194 32 85
internal_value=1.81132e-11 -5.59802e-05 -0.00063869 -0.00101752 0.000304962 0.00184608 -0.00131508 0.000738066 0.00170964 0.000262061 0.00115724 -0.00230899 0.00177752 -0.000470435 -0.000356234 -0.00507657 0.00409133 0.00603566 0.00476756 0.00576531 -0.000204286 -0.00162763 0.0114141 0.000944076 0.00236028 -0.00310733 0.0133551
internal_weight=81790 80686 30862 25486 49824 2399 23087 31968 10512 21456 5376 816 4560 17856 17424 432 1104 760 615 532 344 83 145 305 226 79 112
internal_count=81790 80686 30862 25486 49824 2399 23087 31968 10512 21456 5376 816 4560 17856 17424 432 1104 760 615 532 344 83 145 305 226 79 112
is_linear=0
shrinkage=0.0177778


Tree=5
num_leaves=29
num_cat=0
split_feature=18 19 18 97 15 19 18 19 12 18 11 12 11 89 19 18 12 11 11 56 43 92 98 108 84 86 17 90
split_gain=54.8458 106.239 59.5937 55.4549 46.0965 71.4787 68.5665 56.9384 45.0548 44.0473 39.2978 40.391 32.5768 29.4026 37.2861 29.0709 24.8559 19.3248 38.5696 12.5518 11.81 11.2665 10.8359 13.0871 7.97421 7.77787 7.59481 2.78377
threshold=-3.8345077345444607 1.9950000047683718 -5.9862516548763729 -3.9793352328418812 0.28739787496503061 -1.0249999761581419 -0.3922457289382757 2.0949999094009404 -3.3523532152175899 3.0479946094119597 19.473796844482425 -1.2345247268676756 5.8705811500549325 -0.042121919269328061 -0.044999999925494187 -4.2916309663001373 -2.2022955417633052 31.818993568420414 23.778176307678226 -0.0041454280882885176 0.16687510976270867 -1.2249268918536778 6.1375389758647012 2.6857658104178479 1.5873476468447809 -9.0254439064085314 0.60924884854138395 1.6654632986391429
decision_type=2 2 2 2 2 2 2 2 2 2 2 2 2 2 2 2 2 2 2 2 2 2 2 2 2 2 2 2
left_child=1 2 10 16 7 9 -7 8 -5 -6 11 -1 19 14 -4 -15 26 18 -18 27 -12 -9 23 -14 -24 -19 -2 -3
right_child=3 12 13 4 5 6 -8 21 -10 -11 20 -13 22 15 -16 -17 17 25 -20 -21 -22 -23 24 -25 -26 -27 -28 -29
leaf_value=0.0084870763715695248 -0.00052325556224042721 -0.019672601459478307 0.001547127667623075 -0.0067737724260239669 0.001170102575157664 0.00027344041726642265 -0.0023297680332573798 0.0057513759147410845 0.00023947203851318999 0.016786445538250452 0.018133979825454467 -0.0028865600987014991 0.00063097716280908296 0.0067385242084495095 0.012192339381347938 -0.00043889730068450241 0.0042011680756759697 0.017383117461851949 -0.017602129605053342 -0.0023914172240366333 -0.0014944745735688643 0.018296861645903391 -0.0036935414780269963 -0.016856236117226739 0.014960594031504328 0.0020602987694346214 -0.01827216406991659 -0.01218388784168796
leaf_weight=192 20 129 230 478 5196 7796 15855 58 46621 95 76 1008 60 757 651 474 1650 77 43 31 20 102 20 35 29 22 33 32
leaf_count=192 20 129 230 478 5196 7796 15855 58 46621 95 76 1008 60 757 651 474 1650 77 43 31 20 102 20 35 29 22 33 32
internal_value=3.11779e-11 0.00268705 0.00388915 -0.000128903 -0.00022317 -0.000937467 -0.00147168 0.000214275 0.000168296 0.00145049 5.25919e-05 -0.00106678 -0.00950568 0.00624341 0.00941323 0.00397484 0.00376445 0.00421812 0.00364739 -0.0156343 0.0140447 0.0137491 -0.00133419 -0.00581168 0.00734666 0.013978 -0.0115745 -0.0181842
internal_weight=81790 3744 3408 78046 76201 28942 23651 47259 47099 5291 1296 1200 336 2112 881 1231 1845 1792 1693 192 96 160 144 95 49 99 53 161
internal_count=81790 3744 3408 78046 76201 28942 23651 47259 47099 5291 1296 1200 336 2112 881 1231 1845 1792 1693 192 96 160 144 95 49 99 53 161
is_linear=0
shrinkage=0.0227273


Tree=6
num_leaves=28
num_cat=0
split_feature=11 13 19 12 16 12 17 19 16 11 17 12 13 17 16 12 33 56 103 12 12 102 102 53 89 100 88
split_gain=59.811 50.0451 55.715 52.5955 51.5462 80.0283 77.7838 52.6707 86.5898 55.9006 38.7937 36.5949 56.7912 35.0905 33.7631 28.8998 20.8727 19.4012 16.9435 12.8944 10.65 10.5294 6.63846 6.20198 6.06229 4.61925 2.79489
threshold=58.580030441284187 -0.0070064090780493351 0.78499999642372142 0.52968931198120128 -0.10419784160352479 1.3504065871238711 0.026254568449199493 2.1700000762939458 0.080995370425593766 23.778176307678226 5.4442328862634115 -1.8581208586692808 -0.011675437221478962 1.4141801425285563 -0.03759952271316843 -2.2554582357406612 -0.01906572886909225 -0.025970461689285095 44.277276992797859 -1.6881000995635984 2.8454874753952031 59.812070846557624 64.71698379516603 0.0003258954238845036 2.7475235622895364 7.2568960189819345 -1.8706752258006352
decision_type=2 2 2 2 2 2 2 2 2 2 2 2 2 2 2 2 2 2 2 2 2 2 2 2 2 2 2
left_child=1 2 3 14 5 6 -3 9 -9 -6 -7 12 -4 -5 -1 18 -13 24 25 22 -21 -20 -19 -23 26 -2 -17
right_child=15 4 11 13 7 10 -8 8 -10 -11 -12 16 -14 -15 -16 17 -18 19 21 20 -22 23 -24 -25 -26 -27 -28
leaf_value=0.0026641098887337671 0.00056131625175476066 0.0024180013021380276 0.002092231314652312 -0.0030288952492453437 -0.00016084527860780361 0.0030756376821685721 -0.00076157642861224707 -0.0090867562184063933 -0.00063242407289991053 -0.0029232425236065847 0.0098651497653099111 0.0086546817750255654 -0.011134890258588173 0.0078307166350660498 -0.0022583427233432841 0.0073356043752819417 0.0036849372284209975 0.0093010223958654627 0.0025140900186627927 0.0032360059342353177 -0.0065807194842232592 -0.0045717456764645045 -0.00035669606261783175 -0.012751440082987149 0.0041094491778800781 0.010424637554113755 0.013080547044479768
leaf_weight=432 20 2785 432 96 62925 1344 5616 432 912 1824 240 237 96 288 1536 27 1491 124 38 595 28 75 20 32 33 27 85
leaf_count=432 20 2785 432 96 62925 1344 5616 432 912 1824 240 237 96 288 1536 27 1491 124 38 595 28 75 20 32 33 27 85
internal_value=6.37125e-11 -4.92052e-05 0.00152492 -0.000150275 -0.000144549 0.000897187 0.00029248 -0.00030193 -0.00334989 -0.000238663 0.00410435 0.00327141 -0.0003127 0.00511581 -0.0011778 0.00359617 0.00436655 0.00475096 -0.00188906 0.00376448 0.0027948 -0.00451994 0.00795967 -0.00701801 0.0099691 0.00622748 0.0116956
internal_weight=81790 80686 4608 2352 76078 9985 8401 66093 1344 64749 1584 2256 528 384 1968 1104 1728 912 192 767 623 145 144 107 145 47 112
internal_count=81790 80686 4608 2352 76078 9985 8401 66093 1344 64749 1584 2256 528 384 1968 1104 1728 912 192 767 623 145 144 107 145 47 112
is_linear=0
shrinkage=0.0155556


Tree=7
num_leaves=28
num_cat=0
split_feature=11 13 19 19 17 16 11 16 40 17 17 102 14 86 11 51 15 71 19 15 89 82 102 105 106 113 71
split_gain=53.6872 47.9898 52.092 48.0314 48.7804 100.932 76.0606 43.5179 32.9509 32.2908 43.2222 26.1737 26.0565 24.071 23.7552 18.1129 13.2068 11.015 9.85181 8.94622 8.40342 5.90638 5.06958 5.57029 4.71284 4.52632 3.90961
threshold=58.580030441284187 -0.0070064090780493351 0.78499999642372142 -1.3949999809265134 5.7547785815733237 -0.1421368819542973 23.778176307678226 -0.06617281565954769 -0.012090949275599993 -0.091409252141490413 1.0074635256726181 57.601078033447273 0.38113704309743796 0.92542290053555132 5.96634864807129 -0.077670795318441302 0.31489418664164598 15.485619544982912 0.82499998807907116 0.077975838272173095 -3.1920497703691337 -0.16060881575891073 65.71292877197267 63.561662673950202 92.029769897460952 -0.83509766353567938 12.939658164978029
decision_type=2 2 2 2 2 2 2 2 2 2 2 2 2 2 2 2 2 2 2 2 2 2 2 2 2 2 2
left_child=1 2 7 9 6 -6 -5 13 19 15 -11 16 -10 -1 -9 -3 17 26 22 -4 -19 25 23 -13 -24 -18 -2
right_child=11 3 8 4 5 -7 -8 14 12 10 -12 18 -14 -15 -16 -17 21 20 -20 -21 -22 -23 24 -25 -26 -27 -28
leaf_value=0.015806596056010227 0.006539564047570859 0.0018328496054914472 0.00286812465631561 -0.00025976284674274252 0.013416073577971354 0.00093399769405995284 -0.0043510430584143426 -0.00030905501209353172 0.014108502000595147 -0.00079022578406096945 0.0043400278892888246 -0.0048054150204070029 0.0028120123276698496 0.0019799876754765492 -0.0075025253739145759 0.0093405218464577815 0.0080158888937434392 0.014633921087870325 -0.0094302726938673802 0.013494625444258682 0.0027605534689677412 0.00073928199718201074 0.00066675512845827971 0.0037669070397240573 -0.0090456420144224472 0.014546797315366216 0.01350027680758932
leaf_weight=94 62 193 37 69166 288 1728 1776 1968 81 1536 1056 34 1974 98 192 335 67 24 39 164 424 20 47 192 32 102 61
leaf_count=94 62 193 37 69166 288 1728 1776 1968 81 1536 1056 34 1974 98 192 335 67 24 39 164 424 20 47 192 32 102 61
internal_value=-6.22426e-12 -5.85014e-05 0.00187589 -0.000175666 -0.000277097 0.00271715 -0.000362186 -0.000156822 0.0039951 0.00219619 0.00129988 0.00427558 0.00325728 0.00874926 -0.000948475 0.00659624 0.00629774 0.00481727 -0.000191982 0.0115385 0.00339663 0.0107705 0.000989308 0.00247727 -0.00326738 0.0119576 0.00999162
internal_weight=81790 80686 4608 76078 72958 2016 70942 2352 2256 3120 2592 1104 2055 192 2160 528 760 571 344 201 448 189 305 226 79 169 123
internal_count=81790 80686 4608 76078 72958 2016 70942 2352 2256 3120 2592 1104 2055 192 2160 528 760 571 344 201 448 189 305 226 79 169 123
is_linear=0
shrinkage=0.0195207


Tree=8
num_leaves=28
num_cat=0
split_feature=18 19 18 92 12 12 16 18 14 11 11 11 16 14 11 11 18 12 79 12 54 60 89 35 10 105 55
split_gain=48.7024 92.1404 53.0554 44.1683 41.1806 47.6075 79.7597 67.069 38.1767 48.1169 30.1944 28.2563 27.4354 25.7015 24.8428 24.1946 22.7909 20.8058 14.524 11.6721 9.75784 9.92555 6.86812 3.65366 3.55173 3.54317 3.30594
threshold=-3.8345077345444607 1.9950000047683718 -5.9862516548763729 -5.7848835613287628 -3.3523532152175899 -0.79615867137908924 0.020900483171066329 1.7227394428585894 0.39579021098860517 19.473796844482425 5.8705811500549325 31.818993568420414 0.2025480638112562 0.52618073629185969 25.081603050231937 -14.971622467041014 0.6093331002186978 -1.6881000995635984 -2.6732993295037089 -1.1376599073410032 -0.00095974183200978177 -0.0022889253879494957 4.5166638485713984 88.813815436961377 28.296501159667972 82.477622985839858 -0.046335012103636004
decision_type=2 2 2 2 2 2 2 2 2 2 2 2 2 2 2 2 2 2 2 2 2 2 2 2 2 2 2
left_child=1 2 8 11 13 6 -6 -7 19 -10 22 14 15 18 17 -4 -13 -2 -5 -1 21 -12 26 -15 -18 -14 -3
right_child=3 10 12 4 5 7 -8 -9 9 -11 20 16 25 23 -16 -17 24 -19 -20 -21 -22 -23 -24 -25 -26 -27 -28
leaf_value=0.011802098742262658 -0.0037119610944348069 -0.0089944476663833539 0.02037969654105078 0.0088149338088823141 0.0014015085700057445 -0.00088190255365743105 -0.0015287547399687139 0.0013490829177594218 -0.0032244105594546133 0.012959890746150442 0.008458078612131787 -0.0040265122267975446 0.019164698206975934 0.0044109886141310587 -0.016188765114906165 0.0047173807189559661 0.01639325248298712 0.0025400299319477955 -0.0075360277305682212 0.0019903011276983735 -0.011749416171960837 -0.0044621315055892799 -0.0023564342482595398 0.017121456537276772 0.0071816743854692102 0.0088538587196203902 -0.016962645595030586
leaf_weight=144 276 30 48 27 17035 43380 5956 7510 960 96 57 39 76 22 36 1968 116 3019 585 96 31 56 21 21 24 20 141
leaf_count=144 276 30 48 27 17035 43380 5956 7510 960 96 57 39 76 22 36 1968 116 3019 585 96 31 56 21 21 24 20 141
internal_value=-1.14423e-10 0.00242838 0.00350203 -0.000116494 -0.000229015 -0.000180776 0.000642401 -0.000552669 3.03137e-05 -0.00175311 -0.00846147 0.00227293 0.0056324 -0.0056702 0.00181959 0.00509029 0.0107092 0.00201634 -0.00681466 0.00787738 -0.000916672 0.00205514 -0.0141201 0.0106184 0.0148141 0.0170166 -0.0155647
internal_weight=81790 3744 3408 78046 74536 73881 22991 50890 1296 1056 336 3510 2112 655 3331 2016 179 3295 612 240 144 113 192 43 140 96 171
internal_count=81790 3744 3408 78046 74536 73881 22991 50890 1296 1056 336 3510 2112 655 3331 2016 179 3295 612 240 144 113 192 43 140 96 171
is_linear=0
shrinkage=0.0217964


Tree=9
num_leaves=27
num_cat=0
split_feature=97 12 16 16 18 15 16 14 19 14 14 13 18 16 15 14 12 12 17 84 12 11 81 52 45 89
split_gain=48.751 46.9721 96.8085 57.3962 56.9633 88.8366 56.1392 55.1856 114.389 55.66 52.9916 52.5388 51.7185 41.5586 37.6192 35.5297 30.595 24.4956 18.3967 34.3871 19.5962 9.14881 11.8754 6.65061 5.99701 2.83523
threshold=-3.9793352328418812 -0.83275887370109547 0.02186793161665428 0.011811602052827707 1.7227394428585894 0.46971224125726124 0.031731732182538656 0.52720683579672223 2.1700000762939458 0.515126412699762 0.51970819715031047 0.50464108188186507 3.7587877195572168 0.24574845988761107 0.10311886549665074 0.64120944991532547 -0.86915704607963551 -1.9046086072921751 5.5699955187782288 -2.4932862828994815 0.0065837700385600337 -0.97779807448387135 -0.15938500632230898 0.26077684284637442 -0.0076362541307386919 -0.77471353671996634
decision_type=2 2 2 2 2 2 2 2 2 2 2 2 2 2 2 2 2 2 2 2 2 2 2 2 2 2
left_child=15 2 3 12 7 10 16 9 -9 -3 -6 -8 -2 -7 -5 17 -4 21 20 -20 -19 -1 -23 25 -25 -17
right_child=1 4 6 14 5 13 11 8 -10 -11 -12 -13 -14 -15 -16 23 -18 18 19 -21 -22 22 -24 24 -26 -27
leaf_value=0.0023465532823042441 0.00076596958023635833 -0.00041377583314732702 -0.0028663984630627726 -0.0046518705396941225 0.0017116308432243107 -0.0046399664081509407 -9.5459493397934904e-05 0.0011970836296192383 -0.0038645543827000588 -0.0020296029118269643 -0.00063322667544712529 -0.0043701630035523778 -0.0056456850677665659 0.00094419802294196131 0.0062907607658545719 -0.0092134691607424178 -0.00983910118449818 0.0003937801054029754 0.00033821010869269507 0.0082240078344890961 0.0031894024603590252 -0.0098785927690270385 -0.0005419556060394685 0.0032738186922940346 -0.0057374275901100873 -0.003910181384065967
leaf_weight=28 17751 38285 758 48 5202 575 4889 5514 679 3122 1742 423 172 263 374 39 96 600 124 189 782 39 35 20 20 21
leaf_count=28 17751 38285 758 48 5202 575 4889 5514 679 3122 1742 423 172 263 374 39 96 600 124 189 782 39 35 20 20 21
internal_value=-1.77488e-11 -4.37763e-05 0.000380342 0.000804313 -0.000231483 0.000691489 -0.000881052 -0.000382377 0.000642126 -0.000535606 0.00112339 -0.000435859 0.000704439 -0.00288742 0.0050461 0.00184366 -0.00365022 0.00221932 0.0025526 0.00509992 0.00197567 -0.00331892 -0.00546262 -0.00490711 -0.0012318 -0.00735732
internal_weight=81790 79893 24511 18345 55382 7782 6166 47600 6193 41407 6944 5312 17923 838 422 1897 854 1797 1695 313 1382 102 74 100 40 60
internal_count=81790 79893 24511 18345 55382 7782 6166 47600 6193 41407 6944 5312 17923 838 422 1897 854 1797 1695 313 1382 102 74 100 40 60
is_linear=0
shrinkage=0.0116364


Tree=10
num_leaves=29
num_cat=0
split_feature=11 15 13 11 18 11 15 17 18 11 11 13 11 14 13 13 12 103 56 12 84 53 85 105 46 104 60 100
split_gain=47.3475 44.0956 60.8248 88.6943 59.669 69.859 67.1902 58.636 55.5766 90.3249 54.5673 51.5855 72.9982 45.6098 29.373 26.2543 23.3534 15.3627 15.2042 12.4503 9.58476 8.01954 8.81082 6.45777 4.90225 3.87517 2.32616 1.93634
threshold=58.580030441284187 0.28739787496503061 0.35339028954994817 9.7174630165100115 6.061572070506144 -9.1501798629760724 0.46971224125726124 0.20882170929832536 0.62492348588151014 -14.971622467041014 -11.320734977722166 0.23061048840645573 9.9689121246337908 0.60484838825380483 0.53363482843849963 0.51069731486956871 -2.2554582357406612 44.277276992797859 -0.025970461689285095 -1.6881000995635984 1.4218174968218296 0.00022401146270567554 1.4021571278572085 76.239131927490249 -0.0064032329988815652 59.655252456665046 -0.0015282939119387099 13.082051753997805
decision_type=2 2 2 2 2 2 2 2 2 2 2 2 2 2 2 2 2 2 2 2 2 2 2 2 2 2 2 2
left_child=1 8 4 7 5 -3 -6 -4 11 15 -11 13 -13 -1 -5 -10 17 23 24 25 -21 22 -19 -2 -18 -20 -26 -23
right_child=16 2 3 14 6 -7 -8 -9 9 10 -12 12 -14 -15 -16 -17 18 21 19 20 -22 27 -24 -25 26 -27 -28 -29
leaf_value=-0.00062305770700137931 -0.00047074392437934881 -0.0046948854226591952 0.0027349952330835764 -0.0026199874396148851 0.0088087933355321495 -0.0010561414647087921 -0.0077919499420871334 5.0308123651648484e-05 -0.010482411419972779 0.0061924361577451546 0.0012328884817565302 0.00059600845918798297 0.0072615061511257396 0.004574666204438969 -0.0098677736016300824 -0.0018003368688126404 0.0043651560942331953 0.0076520174132152056 0.01224108726359331 0.0032966370485633264 -0.0053602161010106409 -0.0074236420392990131 -0.0048202295655884403 0.012576893241359639 0.0094161614698582696 0.0062642783784995909 0.014539728874669356 -0.01503208473324776
leaf_weight=24864 21 1824 3408 1584 336 14158 96 9264 240 720 12048 10704 528 528 192 192 36 22 52 581 42 20 82 26 58 92 51 21
leaf_count=24864 21 1824 3408 1584 336 14158 96 9264 240 720 12048 10704 528 528 192 192 36 22 52 581 42 20 82 26 58 92 51 21
internal_value=-2.76887e-11 -4.92518e-05 -0.000569061 0.000259015 -0.00129795 -0.00147143 0.00511974 0.000772326 0.000272728 0.00124628 0.00151256 -7.816e-05 0.000909344 -0.000514976 -0.00340353 -0.00662371 0.00359957 -0.00194764 0.00476741 0.00378496 0.00271303 -0.00476594 -0.00218187 0.0067471 0.0099642 0.00842257 0.0118134 -0.0113206
internal_weight=81790 80686 30862 14448 16414 15982 432 12672 49824 13200 12768 36624 11232 25392 1776 432 1104 192 912 767 623 145 104 47 145 144 109 41
internal_count=81790 80686 30862 14448 16414 15982 432 12672 49824 13200 12768 36624 11232 25392 1776 432 1104 192 912 767 623 145 104 47 145 144 109 41
is_linear=0
shrinkage=0.0175


Tree=11
num_leaves=29
num_cat=0
split_feature=11 13 19 12 19 17 17 16 17 13 11 12 13 17 16 12 33 76 15 12 74 19 107 103 76 114 13 100
split_gain=50.9146 46.9725 49.6212 52.0243 43.9829 61.0723 52.899 91.6996 71.593 49.9395 44.7111 34.8441 56.1159 33.9443 32.0369 23.8057 19.7374 15.5504 13.4502 17.1609 21.7836 9.67601 9.56298 6.5833 8.89062 5.93435 4.74656 4.30197
threshold=58.580030441284187 -0.0070064090780493351 0.78499999642372142 0.52968931198120128 -1.0249999761581419 0.24375714717580269 5.7547785815733237 -0.1421368819542973 3.6942742288149311 0.2920236501103482 -2.0359280109405513 -1.8581208586692808 -0.011675437221478962 1.4141801425285563 -0.03759952271316843 -2.2554582357406612 -0.01906572886909225 0.92073863744735729 0.31489418664164598 0.21653120964765551 3.3873692750930791 0.67500001192092907 -0.13377019824856359 44.277276992797859 0.8796464502811433 -13.299757003784178 0.22809064139877469 7.2568960189819345
decision_type=2 2 2 2 2 2 2 2 2 2 2 2 2 2 2 2 2 2 2 2 2 2 2 2 2 2 2 2
left_child=1 2 3 14 5 10 8 -8 -6 -7 -3 12 -4 -5 -1 17 -13 23 19 21 -21 -17 26 27 -25 -19 -20 -2
right_child=15 4 11 13 6 9 7 -9 -10 -11 -12 16 -14 -15 -16 18 -18 25 22 20 -22 -23 -24 24 -26 -27 -28 -29
leaf_value=0.0021047039853227846 0.00044537656009197241 0.0033985659272252403 0.0016241144435264654 -0.0023098368120069305 -0.00020439951965994937 -0.0063910615338196898 0.0082858393253344639 0.00065178070604101116 -0.0019993874193529114 5.7659371921108126e-05 0.00081989079594234522 0.0067229611241113284 -0.0089414416113868349 0.0062729320799311001 -0.0017483938516609969 0.0032009452666071333 0.0028395474039356701 -0.0020238798684798754 0.0038632605402242571 0.003659606030950808 -0.0060648446351709503 0.0090627550147473809 -0.00093277664855122571 -0.0032761624199338256 0.0062718010693788529 -0.0099077771816934862 0.0087155219581392072 0.0080942231471891751
leaf_weight=432 20 1584 432 96 57262 192 288 1680 3696 8256 3120 237 96 288 1536 528 1491 26 42 73 71 48 24 64 20 35 126 27
leaf_count=432 20 1584 432 96 57262 192 288 1680 3696 8256 3120 237 96 288 1536 528 1491 26 42 73 71 48 24 64 20 35 126 27
internal_value=2.26887e-11 -3.6481e-05 0.001189 -8.13949e-05 -0.000110708 0.000546711 -0.000248113 0.00176896 -0.000313233 -8.89025e-05 0.00168822 0.00251345 -0.000296896 0.00412724 -0.000902592 0.00266622 0.00337217 -0.00133427 0.00350843 0.00272453 -0.00113509 0.00368943 0.00644805 0.00109323 -0.00100284 -0.00654743 0.00750246 0.00483939
internal_weight=81790 80686 4608 2352 76078 13152 62926 1968 60958 8448 4704 2256 528 384 1968 1104 1728 192 912 720 144 576 192 131 84 61 168 47
internal_count=81790 80686 4608 2352 76078 13152 62926 1968 60958 8448 4704 2256 528 384 1968 1104 1728 192 912 720 144 576 192 131 84 61 168 47
is_linear=0
shrinkage=0.0125


Tree=12
num_leaves=26
num_cat=0
split_feature=97 18 19 18 15 19 18 14 18 18 14 14 13 11 12 12 17 84 12 98 17 56 52 45 32
split_gain=44.7892 45.632 76.2825 45.8781 39.8435 69.5675 68.4902 51.3099 41.8195 41.6545 35.1777 32.9383 26.924 26.5676 24.9164 22.7047 17.2287 31.1178 21.0179 9.63282 9.04454 8.50832 6.27882 5.7334 3.19825
threshold=-3.9793352328418812 -3.8345077345444607 1.9950000047683718 -5.9862516548763729 0.28739787496503061 -1.0249999761581419 -0.3922457289382757 0.60484838825380483 0.62492348588151014 3.0479946094119597 0.39579021098860517 0.64120944991532547 -0.020844341186860012 5.8705811500549325 1.8816609382629397 -2.2022955417633052 5.5699955187782288 -2.4932862828994815 0.0065837700385600337 6.1375389758647012 0.55597736348138238 -0.0041454280882885176 0.26077684284637442 -0.0076362541307386919 0.026353631212650951
decision_type=2 2 2 2 2 2 2 2 2 2 2 2 2 2 2 2 2 2 2 2 2 2 2 2 2
left_child=11 2 3 10 7 9 -7 8 -3 -6 -2 15 -5 21 -9 20 18 -18 -17 -15 -1 -4 24 -24 -13
right_child=1 4 13 12 5 6 -8 14 -10 -11 -12 22 -14 19 -16 16 17 -19 -20 -21 -22 -23 23 -25 -26
leaf_value=0.0013778170250883003 0.0061257641248229373 -0.00021829493066063526 -0.012470291541450179 -0.0088172296802152689 0.00094698802624464931 0.00027341286128729973 -0.0017501780499254089 0.0086537745776611094 0.0009817747924148715 0.012758515802138284 -0.00137743917057687 -0.0058077194223098896 0.0045771142908406885 -0.0039400412800589639 0.00065746839488656228 0.0003945152105422411 0.00046145556912277678 0.011805795782069714 0.004704997176972113 0.0057093744713162635 -0.013603106287180212 -0.0018719138596395048 0.0049276633319830648 -0.0084570479137126842 -0.014138355203115044
leaf_weight=20 240 34416 153 48 5196 7796 15855 327 12322 95 1047 24 2032 95 194 645 125 191 782 49 34 28 20 20 36
leaf_count=20 240 34416 153 48 5196 7796 15855 327 12322 95 1047 24 2032 95 194 645 125 191 782 49 34 28 20 20 36
internal_value=4.07906e-11 -6.37409e-05 0.00185551 0.00264493 -0.00015673 -0.000673241 -0.00108315 0.000159587 9.80913e-05 0.00115906 2.17596e-05 0.00268448 0.00426801 -0.00632281 0.00567626 0.00323395 0.00358368 0.00731832 0.00275667 -0.00065656 -0.00805462 -0.0108308 -0.00718954 -0.00176469 -0.0108061
internal_weight=81790 79893 3692 3367 76201 28942 23651 47259 46738 5291 1287 1897 2080 325 521 1797 1743 316 1427 144 54 181 100 40 60
internal_count=81790 79893 3692 3367 76201 28942 23651 47259 46738 5291 1287 1897 2080 325 521 1797 1743 316 1427 144 54 181 100 40 60
is_linear=0
shrinkage=0.0176768


Tree=13
num_leaves=28
num_cat=0
split_feature=11 13 19 12 16 15 16 12 13 12 13 17 16 102 14 12 100 101 19 43 12 105 105 100 102 104 48
split_gain=43.8601 40.98 45.8809 48.6474 39.7878 60.5863 42.4251 37.8655 36.1677 31.894 52.122 31.3062 29.6156 21.8645 21.098 13.6815 11.8898 9.87975 12.6691 9.62024 8.39061 9.18685 6.49321 5.65254 5.29125 5.04431 3.63515
threshold=58.580030441284187 -0.0070064090780493351 0.78499999642372142 0.52968931198120128 0.22164588161023602 0.59831005815530303 -0.10419784160352479 -1.3626969456672666 0.42393941109002836 -1.8581208586692808 -0.011675437221478962 1.4141801425285563 -0.03759952271316843 57.601078033447273 0.38113704309743796 2.5533308982849126 17.675456047058109 -5.7661781311035147 0.67500001192092907 -0.41731448200435417 -2.2554582357406612 90.077144622802749 86.561046600341811 9.8118963241577166 65.71292877197267 66.025512695312514 -0.020141542128653992
decision_type=2 2 2 2 2 2 2 2 2 2 2 2 2 2 2 2 2 2 2 2 2 2 2 2 2 2 2
left_child=1 2 3 12 5 6 -3 26 -9 10 -4 -5 -1 16 -11 -7 17 18 -2 -19 21 25 23 -22 -24 -15 -6
right_child=13 4 9 11 7 15 -8 8 -10 14 -12 -13 -14 20 -16 -17 -18 19 -20 -21 22 -23 24 -25 -26 -27 -28
leaf_value=0.0023838368945548107 -0.0033057625747438691 0.00074639350728075411 0.0018563785582470398 -0.0026674903277307755 0.013524616015584846 -0.013171328362077475 -0.00030504817204879197 -0.00044769050522022139 0.0035751176953781401 0.010680921627208592 -0.010362780727446078 0.0072235041701545323 -0.0020617232092808991 0.0037473930012096057 0.0034450934352935293 -0.003363253474235535 -0.0064767210456458009 -0.0033915944894154864 0.0090304303283874794 0.0057556025423471215 -0.0029838928704460461 -0.011597579730593641 0.0084856408121793177 0.0035431179754874293 0.00030432676446848905 -0.0031085414787133539 0.0075814441304940441
leaf_weight=432 67 9985 432 96 57 96 63837 1056 960 96 96 288 1536 33 1632 48 22 27 26 618 72 23 46 51 29 90 39
leaf_count=432 67 9985 432 96 57 96 63837 1056 960 96 96 288 1536 33 1632 48 22 27 26 618 72 23 46 51 29 90 39
internal_value=-2.35134e-11 -4.06314e-05 0.00133294 -0.00013295 -0.000123828 -0.000181793 -0.000162833 0.00190622 0.00146793 0.00286121 -0.000365287 0.00475076 -0.00108587 0.00296955 0.00384708 -0.00990197 0.00438975 0.00471368 0.000143066 0.0053727 -0.000168097 -0.00289623 0.00184355 -0.000277571 0.0053222 -0.00126914 0.0111102
internal_weight=81790 80686 4608 2352 76078 73966 73822 2112 2016 2256 528 384 1968 1104 1728 144 760 738 93 645 344 146 198 123 75 123 96
internal_count=81790 80686 4608 2352 76078 73966 73822 2112 2016 2256 528 384 1968 1104 1728 144 760 738 93 645 344 146 198 123 75 123 96
is_linear=0
shrinkage=0.015


Tree=14
num_leaves=27
num_cat=0
split_feature=97 18 19 18 16 18 15 19 19 11 13 14 89 11 12 19 106 12 18 54 11 81 56 52 24 63
split_gain=40.1976 40.9575 68.3976 40.9773 36.0311 60.8988 56.0653 73.8207 50.9716 33.6698 33.3685 29.8652 26.8248 24.0051 20.602 20.5183 15.1758 15.9378 10.8725 8.75098 8.71223 10.9439 7.67876 5.65449 3.44612 3.20909
threshold=-3.9793352328418812 -3.8345077345444607 1.9950000047683718 -5.9862516548763729 0.21090761417344778 -0.16078388528214546 0.28739787496503061 -1.0249999761581419 2.0949999094009404 19.473796844482425 0.42393941109002836 0.64120944991532547 -0.042121919269328061 5.8705811500549325 -1.9046086072921751 -0.74500000476837147 14.797361850738527 -0.63800904154777516 -1.8867950977149806 -0.00095974183200978177 -0.97779807448387135 -0.15938500632230898 -0.0041454280882885176 0.26077684284637442 -0.0065558865094794217 -0.039819984197248186
decision_type=2 2 2 2 2 2 2 2 2 2 2 2 2 2 2 2 2 2 2 2 2 2 2 2 2 2
left_child=11 2 3 9 6 15 8 -8 -3 -2 -7 14 -5 22 20 -6 17 -16 -18 -15 -1 -22 -4 25 -25 -13
right_child=1 4 13 12 5 10 7 -9 -10 -11 -12 23 -14 19 16 -17 18 -19 -20 -21 21 -23 -24 24 -26 -27
leaf_value=0.0041299519170034712 -0.00086515537876187521 0.00013144107761544846 -0.013029556238509675 0.0070597005535380907 -0.00042059400254332183 -0.0020739101487434368 0.0012002350910948296 -0.0014310549786222975 0.01114006061671087 0.01112181946734311 0.0036999029832899683 -0.015838717921422076 0.0025762792956260001 0.0018530106961909729 -0.0014248733870124524 0.0094524739747938145 -0.0037858494729376751 0.0039711105100856325 0.008457234999933446 -0.009825329772351548 -0.015715119516003056 -0.00071729494811414345 -0.0019390380659887753 -0.0075996955018490546 0.0038305796475078049 -0.0068326164452502357
leaf_weight=28 1191 47051 153 869 96 906 4957 21905 160 96 653 30 1211 113 257 473 30 1078 330 31 39 35 28 20 20 30
leaf_count=28 1191 47051 153 869 96 906 4957 21905 160 96 653 30 1211 113 257 473 30 1078 330 31 39 35 28 20 20 30
internal_value=4.39321e-11 -6.65151e-05 0.00193636 0.00275974 -0.000163556 0.00233445 -0.00023532 -0.000945488 0.00016875 2.89779e-05 0.000344499 0.00280132 0.0044494 -0.00659388 0.00337764 0.00778672 0.00388907 0.00293233 0.00743698 -0.000661076 -0.00512114 -0.00862155 -0.0113139 -0.00755522 -0.00188456 -0.0113357
internal_weight=81790 79893 3692 3367 76201 2128 74073 26862 47211 1287 1559 1897 2080 325 1797 569 1695 1335 360 144 102 74 181 100 40 60
internal_count=81790 79893 3692 3367 76201 2128 74073 26862 47211 1287 1559 1897 2080 325 1797 569 1695 1335 360 144 102 74 181 100 40 60
is_linear=0
shrinkage=0.0194712


Tree=15
num_leaves=28
num_cat=0
split_feature=11 13 13 11 13 11 74 16 11 15 16 101 102 15 56 101 4 79 21 103 11 85 103 89 103 88 59
split_gain=39.4166 36.3168 38.1079 62.5208 37.9274 36.386 37.8441 35.7763 32.2798 32.153 25.8313 25.5661 19.7096 16.9766 11.4276 10.952 12.5656 8.36556 7.70877 7.62335 10.677 6.53189 6.28756 5.32434 3.91928 2.60983 1.87261
threshold=58.580030441284187 -0.0070064090780493351 -0.0045726992229612176 8.3486313819885272 -0.020844341186860012 23.778176307678226 3.1014354228973393 -0.009428966866549782 7.1580510139465341 0.12123195789405884 -0.06617281565954769 -3.2950489521026607 57.601078033447273 0.050646287758839843 -0.025970461689285095 -5.7661781311035147 57.193498611450202 1.9347688411435129 -0.037501309091629652 42.841621398925788 71.641292572021499 -2.2239928245544429 59.839591979980476 2.7475235622895364 98.74246978759767 -1.8706752258006352 -0.12040476357601186
decision_type=2 2 2 2 2 2 2 2 2 2 2 2 2 2 2 2 2 2 2 2 2 2 2 2 2 2 2
left_child=1 4 3 18 8 6 -4 -7 10 -5 -1 17 14 -13 23 21 -17 -6 -3 -14 22 -16 -21 25 -22 -2 -10
right_child=12 2 5 9 11 7 -8 -9 26 -11 -12 13 19 -15 15 16 -18 -19 -20 20 24 -23 -24 -25 -26 -27 -28
leaf_value=0.0083925297489550726 0.0042045264363043573 0.00871659809957228 -0.00013324015475455129 -0.0064596802919888443 0.0086101056220605175 0.0018260956714562149 0.00058516759714283403 -0.0023212165909801846 -0.011532441614363242 -0.0017844195951976748 -0.00020355807219734013 0.0043260481564912218 0.0054477476227430648 0.0012894697555844087 0.0030437460357125839 0.0035835181880328384 -0.003897718442776412 0.0017033841376378686 0.0015736391974820029 -0.0086410201534076955 0.0015360587628273368 -0.0037662798234750858 -0.0020552454409243038 0.0020495566772558336 -0.0033595689744861032 0.0083350944606696842 -0.0068954439074904832
leaf_weight=48 27 67 61409 288 97 336 11693 1632 28 624 1920 278 30 2186 29 500 32 31 29 25 177 54 87 33 25 85 20
leaf_count=48 27 67 61409 288 97 336 11693 1632 28 624 1920 278 30 2186 29 500 32 31 29 25 177 54 87 33 25 85 20
internal_value=8.31086e-12 -2.97208e-05 -9.01529e-05 -0.00232561 0.000968012 -6.01364e-05 -1.83275e-05 -0.00161314 -0.000222623 -0.00326082 6.10261e-06 0.00189406 0.00217215 0.00163207 0.00321258 0.00252345 0.00313352 0.00693738 0.00655883 -0.000126472 -0.00065904 -0.00138687 -0.00352528 0.00613545 0.000930164 0.00733933 -0.00960036
internal_weight=81790 80686 76078 1008 4608 75070 73102 1968 2016 912 1968 2592 1104 2464 760 615 532 128 96 344 314 83 112 145 202 112 48
internal_count=81790 80686 76078 1008 4608 75070 73102 1968 2016 912 1968 2592 1104 2464 760 615 532 128 96 344 314 83 112 145 202 112 48
is_linear=0
shrinkage=0.0115741


Tree=16
num_leaves=30
num_cat=0
split_feature=11 13 13 12 11 17 17 13 11 74 33 11 40 102 14 82 56 12 16 12 103 53 12 105 89 63 74 88 105
split_gain=44.151 40.6115 41.8501 49.4629 39.6991 118.627 66.5807 39.6918 62.5208 37.7972 30.4825 28.0478 25.2925 22.0463 21.8996 20.6766 12.361 11.2746 24.018 7.8571 13.4073 8.0481 7.63189 6.46888 5.44935 4.88875 3.89603 2.67229 1.33986
threshold=58.580030441284187 -0.0070064090780493351 -0.020844341186860012 0.52968931198120128 23.778176307678226 5.4442328862634115 -1.0000000180025095e-35 -0.0045726992229612176 8.3486313819885272 3.1014354228973393 0.027512030515282213 7.1580510139465341 -0.019190884541090695 57.601078033447273 0.37211978845016352 0.43674123128091985 -0.025970461689285095 0.21653120964765551 0.12728412484076462 -2.2554582357406612 44.277276992797859 0.00022401146270567554 -0.061036454513669007 68.919815063476577 2.7475235622895364 -0.089314409457112706 4.3936107158660898 -1.8706752258006352 55.284992218017585
decision_type=2 2 2 2 2 2 2 2 2 2 2 2 2 2 2 2 2 2 2 2 2 2 2 2 2 2 2 2 2
left_child=1 2 3 11 7 6 -6 8 -3 -9 -5 -1 25 16 -14 -7 24 22 -19 20 -15 -22 -18 28 27 -4 -25 -2 -21
right_child=13 4 12 10 5 15 -8 9 -10 -11 -12 -13 14 19 -16 -17 17 18 -20 23 21 -23 -24 26 -26 -27 -28 -29 -30
leaf_value=-0.00075486336693754755 0.0040192668177500496 0.0058708176814636828 0.0037675294392612419 0.0050092493296817571 0.0016555496548843959 0.0063084236297215306 -0.003488741784066655 -0.00012157619788019147 -0.0029290948361873916 0.00052182855077295188 -0.0014371403982257095 -0.0088027169724472394 0.0086654708333077403 0.0057245563859699162 0.0014416526450564443 -0.0038396036753706006 0.0026022052066424647 -0.0036930899484448609 0.0039288653491765376 -0.00029704624693505333 -0.0015583694807179424 -0.007370351937924827 0.0059917358132828306 0.00081985817478860722 0.0020661796545677928 0.008361862981435781 0.0041601802351424345 0.0077649281067191916 -0.0039320464437606097
leaf_weight=1584 27 96 39 273 336 216 1392 61409 912 11693 111 48 46 21 2438 24 347 87 91 20 89 36 90 89 33 69 65 85 24
leaf_count=1584 27 96 39 273 336 216 1392 61409 912 11693 111 48 46 21 2438 24 347 87 91 20 89 36 90 89 33 69 65 85 24
internal_value=-1.58423e-11 -2.81887e-05 0.000917325 -0.000203488 -8.54579e-05 -0.00153943 -0.00248846 -4.68475e-05 -0.00209101 -1.86607e-05 0.00314584 -0.000991565 0.00178907 0.00206017 0.00157543 0.00529362 0.00304628 0.00240398 0.000203528 -0.000118438 -0.00194392 -0.00323222 0.00330028 0.00122762 0.0057705 0.0067028 0.00222973 0.00686196 -0.00227977
internal_weight=81790 80686 4608 2016 76078 1968 1728 74110 1008 73102 384 1632 2592 1104 2484 240 760 615 178 344 146 125 437 198 145 108 154 112 44
internal_count=81790 80686 4608 2016 76078 1968 1728 74110 1008 73102 384 1632 2592 1104 2484 240 760 615 178 344 146 125 437 198 145 108 154 112 44
is_linear=0
shrinkage=0.0103721


Tree=17
num_leaves=27
num_cat=0
split_feature=11 19 13 19 16 102 11 40 11 11 13 102 19 48 105 18 56 84 100 19 1 89 102 105 106 102
split_gain=36.9708 35.5409 37.656 40.0845 34.3025 32.9732 32.3045 28.2565 27.8467 27.5401 25.7048 18.4777 18.3155 18.004 17.4903 16.4399 10.5905 9.63222 9.91662 7.5559 5.36521 4.84268 4.33324 5.3513 4.49657 2.47356
threshold=58.580030441284187 -1.3949999809265134 -0.0070064090780493351 0.78499999642372142 -0.06617281565954769 61.471479415893562 43.787076950073249 -0.012090949275599993 -5.472916603088378 -2.8970168828964229 0.3952130484687198 57.601078033447273 -1.514999985694885 -0.45024583576671873 80.034202575683608 13.141680765313907 -0.025970461689285095 1.4218174968218296 17.675456047058109 0.82499998807907116 104.50000000000001 2.7475235622895364 65.71292877197267 63.561662673950202 92.029769897460952 29.242444038391117
decision_type=2 2 2 2 2 2 2 2 2 2 2 2 2 2 2 2 2 2 2 2 2 2 2 2 2 2
left_child=1 8 3 4 -3 6 -4 -5 13 -7 12 16 -10 20 -12 -15 21 18 -18 22 -1 25 23 -13 -24 -2
right_child=11 2 5 7 -6 9 -8 -9 10 -11 14 19 -14 15 -16 -17 17 -19 -20 -21 -22 -23 24 -25 -26 -27
leaf_value=-0.014152686931192877 0.0054719534416993471 0.0062164078254718326 2.4298568409158927e-05 0.0084113588646721471 -0.00073039160264597744 5.0031937918958431e-05 -0.0039346481581586752 0.002224002583503016 -0.0039618362598121161 -0.0012934420098726612 0.0068745097918987245 -0.0039805905989864299 0.002025958468981447 -0.00029931845068668 0.0019877842749074356 0.0097478530034422872 0.0042477059314379824 -0.0043499504551291479 -0.0065341223099014984 -0.006693676843092993 -0.0037590267204425554 0.0027599227821285075 0.00059400817466543081 0.0027985444462392478 -0.007060382645577192 0.010944119490770732
leaf_weight=28 27 192 55970 201 2160 5894 516 2055 144 10578 473 34 1056 1060 295 42 555 38 22 39 22 33 47 192 32 85
leaf_count=28 27 192 55970 201 2160 5894 516 2055 144 10578 473 34 1056 1060 295 42 555 38 22 39 22 33 47 192 32 85
internal_value=1.41808e-11 -3.91693e-05 -0.000105465 0.00127537 -0.000163306 -0.000192678 -1.18664e-05 0.00277527 0.00160901 -0.000812721 0.00274743 0.00286269 0.00130742 -0.0003358 0.00499745 8.36046e-05 0.00423355 0.00333078 0.00383661 -0.00016595 -0.00957948 0.00806255 0.000668743 0.00177867 -0.0025065 0.00962494
internal_weight=81790 80686 77566 4608 2352 72958 56486 2256 3120 16472 1968 1104 1200 1152 768 1102 760 615 577 344 50 145 305 226 79 112
internal_count=81790 80686 77566 4608 2352 72958 56486 2256 3120 16472 1968 1104 1200 1152 768 1102 760 615 577 344 50 145 305 226 79 112
is_linear=0
shrinkage=0.01575


Tree=18
num_leaves=26
num_cat=0
split_feature=92 12 16 18 14 16 12 16 19 14 19 14 12 11 12 11 11 19 12 18 17 16 11 58 45
split_gain=37.7081 41.8654 79.3996 59.3038 72.3386 56.2444 53.0429 51.3762 47.7512 43.5658 96.0782 50.4626 43.2877 41.9517 29.3678 20.5295 23.4781 19.125 19.4997 18.244 21.1463 13.607 12.7181 2.77878 2.47623
threshold=-5.7848835613287628 -0.83275887370109547 0.02186793161665428 1.7227394428585894 0.51970819715031047 0.015311199291085044 1.7833922505378725 0.031731732182538656 1.6749999523162844 0.52720683579672223 2.1700000762939458 0.52618073629185969 -1.4463979601860044 -6.93967580795288 -0.86915704607963551 31.818993568420414 25.081603050231937 2.2150000333786015 -1.6881000995635984 0.6093331002186978 2.1467104539600528 0.11237381982304966 -0.59663760662078846 -0.21074072836740942 -0.0030233332932771699
decision_type=2 2 2 2 2 2 2 2 2 2 2 2 2 2 2 2 2 2 2 2 2 2 2 2 2
left_child=15 2 5 9 6 12 -5 14 -9 11 -11 -3 -2 -6 -4 16 17 18 -1 20 -17 -19 -7 -21 -25
right_child=1 3 7 4 13 22 -8 8 -10 10 -12 -13 -14 -15 -16 19 -18 21 -20 23 -22 -23 -24 24 -26
leaf_value=-0.0021437191243628443 9.1006582095184908e-05 -0.00060625117662393719 -0.0033784540106658457 0.0023642111387184635 0.0016082071409744705 0.0022067986649495584 -0.0016966430203101482 -2.4602714253924898e-05 -0.0048093797828197161 0.0013334272959004158 -0.004497046010208618 -0.0054128336624518127 0.0015291327358095044 -0.0027954497431291292 -0.011953676260438644 0.010005446730388536 -0.010531465616077184 -0.0097915996670906932 0.0018575970784635131 0.004305268198044763 -0.0089478746897751309 -0.00016374318180857481 0.011126770280364108 0.01095860829068856 0.005979396589100361
leaf_weight=283 8536 39887 737 4721 675 45 800 4776 489 5298 678 470 9302 1445 96 21 36 54 3057 24 31 74 139 88 28
leaf_count=283 8536 39887 737 4721 675 45 800 4776 489 5298 678 470 9302 1445 96 21 36 54 3057 24 31 74 139 88 28
internal_value=1.80756e-11 -6.8121e-05 0.000436981 -0.000293842 0.000896511 0.000923691 0.00177579 -0.00100144 -0.000469001 -0.000490149 0.000671938 -0.000662229 0.000840948 -0.00139334 -0.00436671 0.00143935 0.00118493 0.00130656 0.00151856 0.00608249 -0.00129365 -0.0042255 0.00894526 0.00882219 0.00975673
internal_weight=81790 78094 24120 53974 7641 18022 5521 6098 5265 46333 5976 40357 17838 2120 833 3696 3504 3468 3340 192 52 128 184 140 116
internal_count=81790 78094 24120 53974 7641 18022 5521 6098 5265 46333 5976 40357 17838 2120 833 3696 3504 3468 3340 192 52 128 184 140 116
is_linear=0
shrinkage=0.0145833


Tree=19
num_leaves=31
num_cat=0
split_feature=74 17 12 17 16 18 16 18 16 17 15 12 14 18 12 15 12 12 17 12 12 14 15 15 103 50 83 58 98 60
split_gain=37.8393 34.8092 92.4237 68.3887 53.9193 34.2576 32.1021 56.8673 36.8579 32.0565 40.3159 46.7149 31.4647 26.4328 26.8264 25.911 25.7695 37.0027 51.852 27.7242 25.4794 17.9821 16.7564 16.3263 15.0348 14.2579 13.4838 13.4486 12.4588 11.1893
threshold=2.9807139635086064 -0.065234850748250736 2.0551060438156132 -0.15659198053386267 0.02186793161665428 -4.2916309663001373 0.21090761417344778 -0.16078388528214546 0.15485673472681399 5.7547785815733237 0.11450491399814923 3.5939415693283085 0.56930047613650514 6.5616535740377797 -0.50114288926124562 0.36005413628352706 2.0551060438156132 4.8396770954132089 0.050322871737796156 -3.1030068397521968 -2.1545099020004268 0.44292033773286305 0.29952378493982007 0.068703163326819597 44.726345062255866 0.039216911420226104 0.0713084248734739 -0.021436408021137492 8.1617483729410498 -0.0090173046126064537
decision_type=2 2 2 2 2 2 2 2 2 2 2 2 2 2 2 2 2 2 2 2 2 2 2 2 2 2 2 2 2 2
left_child=1 2 3 4 -1 12 8 -8 -7 16 13 26 21 14 -11 28 19 18 -18 24 -21 -3 -5 -15 -2 -19 -12 -17 -4 -14
right_child=9 5 15 22 -6 6 7 -9 -10 10 11 -13 29 23 -16 27 17 25 -20 20 -22 -23 -24 -25 -26 -27 -28 -29 -30 -31
leaf_value=0.0012389181511124696 -0.00030117559285421059 0.00028292342548456677 -0.013275411135790356 0.0028854015138926169 -0.0010885517198639576 -0.00037431294656003903 0.0062653855729849391 1.9270652514175711e-06 -0.0021650402380874382 -0.0034165540848344611 0.0080027541298319828 -0.0054036581844572563 0.0043484621432238017 -0.002668724034090607 0.011509508529977116 -0.0053590155518036253 -0.0052610664988288446 0.001649296386819773 0.00016400803393144321 0.0034890182390136522 0.00064080907378240369 0.0054010870775807861 0.0065228040182322769 -0.013902657394444113 -0.0066092105663341019 0.01128329210262562 0.00082898914878572444 0.0031312179568194747 -0.0023146988184024131 -0.0083567733275584678
leaf_weight=6386 174 238 135 995 3733 45619 462 1333 2893 57 490 81 21 113 57 196 742 537 952 784 14353 512 429 42 184 39 71 57 30 75
leaf_count=6386 174 238 135 995 3733 45619 462 1333 2893 57 490 81 21 113 57 196 742 537 952 784 14353 512 429 42 184 39 71 57 30 75
internal_value=2.75429e-11 -0.000180006 0.00056717 0.000824519 0.000380291 -0.000354717 -0.000406346 0.00161403 -0.000481102 0.000608316 0.00342298 0.00551793 0.00271543 -0.00157687 0.00404648 -0.0065395 0.000463978 -0.0010669 -0.00221226 0.000688249 0.000788328 0.00377692 0.00398122 -0.00571276 -0.00354329 0.0023016 0.00709484 -0.0034462 -0.0112826 -0.0055775
internal_weight=81790 63114 11961 11543 10119 51153 50307 1795 48512 18676 911 642 846 269 114 418 17765 2270 1694 15495 15137 750 1424 155 358 576 561 253 165 96
internal_count=81790 63114 11961 11543 10119 51153 50307 1795 48512 18676 911 642 846 269 114 418 17765 2270 1694 15495 15137 750 1424 155 358 576 561 253 165 96
is_linear=0
shrinkage=0.0153846


Tree=20
num_leaves=29
num_cat=0
split_feature=11 15 16 13 11 15 12 12 15 12 16 14 14 12 15 102 79 101 91 43 102 12 103 105 85 76 74 105
split_gain=41.2977 39.0936 56.6946 56.5867 77.6876 49.7566 47.4325 66.5684 45.1164 37.1037 66.5153 36.4367 46.3055 35.9216 32.9034 20.561 18.2378 11.6783 12.7798 8.69577 8.72268 7.54452 12.6295 6.19731 6.14091 5.36477 3.85657 1.32348
threshold=58.580030441284187 0.28739787496503061 0.22164588161023602 0.35339028954994817 9.7174630165100115 0.077975838272173095 -1.4463979601860044 -1.0276372432708738 0.55240716785668431 -0.91876938939094532 0.0089022513380970485 0.47119890333031483 0.52720683579672223 -2.651288509368896 0.068703163326819597 57.601078033447273 1.6069314004620057 -5.7661781311035147 -3.1736979879394727 -0.41731448200435417 39.673587799072273 -2.2554582357406612 44.277276992797859 68.919815063476577 0.94066467881202709 0.034508006647229202 4.3936107158660898 55.284992218017585
decision_type=2 2 2 2 2 2 2 2 2 2 2 2 2 2 2 2 2 2 2 2 2 2 2 2 2 2 2 2
left_child=1 5 3 8 -5 9 13 -8 -3 10 -1 16 -13 -7 -11 17 -4 18 -2 -19 -21 22 -17 27 -24 -20 -25 -23
right_child=15 2 11 4 -6 6 7 -9 -10 14 -12 12 -14 -15 -16 21 -18 19 25 20 -22 23 24 26 -26 -27 -28 -29
leaf_value=0.001103480304769513 0.0093733922060992986 -0.0010953483149135847 0.0067017557614068154 0.00047757822715116549 -0.0027577624337374127 0.0014885354127312177 0.0024133337379516982 0.00047674105747858708 -0.010646330063334769 -0.00060446479082370565 -0.0045936165047893805 -0.0012780382272346695 0.0036320558182319413 -0.0012887643863982671 -0.0035698297812174402 0.0074216516087294866 0.0011509178690884958 -0.0031139739011050256 -0.007938641611309279 0.0077742497157898671 0.0040009991321686752 -0.00034126428266366318 0.0028346970263454646 0.0010520853892843078 -0.0055624037271454208 -0.00034541333715120944 0.0055022598077089351 -0.0051788879144522883
leaf_weight=4656 20 15406 361 11664 1632 1152 4032 22704 96 12000 432 912 624 4080 768 21 167 27 28 157 478 20 20 89 105 50 65 24
leaf_count=4656 20 15406 361 11664 1632 1152 4032 22704 96 12000 432 912 624 4080 768 21 167 27 28 157 478 20 20 89 105 50 65 24
internal_value=2.62095e-11 -3.65061e-05 -0.00042495 -0.000584318 8.04606e-05 0.000204104 0.00053213 0.000768795 -0.0011545 -0.000383168 0.000619765 0.00179863 0.000716687 -0.000677249 -0.000782833 0.00266806 0.00494609 0.00394325 -0.000531477 0.00460568 0.00493391 -0.000149244 -0.00254455 0.00161699 -0.00421887 -0.00307119 0.00293041 -0.00297997
internal_weight=81790 80686 30862 28798 13296 49824 31968 26736 15502 17856 5088 2064 1536 5232 12768 1104 528 760 98 662 635 344 146 198 125 78 154 44
internal_count=81790 80686 30862 28798 13296 49824 31968 26736 15502 17856 5088 2064 1536 5232 12768 1104 528 760 98 662 635 344 146 198 125 78 154 44
is_linear=0
shrinkage=0.0138889


Tree=21
num_leaves=29
num_cat=0
split_feature=11 13 19 17 18 17 17 12 19 12 11 17 12 13 12 17 14 76 15 12 74 19 104 76 106 106 55 9
split_gain=50.5965 42.8751 48.3525 66.2943 54.7183 52.2538 67.4823 59.6014 44.1539 44.4424 43.916 30.3854 29.878 50.4036 22.3018 21.4823 20.7075 14.6526 12.635 16.3097 20.7374 9.11692 6.13924 9.4018 5.8112 5.41679 5.15212 5.16615
threshold=58.580030441284187 -0.0070064090780493351 -1.0249999761581419 0.24375714717580269 1.2851746423241479 5.7547785815733237 3.6942742288149311 3.5939415693283085 0.78499999642372142 0.52968931198120128 -2.0359280109405513 1.4141801425285563 -1.8581208586692808 -0.011675437221478962 -2.2554582357406612 1.6515747167896679 0.38113704309743796 0.92073863744735729 0.31489418664164598 0.21653120964765551 3.3873692750930791 0.67500001192092907 61.408559799194343 0.8796464502811433 86.700241088867202 63.893222808837898 -0.022250474024379196 3.6500000953674321
decision_type=2 2 2 2 2 2 2 2 2 2 2 2 2 2 2 2 2 2 2 2 2 2 2 2 2 2 2 2
left_child=1 8 3 10 -5 6 -4 -7 9 15 -3 -11 13 -10 17 -1 -14 22 19 21 -21 -16 25 -24 -19 -2 -20 -28
right_child=14 2 5 4 -6 7 -8 -9 12 11 -12 -13 16 -15 18 -17 -18 24 26 20 -22 -23 23 -25 -26 -27 27 -29
leaf_value=0.00067674445917057598 0.00047750655810038247 0.0026771379950457364 6.2517113975676348e-05 -0.00022029217919075753 0.0015183812339125712 0.0019676103052572234 -0.001176732092994959 -0.0032457312437947153 0.0013513676914167993 -0.0013980394491442927 0.00085979181010225659 0.0043764539596475192 0.0064847758467550627 -0.005769250486735945 0.0024733196986644755 -0.0011946246527051387 0.0022367463099530823 -0.0010666212668785683 0.00043781571918063695 0.0027925865762672827 -0.003954490301941109 0.0065194998405597821 -0.0019030389053369659 0.0049012660727929813 -0.0066144705424233093 0.0068692100890959144 0.0023115900664301644 0.0060248128138173668
leaf_weight=864 20 1584 57262 6624 1824 1776 3696 192 432 96 3120 288 96 96 528 1104 1632 26 20 73 71 48 68 21 35 22 38 134
leaf_count=864 20 1584 57262 6624 1824 1776 3696 192 432 96 3120 288 96 96 528 1104 1632 26 20 73 71 48 68 21 35 22 38 134
internal_value=0.000212142 0.000186281 0.000135853 0.000626023 0.000155103 3.34035e-05 -1.26209e-05 0.00145899 0.00101886 0.000166687 0.00147176 0.00293283 0.00190729 5.67098e-05 0.00210219 -0.000373048 0.00247275 -0.000651281 0.00268186 0.00214158 -0.000534097 0.0028105 0.00102437 -0.000297529 -0.00424981 0.00382554 0.00470793 0.00520445
internal_weight=81790 80686 76078 13152 8448 62926 60958 1968 4608 2352 4704 384 2256 528 1104 1968 1728 192 912 720 144 576 131 89 61 42 192 172
internal_count=81790 80686 76078 13152 8448 62926 60958 1968 4608 2352 4704 384 2256 528 1104 1968 1728 192 912 720 144 576 131 89 61 42 192 172
is_linear=0
shrinkage=0.00888889


Tree=22
num_leaves=26
num_cat=0
split_feature=11 97 19 13 19 13 17 17 14 94 102 83 66 114 101 19 43 102 19 111 88 102 105 114 104
split_gain=38.4939 36.0431 34.4416 31.8054 40.137 37.3898 29.4514 37.4488 27.0441 20.7858 18.923 16.5078 16.8089 12.5973 10.5889 12.722 8.40964 8.23048 7.35703 5.39121 5.39113 4.43122 5.16604 4.39418 3.92122
threshold=58.580030441284187 -3.9793352328418812 -1.3949999809265134 -0.0070064090780493351 0.78499999642372142 -0.0034153839869628592 -0.091409252141490413 1.0074635256726181 0.64120944991532547 32447.968878489926 57.601078033447273 0.055879577214948413 -0.33071628517802598 -85.202636718749986 -5.7661781311035147 0.67500001192092907 -0.41731448200435417 39.673587799072273 0.82499998807907116 0.36373817663750468 -3.3859392506567754 65.71292877197267 60.735580444335945 -7.9702308177947989 36.874935150146491
decision_type=2 2 2 2 2 2 2 2 2 2 2 2 2 2 2 2 2 2 2 2 2 2 2 2 2
left_child=1 8 6 4 -4 -5 9 -8 11 -3 14 12 -1 -13 15 24 -16 -18 21 20 -10 22 -12 -23 -2
right_child=10 2 3 5 -6 -7 7 -9 19 -11 18 13 -14 -15 16 -17 17 -19 -20 -21 -22 23 -24 -25 -26
leaf_value=0.00069435059028391793 -0.0060582343303988177 0.0080704080927167295 -0.00026496073502823908 -0.0025438222681374908 0.0025075394810794762 -0.00010764848992268311 -0.00060446889765284869 0.0030004431310598754 -0.009459450359494366 0.0021855331976615979 -0.0036940246393593655 0.00051777408181942085 0.0057072410245096201 0.004368614318632837 -0.003253520160545538 0.0083252121479465407 0.0079535612089049294 0.0041050512431971362 -0.0060311950297437158 0.0012206864853700004 -0.00096057379110292974 0.00056042754428183776 0.0026303002700414444 -0.0064458172225082908 0.0010902633269627888
leaf_weight=202 47 219 2227 1366 2215 69937 1522 1026 57 306 32 856 481 229 27 26 157 478 39 21 22 47 194 32 25
leaf_count=202 47 219 2227 1366 2215 69937 1522 1026 57 306 32 856 481 229 27 26 157 478 39 21 22 47 194 32 25
internal_value=6.61287e-05 2.91214e-05 -1.83295e-05 -7.97325e-05 0.00111754 -0.00015432 0.00149517 0.000847117 0.00203125 0.00464037 0.00277082 0.00244857 0.00422466 0.00133053 0.00405533 -0.000418622 0.00471764 0.00505657 -6.70733e-05 -0.00534687 -0.00709267 0.000695552 0.00173482 -0.00227755 -0.00357612
internal_weight=81790 80686 78818 75745 4442 71303 3073 2548 1868 525 1104 1768 683 1085 760 98 662 635 344 100 79 305 226 79 72
internal_count=81790 80686 78818 75745 4442 71303 3073 2548 1868 525 1104 1768 683 1085 760 98 662 635 344 100 79 305 226 79 72
is_linear=0
shrinkage=0.0145833


Tree=23
num_leaves=25
num_cat=0
split_feature=97 18 19 18 19 15 18 17 18 18 11 14 14 13 11 14 17 59 14 98 56 52 45 32
split_gain=44.1027 42.8026 72.6295 44.9646 40.7879 64.4779 64.9174 64.1028 53.7771 52.3591 44.9 36.3577 31.9336 27.4545 25.732 18.4408 17.5787 21.7141 20.6966 9.61897 8.08272 5.76889 5.9978 3.15819
threshold=-3.9793352328418812 -3.8345077345444607 1.9950000047683718 -5.9862516548763729 -1.0249999761581419 0.28739787496503061 -0.3922457289382757 0.24375714717580269 0.62492348588151014 1.2851746423241479 -2.0359280109405513 0.39579021098860517 0.64120944991532547 -0.020844341186860012 5.8705811500549325 0.35085628686645137 5.7547785815733237 0.74964527063157982 0.48942511675375938 6.1375389758647012 -0.0041454280882885176 0.26077684284637442 -0.0076362541307386919 0.026353631212650951
decision_type=2 2 2 2 2 2 2 2 2 2 2 2 2 2 2 2 2 2 2 2 2 2 2 2
left_child=12 2 3 11 7 8 -7 10 -6 -9 -3 -2 15 -5 20 -1 18 -18 -17 -16 -4 23 -23 -14
right_child=1 4 14 13 5 6 -8 9 -10 -11 -12 -13 21 -15 19 16 17 -19 -20 -21 -22 22 -24 -25
leaf_value=-0.0057224958166480072 0.0029367813622578984 0.0024362235187833773 -0.0052575181832208362 -0.0038416344802826644 6.2067141496768486e-05 0.00029907441723330333 -0.00057860707594372795 -0.00022399459531589308 0.00072837589276542655 0.0013085619109837127 0.00074548706974366047 -0.00046149779190936453 -0.0022900453079491854 0.0021840466555462573 -0.001546593549455467 0.0021302358912281146 0.0042835637441920966 -0.0014744978835806253 0.00023100878841274223 0.0027491282331092021 -0.00065554702095687396 0.0024075022034347054 -0.0036913287542760373 -0.0059780270177870994
leaf_weight=21 240 1424 153 48 29876 7796 15855 6366 10035 1766 3083 1047 24 2032 95 854 264 48 610 49 28 20 20 36
leaf_count=21 240 1424 153 48 29876 7796 15855 6366 10035 1766 3083 1047 24 2032 95 854 264 48 610 49 28 20 20 36
internal_value=0.000186065 0.000157887 0.000985983 0.00132914 0.000117765 3.65209e-05 -0.0002893 0.000526346 0.0002296 0.000108826 0.00127968 0.000172214 0.0013728 0.00204499 -0.00256915 0.00161383 0.00170058 0.00339771 0.00133889 -8.48549e-05 -0.00454561 -0.00295847 -0.000641913 -0.00450283
internal_weight=81790 79893 3692 3367 76201 63562 23651 12639 39911 8132 4507 1287 1897 2080 325 1797 1776 312 1464 144 181 100 40 60
internal_count=81790 79893 3692 3367 76201 63562 23651 12639 39911 8132 4507 1287 1897 2080 325 1797 1776 312 1464 144 181 100 40 60
is_linear=0
shrinkage=0.007875


Tree=24
num_leaves=22
num_cat=0
split_feature=11 12 12 11 12 11 17 19 102 79 92 19 100 51 56 12 19 103 103 89 60
split_gain=39.1613 36.8329 59.6031 41.8032 64.4477 45.7447 26.5476 29.1684 18.9308 15.6752 13.6525 13.6271 10.5756 9.41691 8.83524 11.6162 7.36038 5.16506 8.52754 4.82432 4.26031
threshold=58.580030441284187 -3.3523532152175899 -2.651288509368896 43.787076950073249 2.1806001663208012 35.44566726684571 -0.60406199045115716 -0.14999999850988385 57.601078033447273 -2.6732993295037089 1.7441741851138242 0.75499999523162853 17.675456047058109 -0.074540246746566688 -0.025970461689285095 2.8454874753952031 0.82499998807907116 42.841621398925788 61.627285003662116 2.7475235622895364 -0.00054455652580729318
decision_type=2 2 2 2 2 2 2 2 2 2 2 2 2 2 2 2 2 2 2 2 2
left_child=1 9 6 5 -5 -4 13 -8 12 -1 11 -11 14 -3 19 -16 17 -10 -19 -2 -12
right_child=8 2 3 4 -6 -7 7 -9 16 10 20 -13 -14 -15 15 -17 -18 18 -20 -21 -22
leaf_value=0.0031569166480167211 0.0051407841950935704 0.0062078019495445695 2.9317123427592925e-05 -0.0042309823900671725 0.0034260438591405575 0.0033200766666352678 0.0028201604927366912 0.00017168252025336211 0.0041039935057307336 -0.0011877586610892065 -0.0056775322978611601 -0.0058496251170124325 -0.0032977199369853549 0.0029397670292896959 0.0023071209806815093 -0.0032262443695604002 -0.0033683966678375926 -0.0034558247910247246 0.00069701229071987385 0.0015552346106175773 -0.0014845503473674857
leaf_weight=37 112 78 77806 336 96 288 432 816 24 378 93 48 22 258 566 27 39 39 242 33 20
leaf_count=37 112 78 77806 336 96 288 432 816 24 378 93 48 22 258 566 27 39 39 242 33 20
internal_value=6.5402e-05 4.43068e-05 5.92384e-05 2.73097e-05 -0.00252942 4.1453e-05 0.00164209 0.00108846 0.00160715 -0.00203238 -0.0023886 -0.00171304 0.00233324 0.00369842 0.0025011 0.00205518 2.9889e-06 0.000434084 0.00012064 0.00432476 -0.00493541
internal_weight=81790 80686 80110 78526 432 78094 1584 1248 1104 576 539 426 760 336 738 593 344 305 281 145 113
internal_count=81790 80686 80110 78526 432 78094 1584 1248 1104 576 539 426 760 336 738 593 344 305 281 145 113
is_linear=0
shrinkage=0.00824176


Tree=25
num_leaves=29
num_cat=0
split_feature=18 14 14 33 16 11 18 14 13 14 18 11 14 11 18 13 18 13 63 16 11 11 56 93 51 111 7 43
split_gain=37.9532 68.8143 38.6825 37.4139 34.8067 53.4955 53.4745 37.2465 38.7211 36.8149 32.2333 36.5186 27.1399 22.0933 38.5304 36.4491 28.5883 20.7674 19.3289 18.8728 12.5114 12.1672 9.61645 9.53558 7.28987 6.5363 3.50311 2.27298
threshold=-3.8345077345444607 0.61166334580354953 0.39579021098860517 -0.024936978781735418 -0.066946220048030788 -16.230237960815426 -2.9497516192050353 0.49711880053553609 -0.010094320156627491 0.48097453376119553 -5.9862516548763729 19.473796844482425 0.44850878998122928 -3.5987415313720699 9.4514848234225131 0.0018986091784391759 13.141680765313907 0.35339028954994817 -0.17050748524776563 -0.28121917841875704 2.0723253488540654 1.8548522591590884 -0.0041454280882885176 -1.3558489536198246 0.57230587787824549 0.15608121927111349 5.1600553989410409 -0.27357019920885672
decision_type=2 2 2 2 2 2 2 2 2 2 2 2 2 2 2 2 2 2 2 2 2 2 2 2 2 2 2 2
left_child=1 2 18 13 5 19 -7 9 -9 -6 11 -4 -12 16 15 -15 17 -2 24 -5 -20 23 25 -3 -1 -23 -18 -16
right_child=3 21 10 4 7 6 -8 8 -10 -11 12 -13 -14 14 27 -17 26 -19 20 -21 -22 22 -24 -25 -26 -27 -28 -29
leaf_value=0.019512033438465821 0.0014301316706115601 0.014139325793981554 -0.0024100099683910807 0.0031192781753540048 -0.00021104420712914152 -0.0063901492238870082 0.0013275982399920878 0.01364548185174385 -0.0013551259194905325 0.0021495328935010644 -0.00011995491266716268 0.012296074202028105 0.005764237642233494 0.0053345814600048854 -0.011539845514297487 0.00016828889496733223 0.020245818764893515 0.0058033108474652437 0.0080499081171714702 -0.013284057129071309 -0.0042750171500444429 -0.014657155831052156 0.0010402925348281858 -0.0063648949635028845 0.004499850219011307 -0.0056831379788086361 0.0091059870504140872 -0.02083732134122598
leaf_weight=99 1780 20 912 45 35074 478 13624 89 16238 3763 576 96 1344 817 21 5010 53 814 361 182 48 149 33 28 20 58 20 38
leaf_count=99 1780 20 912 45 35074 478 13624 89 16238 3763 576 96 1344 817 21 5010 53 814 361 182 48 149 33 28 20 58 20 38
internal_value=0.000175476 0.00240609 0.0032937 6.84701e-05 -0.00010574 0.000890179 0.001066 -0.000364433 -0.00127336 1.76772e-05 0.00227477 -0.00100943 0.00399898 0.00148392 0.000708006 0.000892652 0.00319635 0.00280244 0.00894414 -0.0100323 0.00660346 -0.00824527 -0.01033 0.00217853 0.016989 -0.0121427 0.0171938 -0.0175281
internal_weight=81790 3744 3456 78046 69493 14329 14102 55164 16327 38837 2928 1008 1920 8553 5886 5827 2667 2594 528 227 409 288 240 48 119 207 73 59
internal_count=81790 3744 3456 78046 69493 14329 14102 55164 16327 38837 2928 1008 1920 8553 5886 5827 2667 2594 528 227 409 288 240 48 119 207 73 59
is_linear=0
shrinkage=0.02268


Tree=26
num_leaves=26
num_cat=0
split_feature=11 19 16 16 18 19 11 18 19 33 17 101 13 18 102 100 101 19 43 24 103 19 71 74 68
split_gain=36.1836 33.8298 52.1805 49.3325 42.0367 50.7873 58.142 47.1658 41.0758 39.7461 38.5153 36.0606 24.3271 19.7829 17.3208 9.9535 8.66201 10.8241 8.26842 7.83665 6.98138 10.9793 6.35474 5.00608 4.50664
threshold=58.580030441284187 2.1700000762939458 0.091592482212844231 -0.10054848083483277 -3.8345077345444607 2.0949999094009404 13.338597297668459 -5.9862516548763729 2.5649999380111699 -0.024936978781735418 5.2173951044237166 0.89456936717033397 0.03534156238388713 -0.025888517680228342 57.601078033447273 17.675456047058109 -5.7661781311035147 0.67500001192092907 -0.41731448200435417 -0.0074035050196302231 42.841621398925788 0.74500000476837169 24.059761047363285 3.8260067701339726 0.001746418830737538
decision_type=2 2 2 2 2 2 2 2 2 2 2 2 2 2 2 2 2 2 2 2 2 2 2 2 2
left_child=1 4 3 24 7 9 -7 11 10 -6 -4 -1 -9 -5 15 16 17 -2 -18 -10 -16 22 -22 -23 -3
right_child=14 2 8 13 5 6 -8 12 19 -11 -12 -13 -14 -15 20 -17 18 -19 -20 -21 21 23 -24 -25 -26
leaf_value=-0.0044400478856064206 -0.0042615530325261853 0.017518979199356105 0.0014551421991816354 -0.014031370838123605 0.0013873848835656039 0.012454650711405463 -0.0035947586152059469 0.00047814467700603392 0.017204361236412068 -0.00014985999032111186 -0.0093309685867113187 0.0021943202033141342 0.0055896290609563117 -0.0060144098307474414 0.0095251779455595414 -0.008071617213344956 -0.0043174341759534239 0.011415434593604471 0.0073416532624827543 0.0047986068560534412 0.0033715590624806349 -0.0013893075083380928 -0.0034409259681147763 -0.01370642833576147 0.0047014970482900887
leaf_weight=591 67 28 528 240 8004 288 144 528 63 67306 192 849 1584 288 30 22 27 26 618 33 165 23 90 36 20
leaf_count=591 67 28 528 240 8004 288 144 528 63 67306 192 849 1584 288 30 22 27 26 618 33 165 23 90 36 20
internal_value=0.000151583 0.000100844 -0.00308629 -0.00783875 0.000156794 5.39654e-05 0.00710485 0.00234948 0.00026838 1.35195e-05 -0.00142115 -0.000528535 0.00431176 -0.00965848 0.00385984 0.00559773 0.00600521 0.000121261 0.0068536 0.0129399 2.03307e-05 -0.000887776 0.000967153 -0.00890484 0.0121784
internal_weight=81790 80686 1392 576 79294 75742 432 3552 816 75310 720 1440 2112 528 1104 760 738 93 645 96 344 314 255 59 48
internal_count=81790 80686 1392 576 79294 75742 432 3552 816 75310 720 1440 2112 528 1104 760 738 93 645 96 344 314 255 59 48
is_linear=0
shrinkage=0.0206229


Tree=27
num_leaves=23
num_cat=0
split_feature=12 12 11 11 12 11 14 75 51 79 92 56 103 12 63 90 12 63 60 42 89 43
split_gain=40.653 51.7924 54.1137 42.3569 63.0959 47.7309 28.2156 18.2669 16.037 13.7431 13.6956 12.691 12.3218 11.9154 11.4419 11.1656 8.06168 10.6056 6.05925 4.88822 4.85838 4.18916
threshold=-3.3523532152175899 -2.651288509368896 58.580030441284187 43.787076950073249 2.1806001663208012 35.44566726684571 0.52618073629185969 -0.0078441056194025523 -0.21465612649203206 -2.6732993295037089 1.7441741851138242 -0.025970461689285095 58.462627410888679 -1.6881000995635984 -0.045532209833663843 6.0560628676715131 -2.9298244714736934 -0.03858232670298984 -0.0019084093715369291 -0.012565599343427452 2.7475235622895364 0.14801344783617457
decision_type=2 2 2 2 2 2 2 2 2 2 2 2 2 2 2 2 2 2 2 2 2 2
left_child=6 7 3 5 -5 -3 9 16 14 -1 15 20 -10 -13 -9 -11 17 -2 -18 -8 -4 -12
right_child=1 2 11 4 -6 -7 19 8 12 10 21 13 -14 -15 -16 -17 18 -19 -20 -21 -22 -23
leaf_value=0.0047202705823141955 -0.00026802306947035671 3.6826973720262437e-05 0.0077298735534506186 -0.0064227619718405463 0.0050679538321370884 0.0051350141415847858 0.010982894748449327 0.0069964883616194136 0.0025951343193424473 -0.0036582938333029739 -0.0061570247635245323 0.0056960158360501133 4.589122543499495e-05 0.0017063485569115818 -0.0019579453048882661 0.0044734603326235505 0.0086249678581953055 0.00827777199447155 0.0043916743913931513 0.0028917158887322462 0.0022726225582036107 -0.011178029701113701
leaf_weight=29 78 77806 112 336 96 288 20 128 528 457 68 144 675 623 27 28 100 32 112 28 33 42
leaf_count=29 78 77806 112 336 96 288 20 128 528 457 68 144 675 623 27 28 100 32 112 28 33 42
internal_value=8.97635e-05 0.000115128 6.91954e-05 3.40361e-05 -0.00386927 5.56284e-05 -0.00297206 0.00228705 0.00165235 -0.00368245 -0.004092 0.00309652 0.00116476 0.00245539 0.00543668 -0.00318883 0.00496381 0.00221803 0.00638851 0.00626304 0.00648788 -0.00807414
internal_weight=81790 81118 79438 78526 432 78094 672 1680 1358 624 595 912 1203 767 155 485 322 110 212 48 145 110
internal_count=81790 81118 79438 78526 432 78094 672 1680 1358 624 595 912 1203 767 155 485 322 110 212 48 145 110
is_linear=0
shrinkage=0.0125


Tree=28
num_leaves=31
num_cat=0
split_feature=15 13 11 17 12 11 12 12 12 15 14 11 11 13 14 17 17 12 13 11 14 10 12 89 12 35 84 57 56 47
split_gain=40.7396 52.5056 87.2181 55.3038 62.1575 44.8985 45.7069 120.545 53.5887 44.5504 60.0289 69.9753 46.2527 41.3975 32.4436 31.1909 29.4074 29.1892 28.0981 25.7722 19.1295 13.3879 13.2631 12.9744 11.5206 9.67473 8.03161 7.88945 6.56169 5.21515
threshold=0.28739787496503061 0.35339028954994817 9.7174630165100115 0.20882170929832536 -0.50114288926124562 58.580030441284187 1.7953964471817019 1.6443737745285036 2.0021565556526189 0.23477754043938795 0.53895364514462252 -12.437682151794432 -3.2197486162185665 0.46599607218392786 0.62040173772964835 -1.5589482591587396 -0.9834562753560937 -0.76870495080947865 0.53363482843849963 9.9689121246337908 0.6249031522258256 28.085000991821293 -1.4149489998817442 0.67334165715392846 2.8454874753952031 175.1597743049513 2.8295822723090458 -0.081973466406501203 -0.025970461689285095 -0.012538600758991195
decision_type=2 2 2 2 2 2 2 2 2 2 2 2 2 2 2 2 2 2 2 2 2 2 2 2 2 2 2 2 2 2
left_child=9 5 3 13 -5 6 7 -2 -8 14 11 21 -13 -3 15 22 -17 23 19 -4 -19 -11 -1 -12 29 26 -16 -20 -26 -7
right_child=1 2 18 4 -6 24 8 -9 -10 10 17 12 -14 -15 25 16 -18 20 27 -21 -22 -23 -24 -25 28 -27 -28 -29 -30 -31
leaf_value=0.0065934888373773834 -0.0007147886659344706 0.0027622226558804042 -0.0074227412748559107 -0.0017437332304042108 0.0006100143683542993 0.0070750932293713051 -0.0064103879750921182 0.0046801826039112576 -0.0015127915083803212 -0.0067074027829445333 -0.0035613822822387403 0.0019226173134109775 0.00020597574199727919 7.3854666604744034e-05 0.0087054661680490558 -0.002119319976572942 9.4098908813701926e-05 0.0050496327941520871 -0.00064158867021183396 -0.0012544645828176646 0.00046678489694992702 0.0006050880769124399 0.0019310826212623634 0.0039573745085642893 0.0037150327288187476 9.0303412684193885e-05 0.00078082349929180792 -0.0072686493215037562 -0.0049382768162004242 0.0035537883707654769
leaf_weight=96 12910 2256 96 1872 7392 89 336 576 2592 200 100 3264 5808 1152 90 816 38688 768 28 1488 144 40 528 44 20 33 21 164 28 151
leaf_count=96 12910 2256 96 1872 7392 89 336 576 2592 200 100 3264 5808 1152 90 816 38688 768 28 1488 144 40 528 44 20 33 21 164 28 151
internal_value=8.01061e-05 -0.000248234 0.000261099 0.000596718 0.000134387 -0.000688831 -0.000768075 -0.000484364 -0.00207481 0.000282077 0.000956575 0.000660916 0.000823603 0.00185348 0.000108427 8.88088e-05 4.83782e-05 0.00356375 -0.00213359 -0.0016283 0.00432603 -0.00548865 0.00264838 -0.00126398 0.00382755 0.00557548 0.00720621 -0.0063022 -0.00133273 0.00485961
internal_weight=81790 31150 14448 12672 9264 16702 16414 13486 2928 50640 10368 9312 9072 3408 40272 40128 39504 1056 1776 1584 912 240 624 144 288 144 111 192 48 240
internal_count=81790 31150 14448 12672 9264 16702 16414 13486 2928 50640 10368 9312 9072 3408 40272 40128 39504 1056 1776 1584 912 240 624 144 288 144 111 192 48 240
is_linear=0
shrinkage=0.0115385


Tree=29
num_leaves=23
num_cat=0
split_feature=12 12 11 11 12 11 17 19 15 18 16 79 92 17 15 12 83 41 107 42 52 109
split_gain=35.7799 47.3237 48.9126 38.8098 58.8548 43.7953 26.4769 30.6482 25.6491 19.0063 17.7199 11.9339 12.7559 12.2299 9.58401 16.0496 8.59567 10.6547 8.18748 4.7879 4.15289 3.7699
threshold=-3.3523532152175899 -2.651288509368896 58.580030441284187 43.787076950073249 2.1806001663208012 35.44566726684571 -0.60406199045115716 -0.14999999850988385 0.35425051876007979 1.8754650147611573 -0.13967375408536292 -2.6732993295037089 1.7441741851138242 -1.0000000180025095e-35 0.31489418664164598 0.21653120964765551 0.067053476326818864 42.781564132562103 -0.13377019824856359 -0.012565599343427452 -0.18372200524628271 0.0064776367936539717
decision_type=2 2 2 2 2 2 2 2 2 2 2 2 2 2 2 2 2 2 2 2 2 2
left_child=8 6 3 5 -5 -3 16 10 11 -9 -8 -1 13 -13 15 -4 21 -18 -16 -10 -14 -2
right_child=1 2 14 4 -6 -7 7 9 19 -11 -12 12 20 -15 18 -17 17 -19 -20 -21 -22 -23
leaf_value=0.011907378380948849 0.031618803683103935 9.4958225377961676e-05 0.0087686533806845546 -0.016828131239087163 0.013438631780445576 0.013413546479789533 0.0051252803966318344 -0.00088225206562845312 0.029153141718019148 0.021157533692365348 0.01902016764572843 0.0067230888317076215 -0.0090633547128914135 -0.010086698318035681 0.017456756070159472 -0.0039559481101054134 -0.0056193296989185387 0.014113027409656899 -0.0038297405805100097 0.0073138872265827836 -0.024654707206147063 0.017940464294344958
leaf_weight=29 36 77806 576 336 96 288 240 864 20 48 192 57 26 428 168 144 38 195 24 28 84 67
leaf_count=29 36 77806 576 336 96 288 240 864 20 48 192 57 26 428 168 144 38 195 24 28 84 67
internal_value=0.000233719 0.000298617 0.000178871 8.7707e-05 -0.0101022 0.000144075 0.00596073 0.00382086 -0.00760025 0.000277737 0.0113008 -0.00944747 -0.0104883 -0.00811112 0.00802841 0.00622373 0.0145202 0.0108949 0.0147959 0.0164136 -0.0209695 0.0227212
internal_weight=81790 81118 79438 78526 432 78094 1680 1344 672 912 432 624 595 485 912 720 336 233 192 48 110 103
internal_count=81790 81118 79438 78526 432 78094 1680 1344 672 912 432 624 595 485 912 720 336 233 192 48 110 103
is_linear=0
shrinkage=0.0340909


Tree=30
num_leaves=26
num_cat=0
split_feature=92 19 19 19 17 18 19 11 11 18 14 18 11 16 16 16 11 11 19 18 17 78 16 10 89
split_gain=34.4551 32.7459 54.6354 53.4855 52.4125 44.2293 52.3967 42.5319 48.2505 42.4502 49.9491 45.1932 37.8995 35.8285 32.6254 30.1212 18.1875 23.5256 16.785 16.7379 19.8137 14.4658 12.3865 3.315 3.76771
threshold=-5.7848835613287628 -1.0249999761581419 0.60500001907348644 0.7150000035762788 0.24375714717580269 1.2851746423241479 -1.1249999999999998 -2.0359280109405513 -0.52719366550445546 -3.5597599068558377 0.39579021098860517 -2.6082295316375013 -16.230237960815426 0.099050961207039309 0.063197802865150976 -0.07461510094318384 31.818993568420414 25.081603050231937 2.2150000333786015 0.6093331002186978 2.1467104539600528 0.074024093283577438 0.11237381982304966 28.296501159667972 -1.5223002841521895
decision_type=2 2 2 2 2 2 2 2 2 2 2 2 2 2 2 2 2 2 2 2 2 2 2 2 2
left_child=16 4 9 13 7 6 -6 15 -9 10 -3 -11 -5 -4 -7 -2 17 18 21 20 -18 -1 -20 24 -21
right_child=1 2 3 12 5 14 -8 8 -10 11 -12 -13 -14 -15 -16 -17 19 -19 22 23 -22 -23 -24 -25 -26
leaf_value=0.0022312884694758381 0.0079285327965817991 0.0096317090280204701 0.0019217717479878887 -0.0042883555672045669 -0.0017466628924229051 0.0010975485076718293 0.0020293966248659803 -0.0050235094845306741 0.0021147604773768224 -0.0054355602076359127 0.00089819088267883594 -0.00063566673497964259 0.00028632658010370763 0.0080505002372108017 0.0068670151021878239 0.0026712614317319452 0.01253012252452642 -0.01354092824030019 -0.011790678290208627 0.0070791598600575155 -0.011136687610564942 -0.0046757953035927481 5.9168280853902323e-05 0.0045559689411340488 0.01446562700504659
leaf_weight=3229 702 275 3853 660 4721 1286 1795 383 2681 708 1474 35686 22169 370 475 856 21 36 54 35 31 111 74 24 81
leaf_count=3229 702 275 3853 660 4721 1286 1795 383 2681 708 1474 35686 22169 370 475 856 21 36 54 35 31 111 74 24 81
internal_value=0.000122525 3.85248e-05 -0.000132826 0.000513845 0.000904578 8.46333e-06 -0.00070645 0.00250932 0.00122248 -0.000591462 0.00227139 -0.000729043 0.00015407 0.00245874 0.00265376 0.00504007 0.00189739 0.00158848 0.00174553 0.00753503 -0.00157894 0.00200174 -0.00493999 0.0109202 0.012237
internal_weight=81790 78094 65195 27052 12899 8277 6516 4622 3064 38143 1749 36394 22829 4223 1761 1558 3696 3504 3468 192 52 3340 128 140 116
internal_count=81790 78094 65195 27052 12899 8277 6516 4622 3064 38143 1749 36394 22829 4223 1761 1558 3696 3504 3468 192 52 3340 128 140 116
is_linear=0
shrinkage=0.0188125


Tree=31
num_leaves=26
num_cat=0
split_feature=97 12 16 16 16 13 17 12 11 16 19 16 16 14 13 14 12 17 84 12 11 17 111 88 20
split_gain=37.0679 37.7515 86.0341 51.5959 50.2026 50.091 41.2968 38.8282 76.3098 70.3108 45.8109 67.6599 42.537 34.5283 27.7422 26.4558 20.5131 15.5375 28.3237 18.5328 13.2565 8.24614 5.33871 5.20661 2.8257
threshold=-3.9793352328418812 -0.83275887370109547 0.02186793161665428 0.011811602052827707 0.031731732182538656 0.50464108188186507 3.2815544380371109 -0.72069033980369557 2.9042768478393559 -1.0000000180025095e-35 -1.0249999761581419 -0.1505643177309296 -0.16511544467733275 0.45083822907804244 0.37612744541566562 0.64120944991532547 -2.2022955417633052 5.5699955187782288 -2.4932862828994815 0.0065837700385600337 21.369986534118656 0.55597736348138238 0.36373817663750468 -3.3859392506567754 -0.042584468174140779
decision_type=2 2 2 2 2 2 2 2 2 2 2 2 2 2 2 2 2 2 2 2 2 2 2 2 2
left_child=15 2 3 6 14 -6 -2 8 13 -10 12 -12 -9 -3 -4 16 21 19 -19 -18 -5 -1 23 24 -17
right_child=1 7 4 20 5 -7 -8 10 9 -11 11 -13 -14 -15 -16 22 17 18 -20 -21 -22 -23 -24 -25 -26
leaf_value=0.00094519473612308502 0.00090768937465783919 -0.00063344018789537285 -0.0046275941975466852 0.0064080032380012105 -1.1937423545483028e-05 -0.0044956576463878687 -0.0021218987291051132 -0.0023983941503747412 0.0060967526223399855 -0.0014758373948525558 0.0022353232614372269 -0.00031394590918860888 0.0010710312627484158 -0.0047675551734198147 0.0014754882220324572 -0.0042807158969697503 0.00027507819325569297 0.00028096031546592716 0.007934403388288009 0.003137341264249457 0.0011230996834152998 -0.009170083241427646 0.0011598993624959673 -0.0007657106965780259 -0.01005036799858014
leaf_weight=20 17190 463 715 326 4889 423 733 597 303 521 1690 43463 7353 992 139 21 645 125 191 782 96 34 21 22 36
leaf_count=20 17190 463 715 326 4889 423 733 597 303 521 1690 43463 7353 992 139 21 645 125 191 782 96 34 21 22 36
internal_value=8.87292e-05 4.7724e-05 0.000456162 0.000885509 -0.000821223 -0.000368981 0.000783788 -0.000133043 -0.00173071 0.00130874 -6.44763e-05 -0.000218531 0.000810497 -0.00345203 -0.00363424 0.00181568 0.00216391 0.00239898 0.00490693 0.00184361 0.00520575 -0.00542368 -0.00444196 -0.00593106 -0.00792471
internal_weight=81790 79893 24511 18345 6166 5312 17923 55382 2279 824 53103 45153 7950 1455 854 1897 1797 1743 316 1427 422 54 100 79 57
internal_count=81790 79893 24511 18345 6166 5312 17923 55382 2279 824 53103 45153 7950 1455 854 1897 1797 1743 316 1427 422 54 100 79 57
is_linear=0
shrinkage=0.0125


Tree=32
num_leaves=31
num_cat=0
split_feature=74 19 17 15 12 11 11 11 15 18 17 19 102 12 11 19 17 19 12 11 17 17 18 11 16 11 94 84 111 7
split_gain=33.5828 32.2332 31.4871 36.8652 41.6863 38.3891 28.0477 60.4854 92.6511 47.2238 36.031 85.3708 35.6339 24.4886 44.0204 61.7141 59.2962 28.7653 29.6341 22.134 22.0446 38.8805 33.5343 26.2551 21.3 15.1689 14.8544 17.3766 8.45428 7.44511
threshold=2.9807139635086064 -1.3949999809265134 5.7547785815733237 0.11450491399814923 3.5939415693283085 -5.2606325149536124 -4.1943118572235099 -5.5435650348663321 0.21818937936286356 1.8173913420619243 3.6942742288149311 -0.33500000834465021 61.471479415893562 2.0551060438156132 -52.165761947631829 0.064999999478459372 0.050322871737796156 -0.39499999582767481 2.0021565556526189 -11.811944007873533 -0.091409252141490413 1.0074635256726181 0.65671893970591744 -0.80969053506851185 -0.10317792350248044 -3.6424173116683956 32447.968878489926 1.4869742180714802 0.13172127102557754 4.8599750995635995
decision_type=2 2 2 2 2 2 2 2 2 2 2 2 2 2 2 2 2 2 2 2 2 2 2 2 2 2 2 2 2 2
left_child=1 20 13 5 25 24 7 9 -9 -3 12 -12 -8 17 15 -15 -16 19 -19 -2 26 23 -23 -22 -4 -5 29 -28 -6 -1
right_child=2 6 3 4 28 -7 10 8 -10 -11 11 -13 -14 14 16 -17 -18 18 -20 -21 21 22 -24 -25 -26 -27 27 -29 -30 -31
leaf_value=0.01588750113430391 -0.0051493408392830828 -0.0006592965134325728 0.014924799839972228 0.0033554296101703908 -0.012749408105410389 -0.013277019088688374 4.9182540517906547e-05 -0.0024749674485255876 0.0055467566895280509 0.0033449537624999468 -0.010064534164322679 -0.00091619259269576673 -0.0015631875363172549 -0.013300081214012063 -0.0085896580440892652 0.0068933210756803899 0.00031480663663294156 0.00070974960633582971 0.01716384425449613 0.0048129249772221553 -0.0029356464503236509 -0.00074731967241841975 0.0080576004508291273 0.0039298347950784285 -0.0019222721673912392 0.012510006890468559 -0.0030140398892513675 0.0082769046217508746 0.0029883058593592189 0.006990317055193835
leaf_weight=103 130 12342 67 125 53 101 29205 1097 2615 1813 700 2513 9834 96 694 528 952 13795 59 1511 1076 364 641 414 101 436 129 169 28 99
leaf_count=103 130 12342 67 125 53 101 29205 1097 2615 1813 700 2513 9834 96 694 528 952 13795 59 1511 1076 364 641 414 101 436 129 169 28 99
internal_value=0.000146565 -0.000108802 0.00100956 0.0052103 0.00822702 -0.00198947 -0.00022566 0.000543857 0.00317611 -0.000146424 -0.000551064 -0.0029093 -0.000356977 0.000794141 -0.00145315 0.00378664 -0.00343957 0.00112337 0.000779823 0.00402371 0.00223691 0.00134713 0.00486855 -0.00102806 0.0047965 0.0104702 0.00667688 0.00338921 -0.00730921 0.011527
internal_weight=81790 63114 18676 911 642 269 60119 17867 3712 14155 42252 3213 39039 17765 2270 624 1646 15495 13854 1641 2995 2495 1005 1490 168 561 500 298 81 202
internal_count=81790 63114 18676 911 642 269 60119 17867 3712 14155 42252 3213 39039 17765 2270 624 1646 15495 13854 1641 2995 2495 1005 1490 168 561 500 298 81 202
is_linear=0
shrinkage=0.0231674


Tree=33
num_leaves=31
num_cat=0
split_feature=15 19 15 14 11 12 15 14 14 15 15 19 19 11 14 11 14 15 97 11 11 12 15 84 14 98 10 89 99 9
split_gain=33.4727 48.9704 40.609 57.2319 65.0647 44.877 37.8687 64.6174 60.5213 67.1585 54.1664 34.7653 42.3882 60.4337 39.4295 33.452 32.7645 31.8115 30.2269 28.4295 31.5815 27.7632 25.7316 20.7808 18.9785 13.1921 13.0118 12.7298 9.23255 7.54113
threshold=0.28739787496503061 -1.0249999761581419 0.23477754043938795 0.53895364514462252 -12.437682151794432 0.59063306450843822 0.34565043404361423 0.39012530116917882 0.38370403616518273 0.37172790715623455 0.36242385231547752 -1.3949999809265134 0.39499999582767492 6.8082957267761239 0.40940581775352053 10.598539829254152 0.51331583230219702 0.44429485230241111 1.5817050800337549 -14.971622467041014 -7.9556221961975089 -0.76870495080947865 0.48052912386024699 1.2395634553056247 0.6249031522258256 13.531162637894644 28.085000991821293 0.67334165715392846 1.5627329785777577 2.4499999880790715
decision_type=2 2 2 2 2 2 2 2 2 2 2 2 2 2 2 2 2 2 2 2 2 2 2 2 2 2 2 2 2 2
left_child=2 15 11 4 26 -6 7 28 9 -8 -10 19 13 -13 -14 18 -9 23 22 -1 -21 27 -2 -17 -23 -20 -4 -5 -3 -19
right_child=1 6 3 21 5 -7 8 16 10 -11 -12 12 14 -15 -16 17 -18 29 25 20 -22 24 -24 -25 -26 -27 -28 -29 -30 -31
leaf_value=0.025724136974248624 0.0043474297636167556 -0.016742401314228442 -0.016490395255503245 -0.0089530492623647057 0.0031295823637607716 -0.0015832153874502754 -0.005619446122727822 -0.0030553171615657947 0.0030343967749366907 0.015112356061401867 -0.0014388975059638452 -0.001919612071183123 0.0023318987497574842 0.0041204795529135941 -0.0001540905312676127 -0.0014106880785139339 0.00056581674171759556 -0.0036478736872474346 0.00066600356289721547 -0.0032832337648612498 0.0047298458663000793 0.012401956393862039 -0.011698879258728576 -0.011466287989184932 0.00086334374629788919 -0.0072706147528957309 0.0017324763908982276 0.0098726913728045679 -0.0014766761739003031 0.016480976156584035
leaf_weight=48 3724 298 200 100 6768 2304 192 7439 2878 432 11521 12768 8592 1584 14736 421 2976 20 457 528 2016 768 87 299 144 292 40 44 38 76
leaf_count=48 3724 298 200 100 6768 2304 192 7439 2878 432 11521 12768 8592 1584 14736 421 2976 20 457 528 2016 768 87 299 144 292 40 44 38 76
internal_value=0.000175292 -0.000577023 0.000638061 0.00226588 0.00153614 0.00193268 -0.00110518 -0.00242675 -0.000159418 0.00873334 -0.000544798 0.000218981 -5.77949e-06 -0.00125298 0.000761531 0.00195511 -0.00202061 -0.00348373 0.00292837 0.00348634 0.00306675 0.00870087 0.00398111 -0.00558656 0.0105801 -0.00242811 -0.0134532 -0.00320074 -0.0150159 0.0122875
internal_weight=81790 31150 50640 10368 9312 9072 25774 10751 15023 624 14399 40272 37680 14352 23328 5376 10415 816 4560 2592 2544 1056 3811 720 912 749 240 144 336 96
internal_count=81790 31150 50640 10368 9312 9072 25774 10751 15023 624 14399 40272 37680 14352 23328 5376 10415 816 4560 2592 2544 1056 3811 720 912 749 240 144 336 96
is_linear=0
shrinkage=0.0291667


Tree=34
num_leaves=25
num_cat=0
split_feature=97 18 14 16 15 18 15 11 14 17 14 15 14 14 17 75 16 15 4 59 52 45 32 74
split_gain=31.2674 30.3242 57.9674 34.9924 54.1698 48.4084 42.3806 31.061 30.6686 30.2354 22.9331 17.9418 14.9628 14.1487 13.5082 12.4157 12.0239 11.7683 14.321 8.89754 4.95492 5.42127 2.79566 2.57116
threshold=-3.9793352328418812 -3.8345077345444607 0.61166334580354953 0.22164588161023602 0.59831005815530303 -0.63099524691577702 0.28739787496503061 12.290559291839601 0.39579021098860517 1.4141801425285563 0.64120944991532547 0.19294843571972012 0.35085628686645137 0.40940581775352053 1.7209899432716169 -0.00032347624054583629 0.2025480638112562 0.36837616947658042 13.557000160217287 -0.52542727145968049 0.26077684284637442 -0.0076362541307386919 0.026353631212650951 2.6961432695388798
decision_type=2 2 2 2 2 2 2 2 2 2 2 2 2 2 2 2 2 2 2 2 2 2 2 2
left_child=10 2 8 4 6 15 -3 -7 11 -10 12 -2 -1 19 -15 -5 -6 18 -4 -14 22 -22 -12 -19
right_child=1 3 17 5 16 7 -8 -9 9 -11 20 -13 13 14 -16 -17 -18 23 -20 -21 21 -23 -24 -25
leaf_value=-0.016702050422756076 0.0025940985804668469 0.00034847450030398182 -0.010983028114680155 0.015100825136797027 -0.0051318727305326136 0.00034130893262622903 -0.00087162794064694156 0.016543338144532387 0.00089262840227627145 0.0072470088676143598 -0.0061562952063639407 0.012013025269190705 -0.0031053022238720432 0.00094338772185892784 0.0054431422171106938 0.0066969136603099106 -0.020174007068607561 -0.007755901070478825 0.0029348957656735483 0.014219866697866115 0.0075402850216517289 -0.010527801832769256 -0.016968710903719101 -0.0176583463127096
leaf_weight=21 192 47211 102 194 48 1426 26918 75 2332 559 24 333 21 709 927 233 96 20 79 119 20 20 36 75
leaf_count=21 192 47211 102 194 48 1426 26918 75 2332 559 24 333 21 709 927 233 96 20 79 119 20 20 36 75
internal_value=0.000140107 6.61747e-05 0.00223813 -3.90584e-05 -0.000123782 0.00322479 -9.45737e-05 0.00115087 0.00311215 0.0021213 0.00325382 0.00856839 0.0038903 0.00413379 0.00349307 0.0105151 -0.01516 -0.00857937 -0.00490835 0.0116211 -0.00818375 -0.00149376 -0.0126437 -0.0155736
internal_weight=81790 79893 3692 76201 74273 1928 74129 1501 3416 2891 1897 525 1797 1776 1636 427 144 276 181 140 100 40 60 95
internal_count=81790 79893 3692 76201 74273 1928 74129 1501 3416 2891 1897 525 1797 1776 1636 427 144 276 181 140 100 40 60 95
is_linear=0
shrinkage=0.0245393


Tree=35
num_leaves=31
num_cat=0
split_feature=19 19 15 19 17 19 17 16 17 17 14 16 15 17 18 16 14 17 18 102 88 16 16 15 14 16 16 91 17 80
split_gain=29.8729 52.0874 57.6626 51.7085 60.4165 52.7297 48.9096 45.0893 42.2086 102.682 76.2084 64.8906 79.1318 43.2846 37.7537 35.4611 34.3088 67.9508 54.7572 28.3677 26.5511 25.397 54.4259 30.5482 20.0392 14.6943 14.6818 14.4289 13.484 10.0771
