tree
version=v4
num_class=1
num_tree_per_iteration=1
label_index=0
max_feature_idx=119
objective=regression
feature_names=flow_bulk_buy_days_20d flow_bulk_net_qty_20d flow_bulk_net_qty_5d flow_bulk_unique_buyers_20d fund_debt_equity fund_div_yield fund_eps_growth fund_ev_ebitda fund_ev_revenue fund_gross_margin fund_net_margin fund_op_margin fund_pb fund_pe fund_rev_growth fund_roe macro_brent_chg20 macro_dxy_chg20 macro_fedfunds macro_india10y macro_us10y macro_us10y_chg20 macro_vix macro_vix_chg5 macro_yield_curve pattern_bear_count pattern_bull_count pattern_doji pattern_engulfing pattern_hammer pattern_net smc_base smc_bos_dn smc_bos_up smc_choch_dn smc_choch_up smc_demand_zone smc_dist_bear_ob smc_dist_bull_ob smc_doji smc_ema_20 smc_ema_200 smc_ema_200_dist smc_ema_20_dist smc_ema_50 smc_ema_50_dist smc_ema_9 smc_ema_9_dist smc_ema_stack smc_engulfing_bear smc_engulfing_bull smc_equal_high smc_equal_low smc_fvg_bear smc_fvg_bear_mit smc_fvg_bear_pct smc_fvg_bull smc_fvg_bull_mit smc_fvg_bull_pct smc_hammer smc_liq_sweep_high smc_liq_sweep_low smc_order_block_bear smc_order_block_bull smc_pinbar smc_shooting_star smc_supply_zone smc_swing_high smc_swing_low smc_trendline_break_dn smc_trendline_break_up smc_vp_in_value smc_vp_poc smc_vp_poc_dist smc_vp_vah smc_vp_val tech_adx_14 tech_adx_strong tech_atr_14 tech_atr_pct tech_bb_bandwidth tech_bb_pctb tech_cci_20 tech_cmf_20 tech_consec_updown tech_di_diff tech_donchian_20 tech_ema20_50_ratio tech_golden_death tech_ha_streak tech_macd_hist tech_macd_line tech_mean_rev_z tech_mfi_14 tech_mom_12_1m tech_mom_12m tech_mom_1m tech_mom_3m tech_mom_6m tech_obv_slope tech_price_vs_sma200 tech_price_vs_sma50 tech_price_vs_vwap20 tech_range_52w tech_resistance_dist_20d tech_ret_20d tech_ret_5d tech_rsi_14 tech_rsi_2 tech_rsi_7 tech_stoch_d tech_stoch_k tech_supertrend_10_3 tech_support_dist_20d tech_vol_20d tech_vol_regime tech_vol_sma_ratio tech_volume_spike tech_vwap20_slope_5d tech_williams_r
feature_infos=[-2.8867615601468795:4.2507198955519989] [-424379516.39705366:473735433.57861257] [-427431477.88221568:625763441.10781693] [-8.5792202153854653:16.369860810079203] [0:8.6646203994750977] [0:986] none [-2968.694091796875:1086.56103515625] [-50.9739990234375:2618.294921875] [-109.57099914550781:100] [-84.76300048828125:8698.6787109375] [-7047.05908203125:117.94000244140625] [-32.927410125732422:53.565418243408203] [0:2437.4072265625] [-82.599998474121094:404.5] [-35.009998321533203:84.882003784179688] [-73.26251220703125:281.35964965820312] [-7.7817554473876953:8.7269001007080078] [-0.84758159156942181:4.3527817891944611] [-0.37592972775634337:2.7481188120755835] [-0.49864814120662659:2.2930369140955591] [-1.271792746243726:1.5860385260897296] [-8.5669369553369776:43.828724984406094] [-40.510007005726166:34.548598604238357] [-1.690000057220459:2.5999999046325684] [-0.52184208380515318:1] [-1.1725284157604703:2] [-0.71343850860185365:1] [-1.4688053078962411:1.4958660848087892] [-0.64977594258958282:1] [-2.0147442250160457:2.3703918448218571] [-0.7839931369016887:1] [0:1] [0:1] [0:1] [0:1] [-0.40000000000000002:1] [-2.5556616721409822:0.97138645269001955] [-1.1317287350675596:1.6668005810067148] [-0.71343850860185365:1] [-376.22134690693019:15789.022840165111] [-18.319669819711407:11779.96117595931] [-0.94596789411431037:0.51089590258071571] [-0.61488453992909964:0.27566972893575686] [-179.79981161380647:14588.664907363855] [-0.70345719940314599:0.35383711512373028] [-467.83665267081642:16264.212398735865] [-0.4434373940935411:0.2333800710710181] [-1.589775009935382:1.538940298099527] [-0.52184208380515318:1] [-0.52146685335933141:1] [-0.7449092907973095:1] [-0.72722245664676155:1] [-0.84705806674951434:1] [-0.92377235057823914:1] [0:1.2360248565673828] [-0.86660020762656365:1] [-0.92213492029940702:1] [0:0.30326086282730103] [-0.58453077068755621:1] [-0.74249232908013185:1] [-0.7225610136440066:1] [-0.69352895368488121:1] [-0.72068122830190828:1] [-0.81590274309118715:1] [-0.56722538521527421:1] [-0.52000000000000002:1] [-0.7678216151045294:1] [-0.70915417370946066:1] [-0.86452306318264727:1] [-0.86354832241191071:1] [-0.89811712900137652:0.99528274166766273] [-4999.6669816969297:25829.418828902941] [-1.3371823588436658:1.1790646437244492] [-1981.375877016857:20287.244914186274] [-2102.547254497149:16032.523822701478] [0:89.478904724121094] [0:1] [-82.940547461180813:1279.1941071027907] [0.18229490518569946:85.021026611328125] [-0.90832014102013181:1.0972155376394175] [-0.54187381267547607:1.5432292222976685] [-720.33997709666949:640.0044907130341] [-0.67080611318292238:0.96646630897695296] [-25.744953876953886:12.651364154908025] [-61.387783872083233:62.571768734086007] [-0.77024468598352946:0.87805146361491093] [-12.022937205003903:23.087173103962108] [-0.11640735518620615:0.320060296127612] [-24.7340467429634:16.174778803882269] [-1822.8426513671875:2221.413818359375] [-2081.729623922372:2044.510009828165] [-5.0931933446530016:4.9805795056953448] [-58.21006616946849:72.684914530395872] [-319.49999528501985:863.87395987257287] [-352.60400796029785:877.05462197836459] [-47.249399537216121:96.593849997701753] [-58.737027767593951:133.35940777403721] [-76.73193194273469:196.18716043410438] [-727848091.90048039:955178671.79070997] [-44.490334429674533:87.710353042539907] [-34.608390857701337:74.103418756503174] [-51.71033070218003:74.537365795852892] [-53.677977542749275:84.080961351120209] [-33.396135440775417:28.37731551556476] [-93.865669250488281:215.29415893554688] [-93.865669250488281:129.72135925292969] [1.6938053369522095:99.510368347167969] [6.9570063487844891e-08:100] [0.29008269309997559:99.997749328613281] [0:100] [0:100] [-1.9296310188227324:1.912487118792058] [-61.608410087869629:98.014933185273478] [-0.68102561121413263:1.5648715541866007] [-1.1555927258070342:1.3205935370681716] [-6.9458808253228845:18.565484138898832] [-6.9458808253228845:18.565484138898832] [-19.220883138799579:70.965775889588045] [-100:0]
tree_sizes=2986 3140 3167 2844 2959 2799 3163 2815 3077 3149 3144 3119 3154 3090 2982 2990 2871 2897 3097 3066 3123 2839 3035 3177 2847 2933 3084 3130 2766 3075 3057 2925 3079 3090 2940 2925 2829 2979 3095 3148 3069 2896 3087 3146 3068 2900 3155 2887 3102 2742 2829 3108 2791 3008 3128 2949 3110 3048 3177 3113 3017 3120 3170 3009 3107 3091 2769 3031 2880 3031 3172 3127 3014 3137 3136 3155 3063 3156 3012 3174 3148 3133 3137 3110 3189 3148 3033 3132 2797 2910 3165 3094 2876 2819 3123 3038 2940 3138 3175 2848

Tree=0
num_leaves=31
num_cat=0
split_feature=16 18 20 17 19 20 16 18 18 19 22 19 16 16 19 22 105 16 19 12 17 107 81 79 19 90 79 14 17 90
split_gain=3876.34 3625.85 5790.55 3260.1 2065.05 1596.1 1577.42 1557.43 2153.96 2115.21 1478.47 1910.85 1020.18 898.01 2599.97 472.499 298.748 115.993 111.285 98.358 37.5523 32.403 29.9967 23.9906 22.1822 20.866 18.0852 17.1541 16.9458 10.3163
threshold=54.740901947021491 0.25870486545793808 0.18520037806025783 -1.0051577687263487 0.52651833439253981 0.05192916117544167 0.34985199570655828 0.39357771679852999 0.49102159635501713 0.38307809514485941 -0.21471688005618358 0.60557629582867734 21.954359054565433 -5.7774264812469474 0.53041364674130353 1.9177537158901619 0.087398845702409758 71.876979827880874 0.5112350085998717 1.4445592761039736 0.21576360613107684 55.438072204589851 0.60980859398841869 2.9727251529693608 0.5121984520168007 1.5526863336563113 3.163199901580811 2.5499999523162846 -3.0979745388031001 -2.950242161750793
decision_type=2 2 2 2 2 2 2 2 2 2 2 2 2 2 2 2 2 2 2 2 2 2 2 2 2 2 2 2 2 2
left_child=1 2 3 6 7 -5 -1 9 -9 -3 12 -12 -4 14 -6 -15 18 19 22 20 -18 29 28 -24 27 -23 -21 -20 -2 -19
right_child=16 4 10 5 13 -7 -8 8 -10 -11 11 -13 -14 15 -16 -17 17 21 24 26 -22 25 23 -25 -26 -27 -28 -29 -30 -31
leaf_value=0.015258478043369307 0.025015613080105914 0.026098917868130088 0.014556161499571891 0.013961544810138258 0.0097992878476003201 0.017758098580311951 0.022845018783294431 0.022527643731966016 0.016260803398256911 0.016638660260365517 0.0099470507696496971 0.018089452574562653 0.026846526489504377 0.011325376689300237 0.025969831275758914 0.015562476943855484 0.021579144331539891 0.025447220442892996 0.012851744156825254 0.019361406186577088 0.014832607901325193 0.029543417989854083 0.012755778623217121 0.029642392302379448 0.029089699467341745 0.024416697702649901 0.030400518369897503 0.022891132020304697 0.033475067369443438 0.03357136317696361
leaf_weight=15294 101 10567 27602 114765 7698 77214 45152 70649 33799 145567 112605 13449 3135 28139 8979 17981 1919 74 92 69 419 652 37 672 188 672 598 310 4347 545
leaf_count=15294 101 10567 27602 114765 7698 77214 45152 70649 33799 145567 112605 13449 3135 28139 8979 17981 1919 74 92 69 419 652 37 672 188 672 598 310 4347 545
internal_value=0.0163314 0.0161532 0.0148764 0.0167905 0.017769 0.0154885 0.0209255 0.0185699 0.0204997 0.0172789 0.0117948 0.0108158 0.0158097 0.0144455 0.0185056 0.0129773 0.0285341 0.0248566 0.0317003 0.022343 0.0203701 0.0287441 0.0326613 0.0287611 0.0233008 0.0269413 0.0292585 0.0205936 0.033283 0.0326001
internal_weight=743290 732595 409216 252425 323379 191979 60446 260582 104448 156134 156791 126054 30737 62797 16677 46120 10695 4948 5747 3005 2338 1943 5157 709 590 1324 667 402 4448 619
internal_count=743290 732595 409216 252425 323379 191979 60446 260582 104448 156134 156791 126054 30737 62797 16677 46120 10695 4948 5747 3005 2338 1943 5157 709 590 1324 667 402 4448 619
is_linear=0
shrinkage=0.408333


Tree=1
num_leaves=31
num_cat=0
split_feature=24 24 24 17 17 24 17 24 19 17 17 24 19 22 19 24 24 24 17 22 17 21 19 19 19 24 19 19 40 39
split_gain=4020.96 5778.49 5496.2 3446.68 2700.08 2680.54 2231.11 1971.28 1668.59 1476.43 1579.06 1371.4 969.32 966.674 888.087 567.008 551.723 498.79 705.8 546.972 436.742 777.503 393.158 382.132 344.097 323.241 198.312 171.466 49.311 18.3181
threshold=-0.8149999976158141 0.59499999880790722 1.5850000381469729 0.95451858639717113 -1.6276147365570066 2.3599998950958256 -0.83620145916938771 -0.35500000417232508 0.52192919141173155 3.9336166381835942 -0.072294767946004854 1.4249999523162844 0.37044576594596773 0.051707569063143673 0.49906477635600194 0.27500000596046453 -0.69499999284744252 -1.2450000047683714 1.1148242950439455 1.3548212723663877 0.065308317542076125 -0.072851410417271958 0.53748417748989052 0.50946440500891577 0.50903630871055061 -1.2150000333786009 0.50136247285342661 0.52234895855995334 40.01551695995483 -0.016372518948951996
decision_type=2 2 2 2 2 2 2 2 2 2 2 2 2 2 2 2 2 2 2 2 2 2 2 2 2 2 2 2 2 2
left_child=13 4 6 8 7 -5 14 16 -4 10 -6 -8 -9 22 -3 -11 -2 20 19 -19 21 -15 24 -20 25 -1 -22 -26 -24 -30
right_child=1 2 3 5 9 -7 11 12 -10 15 -12 -13 -14 17 -16 -17 -18 18 23 -21 26 -23 28 -25 27 -27 -28 -29 29 -31
leaf_value=0.0038770618231256872 -0.00067381075588103317 0.0047546365925213128 -0.001484489178576142 0.0029890471927506122 -0.0011156419996353052 -0.01056992579390666 0.0017620133815465665 0.0055432619298879599 -0.0070539941764864028 0.0079293277435103868 -0.0029886164346605926 -0.001305856554370026 0.0011507379524860319 0.0040215945091680461 0.00017981248550118947 -0.00062662661502586609 -0.0073100764823658985 0.00048530806479002122 0.0014682436605134501 -0.0024321657282078287 0.0053017717036254906 5.0850685420677412e-05 -0.0074483720355313782 0.0054841239406536804 0.0066536701066700595 0.001515132105503832 0.0015864125388628655 0.001684622897452754 -0.0034888239156815309 0.0016055940810385291
leaf_weight=22754 3563 46820 13832 19647 130485 2577 108562 11622 21422 3156 152568 28809 24185 11869 7724 1963 4344 37149 14447 13760 8192 21963 477 4978 6487 15036 3092 1303 341 163
leaf_count=22754 3563 46820 13832 19647 130485 2577 108562 11622 21422 3156 152568 28809 24185 11869 7724 1963 4344 37149 14447 13760 8192 21963 477 4978 6487 15036 3092 1303 341 163
internal_value=-5.15518e-11 -0.000485373 0.000952357 -0.00243845 -0.00156574 0.00141681 0.00196789 0.00132906 -0.00486878 -0.00200487 -0.00212519 0.00111863 0.00257643 0.00174147 0.00410679 0.00464835 -0.00431969 0.00112828 0.000470239 -0.000303245 0.00215415 0.00144387 0.00326189 0.00249738 0.0034304 0.00293729 0.0042837 0.00582252 -0.00456764 -0.00184122
internal_weight=743290 581279 249393 57478 331886 22224 191915 43714 35254 288172 283053 137371 35807 162011 54544 5119 7907 115450 70334 50909 45116 33832 46561 19425 45580 37790 11284 7790 981 504
internal_count=743290 581279 249393 57478 331886 22224 191915 43714 35254 288172 283053 137371 35807 162011 54544 5119 7907 115450 70334 50909 45116 33832 46561 19425 45580 37790 11284 7790 981 504
is_linear=0
shrinkage=0.0125


Tree=2
num_leaves=31
num_cat=0
split_feature=24 24 24 18 17 22 19 24 17 24 18 19 24 24 18 21 24 18 19 18 17 19 17 19 20 19 21 18 18 44
split_gain=3628.91 5220.82 4804.03 3118.97 3110.63 2943.68 2656.53 2419.19 1915.21 1677.26 1676.82 1505.9 1328.8 1200 1144.06 1076.63 1028.6 1379.71 1135 779.835 774.315 564.094 735.456 545.218 464.461 359.944 274.519 236.812 233.633 159.851
threshold=-0.8149999976158141 0.58499997854232799 1.5850000381469729 0.25870486545793808 0.95451858639717113 0.065164392045620204 0.41231273027734267 2.3599998950958256 -1.0944855213165281 0.24499999731779101 0.39357771679852999 0.52192919141173155 0.095000002533197417 -0.48000000417232508 0.0054245699624447469 1.0000000180025095e-35 -1.0950000286102293 0.48530732982642016 0.50674906025935418 -0.031413796496661886 0.11241883412003519 0.48027718075066345 0.67332032322883617 0.38056281851693946 0.3086590166662147 0.47707945513796718 0.005655148927140227 0.49315783029964694 0.38202946124607579 12.18756113895949
decision_type=2 2 2 2 2 2 2 2 2 2 2 2 2 2 2 2 2 2 2 2 2 2 2 2 2 2 2 2 2 2
left_child=10 3 8 5 11 9 23 -6 19 -2 15 -4 -7 -8 -10 20 25 18 -18 -3 24 22 -17 -5 -1 -12 -23 -27 -22 -19
right_child=1 2 4 6 7 12 13 -9 14 -11 16 -13 -14 -15 -16 21 17 29 -20 -21 28 26 -24 -25 -26 27 -28 -29 -30 -31
leaf_value=-0.00043112032848530786 -0.0030541566437163208 -0.0019856398636684332 -0.0017152901857887713 0.0072371037112581322 0.0034537695205051639 -0.0026049707074444245 -0.0031767283390014547 -0.012213285322446202 0.00015608228957716974 0.00074652729282378961 0.0062099449001282152 -0.0081507146021401744 -0.0069888653336582975 8.0037603389949082e-05 0.0027828857086061587 -0.0055782713113555907 -0.001327448571885229 -0.0089455836263081252 0.0067430647668371459 0.0054859118811742885 0.0051509099242959327 0.012452710162390935 0.00063740902105016001 0.0026347631135456399 0.004267085532551459 0.0042175888997332449 0.00020682366515050772 0.00045664639636099275 -0.0014268638714884879 -0.0035028807448852129
leaf_weight=23416 70542 3498 13832 9197 19647 23918 41629 2577 83486 43322 22289 21422 48168 70341 70850 11920 7017 1634 9456 41998 15562 434 6975 16852 6139 29165 16914 4462 1357 5271
leaf_count=23416 70542 3498 13832 9197 19647 23918 41629 2577 83486 43322 22289 21422 48168 70341 70850 11920 7017 1634 9456 41998 15562 434 6975 16852 6139 29165 16914 4462 1357 5271
internal_value=3.16086e-11 -0.000560836 0.00105593 -0.00184494 -0.00281756 -0.00313015 -0.000113415 0.00163708 0.00217007 -0.0016081 0.00201222 -0.00562576 -0.0055343 -0.00113079 0.00136195 0.000497822 0.003592 0.000913977 0.00330527 0.00491146 0.00202958 -0.00146633 -0.00328378 0.00425969 0.000544765 0.00471166 0.000513183 0.00371855 0.00462334 -0.00479084
internal_weight=743290 581279 257310 323969 57478 185950 138019 22224 199832 113864 162011 35254 72086 111970 154336 82717 79294 23378 16473 45496 46474 36243 18895 26049 29555 55916 17348 33627 16919 6905
internal_count=743290 581279 257310 323969 57478 185950 138019 22224 199832 113864 162011 35254 72086 111970 154336 82717 79294 23378 16473 45496 46474 36243 18895 26049 29555 55916 17348 33627 16919 6905
is_linear=0
shrinkage=0.0152036


Tree=3
num_leaves=28
num_cat=0
split_feature=16 24 24 24 17 18 24 19 19 17 18 16 21 24 17 19 19 16 17 17 105 19 21 16 79 41 18
split_gain=3281.75 4046.46 2855.59 4354.56 3155.39 2651.32 2493.71 2390.13 2137.53 1995.27 1513.42 1109.72 971.66 932.864 698.819 584.287 531.603 354.063 523.472 193.877 177.858 116.049 105.385 61.3799 30.4777 29.8572 25.8874
threshold=24.642027854919437 -0.8149999976158141 0.60500001907348644 1.6549999713897707 0.95451858639717113 0.25870486545793808 0.57499998807907116 0.41231273027734267 0.44251954804779642 -0.79710683226585377 0.39357771679852999 1.5006921887397768 1.0000000180025095e-35 -1.2150000333786009 0.11241883412003519 0.523011070387014 0.49779591259994765 61.74946594238282 1.949307441711426 0.41526906192302709 -0.86204451322555531 0.5112350085998717 0.11715228835849543 71.876979827880874 0.65704983472824108 1.2895367290220856 0.46063409912094461
decision_type=2 2 2 2 2 2 2 2 2 2 2 2 2 2 2 2 2 2 2 2 2 2 2 2 2 2 2
left_child=1 10 5 9 -5 8 24 -7 -3 -4 12 15 14 -13 -1 -12 -14 18 19 -8 21 -19 -20 -22 -2 -26 -27
right_child=6 2 3 4 -6 7 17 -9 -10 -11 11 13 16 -15 -16 -17 -18 20 22 -21 23 -23 -24 -25 25 26 -28
leaf_value=0.00037134196952344484 0.0052372439658099961 -0.0010820872142995484 0.0031250780758450792 -0.0047115374218539893 0.0010276017724200805 0.0029039229454445909 0.003396653441121885 -0.00076375913840893918 -0.0034042026846898424 0.00047475378521851593 0.0040040812946763715 0.0030304159217838062 -0.0017881163390496271 -0.00056716270502830078 0.0031515233624672873 -0.00022488541741296763 0.0012140397267050422 0.0084901496612401206 0.0018178090275164545 0.0058936097875595065 0.0032277053063072604 0.0029965491635579287 -0.002849888757322774 0.0059942322676429689 0.004333152623919697 -0.0073145229590240455 -0.0030602359438219331
leaf_weight=29555 25 113209 46223 29858 18443 26047 8341 112365 80880 125831 40060 15153 26723 19768 16919 4306 9520 4172 959 6652 1768 514 1440 2074 28 2273 184
leaf_count=29555 25 113209 46223 29858 18443 26047 8341 112365 80880 125831 40060 15153 26723 19768 16919 4306 9520 4172 959 6652 1768 514 1440 2074 28 2273 184
internal_value=2.53499e-11 -0.000144557 -0.000588853 0.000374233 -0.00252013 -0.00122711 0.00363483 -7.3558e-05 -0.00204975 0.00118677 0.00137165 0.00244862 0.000339343 0.000993907 0.00138348 0.00359363 -0.000999536 0.00464024 0.00374743 0.00450449 0.00646104 0.00788757 -0.000983977 0.00472114 -0.0067477 -0.00686828 -0.00699593
internal_weight=743290 714860 552856 220355 48301 332501 28430 138412 194089 172054 162004 79287 82717 34921 46474 44366 36243 25920 17392 14993 8528 4686 2399 3842 2510 2485 2457
internal_count=743290 714860 552856 220355 48301 332501 28430 138412 194089 172054 162004 79287 82717 34921 46474 44366 36243 25920 17392 14993 8528 4686 2399 3842 2510 2485 2457
is_linear=0
shrinkage=0.0109091


Tree=4
num_leaves=30
num_cat=0
split_feature=24 24 24 18 22 19 18 18 18 17 17 19 18 19 17 19 19 87 78 7 46 8 44 88 52 76 88 87 114
split_gain=3005.1 2747.62 4209.81 3675.91 2664.98 2480.04 3812.98 2429.49 1843.9 1435.51 585.219 507.702 359.301 305.163 211.168 108.782 88.3016 37.2753 31.7602 27.3283 25.2909 22.4121 18.2605 17.35 16.0381 14.2227 8.06514 14.7011 4.38315
threshold=2.3599998950958256 -1.0950000286102293 0.59499999880790722 0.25870486545793808 0.065164392045620204 0.45905669724916459 0.005575435156841912 0.41620979531000396 0.39357771679852999 -0.79710683226585377 0.012740351259708406 0.44338994898459966 0.38202946124607579 0.47707945513796718 -1.4849298596382139 0.43407474175213606 0.59464406378439183 4.2467544690821368 0.13515199963738114 34.722499847412116 9.2123011959528203 11.840499877929689 28.204738027220348 0.06930265176971008 -0.0016331998680185862 27.639565467834476 0.057861860629547575 0.10249182616144974 -0.0022569665085819253
decision_type=2 2 2 2 2 2 2 2 2 2 2 2 2 2 2 2 2 2 2 2 2 2 2 2 2 2 2 2 2
left_child=1 8 3 4 -3 9 -7 -5 10 -4 11 -1 -12 15 -15 -10 17 19 26 24 25 -21 -19 -22 -2 -20 28 -28 -18
right_child=16 2 5 7 -6 6 -8 -9 13 -11 12 -13 -14 14 -16 -17 18 22 20 21 23 -23 -24 -25 -26 -27 27 -29 -30
leaf_value=0.0032249853151367471 -0.012709132901936308 -0.0015192924141074233 0.005983542656937603 0.0017509255362106785 -0.0057491992684672935 -0.0035983571501511671 0.0024040806060657539 -0.002390585428965644 0.0038864228447544752 0.0017807451510726282 0.0057848796027751958 -0.002439621243417647 0.00045993283140346596 -0.0025983492439635432 0.004215078097720289 0.0071625300073282069 -0.015604936395999917 0.010421751693443016 -0.0026033555393150634 0.0079432148403591578 -0.0088281025992499439 -0.015221769014994306 -0.0115084883901808 -0.0029772104602764958 -0.014818266789643555 0.015625637107425264 0.0026287436576638637 -0.012424224989754812 -0.011189776807315893
leaf_weight=6311 1972 119512 44508 124356 77667 56808 81338 69946 3878 60735 7465 24084 8640 1505 32122 18411 181 30 31 33 550 22 20 226 2699 24 29 70 117
leaf_count=6311 1972 119512 44508 124356 77667 56808 81338 69946 3878 60735 7465 24084 8640 1505 32122 18411 181 30 31 33 550 22 20 226 2699 24 29 70 117
internal_value=-7.24037e-11 0.000102007 -0.000333885 -0.00147535 -0.00318541 0.00150211 -6.42245e-05 0.00026004 0.00280407 0.00355814 0.000188279 -0.00126346 0.00292816 0.00497938 0.00391014 0.00659253 -0.0125264 -0.0136196 -0.00827456 -0.0137811 -0.00629843 -0.00132278 0.00164966 -0.00712411 -0.0139278 0.00535111 -0.012411 -0.00801477 -0.0138715
internal_weight=743290 737286 634870 391481 197179 243389 138146 194302 102416 105243 46500 30395 16105 55916 33627 22289 6004 4776 1228 4726 831 55 50 776 4671 55 397 99 298
internal_count=743290 737286 634870 391481 197179 243389 138146 194302 102416 105243 46500 30395 16105 55916 33627 22289 6004 4776 1228 4726 831 55 50 776 4671 55 397 99 298
is_linear=0
shrinkage=0.0177778


Tree=5
num_leaves=28
num_cat=0
split_feature=16 24 24 24 19 18 24 18 16 21 24 19 19 18 16 105 24 21 21 19 19 16 87 78 79 41 18
split_gain=2838.6 3356.88 2331.4 3008.48 2740.82 2167.59 2142.46 1266.35 946.756 846.854 754.752 494.79 484.287 469.156 314.349 165.751 159.615 352.549 136.831 103.332 80.0791 41.5254 33.9435 28.9143 27.4462 26.7341 22.1839
threshold=24.642027854919437 -0.8149999976158141 2.3599998950958256 0.60500001907348644 0.45905669724916459 0.25617218060492336 0.57499998807907116 0.39357771679852999 1.5006921887397768 1.0000000180025095e-35 -1.2150000333786009 0.523011070387014 0.48431300572788866 0.38295846751570523 61.74946594238282 3.8406186103820805 0.64499998092651378 0.11715228835849543 0.025216994574036037 0.5112350085998717 0.59464406378439183 71.876979827880874 3.5338213963676601 0.13515199963738114 0.65704983472824108 1.2895367290220856 0.46063409912094461
decision_type=2 2 2 2 2 2 2 2 2 2 2 2 2 2 2 2 2 2 2 2 2 2 2 2 2 2 2
left_child=1 7 3 5 -5 -3 24 9 11 13 -10 -9 -11 -1 16 19 17 -8 -18 -16 22 -17 -4 -22 -2 -26 -27
right_child=6 2 20 4 -6 -7 14 8 10 12 -12 -13 -14 -15 15 21 18 -19 -20 -21 23 -23 -24 -25 25 26 -28
leaf_value=0.0034804272631757029 0.01068793237759647 -0.0039155943932625507 -0.016764137851618267 0.0041256183002178603 -0.0010744937763066025 -0.00020898136701239921 0.0076092705056610916 0.0076395845460329979 0.0056663207389307888 -0.003785171316630513 -0.0010752648508413672 -0.000467976880343691 0.0018371672700071742 -0.0036987737105892509 0.01573714652198387 0.0048573391271137462 0.0068579699827267544 -0.0056722782856357202 0.011869463032615475 0.0059035603814370438 -0.015072995853527806 0.010531745667528049 -0.00010069000365381892 -0.0076140643141682524 0.0088373032676709179 -0.014110866576103607 -0.0059062045420935974
leaf_weight=41166 25 189550 4712 90911 123442 142951 3640 40060 15153 24570 19768 4306 11673 5308 5236 1254 7957 1441 4354 617 397 1421 64 829 28 2273 184
leaf_count=41166 25 189550 4712 90911 123442 142951 3640 40060 15153 24570 19768 4306 11673 5308 5236 1254 7957 1441 4354 617 397 1421 64 829 28 2273 184
internal_value=-4.46595e-11 -0.00028009 -0.00112316 -0.000968537 0.00113097 -0.00232202 0.00704275 0.00259696 0.00464934 0.000629686 0.00185006 0.00685269 -0.00197435 0.00266046 0.00898424 0.0125585 0.00723163 0.00384255 0.00863037 0.0147005 -0.0152108 0.00787167 -0.0165408 -0.0100294 -0.0130064 -0.0132448 -0.0134964
internal_weight=743290 714860 552856 546854 214353 332501 28430 162004 79287 82717 34921 44366 36243 46474 25920 8528 17392 5081 12311 5853 6002 2675 4776 1226 2510 2485 2457
internal_count=743290 714860 552856 546854 214353 332501 28430 162004 79287 82717 34921 44366 36243 46474 25920 8528 17392 5081 12311 5853 6002 2675 4776 1226 2510 2485 2457
is_linear=0
shrinkage=0.0227273


Tree=6
num_leaves=31
num_cat=0
split_feature=24 24 24 17 17 24 19 24 18 17 24 17 19 18 18 21 19 18 17 18 24 18 17 19 24 20 17 18 41 19
split_gain=2747.98 3970.41 3994.21 2760.88 2403.57 2184.28 2050.38 2395.39 1929.34 1708.54 2159.93 1481.78 1398.91 1285.5 1063.15 857.689 747.929 722.972 657.946 612.56 641.637 517.458 513.415 690.719 511.141 451.508 348.597 210.898 149.459 143.051
threshold=-0.8149999976158141 0.58499997854232799 1.5850000381469729 0.95451858639717113 -0.072294767946004854 2.1550000905990605 0.41305996124472216 -0.32500000298023218 0.25761266252479348 3.9336166381835942 -0.03499999921768903 -1.0944855213165281 0.52192919141173155 0.39357771679852999 0.0054245699624447469 1.0000000180025095e-35 0.523011070387014 -0.031413796496661886 0.11241883412003519 0.51997382865973318 -1.1850000023841856 0.45089788572287209 0.88440343737602245 0.48027718075066345 0.27500000596046453 0.3086590166662147 -2.1286870241165157 0.38202946124607579 14.232619599610972 0.46758862181122046
decision_type=2 2 2 2 2 2 2 2 2 2 2 2 2 2 2 2 2 2 2 2 2 2 2 2 2 2 2 2 2 2
left_child=13 4 11 12 6 -5 7 -2 -8 10 -6 17 -4 15 -13 18 19 -3 25 21 -21 -15 23 -17 -11 -1 28 -20 -18 -24
right_child=1 2 3 5 9 -7 8 -9 -10 24 -12 14 -14 16 -16 22 26 -19 27 20 -22 -23 29 -25 -26 -27 -28 -29 -30 -31
leaf_value=-0.00055112092050552293 -0.007428395047147332 -0.0023448239920851252 -0.0015211180964246744 0.0050320468218868902 -0.0017251909149703999 -0.0053537144962961187 -0.0048428354172342231 0.0025211998124628938 -0.00025728504692083061 0.0096574738091929381 -0.0055121153416639295 6.6013865133693816e-05 -0.0078672875256344064 0.0028260795759334151 0.0026568476685479609 -0.0051143472115723196 -0.010210801459735516 0.0050156981754571435 0.0047928350811491226 0.0037853051552163047 -0.0048725368140889675 0.0056698097584308325 -0.0017091132474850662 1.6279035860245909e-05 -0.0004549786310603486 0.0041883356397907565 0.0013727664389624982 -0.0016013641989327254 -0.002925091498265849 0.0024773006167666273
leaf_weight=23416 6432 3498 13832 14930 84422 7294 33771 65285 64812 3156 64130 83486 21422 30290 70850 12796 942 41998 15562 4486 3848 31675 2597 12603 1961 6139 5591 1357 2462 8247
leaf_count=23416 6432 3498 13832 14930 84422 7294 33771 65285 64812 3156 64130 83486 21422 30290 70850 12796 942 41998 15562 4486 3848 31675 2597 12603 1961 6139 5591 1357 2462 8247
internal_value=3.41727e-11 -0.000499336 0.000943225 -0.00267049 -0.00164508 0.0016234 -0.000372316 0.00162886 -0.00182813 -0.00305559 -0.00336001 0.00198265 -0.00537735 0.00179157 0.00125537 0.000434903 0.00320679 0.00444978 0.00183372 0.0037472 -0.00021222 0.00427973 -0.00135878 -0.00256853 0.00578205 0.000433333 -0.00101668 0.00427998 -0.00494129 0.00147471
internal_weight=743290 581279 257310 57478 323969 22224 170300 71717 98583 153669 148552 199832 35254 162011 154336 82717 79294 45496 46474 70299 8334 61965 36243 25399 5117 29555 8995 16919 3404 10844
internal_count=743290 581279 257310 57478 323969 22224 170300 71717 98583 153669 148552 199832 35254 162011 154336 82717 79294 45496 46474 70299 8334 61965 36243 25399 5117 29555 8995 16919 3404 10844
is_linear=0
shrinkage=0.0155556


Tree=7
num_leaves=28
num_cat=0
split_feature=16 24 24 24 19 18 24 18 16 21 24 17 17 19 16 17 17 105 19 21 19 16 87 23 88 88 112
split_gain=2567.98 3051.98 2141.39 2741.95 2529.66 1981.35 1943.76 1151.52 873.734 769.167 753.322 591.148 470.909 304.544 283.138 423.486 179.516 151.248 94.3753 78.715 75.2187 49.5185 30.7687 26.7496 25.7038 24.4027 18.1365
threshold=24.642027854919437 -0.8149999976158141 2.3599998950958256 0.61500000953674328 0.45905669724916459 0.25617218060492336 0.57499998807907116 0.39357771679852999 1.129062354564667 1.0000000180025095e-35 -0.96500000357627858 0.11241883412003519 0.88440343737602245 0.523011070387014 61.74946594238282 1.949307441711426 0.41526906192302709 -0.86204451322555531 0.5112350085998717 0.11715228835849543 0.59464406378439183 71.876979827880874 4.2467544690821368 -2.4408010357872825 0.06930265176971008 1.0000000180025095e-35 -0.17725429420876834
decision_type=2 2 2 2 2 2 2 2 2 2 2 2 2 2 2 2 2 2 2 2 2 2 2 2 2 2 2
left_child=1 7 3 5 -5 -3 23 9 13 11 -10 -1 -11 -9 15 16 -8 18 -16 -17 22 -19 -4 -2 -22 -25 -27
right_child=6 2 20 4 -6 -7 14 8 10 12 -12 -13 -14 -15 17 19 -18 21 -20 -21 24 -23 -24 25 -26 26 -28
leaf_value=0.0005127090136804864 0.011836523866341785 -0.0031954449792842123 -0.013784070950020755 0.0034414221802409259 -0.00087095495834123044 -0.00015697411062264794 0.0052241645199290884 0.0062834390032048375 0.0028954145709985967 -0.0030693527674872287 -0.0044786064030950933 0.0050882828534787655 0.0017899360195005609 0.0005386451718572277 0.013581766585443619 0.0026311565060091781 0.0095235420645759829 0.0049841337951559784 0.0047169048020579444 -0.0045873701825784857 -0.0097616228778477313 0.0094305733598463726 0.0016098850391529224 0.0076276295881318309 -0.0030783010551628967 -0.012658022707789497 -0.0093063560510476921
leaf_weight=29555 20 191106 4726 89357 123440 142951 8341 37896 31159 25399 6356 16919 10844 3876 4172 959 6652 1768 514 1440 940 2074 50 27 286 1268 1195
leaf_count=29555 20 191106 4726 89357 123440 142951 8341 37896 31159 25399 6356 16919 10844 3876 4172 959 6652 1768 514 1440 940 2074 50 27 286 1268 1195
internal_value=-3.60229e-11 -0.000228818 -0.000919269 -0.000791992 0.000939884 -0.00189521 0.00575352 0.00212742 0.00380841 0.000516138 0.00164607 0.00217846 -0.00161544 0.00575038 0.00734188 0.00591323 0.00713169 0.0102555 0.0126094 -0.00170176 -0.0125157 0.00738442 -0.0136229 -0.0106489 -0.00820254 -0.0108295 -0.0110319
internal_weight=743290 714860 552856 546854 212797 334057 28430 162004 79287 82717 37515 46474 36243 41772 25920 17392 14993 8528 4686 2399 6002 3842 4776 2510 1226 2490 2463
internal_count=743290 714860 552856 546854 212797 334057 28430 162004 79287 82717 37515 46474 36243 41772 25920 17392 14993 8528 4686 2399 6002 3842 4776 2510 1226 2490 2463
is_linear=0
shrinkage=0.0195207


Tree=8
num_leaves=31
num_cat=0
split_feature=17 19 21 16 19 97 17 16 19 16 17 16 17 19 20 103 17 19 81 19 105 46 20 16 21 14 91 16 103 67
split_gain=2346.58 2737.51 2236.7 1649.31 1169.32 1170.79 958.576 1292.82 865.617 926.056 894.975 756.684 530.74 353.002 320.153 245.717 210.098 267.956 197.213 187.283 177.048 167.072 131.082 95.9761 94.8343 74.3752 72.8763 50.6545 7.7596 5.12056
threshold=-1.0289497971534727 0.53486898228772983 -0.15741882049953215 50.825675964355476 0.44805203082685768 -1.0000000180025095e-35 4.284440517425538 -17.113936424255368 0.51156865772832394 9.0849413871765154 -2.0805387496948238 0.26861897110939031 -0.99297142028808583 0.51004277810530596 0.4660980082950173 0.14443015749970203 1.9027831554412844 0.43626971177147983 0.13627036660909655 0.89086515878239114 3.2406708002090459 8.4341810477400454 0.28788177930696507 -1.0984667539596555 -0.26655348860456052 49.049999237060554 -0.45874683705620434 -8.4350500106811506 11.998139275720357 -0.43148906558005978
decision_type=2 2 2 2 2 2 2 2 2 2 2 2 2 2 2 2 2 2 2 2 2 2 2 2 2 2 2 2 2 2
left_child=1 4 12 6 5 15 7 -4 10 -10 -6 -7 28 20 21 -1 17 -14 -8 27 -5 24 -15 -18 -3 -23 -21 -16 29 -2
right_child=2 14 3 13 8 11 18 -9 9 -11 -12 -13 16 22 19 -17 23 -19 -20 26 -22 25 -24 -25 -26 -27 -28 -29 -30 -31
leaf_value=0.010905772886548816 -0.008491478909021799 0.0085083151272111381 -0.0089026939827494996 0.013961816047414704 -0.0083534731753552478 -0.00014663472514850668 0.0015613565297509259 -0.0010958859892972325 0.0064315437045337157 -0.0062505156563232274 0.00058359939419343285 0.0048800816288044578 0.011061153022632468 -0.0093800947093737857 0.012203127363564315 0.0049483401762521907 0.013922757405583366 0.004197591451932995 0.0098361323756570654 0.00039965096910417444 0.0049337116716721792 -0.006947785879188326 0.0041694571180613798 0.006868475268479419 -0.015111264325135222 -0.015245325636020952 -0.0085806266917877478 0.0025674723594824871 -0.0038284450165853661 -0.018277024091698381
leaf_weight=14308 27 84 10281 4339 5890 20419 1989 509519 19836 3173 55339 46916 3189 457 339 4271 2111 17706 4385 647 1354 8309 1316 1619 2093 547 1276 1101 20 430
leaf_count=14308 27 84 10281 4339 5890 20419 1989 509519 19836 3173 55339 46916 3189 457 339 4271 2111 17706 4385 647 1354 8309 1316 1619 2093 547 1276 1101 20 430
internal_value=-7.03377e-11 0.00213095 -0.000703836 -0.00100293 0.00290312 0.0046923 -0.00114728 -0.00125029 0.00107834 0.00468266 -0.000276113 0.00335576 0.00565463 0.00916968 -0.00699557 0.00953626 0.00609574 0.00524511 0.007254 -0.00110814 0.0118146 -0.00879013 0.000676989 0.0108609 -0.0141999 -0.00746029 -0.00555918 0.00483587 -0.0171173 -0.0176989
internal_weight=743290 184548 558742 533640 170152 85914 526174 519800 84238 23009 61229 67335 25102 7466 14396 18579 24625 20895 6374 3363 5693 11033 1773 3730 2177 8856 1923 1440 477 457
internal_count=743290 184548 558742 533640 170152 85914 526174 519800 84238 23009 61229 67335 25102 7466 14396 18579 24625 20895 6374 3363 5693 11033 1773 3730 2177 8856 1923 1440 477 457
is_linear=0
shrinkage=0.0217964


Tree=9
num_leaves=31
num_cat=0
split_feature=24 24 24 17 17 24 24 17 18 16 17 18 24 16 18 24 18 17 24 20 24 16 18 16 17 21 18 17 21 78
split_gain=2561.91 3609.49 3703.01 2733.65 2291.17 2021.77 1635.68 1347.41 1591.66 1302.81 1201.13 1102.54 873.992 800.614 746.163 1191.78 1125.06 1262.03 670.159 842.826 551.19 504.194 278.487 242.88 231.692 217.52 205.233 270.316 161.75 160.21
threshold=-0.8149999976158141 0.58499997854232799 1.5850000381469729 0.95451858639717113 -1.8380827903747556 2.1550000905990605 -0.41499999165534968 3.9336166381835942 0.25617218060492336 26.185264587402347 -0.83620145916938771 0.39357771679852999 1.6649999618530276 1.5006921887397768 0.38295846751570523 -1.1449999809265134 0.38202946124607579 0.012740351259708406 -1.2150000333786009 0.39599645859897464 0.27500000596046453 4.398008108139039 0.3856149168086947 61.74946594238282 -1.3565482497215269 -0.14072191020225935 0.50975907076559646 -2.3928928375244136 -0.14072191020225935 2.3789950862980311
decision_type=2 2 2 2 2 2 2 2 2 2 2 2 2 2 2 2 2 2 2 2 2 2 2 2 2 2 2 2 2 2
left_child=11 4 9 12 6 -5 28 8 -6 10 -3 14 -4 26 16 25 17 -1 24 -20 -9 -8 -17 -11 -15 -16 29 -28 -2 -13
right_child=1 2 3 5 7 -7 21 20 -10 23 -12 13 -14 18 15 22 -18 -19 19 -21 -22 -23 -24 -25 -26 -27 27 -29 -30 -31
leaf_value=-0.00071795287123734789 -0.0062543359872858847 0.0026649352630398158 3.7419214085067743e-05 0.0037147210234012742 -0.0023472949104038419 -0.0037597636874932036 0.0036127928309335226 0.0074176167802459591 -0.00058202369610333479 0.0031732497925176613 0.00052434819896446979 0.0041066953532286066 -0.0047914445926194663 0.0049358898590521538 0.0084345322834833512 -0.0067610959356522587 0.0084600091245558163 0.0027898975972283882 -0.0023982378784717612 0.0025144394093462802 -0.00043778666778607954 -5.7757363868435712e-06 -0.0015289094656470643 0.0057841431049466064 0.0018295728021596647 0.00014008068761302986 -0.0044910088352685187 0.0023571336725577321 -0.0019377481124231194 0.0024033072411915359
leaf_weight=34716 2932 48662 6147 14930 167254 7294 21941 3156 117924 11870 131172 27479 29107 4724 441 5261 2635 23147 11950 7825 1961 6839 1866 8128 10429 14651 904 5712 1962 10271
leaf_count=34716 2932 48662 6147 14930 167254 7294 21941 3156 117924 11870 131172 27479 29107 4724 441 5261 2635 23147 11950 7825 1961 6839 1866 8128 10429 14651 904 5712 1962 10271
internal_value=8.79465e-12 -0.000360661 0.000668234 -0.00193461 -0.00117785 0.00126157 0.00169535 -0.00151114 -0.00161734 0.00141689 0.00110358 0.00129402 -0.00394947 0.00227445 0.000354151 -0.00146951 0.00102393 0.000685296 0.000956662 -0.000454283 0.00440717 0.00275291 -0.0053912 0.00423442 0.00279798 0.000382451 0.00331191 0.00142141 -0.00452382 0.00364324
internal_weight=743290 581279 257310 57478 323969 22224 33674 290295 285178 199832 179834 162011 35254 79294 82717 22219 60498 57863 34928 19775 5117 28780 7127 19998 15153 15092 44366 6616 4894 37750
internal_count=743290 581279 257310 57478 323969 22224 33674 290295 285178 199832 179834 162011 35254 79294 82717 22219 60498 57863 34928 19775 5117 28780 7127 19998 15153 15092 44366 6616 4894 37750
is_linear=0
shrinkage=0.0116364


Tree=10
num_leaves=31
num_cat=0
split_feature=24 24 24 17 17 19 24 24 18 17 24 19 17 18 18 18 24 18 17 18 19 18 24 24 18 18 17 21 41 94
split_gain=2281.46 3219.31 3309.98 2451.19 2130.18 1895.49 2173.79 1863.59 1548.84 1548.7 1940.94 1237.31 1159.89 1011.45 951.41 699.439 1126.01 1073.39 1185.93 616.1 603.917 521.192 502.178 497.085 480.078 262.411 256.656 207.106 133.154 93.3669
threshold=-0.8149999976158141 0.58499997854232799 1.5850000381469729 0.95451858639717113 -0.072294767946004854 0.41305996124472216 -0.32500000298023218 2.1550000905990605 0.25761266252479348 3.9336166381835942 -0.03499999921768903 0.52192919141173155 -1.0944855213165281 0.39357771679852999 0.0054245699624447469 0.38295846751570523 -1.1449999809265134 0.38202946124607579 0.012740351259708406 -0.031413796496661886 0.523011070387014 0.51997382865973318 -1.2450000047683714 0.27500000596046453 0.45089788572287209 0.3856149168086947 -2.1286870241165157 -0.14072191020225935 14.232619599610972 10.804537224477913
decision_type=2 2 2 2 2 2 2 2 2 2 2 2 2 2 2 2 2 2 2 2 2 2 2 2 2 2 2 2 2 2
left_child=13 4 12 11 5 6 -2 -5 -7 10 -6 -4 19 15 -14 17 27 18 -1 -3 21 24 -23 -11 -15 -18 28 -17 -22 -28
right_child=1 2 3 7 9 8 -8 -9 -10 23 -12 -13 14 20 -16 16 25 -19 -20 -21 26 22 -24 -25 -26 -27 29 -29 -30 -31
leaf_value=-0.0010852809916110505 -0.0078665726829814826 -0.002586782229684875 -0.0015407289713542786 0.0053423106931617809 -0.0017489833681780267 -0.0049380093733247081 0.0027963935988413293 -0.0054499248699186788 -0.00031587290011658329 0.010598988575726297 -0.005787529447555801 -0.0082551550023506112 2.4334082542623847e-05 0.0027724685244238855 0.0027816002620285503 0.012350672365181031 -0.0099053467989496831 0.012381267899353995 0.0040286542363212972 0.0050573135848322598 -0.010404766975917346 0.0036976446047917296 -0.0049140397782914871 -0.00061999845606061665 0.0058539482721554643 -0.0022671256294935173 0.0005950917930338252 0.00017886116019883087 -0.002668332582170176 0.0086905193721106295
leaf_weight=34716 6432 3498 13832 14930 84422 33771 65285 7294 64812 3156 64130 21422 83486 30290 70850 441 5261 2635 23147 41998 942 4452 3882 1961 31675 1866 5114 14651 2462 477
leaf_count=34716 6432 3498 13832 14930 84422 33771 65285 7294 64812 3156 64130 21422 83486 30290 70850 441 5261 2635 23147 41998 942 4452 3882 1961 31675 1866 5114 14651 2462 477
internal_value=1.50443e-11 -0.000511853 0.000949485 -0.00275139 -0.00167251 -0.00032454 0.00184008 0.00180026 -0.00189925 -0.00316637 -0.00349243 -0.00562073 0.00201397 0.00183648 0.00129009 0.000482657 -0.00217271 0.00145789 0.000960452 0.00446959 0.00324874 0.00379504 -0.000313702 0.00629951 0.00434765 -0.0079055 -0.00102079 0.000534531 -0.00480926 0.00128576
internal_weight=743290 581279 257310 57478 323969 170300 71717 22224 98583 153669 148552 35254 199832 162011 154336 82717 22219 60498 57863 45496 79294 70299 8334 5117 61965 7127 8995 15092 3404 5591
internal_count=743290 581279 257310 57478 323969 170300 71717 22224 98583 153669 148552 35254 199832 162011 154336 82717 22219 60498 57863 45496 79294 70299 8334 5117 61965 7127 8995 15092 3404 5591
is_linear=0
shrinkage=0.0175


Tree=11
num_leaves=31
num_cat=0
split_feature=22 21 17 20 17 17 17 17 22 0 17 23 21 17 23 17 23 23 23 20 21 23 23 21 81 20 98 17 12 17
split_gain=2306.6 1542.26 1960.67 1087.62 893.124 853.923 744.195 688.441 792.267 670.761 477.52 438.951 428.959 444.52 429.271 393.993 388.96 325.418 271.589 259.983 244.749 229.4 264.342 197.513 179.844 145.062 86.0306 42.0313 37.5714 30.3712
threshold=-0.012820487918963506 -0.15741882049953215 -1.2184708714485166 0.23031111265801554 4.284440517425538 -0.072294767946004854 -1.063214838504791 1.9137869477272036 -1.0716347981760135 -0.002084040546826467 -2.6906394958496089 -3.2336858106537858 0.037687466449274599 -3.3635363578796382 -1.3246185422936314 -2.153175830841064 1.3126521571599541 -6.0918056259756259 -0.49619624679926622 0.29458874601532464 0.17249191769704539 -3.3268443180647291 1.1745591096236321 0.035331032242427667 0.13627036660909655 0.19018770662428933 0.052252522884015835 -2.1286870241165157 0.95284011960029613 -0.35742142796516413
decision_type=2 2 2 2 2 2 2 2 2 2 2 2 2 2 2 2 2 2 2 2 2 2 2 2 2 2 2 2 2 2
left_child=5 6 3 15 9 11 16 17 -9 -4 -5 19 13 -13 -14 -3 18 25 -2 26 -19 29 -23 -10 -6 -7 -1 -21 -18 -8
right_child=1 2 4 10 24 7 21 8 23 -11 -12 12 14 -15 -16 -17 28 20 -20 27 -22 22 -24 -25 -26 -27 -28 -29 -30 -31
leaf_value=0.0073719815533647964 -0.0024018005524629312 0.0040937113770687789 -0.0023793644047017592 0.0040864993476933554 0.00071632291242144518 -0.00076366652789592487 -0.0030979572424450811 -0.0069357730505307334 0.0040757557266281625 -0.00073340273033597439 -0.00082293497764466335 -0.006395682686521016 -0.0021343265931696828 0.0027484040187536539 0.0016825772247575886 0.001636507185640321 -0.0015578060059898017 -0.00010491058414396461 0.0023750198957689602 0.0034219528491437855 0.0036026371825332508 0.0054576228811433775 0.002534579908473535 0.0089379887827121286 0.0052534596993879298 -0.0048733506524639165 0.0044997688073849188 0.00011405522333870614 -0.0074433240260021339 0.00055035566811789693
leaf_weight=3841 3049 13015 42587 3359 1986 2370 452 914 4378 422272 39481 845 6740 48996 14527 47072 197 42488 4768 997 2977 10347 9073 1860 4366 3094 2830 1508 1213 1688
leaf_count=3841 3049 13015 42587 3359 1986 2370 452 914 4378 422272 39481 845 6740 48996 14527 47072 197 42488 4768 997 2977 10347 9073 1860 4366 3094 2830 1508 1213 1688
internal_value=2.35472e-11 -0.000333027 -0.000479182 0.00108377 -0.00082058 0.00145598 0.00239258 0.000301451 0.00393303 -0.000884194 -0.000437996 0.00229121 0.00195919 0.00259338 0.000472913 0.00216874 -0.000578155 -0.000208534 0.000511834 0.00486419 0.000137856 0.00366396 0.00409198 0.00552554 0.00383489 -0.00309078 0.00615352 0.00143061 -0.00662102 -0.000220223
internal_weight=743290 604925 574138 102927 471211 138365 30787 58081 7152 464859 42840 80284 71108 49841 21267 60087 9227 50929 7817 9176 45465 21560 19420 6238 6352 5464 6671 2505 1410 2140
internal_count=743290 604925 574138 102927 471211 138365 30787 58081 7152 464859 42840 80284 71108 49841 21267 60087 9227 50929 7817 9176 45465 21560 19420 6238 6352 5464 6671 2505 1410 2140
is_linear=0
shrinkage=0.0125


Tree=12
num_leaves=31
num_cat=0
split_feature=24 24 24 17 17 19 24 24 17 24 24 16 19 17 16 24 17 24 16 19 17 19 16 19 19 24 21 17 41 16
split_gain=2176.53 3058.03 3139.41 2335.64 1967.9 1775.96 2011.9 1708.45 1400.42 1794.92 1353.06 1235.62 1140.09 1019.55 800.917 650.772 759.157 456.406 408.04 366.595 329.033 688.023 694.93 533.696 384.981 362.929 257.499 251.218 172.626 141.134
threshold=-0.8149999976158141 0.58499997854232799 1.5850000381469729 0.95451858639717113 -0.072294767946004854 0.41305996124472216 -0.32500000298023218 2.1550000905990605 3.9336166381835942 -0.03499999921768903 0.064999999478459372 26.185264587402347 0.52192919141173155 -0.83620145916938771 1.5006921887397768 -1.2450000047683714 2.1118055582046513 0.27500000596046453 7.9319605827331552 0.51050481161419914 0.031762266531586654 0.49779591259994765 -3.4449677467346187 0.47624980499377761 0.53870480846785729 -1.0750000476837156 0.058321864360621596 -1.3565482497215269 36.316902709401212 1.0652338862419131
decision_type=2 2 2 2 2 2 2 2 2 2 2 2 2 2 2 2 2 2 2 2 2 2 2 2 2 2 2 2 2 2
left_child=14 4 11 12 5 6 -2 -5 9 -6 -7 13 -4 -3 20 27 18 -10 -17 -13 21 22 -1 29 -23 -25 -18 -16 -29 -22
right_child=1 2 3 7 8 10 -8 -9 17 -11 -12 19 -14 -15 15 16 26 -19 -20 -21 23 24 -24 25 -26 -27 -28 28 -30 -31
leaf_value=-0.00082372122430576843 -0.00765506496216007 0.0037025312157118284 -0.0015802027508927518 0.0052066203360854385 -0.0017176382473326379 1.3727738199563359e-05 0.0027067994167353513 -0.00523102534797335 0.01015569226455099 -0.0056405238908938072 -0.0041449405282912534 0.007300391423965903 -0.0080905489318972464 0.00070662835755463396 0.0070432188203439121 -0.0026461795224393251 0.0011824422633793939 -0.00070303653431400383 0.0010248611197266825 0.0011738153182249645 0.0065971342760525187 0.0057557899038073734 0.0038094691840888074 0.0032723747955660429 -0.0036302626486137616 -0.003576215396376513 0.0088767643292773282 0.004089914076904148 0.00032255615671006733 -0.0023020902798921326
leaf_weight=27083 6432 48662 13832 14930 84422 53725 65285 7294 3156 64130 44858 16240 21422 131172 4026 30046 2438 1961 13809 3758 17635 16833 16146 10446 1486 3146 3071 7122 8149 575
leaf_count=27083 6432 48662 13832 14930 84422 53725 65285 7294 3156 64130 44858 16240 21422 131172 4026 30046 2438 1961 13809 3758 17635 16833 16146 10446 1486 3146 3071 7122 8149 575
internal_value=-3.61526e-12 -0.000504994 0.000933654 -0.00270701 -0.00164763 -0.000338932 0.00177749 0.00178095 -0.00309796 -0.00341115 -0.00187858 0.00198082 -0.0055362 0.0015173 0.00181187 0.000362672 -0.000713303 0.00599428 -0.00149025 0.00614909 0.00287778 0.00212341 0.000906772 0.00433775 0.00499441 0.0016872 0.00547165 0.00311514 0.00207955 0.00631613
internal_weight=743290 581279 257310 57478 323969 170300 71717 22224 153669 148552 98583 199832 35254 179834 162011 68661 49364 5117 43855 19998 93350 61548 43229 31802 18319 13592 5509 19297 15271 18210
internal_count=743290 581279 257310 57478 323969 170300 71717 22224 153669 148552 98583 199832 35254 179834 162011 68661 49364 5117 43855 19998 93350 61548 43229 31802 18319 13592 5509 19297 15271 18210
is_linear=0
shrinkage=0.0176768


Tree=13
num_leaves=31
num_cat=0
split_feature=22 16 24 19 20 24 19 24 19 17 19 19 17 24 24 24 17 17 105 22 19 24 19 74 16 78 41 76 80 87
split_gain=2051.24 2004.69 1752.93 1656.04 2303.9 1427.43 900.566 789.496 611.035 771.673 591.543 370.543 328.294 288.399 281.402 261.86 236.203 198.228 191.444 155.36 132.671 122.761 107.949 65.1253 54.0429 53.9914 52.7981 25.7197 16.7299 19.2958
threshold=-0.012820487918963506 50.825675964355476 -0.98500001430511464 0.41305996124472216 0.065132986985876121 0.59499999880790722 0.39112507047233708 -0.62499999999999989 0.57749219819278796 1.9137869477272036 0.52856532644407894 0.50370274795446435 1.8612582683563235 0.72500002384185802 0.57499998807907116 -1.2450000047683714 0.47883489727973944 -2.8943786621093746 3.5307343006134038 -1.5512984554335014 0.51050481161419914 1.3450000286102297 0.38056281851693946 18.187876852777567 71.876979827880874 0.2423876091115327 20.478147756052127 20.842453002929691 0.015621879224046393 -1.423374864401139
decision_type=2 2 2 2 2 2 2 2 2 2 2 2 2 2 2 2 2 2 2 2 2 2 2 2 2 2 2 2 2 2
left_child=6 2 11 4 -4 -5 13 10 9 -9 16 15 -13 19 28 -2 -8 27 20 26 -16 -10 -21 -12 -20 -19 -1 -15 29 -3
right_child=1 14 3 5 -6 -7 7 8 21 -11 23 12 -14 17 18 -17 -18 25 24 22 -22 -23 -24 -25 -26 -27 -28 -29 -30 -31
leaf_value=0.010863910177992087 0.0017051055806256339 0.011423042373997825 -0.00061038390310788355 -0.0024266092604304577 0.0036077495676745674 -0.00038788462033377942 0.0041499246737605622 0.00036192764868852803 0.0012994197067984201 0.0062575020271348749 -0.0080441224401121055 0.0021290780825785919 0.0069934233803539631 0.0057111962194795959 0.0083110693793889273 6.2154798584662159e-05 0.0014280443173616923 0.011102883777577186 0.0023145584725790609 0.0036232223181424986 0.0027349577213454908 -0.0070711647297898913 -0.0015683863504688509 -0.0026357976850434487 0.0058641274174156249 0.0078279452352386751 0.0053795424552699773 -0.0037878769575678687 -0.0077501798353411941 -0.0036914660856127734
leaf_weight=622 41233 21 135361 176124 37125 137674 28619 78457 459 5335 747 14651 3967 81 6481 46379 9573 2111 2832 2907 1127 2793 1306 1521 1464 2444 1082 308 286 200
leaf_count=622 41233 21 135361 176124 37125 137674 28619 78457 459 5335 747 14651 3967 81 6481 46379 9573 2111 2832 2907 1127 2793 1306 1521 1464 2444 1082 308 286 200
internal_value=-2.17544e-11 -0.000376863 -0.000501836 -0.000883168 0.000297505 -0.00153215 0.00164762 0.00129443 0.000489709 0.000737296 0.00302569 0.00124377 0.00316554 0.00579395 0.0055895 0.00083538 0.00346767 0.00846797 0.00605563 0.00355964 0.00748506 -0.00588971 0.00201386 -0.00441711 0.00352419 0.0093457 0.00738147 -0.00180992 -0.00535495 -0.00225525
internal_weight=743290 604925 592514 486284 172486 313798 138365 127504 87044 83792 40460 106230 18618 10861 12411 87612 38192 4944 11904 5917 7608 3252 4213 2268 4296 4555 1704 389 507 221
internal_count=743290 604925 592514 486284 172486 313798 138365 127504 87044 83792 40460 106230 18618 10861 12411 87612 38192 4944 11904 5917 7608 3252 4213 2268 4296 4555 1704 389 507 221
is_linear=0
shrinkage=0.015


Tree=14
num_leaves=30
num_cat=0
split_feature=24 24 24 24 19 19 24 17 18 97 21 19 18 17 19 75 19 87 41 78 74 7 59 76 52 79 61 108 61
split_gain=2013.56 1627.25 3164.63 1814.09 1759.9 1685.86 2659.89 1752.13 835.683 817.693 631.257 524.282 953.395 472.651 414.643 85.5958 69.6202 28.3607 29.4037 25.3246 25.4481 24.8448 20.2584 17.413 15.7371 14.1345 11.582 10.1307 7.93497
threshold=2.3599998950958256 -0.8149999976158141 0.59499999880790722 1.4249999523162844 0.45995283227514211 0.41305996124472216 0.064999999478459372 -1.8380827903747556 0.39357771679852999 -0.22683212694067742 1.0000000180025095e-35 0.47707945513796718 0.48299132872914569 0.11241883412003519 0.48027718075066345 -15.462173741913771 0.59464406378439183 3.5338213963676601 17.382800306537288 0.13515199963738114 38.736948135919341 34.722499847412116 -0.0025777963400619081 28.164096832275394 -0.0016331998680185862 3.040622472763062 -0.0029571736509090047 91.211837768554702 -0.0012417266918546843
decision_type=2 2 2 2 2 2 2 2 2 2 2 2 2 2 2 2 2 2 2 2 2 2 2 2 2 2 2 2 2
left_child=1 8 5 9 -5 7 -7 -3 10 -4 13 15 -13 -1 -12 -10 17 21 26 27 23 24 -23 -21 -2 -22 -19 28 -18
right_child=16 2 3 4 -6 6 -8 -9 11 -11 14 12 -14 -15 -16 -17 19 18 -20 20 25 22 -24 -25 -26 -27 -28 -29 -30
leaf_value=0.00046241151406838424 -0.011300122135645015 0.0060309194918806239 0.0044768482162809344 0.0036698589490249687 -0.002463858406347246 -0.00093458807889397336 -0.0055269371172528411 -0.00076888301841868752 -0.01023722244324265 0.0015101494977820379 -0.0034757427271857252 0.0035974701251020066 -0.0024649730807860593 0.0045433893684090013 0.00069336343911088698 0.0058565167455086817 -0.012660144813972842 0.021070350292496959 -0.017039995485399681 -0.0042463288180386791 -0.0039662635581925385 0.016174298034121216 -0.0083912816553652902 0.0051793348004287709 -0.013591200835860023 -0.010590150417903295 0.00036652590670100944 0.00085740916488262313 -0.00060450350735466777
leaf_weight=29555 1970 16401 55758 23992 67999 120291 79364 115830 126 95640 18895 44239 12646 16919 17348 22283 350 20 23 210 206 20 35 115 2687 300 21 25 22
leaf_count=29555 1970 16401 55758 23992 67999 120291 79364 115830 126 95640 18895 44239 12646 16919 17348 22283 350 20 23 210 206 20 35 115 2687 300 21 25 22
internal_value=2.83434e-11 9.14529e-05 -0.000393987 0.00129241 -0.000864135 -0.00163071 -0.00276007 7.45165e-05 0.00181517 0.00260275 0.000445984 0.00324346 0.00224974 0.0019481 -0.00148017 0.00576603 -0.0112303 -0.0122935 0.000581002 -0.00709537 -0.0051627 -0.0124684 0.000541656 -0.000911094 -0.012622 -0.00789347 0.010466 -0.0111408 -0.0119472
internal_weight=743290 737286 575275 243389 91991 331886 199655 132231 162011 151398 82717 79294 56885 46474 36243 22409 6004 4776 64 1228 831 4712 55 325 4657 506 41 397 372
internal_count=743290 737286 575275 243389 91991 331886 199655 132231 162011 151398 82717 79294 56885 46474 36243 22409 6004 4776 64 1228 831 4712 55 325 4657 506 41 397 372
is_linear=0
shrinkage=0.0194712


Tree=15
num_leaves=30
num_cat=0
split_feature=24 22 21 17 19 24 19 18 24 17 18 18 18 88 17 88 18 88 52 90 87 13 29 44 110 88 65 48 35
split_gain=1817.24 1714.45 1267.66 1286.84 2664.48 1421.76 770.82 750.019 598.323 535.874 463.374 366.788 262.623 235.939 207.99 63.8353 63.5126 26.0139 26.6789 26.1985 19.1314 17.7824 16.9751 16.9732 15.5521 15.29 9.04814 8.74263 8.35628
threshold=2.3599998950958256 -0.012820487918963506 -0.15393693672101072 -1.2184708714485166 0.49998477917593404 -0.8149999976158141 0.39112507047233708 0.32984312270602573 0.58499997854232799 -0.98083403706550587 0.50975907076559646 0.24887036352281292 -0.015136999650632433 0.063637606474926792 -0.69722899794578541 0.053330052290449743 0.06052976877765532 0.069083174140579087 -0.0022640853834993871 0.63134416937828075 4.2467544690821368 56.663288116455085 -0.0064504065017470741 31.067908879497086 90.986797332763686 0.070590637348863908 -0.00016210791148192348 0.15834641893820803 1.0000000180025095e-35
decision_type=2 2 2 2 2 2 2 2 2 2 2 2 2 2 2 2 2 2 2 2 2 2 2 2 2 2 2 2 2
left_child=1 6 9 4 -4 -5 12 8 -8 11 -9 -3 14 -11 -1 -14 20 18 24 25 21 28 -23 -21 -18 -19 -20 -22 -2
right_child=16 2 3 5 -6 -7 7 10 -10 13 -12 -13 15 -15 -16 -17 17 19 26 23 27 22 -24 -25 -26 -27 -28 -29 -30
leaf_value=0.0068062337915092107 -0.0074671650634183465 -0.007041125814115241 0.0018926957772224758 0.00062154122952594337 -0.0024672162412368642 -0.00093851499419030028 -0.00098307265327026447 0.0026190869397934944 0.0010851788866306979 0.0041832338258714821 -0.00027889710581246996 0.00054311440303532151 0.0036267309505049351 0.0017900428751858048 -0.0016253577627811555 0.0011896398100504312 -0.0040936780690944297 0.0039451412948561301 -0.0069894233274165312 0.0036643114652232488 -0.0046291217138921762 0.0043106522037767367 -0.0091273720479673782 -0.0027271458932626364 0.0034400917667495776 -0.0057650161316621616 -0.0010613817338344981 0.006192870127658047 -0.0048285889902482263
leaf_weight=4649 3744 933 77192 99649 24813 364523 31247 39989 46801 11398 9067 10115 3082 10698 428 2702 624 24 823 116 20 34 20 107 39 229 36 20 168
leaf_count=4649 3744 933 77192 99649 24813 364523 31247 39989 46801 11398 9067 10115 3082 10698 428 2702 624 24 823 116 20 34 20 107 39 229 36 20 168
internal_value=-9.0125e-12 5.16435e-05 -0.000216141 -0.000344932 0.000832135 -0.0006036 0.0012149 0.00096201 0.000257142 0.00198391 0.00208345 -9.73722e-05 0.00417443 0.00302455 0.00609544 0.00248824 -0.00634178 -0.00465618 -0.00539474 -0.00229464 -0.00718247 -0.0072628 -0.000666394 0.000597558 -0.00365052 -0.00484389 -0.00674098 0.000781874 -0.00735385
internal_weight=743290 737286 599321 566177 102005 464172 137965 127104 78048 33144 49056 11048 10861 22096 5077 5784 6004 1998 1522 476 4006 3966 54 223 663 253 859 40 3912
internal_count=743290 737286 599321 566177 102005 464172 137965 127104 78048 33144 49056 11048 10861 22096 5077 5784 6004 1998 1522 476 4006 3966 54 223 663 253 859 40 3912
is_linear=0
shrinkage=0.0115741


Tree=16
num_leaves=29
num_cat=0
split_feature=24 16 24 24 19 24 19 16 24 22 16 105 24 19 87 23 88 88 7 8 90 52 48 62 90 78 50 50
split_gain=2035.97 1933.56 2080.82 2072.16 2069.63 1578.28 1063.76 724.44 529.14 349.477 193.356 134.66 132.989 69.9383 28.2813 26.2414 23.9904 22.9143 22.349 18.9968 17.4284 16.6514 16.0905 14.2995 14.0412 12.4566 9.58819 9.50277
threshold=2.3599998950958256 24.642027854919437 -0.8149999976158141 0.61500000953674328 0.45905669724916459 0.57499998807907116 0.41305996124472216 1.3224202990531924 -1.2450000047683714 0.21354339466859076 61.74946594238282 -0.86204451322555531 0.64499998092651378 0.59464406378439183 4.2467544690821368 -2.4408010357872825 0.06930265176971008 1.0000000180025095e-35 34.722499847412116 11.840499877929689 0.9927586317062379 -0.0022640853834993871 0.16180793911375882 -0.042245160422151033 0.42494551837444311 0.13515199963738114 -0.0064690912286932559 -0.045348188033145657
decision_type=2 2 2 2 2 2 2 2 2 2 2 2 2 2 2 2 2 2 2 2 2 2 2 2 2 2 2 2
left_child=1 2 7 6 -5 15 -4 9 -9 -1 12 -12 -7 14 18 -3 21 -17 24 -20 27 25 -16 -22 -2 -15 -23 -18
right_child=13 5 3 4 -6 10 -8 8 -10 -11 11 -13 -14 16 22 17 20 -19 19 -21 23 26 -24 -25 -26 -27 -28 -29
leaf_value=0.0023557562478773919 -0.0071383902163011043 0.0066814952097019233 -0.00016020545851232898 0.0016389673873746782 -0.00043358395407760617 0.001422776934219414 -0.0013535587803700623 0.0016432820520124658 -0.00035076187202726675 0.0010468074786566888 0.0059213731748223707 0.0033017950263228082 0.0034173057687739649 -0.0056608294808508063 -0.0040389595766088769 0.0042563104801246676 0.0033472100838321172 -0.0053511377214891954 0.0048850758814933991 -0.0075578444105275514 -0.0046894503310335534 -0.0073820979440627262 0.0078145858063573426 0.0037653257940729844 -0.0059254644805730511 -0.0018729708060111743 -0.0045401977414863282 -0.004273201487557764
leaf_weight=37702 3147 20 134569 89357 123440 5081 199488 19748 52053 52501 4686 3842 12309 138 28 27 20 2463 33 22 28 240 22 93 1524 289 273 147
leaf_count=37702 3147 20 134569 89357 123440 5081 199488 19748 52053 52501 4686 3842 12309 138 28 27 20 2463 33 22 28 240 22 93 1524 289 273 147
internal_value=4.50317e-12 4.89866e-05 -5.73843e-05 -0.000363252 0.000436715 0.00270137 -0.000872837 0.00097509 0.000197676 0.00159391 0.00346191 0.00474121 0.00283455 -0.00601552 -0.00658316 -0.00515191 -0.00380782 -0.00524696 -0.00666525 -9.20922e-05 -0.0011887 -0.00461028 0.0011766 0.00180885 -0.00674265 -0.00309715 -0.00586974 -0.00336058
internal_weight=743290 737286 708858 546854 212797 28428 334057 162004 71801 90203 25918 8528 17390 6004 4776 2510 1228 2490 4726 55 288 940 50 121 4671 427 513 167
internal_count=743290 737286 708858 546854 212797 28428 334057 162004 71801 90203 25918 8528 17390 6004 4776 2510 1228 2490 4726 55 288 940 50 121 4671 427 513 167
is_linear=0
shrinkage=0.0103721


Tree=17
num_leaves=29
num_cat=0
split_feature=16 24 24 24 18 24 24 18 16 18 18 24 24 17 16 105 20 22 105 5 18 79 88 88 7 41 80 98
split_gain=1774.37 1904.16 1473.89 1805.64 1534.62 1516.3 1397.92 772.633 640.037 589.06 982.318 956.238 502.55 187.863 304.403 258.472 164.626 91.5471 81.2831 72.151 59.6141 24.9385 24.879 22.5851 20.5518 16.9659 8.82526 8.3987
threshold=24.642027854919437 -0.8149999976158141 2.3599998950958256 0.61500000953674328 0.25617218060492336 1.5850000381469729 0.57499998807907116 0.39357771679852999 1.5006921887397768 0.38295846751570523 0.37663941568516185 -1.1449999809265134 -1.2150000333786009 1.9847556352615359 50.825675964355476 -0.096339926123619066 0.22852698154545228 2.1913639005332857 23.023019790649418 3.5000000000000004 0.06052976877765532 0.65704983472824108 0.069083174140579087 0.0095831417715251405 34.722499847412116 1.4861388657101211 0.013145487397356418 2.811238661316545
decision_type=2 2 2 2 2 2 2 2 2 2 2 2 2 2 2 2 2 2 2 2 2 2 2 2 2 2 2 2
left_child=1 7 3 4 -3 -5 21 9 16 10 -1 -11 -10 15 19 17 -9 -8 -17 -15 24 -2 -22 26 -4 -25 -23 -16
right_child=6 2 20 5 -6 -7 13 8 12 11 -12 -13 -14 14 27 18 -18 -19 -20 -21 22 23 -24 25 -26 -27 -28 -29
leaf_value=-0.00054769724732451534 0.0082876808863878264 -0.002153886513202319 -0.0095840910010150764 0.0013468534466479362 3.6642698150742552e-06 -0.0018252232587380305 0.0082764181104409279 0.0025080522321739894 0.0030221671389345436 0.00033544953315949044 0.0035500785743310015 -0.0066645664977607834 -0.00079009728785373414 0.0017010366240642449 0.010260281984713012 0.0044065100524680731 0.004477493618242164 0.0052454449449370211 0.00091874669733393291 -0.0046702655384099805 -0.0071134295098229019 0.0088536881804466231 -0.0029812383025271615 0.005442091919481756 0.0011200511068105697 -0.0078659354706864769 -0.0046531522125005725 0.0044414878233390697
leaf_weight=36338 25 191106 3961 164415 142951 48382 6887 17186 15153 15092 24160 7127 19768 694 647 10594 27180 3856 1965 1209 1522 28 474 24 45 2412 21 68
leaf_count=36338 25 191106 3961 164415 142951 48382 6887 17186 15153 15092 24160 7127 19768 694 647 10594 27180 3856 1965 1209 1522 28 474 24 45 2412 21 68
internal_value=1.78405e-11 -0.000153462 -0.000593489 -0.000508293 -0.00123062 0.000625643 0.00385874 0.00134818 0.00245914 0.000283278 0.00108876 -0.00190989 0.000864129 0.00494555 0.000945222 0.00539499 0.00371459 0.00718851 0.00386081 -0.00234673 -0.00835587 -0.0073644 -0.00613214 -0.00752187 -0.00946385 -0.00773482 0.00306504 0.00970689
internal_weight=743290 714860 552856 546854 334057 212797 28430 162004 79287 82717 60498 22219 34921 25920 2618 23302 44366 10743 12559 1903 6002 2510 1996 2485 4006 2436 49 715
internal_count=743290 714860 552856 546854 334057 212797 28430 162004 79287 82717 60498 22219 34921 25920 2618 23302 44366 10743 12559 1903 6002 2510 1996 2485 4006 2436 49 715
is_linear=0
shrinkage=0.01575


Tree=18
num_leaves=31
num_cat=0
split_feature=22 16 24 21 17 18 18 17 18 21 16 23 18 24 18 18 16 24 105 21 24 16 74 21 78 114 52 80 87 99
split_gain=1781.14 1779.62 1435.39 1200.23 1390.3 1115.27 789.183 769.751 657.717 654.308 549.413 597.25 412.161 456.054 362.235 304.915 257.504 237.451 177.033 120.33 64.5033 54.3587 53.5692 38.4207 24.412 23.6644 23.1339 16.3215 19.3102 14.1785
threshold=-0.012820487918963506 50.825675964355476 -0.98500001430511464 -0.15393693672101072 -1.2184708714485166 0.44536893386310089 -0.015136999650632433 -0.68079528212547291 0.32984312270602573 1.0000000180025095e-35 24.642027854919437 -6.0918056259756259 0.50975907076559646 -0.21499999612569806 -0.021960916780520565 0.56190908469820366 1.7247086167335512 0.57499998807907116 3.5307343006134038 -0.050358499592586183 0.62500000000000011 71.876979827880874 78.707267214943286 0.084970974158706275 0.2093787915679455 0.014106770532759163 -0.01524557117672874 0.015621879224046393 -1.423374864401139 1194064.6345320009
decision_type=2 2 2 2 2 2 2 2 2 2 2 2 2 2 2 2 2 2 2 2 2 2 2 2 2 2 2 2 2 2
left_child=6 2 5 7 -5 9 14 -4 10 -2 11 -8 16 -14 23 -7 -10 27 20 -12 -19 -20 24 26 -16 -25 -1 28 -3 -24
right_child=1 17 3 4 -6 15 8 -9 12 -11 19 -13 13 -15 22 -17 -18 18 21 -21 -22 -23 29 25 -26 -27 -28 -29 -30 -31
leaf_value=0.0040549416628144755 0.0012864601261445069 0.011629553801483578 -0.00060033528610752452 0.00072310593598461906 -0.0013349869269497184 0.0039913265372523076 -0.0043113342215343898 0.0047423559259374363 0.003888149418612174 -0.0014552000359879798 -0.0010274099880055601 0.00053643369384050058 -0.0021786391928474303 0.0048748826134494983 0.010631199668990742 -0.00054007002743219348 0.0011361725529743798 0.0048686173252330102 0.0019940436107594092 0.0062307587795090201 0.0077745656738337993 0.0054550823866888424 0.0060844596316484492 0.0067889378592847728 0.0081967811809096295 0.00017729606072517857 -0.0020936578848294789 -0.0069504390915721163 -0.00307058667888244 -0.0027741230465471748
leaf_weight=153 44230 21 10101 85655 377259 26577 5841 13269 30514 31839 552 72389 6757 2740 1945 3584 9477 2351 2832 4049 5257 1464 976 261 1594 206 871 286 200 40
leaf_count=153 44230 21 10101 85655 377259 26577 5841 13269 30514 31839 552 72389 6757 2740 1945 3584 9477 2351 2832 4049 5257 1464 976 261 1594 206 871 286 200 40
internal_value=-2.44835e-12 -0.00034142 -0.000455898 -0.000791381 -0.000954169 0.00107983 0.00149267 0.00243313 0.00125724 0.000138927 0.000462515 0.000174478 0.00258743 -0.000143612 0.00664507 0.00345287 0.00323599 0.0051239 0.00554019 0.00535997 0.00687658 0.0031735 0.00868734 0.000405946 0.00953471 0.00387245 -0.00117497 -0.00465034 -0.00167374 0.0057357
internal_weight=743290 604925 592514 486284 462914 106230 138365 23370 132319 76069 82831 78230 49488 9497 6046 30161 39991 12411 11904 4601 7608 4296 4555 1491 3539 467 1024 507 221 1016
internal_count=743290 604925 592514 486284 462914 106230 138365 23370 132319 76069 82831 78230 49488 9497 6046 30161 39991 12411 11904 4601 7608 4296 4555 1491 3539 467 1024 507 221 1016
is_linear=0
shrinkage=0.0145833


Tree=19
num_leaves=31
num_cat=0
split_feature=22 16 21 18 21 18 18 16 20 18 16 18 21 16 16 20 105 79 18 21 16 74 21 18 12 16 46 78 21 90
split_gain=1811.62 1704.56 1345.27 802.177 782.703 840.344 669.694 532.758 481.408 420.147 413.618 366.388 271.995 270.242 244.79 153.209 123.399 115.25 169.74 115.022 56.8956 51.0224 37.2043 35.789 35.3779 25.9806 23.6678 23.1892 22.8324 19.1384
threshold=-0.012820487918963506 50.825675964355476 -0.15393693672101072 -0.015136999650632433 -0.1429005427578591 0.35283415874507501 0.32984312270602573 24.642027854919437 0.15556530214266265 0.50975907076559646 -17.113936424255368 -0.021960916780520565 -0.067965038527799962 2.5145332813262944 1.7247086167335512 0.23031111265801554 3.5307343006134038 4.363919973373414 0.22880221552464611 -0.050358499592586183 71.876979827880874 78.707267214943286 0.084970974158706275 0.229892180216867 0.95284011960029613 61.74946594238282 101.73164518637829 0.2093787915679455 0.054856802565820602 1.7881990075111391
decision_type=2 2 2 2 2 2 2 2 2 2 2 2 2 2 2 2 2 2 2 2 2 2 2 2 2 2 2 2 2 2
left_child=3 2 10 11 15 -6 7 8 -5 14 24 22 -11 -12 -8 -4 17 18 -3 -9 23 27 28 -18 -2 -19 -24 -13 -1 -22
right_child=1 16 4 6 5 -7 9 19 -10 12 13 21 -14 -15 -16 -17 20 25 -20 -21 29 -23 26 -25 -26 -27 -28 -29 -30 -31
leaf_value=0.0030638520943594505 -0.0015338104676435337 0.0013270340074393394 -0.002561885609469571 0.0022353642611895206 -0.00098322901896226922 0.00033972863635129867 0.0041152831133559635 -0.0010086829285059485 -0.00052048169284876398 0.0022151048184342425 0.003669368562405571 0.011234775401514843 -0.0030150574560981313 0.00047431939695220148 0.0012846737006966236 -0.0080365682387025655 0.001296693890851178 0.0059768251938904999 0.007890455925288066 0.0064774851859411946 0.0071891657243022431 0.0061960618961027069 0.005843629306151117 0.0064684174058795034 -0.0090093264903913488 0.0087904816202299223 -0.0026302634697138293 0.0087317482537312488 -0.0024324398397104234 0.0036478729353587756
leaf_weight=231 187 1970 1750 20239 393995 159707 30514 552 57991 5193 23681 1945 4304 8520 9477 3920 2531 1017 1771 4049 836 1016 368 362 754 3288 99 1594 793 636
leaf_count=231 187 1970 1750 20239 393995 159707 30514 552 57991 5193 23681 1945 4304 8520 9477 3920 2531 1017 1771 4049 836 1016 368 362 754 3288 99 1594 793 636
internal_value=1.1209e-11 -0.000363248 -0.000481442 0.0015881 -0.000659877 -0.000601642 0.0013377 0.00049171 0.000192487 0.00275369 0.00253019 0.00706817 -0.000155182 0.002824 0.00344449 -0.00634685 0.00527947 0.00640937 0.00443418 0.00557934 0.00319672 0.00923496 0.000448615 0.00194383 -0.00752376 0.00812579 0.00404724 0.0101074 -0.00119255 0.0056591
internal_weight=743290 604925 592514 138365 559372 553702 132319 82831 78230 49488 33142 6046 9497 32201 39991 5670 12411 8046 3741 4601 4365 4555 1491 2893 941 4305 467 3539 1024 1472
internal_count=743290 604925 592514 138365 559372 553702 132319 82831 78230 49488 33142 6046 9497 32201 39991 5670 12411 8046 3741 4601 4365 4555 1491 2893 941 4305 467 3539 1024 1472
is_linear=0
shrinkage=0.0153846


Tree=20
num_leaves=31
num_cat=0
split_feature=17 19 21 18 16 19 19 18 16 97 17 19 19 18 16 18 94 17 18 23 103 17 46 17 65 82 10 115 103 67
split_gain=1836.04 2206.63 1670.67 1356.26 1549.91 1047.08 1035.71 1655.41 1040.43 1018.41 995.558 961.522 877.218 705.819 671.872 485.691 455.733 437.438 254.903 265.46 214.702 158.216 145.324 97.297 69.6157 48.0515 39.7397 30.3659 7.02643 4.55545
threshold=-1.0289497971534727 0.53486898228772983 -0.15741882049953215 0.33437787481172393 21.954359054565433 0.52421698470020195 0.44805203082685768 0.38202946124607579 -15.763148307800291 -1.0000000180025095e-35 4.284440517425538 0.51050481161419914 0.53193096983639754 -0.031413796496661886 -3.9444513320922847 0.5851877116802523 -0.87453022170699668 -0.99297142028808583 0.17613435464407659 -0.044279810294539472 0.14443015749970203 -0.67118254303932179 18.383641959990644 -1.4849298596382139 -0.0010537482755284913 18.200720037231012 3.6584999561309819 0.08686414770422736 11.998139275720357 -0.43148906558005978
decision_type=2 2 2 2 2 2 2 2 2 2 2 2 2 2 2 2 2 2 2 2 2 2 2 2 2 2 2 2 2 2
left_child=1 6 17 4 10 14 9 16 -9 20 -4 -6 -7 -11 -5 22 -8 28 21 -20 -1 -19 23 -3 -24 27 -27 -17 29 -2
right_child=2 15 3 5 11 12 7 8 -10 13 -12 -13 -14 -15 -16 25 -18 18 19 -21 -22 -23 24 -25 -26 26 -28 -29 -30 -31
leaf_value=0.0064103386745883997 -0.0048872886125933476 -0.0085997855766411675 -0.001313170578620597 0.0027700255158334157 0.005947641300830404 -0.0046549917729911934 -0.0035555999075296391 -0.0073516447581064518 0.0026878507390435393 -0.0027141105600951435 0.0044460462633828376 -0.00041839243872965527 -0.00013406663276663755 0.0023577211924500981 0.00048768828389255054 0.0062397920037746708 -0.00039490154136361601 -0.0053475118032026607 0.0019459663959892149 0.0052515353436218609 0.0028618618949226085 0.0015584329900141013 -0.0048337606734132933 -0.0041541286965166048 -0.0020494002281932575 -0.0043210812145422764 0.0019806724320301132 0.0018702831145006812 -0.002010654244158003 -0.010768612932404191
leaf_weight=14308 27 2867 351209 35980 9625 11414 14823 2082 45676 5791 5887 8726 30145 61544 80654 591 21657 772 7435 12677 4271 3741 5531 1420 2522 307 520 638 20 430
leaf_count=14308 27 2867 351209 35980 9625 11414 14823 2082 45676 5791 5887 8726 30145 61544 80654 591 21657 772 7435 12677 4271 3741 5531 1420 2522 307 520 638 20 430
internal_value=3.92882e-11 0.0012011 -0.000396715 -0.000561431 -0.00101593 0.000517254 0.00164286 0.00054853 0.00225018 0.00271584 -0.00121823 0.00292056 -0.00137572 0.00192153 0.00119176 -0.00402016 -0.0016792 0.00310498 0.00336015 0.00402953 0.0055946 0.000377093 -0.00506147 -0.00712723 -0.00396177 0.00222974 -0.000358673 0.00397149 -0.0100685 -0.0104211
internal_weight=743290 184548 558742 533640 375447 158193 170152 84238 47758 85914 357096 18351 41559 67335 116634 14396 36480 25102 24625 20112 18579 4513 12340 4287 8053 2056 827 1229 477 457
internal_count=743290 184548 558742 533640 375447 158193 170152 84238 47758 85914 357096 18351 41559 67335 116634 14396 36480 25102 24625 20112 18579 4513 12340 4287 8053 2056 827 1229 477 457
is_linear=0
shrinkage=0.0138889


Tree=21
num_leaves=28
num_cat=0
split_feature=16 24 24 24 17 17 24 19 17 17 16 24 20 22 17 16 17 17 20 17 105 19 21 16 23 41 19
split_gain=2232.19 2725.32 1989.49 3301.43 2524.82 1830.51 1794.08 1490.84 1364.38 1356.66 750.287 648.42 750.27 408.367 419.755 254.617 432.232 236.709 205.997 175.655 143.46 91.8546 76.5199 60.0872 25.5123 25.0572 18.7514
threshold=24.642027854919437 -0.8149999976158141 0.60500001907348644 1.6050000190734866 0.95451858639717113 -0.072294767946004854 0.57499998807907116 0.41305996124472216 3.9336166381835942 -0.79710683226585377 1.5006921887397768 -1.2450000047683714 0.40286000043763376 0.29664292639282325 0.30986499786376959 61.74946594238282 1.949307441711426 -1.2786468267440794 0.23270207766381315 0.41526906192302709 -0.86204451322555531 0.5112350085998717 0.11715228835849543 71.876979827880874 -2.4408010357872825 1.2895367290220856 0.52856532644407894
decision_type=2 2 2 2 2 2 2 2 2 2 2 2 2 2 2 2 2 2 2 2 2 2 2 2 2 2 2
left_child=1 10 5 9 -5 7 24 -3 -7 -4 13 17 -13 18 -15 16 19 -12 -1 -8 21 -17 -18 -22 -2 -26 -27
right_child=6 2 3 4 -6 8 15 -9 -10 -11 11 12 -14 14 -16 20 22 -19 -20 -21 23 -23 -24 -25 25 26 -28
leaf_value=0.0016270176164814702 0.0056218006345960829 0.0010929078729965144 0.0025444299661844102 -0.0028201969372842984 0.0012285168370462225 -0.0013269796214043768 0.0025774064696516834 -0.00055877177072534835 0.0033396636947826417 0.00074057949706496015 0.0034506221872012545 -0.00057161581793222253 0.0020340327486004922 0.00071569486517604171 0.002559856057365657 0.0062318648963839637 0.0013182420369059404 0.0013032374757378734 0.0028726738327432195 0.004513990414635829 0.0022738874142136387 0.0022494607439713207 -0.0019226093075157685 0.0045042298598316566 0.0039035764951554554 -0.0047835829815071479 -0.0019440466781457265
leaf_weight=16811 20 75442 44994 33122 19239 150973 8341 100968 5118 123000 5798 38023 11334 35146 13497 4172 959 13499 27896 6652 1768 514 1440 2074 28 2262 200
leaf_count=16811 20 75442 44994 33122 19239 150973 8341 100968 5118 123000 5798 38023 11334 35146 13497 4172 959 13499 27896 6652 1768 514 1440 2074 28 2262 200
internal_value=0.000355512 0.000258369 -3.87305e-05 0.000616279 -0.00133258 -0.000472818 0.00279813 0.000147571 -0.00117397 0.00122371 0.00127225 0.000566876 2.67273e-05 0.00179102 0.0012274 0.00349299 0.00287608 0.00194844 0.00240427 0.00343662 0.00475112 0.00579504 -0.000627079 0.00347788 -0.00437751 -0.00445782 -0.00455291
internal_weight=743290 714860 552856 220355 52361 332501 28430 176410 156091 167994 162004 68654 49357 93350 48643 25920 17392 19297 44707 14993 8528 4686 2399 3842 2510 2490 2462
internal_count=743290 714860 552856 220355 52361 332501 28430 176410 156091 167994 162004 68654 49357 93350 48643 25920 17392 19297 44707 14993 8528 4686 2399 3842 2510 2490 2462
is_linear=0
shrinkage=0.00888889


Tree=22
num_leaves=31
num_cat=0
split_feature=24 22 16 24 24 18 19 18 24 19 24 18 17 105 16 19 87 41 91 88 4 112 35 80 52 82 87 56 105 45
split_gain=1742.24 1634.04 1658.37 1337.83 1599.9 1131.39 781.071 693.391 549.1 456.394 238.225 233.157 197.312 157.978 69.0465 60.0395 29.847 31.1551 17.4108 18.6579 17.1904 18.8297 16.547 15.1218 12.336 12.112 10.6264 7.1249 5.79751 5.33476
threshold=2.3599998950958256 -0.012820487918963506 50.825675964355476 -0.98500001430511464 0.61500000953674328 0.44536893386310089 0.39112507047233708 0.32984312270602573 0.58499997854232799 0.52737669605190896 0.57499998807907116 -0.015136999650632433 -0.69722899794578541 3.5307343006134038 24.642027854919437 0.60308582908770181 3.5338213963676601 17.382800306537288 0.42843241030921503 0.06930265176971008 0.010174999944865705 0.30017270427070741 1.0000000180025095e-35 0.015621879224046393 -0.0022640853834993871 20.527747761423932 0.71164283356826663 -0.030093777481144952 -1.0410386919975279 -0.029327306312534392
decision_type=2 2 2 2 2 2 2 2 2 2 2 2 2 2 2 2 2 2 2 2 2 2 2 2 2 2 2 2 2 2
left_child=1 6 3 5 -5 -3 11 8 -8 -9 23 12 -1 -12 -13 16 20 25 27 24 22 -22 -2 -4 -20 -18 -21 29 -29 -17
right_child=15 2 10 4 -6 -7 7 9 -10 -11 13 14 -14 -15 -16 18 17 -19 19 26 21 -23 -24 -25 -26 -27 -28 28 -30 -31
leaf_value=0.0085121286801349838 -0.0087378428644372553 0.00026697671468583486 -0.0018045806035197156 -0.0012229498689512908 0.00053125975910525561 0.0036047700482452422 -0.0010662602335239466 0.0030832104734499952 0.0014302405239634951 -0.001854738162154302 0.0067998579937346582 0.0027418195562740281 -0.0018353804263411052 0.0033017368685722376 0.0074821477619492101 -0.0041104252474048197 0.01549001373868022 -0.011891784225900971 -0.0019631881453096869 0.010428746665517489 0.005166784201453372 -0.007890135564587333 -0.0049246197047771193 -0.0068836447585261251 -0.0064987380024895333 0.00032452779511610671 -0.00016581272780895234 -0.0088627957676847783 0.0018729706605275472 -0.011525451914717752
leaf_weight=4649 4754 76069 221 308266 172414 30161 31247 44686 46801 4370 7608 5033 428 4296 751 26 24 25 245 24 41 55 255 286 266 21 125 20 23 100
leaf_count=4649 4754 76069 221 308266 172414 30161 31247 44686 46801 4370 7608 5033 428 4296 751 26 24 25 245 24 41 55 255 286 266 21 125 20 23 100
internal_value=0.00011082 0.000174534 -0.000154867 -0.000266421 -0.000593736 0.00121465 0.00160545 0.0012847 0.000430751 0.00264333 0.00512046 0.00535918 0.00763982 0.00553743 0.00335731 -0.00771319 -0.00829687 0.00116115 -0.00406957 -0.00300012 -0.00842656 -0.00231374 -0.00854372 -0.00466969 -0.00432416 0.00841279 0.00154069 -0.00824612 -0.00312041 -0.00999537
internal_weight=743290 737286 599321 586910 480680 106230 137965 127104 78048 49056 12411 10861 5077 11904 5784 6004 5175 70 829 660 5105 96 5009 507 511 45 149 169 43 126
internal_count=743290 737286 599321 586910 480680 106230 137965 127104 78048 49056 12411 10861 5077 11904 5784 6004 5175 70 829 660 5105 96 5009 507 511 45 149 169 43 126
is_linear=0
shrinkage=0.0145833


Tree=23
num_leaves=31
num_cat=0
split_feature=18 20 21 19 18 19 19 18 20 20 19 18 21 19 19 42 18 19 81 19 21 19 19 18 79 40 19 19 79 18
split_gain=1531.03 3243.92 1565.77 1702.14 1375.55 1295.89 1244.01 3336.85 2145.32 1100.6 1333.41 951.67 915.103 784.978 899.582 846.45 769.711 744.789 708.793 700.985 570.377 533.76 497.647 470.095 407.408 362.208 348.586 215.595 125.241 128.614
threshold=0.25870486545793808 0.18520037806025783 -0.045590385103872887 0.38307809514485941 0.33437787481172393 0.52421698470020195 0.46477158513018996 0.2276922316015986 0.27392796557235527 0.05192916117544167 0.45905669724916459 0.475417193951365 -0.032169906262495176 0.50370274795446435 0.55767207613556835 -0.029887725371139352 0.0083806359985158837 0.40948750309442922 0.1503335312008858 0.46599237330886029 -0.04410760253802324 0.46957067353240062 0.52754086017592006 0.5851877116802523 2.0938179492950444 27.907784635966951 0.4271433051122267 0.5198741992257504 2.9727251529693608 0.27097302848989135
decision_type=2 2 2 2 2 2 2 2 2 2 2 2 2 2 2 2 2 2 2 2 2 2 2 2 2 2 2 2 2 2
left_child=1 9 11 28 26 -6 8 12 20 17 16 13 -8 15 -15 -2 -11 18 -1 -9 -3 -12 27 -24 -10 -19 -5 -13 -4 -30
right_child=2 6 3 4 5 -7 7 19 24 10 21 22 -14 14 -16 -17 -18 25 -20 -21 -22 -23 23 -25 -26 -27 -28 -29 29 -31
leaf_value=-0.00097751240706866744 0.0037906492034662782 -0.0015847944223627813 0.001823539075830268 0.00030582218306864886 0.00097472233435874525 -0.00068621190041572792 -0.0025537120870780436 0.0057375145675071827 0.00015391060069680441 0.0022292514604039895 -0.0013779695509467933 0.00020629430265070608 -0.00063200423750178335 0.0034188334396678226 -0.0010377414358560366 0.001021386132365231 -0.00058799410821258776 -0.0026769447399882795 0.00055437342046023525 0.0018564193131980354 0.0011668918496570381 0.0006374232566104431 -0.0022264849172025304 0.0016665280826586091 -0.0034896517108574492 -0.00032640946693794946 -0.0014108046777040811 0.0018774988449762799 0.00084378097388575289 0.0044165463787240325
leaf_weight=22212 7718 7619 1946 9175 102294 40731 19550 3544 2042 54256 11324 11390 71826 24480 3173 60516 6764 7880 119533 15545 12076 29070 7578 2578 27994 8399 36600 8258 691 6528
leaf_count=22212 7718 7619 1946 9175 102294 40731 19550 3544 2042 54256 11324 11390 71826 24480 3173 60516 6764 7880 119533 15545 12076 29070 7578 2578 27994 8399 36600 8258 691 6528
internal_value=0.000311812 -2.07178e-06 0.000718776 0.00028233 0.000121444 0.000501718 -0.000883204 -0.000417577 -0.00191748 0.000542004 0.00118227 0.00140619 -0.00104316 0.00178822 0.00290747 0.00133462 0.00191696 0.000131104 0.000314321 0.00257697 0.000102404 7.24307e-05 0.000177093 -0.00123828 -0.00324194 -0.00146421 -0.00106673 0.000908697 0.0035966 0.00407456
internal_weight=743290 419634 323656 197965 188800 143025 160196 110465 49731 259438 101414 125691 91376 95887 27653 68234 61020 158024 141745 19089 19695 40394 29804 10156 30036 16279 45775 19648 9165 7219
internal_count=743290 419634 323656 197965 188800 143025 160196 110465 49731 259438 101414 125691 91376 95887 27653 68234 61020 158024 141745 19089 19695 40394 29804 10156 30036 16279 45775 19648 9165 7219
is_linear=0
shrinkage=0.007875


Tree=24
num_leaves=28
num_cat=0
split_feature=16 24 24 24 17 18 24 17 24 17 18 16 21 24 17 20 17 16 105 5 105 5 79 79 41 18 108
split_gain=1768.65 2018.42 1511.69 2656.59 2358.74 1651.79 2018.28 1862.85 1458.73 1198.1 816.741 643.151 593.463 542.292 502.248 451.8 186.717 290.465 226.118 161.128 71.3091 71.1177 70.1661 24.7149 21.8615 21.6426 7.57396
threshold=24.642027854919437 -0.8149999976158141 0.60500001907348644 1.6050000190734866 0.95451858639717113 0.25870486545793808 -0.48000000417232508 1.8454608321189883 0.57499998807907116 -0.79710683226585377 0.39357771679852999 1.5006921887397768 1.0000000180025095e-35 -1.2150000333786009 0.11241883412003519 0.32136381146603515 1.9847556352615359 50.825675964355476 -0.096339926123619066 8.5000000000000018 23.023019790649418 3.5000000000000004 3.8598721027374272 0.65704983472824108 1.2895367290220856 0.46063409912094461 89.472595214843764
decision_type=2 2 2 2 2 2 2 2 2 2 2 2 2 2 2 2 2 2 2 2 2 2 2 2 2 2 2
left_child=1 10 5 9 -5 7 -7 -3 23 -4 12 19 14 -13 -1 -14 18 21 22 -12 -20 -18 -10 -2 -25 -26 -19
right_child=8 2 3 4 -6 6 -8 -9 16 -11 11 13 15 -15 -16 -17 17 26 20 -21 -22 -23 -24 24 25 -27 -28
leaf_value=0.00023374895287459481 0.0042800081685021672 -0.0013207706953660984 0.001977758731295391 -0.002632352172992253 0.00099604210181357422 -0.0013767965484805273 0.00078700473257963389 0.0013501920149962506 0.0028748639719122673 0.00040600869209298819 0.0011267734663476109 0.0017725594395850276 -0.0013895288781974983 -0.00029972346965035875 0.0020144088701559582 0.00045445060397044361 0.0010397825648170358 0.0052458165752551529 0.0024575629270843905 0.0023495834055931144 0.00074810467706676819 -0.0022702724333953398 0.0042888044461897087 0.0032856077587398664 -0.0042583485778680706 -0.0013195582593417856 0.00022186991558344437
leaf_weight=29555 25 174343 44994 33122 19239 42065 96347 19746 3571 123000 9247 15153 19251 19768 16919 16992 694 694 10594 35119 1965 1209 7172 28 2273 184 21
leaf_count=29555 25 174343 44994 33122 19239 42065 96347 19746 3571 123000 9247 15153 19251 19768 16919 16992 694 694 10594 35119 1965 1209 7172 28 2273 184 21
internal_value=0.000109602 2.9427e-05 -0.00020764 0.000321755 -0.00129917 -0.000558481 0.000129401 -0.00104904 0.00212557 0.000826972 0.000838445 0.00143616 0.000265513 0.000599486 0.000882004 -0.000525006 0.00270652 0.000619597 0.00294099 0.00209472 0.0021901 -0.00106314 0.00381881 -0.00387372 -0.00395575 -0.00403827 0.00509826
internal_weight=743290 714860 552856 220355 52361 332501 138412 194089 28430 167994 162004 79287 82717 34921 46474 36243 25920 2618 23302 44366 12559 1903 10743 2510 2485 2457 715
internal_count=743290 714860 552856 220355 52361 332501 138412 194089 28430 167994 162004 79287 82717 34921 46474 36243 25920 2618 23302 44366 12559 1903 10743 2510 2485 2457 715
is_linear=0
shrinkage=0.00824176


Tree=25
num_leaves=30
num_cat=0
split_feature=24 16 24 24 19 17 24 18 16 18 17 16 105 19 78 87 41 23 112 7 8 52 74 105 52 82 88 78 103
split_gain=1637.62 1559.88 1672.81 1829.73 1853.71 1527.94 1338.25 747.777 594.784 567.592 170.433 267.358 210.777 105.694 44.2195 27.1807 28.7131 23.3584 20.225 16.7046 18.8198 14.8432 14.6721 15.6201 11.8566 11.1695 7.94143 11.1674 8.17879
threshold=2.304999947547913 24.642027854919437 -0.8149999976158141 0.61500000953674328 0.45905669724916459 -0.072294767946004854 0.57499998807907116 0.39357771679852999 -1.2556271553039549 0.38295846751570523 1.9847556352615359 50.825675964355476 2.6596039533615117 0.60308582908770181 0.13515199963738114 3.5338213963676601 17.382800306537288 -2.4408010357872825 -0.17725429420876834 34.722499847412116 11.840499877929689 -0.0020586612280840376 18.57341578615922 2.2887299060821538 -0.0015584142582343366 20.527747761423932 0.057861860629547575 0.010627317515599423 -6.7999210126839289
decision_type=2 2 2 2 2 2 2 2 2 2 2 2 2 2 2 2 2 2 2 2 2 2 2 2 2 2 2 2 2
left_child=1 2 7 5 -5 -4 17 9 -9 -1 12 -12 -8 15 26 19 25 -3 -19 21 -21 -2 23 -16 -24 -17 28 -28 -15
right_child=13 6 3 4 -6 -7 10 8 -10 -11 11 -13 -14 14 22 16 -18 18 -20 20 -22 -23 24 -25 -26 -27 27 -29 -30
leaf_value=0.0018415354479458454 -0.010983015516114277 0.014206196731209757 -2.2041052709153775e-05 0.0037214588349687838 -0.0005742640500333001 -0.0030963594113984369 0.0096905288505595676 0.006158243097636836 0.0021592025894674642 -0.0023970975763691186 -0.0027948429171167533 0.013473133968349938 0.005351019617088588 0.00045388493943214416 -0.0063742151718908426 0.02313661477535963 -0.017747873735332497 -0.012409001956466197 -0.0083202412553543739 0.0097808741658926019 -0.016147117736041546 -0.013535659064245632 -0.0024037480316433731 0.004668603337083372 -0.0076537604364084934 0.0004874881625175476 0.0018080264750947339 -0.012800136587619783 -0.014513091996203768
leaf_weight=60498 1819 20 177962 89290 122648 156095 12902 32242 47045 22219 1902 715 10397 20 99 24 25 1268 1222 36 24 3293 474 197 415 21 47 63 308
leaf_count=60498 1819 20 177962 89290 122648 156095 12902 32242 47045 22219 1902 715 10397 20 99 24 25 1268 1222 36 24 3293 474 197 415 21 47 63 308
internal_value=0.000294067 0.000396851 0.000187698 -0.00041281 0.00123553 -0.00145858 0.00560619 0.00221156 0.00378541 0.000702976 0.00713765 0.00164979 0.00775406 -0.0107318 -0.00567431 -0.0122977 0.00174027 -0.0102063 -0.0104024 -0.0124877 -0.000590323 -0.0126274 -0.00339833 0.000975228 -0.00485454 0.012567 -0.0118319 -0.00655847 -0.0136005
internal_weight=743290 736425 707999 545995 211938 334057 28426 162004 79287 82717 25916 2617 23299 6865 1623 5242 70 2510 2490 5172 60 5112 1185 296 889 45 438 110 328
internal_count=743290 736425 707999 545995 211938 334057 28426 162004 79287 82717 25916 2617 23299 6865 1623 5242 70 2510 2490 5172 60 5112 1185 296 889 45 438 110 328
is_linear=0
shrinkage=0.02268


Tree=26
num_leaves=31
num_cat=0
split_feature=17 24 21 24 24 24 24 16 18 18 18 17 17 24 18 24 20 105 21 16 18 98 102 91 10 7 76 87 51 85
split_gain=1518.98 2050.59 1500.01 1267.84 1244.18 1134.84 2217.39 777.806 760.295 628.56 569.207 413.832 399.978 311.98 612.804 272.456 136.779 135.078 93.5762 51.8875 51.6884 46.0326 37.5791 21.019 19.9544 17.0568 16.1649 15.975 8.05326 4.67002
threshold=-1.0289497971534727 1.6549999713897707 -0.15741882049953215 2.3599998950958256 0.66500002145767223 -0.8149999976158141 0.55500000715255748 14.918214797973635 0.44832915234801046 0.25308565060672322 0.0046034365303451877 -0.99297142028808583 -1.7012189626693723 -0.32500000298023218 0.17613435464407659 -1.264999985694885 0.35284988143639723 27.135498046875004 0.028982801129929674 15.988572120666506 0.06052976877765532 -0.58509373172265555 -0.25540692810183668 0.40247400882148088 28.214500427246097 34.722499847412116 38.155309677124031 1.2938406911386842 -0.051385427178335462 8.8411209618106223
decision_type=2 2 2 2 2 2 2 2 2 2 2 2 2 2 2 2 2 2 2 2 2 2 2 2 2 2 2 2 2 2
left_child=1 4 11 5 7 8 -7 9 -4 -1 12 28 -6 15 -15 -13 -12 -9 22 21 25 -20 26 -22 -21 -5 -3 -24 -2 -30
right_child=2 18 3 20 10 6 -8 17 -10 -11 16 13 -14 14 -16 -17 -18 -19 19 24 23 -23 27 -25 -26 -27 -28 -29 29 -31
leaf_value=-0.0010030981369162939 -0.002194248536675211 -0.0084513746115720215 0.00036237012043656918 -0.011432758657575245 0.0043157084516350372 -0.0022996161721582547 0.00071732928466797978 0.0072554438686634436 0.004133123595468172 0.0020181287302698993 0.0015536531125154352 0.0075035771218695951 0.0091490423859475756 0.00074315459277588751 0.010024022422090125 0.00026557670996660998 -0.0063680340243609133 -0.00066001974111321699 -0.0076069967016173697 -0.0086056874604605229 -0.010690805522869579 -0.0005053294994807056 -0.014039149949407938 -0.0059361132588851102 -0.015547669419377933 0.0013359126530021843 0.0062516577760225057 -0.0033178886244146612 -0.015440687627804628 -0.0057006748977570781
leaf_weight=43591 22 492 79104 3960 13655 223343 193272 10684 31918 89254 2432 3119 15602 4451 9450 7605 1498 1003 855 2581 543 711 1906 1455 189 45 34 61 433 22
leaf_count=43591 22 492 79104 3960 13655 223343 193272 10684 31918 89254 2432 3119 15602 4451 9450 7605 1498 1003 855 2581 543 711 1906 1455 189 45 34 61 433 22
internal_value=0.000254025 0.0018762 -0.000281766 -0.000513517 0.00230234 -0.000406297 -0.000900024 0.00147549 0.00144643 0.00102676 0.00590332 0.00464499 0.0068932 0.00501353 0.00705236 0.0023707 -0.00146586 0.00657612 -0.00921359 -0.00738309 -0.00993766 -0.00438268 -0.0123973 -0.0072283 -0.00907935 -0.0112893 -0.00750099 -0.0137067 -0.0143805 -0.0149697
internal_weight=743290 184548 558742 533640 177719 527637 416615 144532 111022 132845 33187 25102 29257 24625 13901 10724 3930 11687 6829 4336 6003 1566 2493 1998 2770 4005 526 1967 477 455
internal_count=743290 184548 558742 533640 177719 527637 416615 144532 111022 132845 33187 25102 29257 24625 13901 10724 3930 11687 6829 4336 6003 1566 2493 1998 2770 4005 526 1967 477 455
is_linear=0
shrinkage=0.0206229


Tree=27
num_leaves=31
num_cat=0
split_feature=17 19 21 24 24 24 19 18 16 97 24 24 18 24 18 18 17 94 24 18 24 103 46 17 14 86 10 16 51 87
split_gain=1661.23 2212.86 1633.75 1194.59 1723.89 1734.29 1048.05 1567.45 1031.69 1022.16 954.415 856.934 718.539 563.847 560.589 504.009 425.796 411.403 289.495 569.906 262.51 201.097 152.139 95.1146 69.4447 50.5746 45.2406 32.1937 7.47015 4.65431
threshold=-1.0289497971534727 0.53486898228772983 -0.15741882049953215 -0.8149999976158141 0.55500000715255748 1.4249999523162844 0.44805203082685768 0.38202946124607579 -15.763148307800291 -1.0000000180025095e-35 0.064999999478459372 -0.27500000596046442 0.44832915234801046 -0.98500001430511464 0.38295846751570523 0.5851877116802523 -0.99297142028808583 -1.1940171134130961 -0.32500000298023218 0.17613435464407659 -1.264999985694885 0.14443015749970203 18.383641959990644 -1.4849298596382139 49.049999237060554 0.15338819718796923 3.6584999561309819 -6.1918861865997306 -0.051385427178335462 0.44507687749388108
decision_type=2 2 2 2 2 2 2 2 2 2 2 2 2 2 2 2 2 2 2 2 2 2 2 2 2 2 2 2 2 2
left_child=1 6 16 12 10 -6 9 17 -9 21 -5 -11 14 -14 -4 22 28 -8 20 -20 -18 -1 23 -3 -24 27 -27 -17 -2 -30
right_child=2 15 3 4 5 -7 7 8 -10 11 -12 -13 13 -15 -16 25 18 -19 19 -21 -22 -23 24 -25 -26 26 -28 -29 29 -31
leaf_value=0.0058543977751501393 -0.0016560587016018957 -0.0076944042055665882 0.0010326715246892768 -0.00070777144940994778 0.0011247435043223197 -0.0012742706018830697 -0.0030320687192621552 -0.0065289729339670921 0.0024685565798131279 -0.0026840018128283767 -0.0023674178524547666 0.0022723598500310129 0.0029110461800821454 -0.0030127978728618642 -0.0011182748730076599 0.0065383569576772981 0.0046646488129043952 -0.0003079505899094817 0.00065642850818715102 0.0060813063294749966 0.00035835471802699107 0.0027636083738943351 -0.0031704402180906081 -0.0037384409288396983 -0.0079806457435712217 -0.0044342762359087995 0.0020421003398407148 0.0023435850816744155 -0.0095171270662012183 -0.0051495162858849483
leaf_weight=14308 22 2867 47721 131127 122981 76294 14154 2082 45676 5982 92216 61353 29171 2747 31383 411 3119 22326 4451 9450 7605 4271 7553 1420 500 278 428 939 413 42
leaf_count=14308 22 2867 47721 131127 122981 76294 14154 2082 45676 5982 92216 61353 29171 2747 31383 411 3119 22326 4451 9450 7605 4271 7553 1420 500 278 428 939 413 42
internal_value=0.000150428 0.00117867 -0.000189194 -0.000335791 -0.000638919 0.000206262 0.00157681 0.000586069 0.00207631 0.00254823 -0.00139302 0.00183204 0.000818102 0.00240121 0.000179325 -0.00352709 0.0029273 -0.00136489 0.00315389 0.0043443 0.00161081 0.00514388 -0.00448177 -0.00638405 -0.0034691 0.00220291 -0.000508088 0.00362066 -0.00876999 -0.00911396
internal_weight=743290 184548 558742 533640 422618 199275 170152 84238 47758 85914 223343 67335 111022 31918 79104 14396 25102 36480 24625 13901 10724 18579 12340 4287 8053 2056 706 1350 477 455
internal_count=743290 184548 558742 533640 422618 199275 170152 84238 47758 85914 223343 67335 111022 31918 79104 14396 25102 36480 24625 13901 10724 18579 12340 4287 8053 2056 706 1350 477 455
is_linear=0
shrinkage=0.0125


Tree=28
num_leaves=28
num_cat=0
split_feature=24 16 24 24 18 19 24 18 17 19 16 17 105 19 87 79 78 40 41 65 7 12 41 90 51 108 61
split_gain=1791.72 1703.3 1907.6 1548.48 2497.36 2044.53 1465.76 1152.58 542.83 236.71 189.373 354.147 111.926 60.4778 25.7912 25.2317 23.5553 25.181 22.768 16.7111 16.5118 18.0901 13.6971 12.5091 9.20217 8.86409 6.8882
threshold=2.3599998950958256 24.642027854919437 -1.0950000286102293 0.60500001907348644 0.25870486545793808 0.45905669724916459 0.57499998807907116 0.39357771679852999 0.11241883412003519 0.47429160461452874 61.74946594238282 1.949307441711426 3.8406186103820805 0.59464406378439183 4.2467544690821368 0.65704983472824108 0.13515199963738114 8.0468024284862967 1.2895367290220856 -0.00092160914009181358 34.722499847412116 36.025531768798835 14.844318084796599 0.42494551837444311 -0.00066458788007786747 91.211837768554702 -0.0012417266918546843
decision_type=2 2 2 2 2 2 2 2 2 2 2 2 2 2 2 2 2 2 2 2 2 2 2 2 2 2 2
left_child=1 2 7 4 -4 -5 15 8 -1 -9 11 -8 -12 14 20 -3 25 24 -17 -19 23 -22 -16 -2 -18 26 -15
right_child=13 6 3 5 -6 -7 10 9 -10 -11 12 -13 -14 16 22 18 17 19 -20 -21 21 -23 -24 -25 -26 -27 -28
leaf_value=-0.00063881666906192474 -0.0073074297995727993 0.0060694905301699274 -0.0015152390568462949 0.0019299970648479106 0.00032656800474120662 -0.00035018372551805232 0.0037381032273126951 0.003883968860866473 0.0020669989691217937 0.0021914257919417391 0.0060721475543899419 -0.0010367366901431968 0.0032231858384472105 -0.0070123293517710102 0.0064438088582112231 0.0047654633666132842 0.0010938931060033843 -0.0041626467367396631 -0.0056983919133166035 1.3770445704289277e-05 0.004870431052221286 -0.0086372864517298628 -0.0058835827616544878 -0.0060338519721194368 0.010755368412195983 0.00047903490983522857 -0.00035611901666734606
leaf_weight=32281 3147 25 197842 90911 194248 123442 14991 15054 14219 40861 5853 2399 2675 350 30 28 35 614 2457 161 33 22 20 1524 21 25 22
leaf_count=32281 3147 25 197842 90911 194248 123442 14991 15054 14219 40861 5853 2399 2675 350 30 28 35 614 2457 161 33 22 20 1524 21 25 22
internal_value=0.000134244 0.000185365 7.43026e-05 -0.000171677 -0.000602777 0.000616882 0.00295474 0.00153085 0.000188581 0.00264711 0.00377009 0.0030794 0.00517851 -0.00614347 -0.00673068 -0.00546445 -0.00385967 -0.00275511 -0.00558049 -0.00329503 -0.00681789 -0.000532656 0.00151285 -0.0068919 0.00471695 -0.00617172 -0.00661868
internal_weight=743290 737286 708858 606443 392090 214353 28428 102415 46500 55915 25918 17390 8528 6004 4776 2510 1228 831 2485 775 4726 55 50 4671 56 397 372
internal_count=743290 737286 708858 606443 392090 214353 28428 102415 46500 55915 25918 17390 8528 6004 4776 2510 1228 831 2485 775 4726 55 50 4671 56 397 372
is_linear=0
shrinkage=0.0115385


Tree=29
num_leaves=31
num_cat=0
split_feature=22 16 18 18 19 16 19 19 19 19 19 19 18 16 19 105 18 17 23 19 22 16 23 109 79 22 105 19 104 91
split_gain=1521.61 1478.64 1123.28 2576.76 1494.68 1469.79 1390.13 739.887 724.004 645.247 617.939 672.965 564.59 246.317 221.431 209.342 187.422 178.249 123.018 86.8119 66.4776 64.6554 62.423 31.0187 29.0573 25.1463 20.9466 16.7825 12.411 10.2439
threshold=-0.012820487918963506 50.825675964355476 0.25870486545793808 0.0048878062819880325 0.38056281851693946 -2.4579235315322872 0.60308582908770181 0.58893454423031655 0.57749219819278796 0.39112507047233708 0.4653771293041325 0.4602447154443397 0.0054552189461255724 -2.9991105794906612 0.51004277810530596 -0.86204451322555531 -0.015136999650632433 -0.63032475113868702 -7.6204154398017083 0.71072857674221102 0.73605849569980475 71.876979827880874 -13.632971226794723 49.434412002563484 3.9611381292343144 -0.52851619099468106 -9.7920250892639142 0.82212243650924066 0.1046328924711022 13.62657622999974
decision_type=2 2 2 2 2 2 2 2 2 2 2 2 2 2 2 2 2 2 2 2 2 2 2 2 2 2 2 2 2 2
left_child=8 2 3 5 13 -2 -5 -6 9 16 11 -11 -12 -4 15 26 17 -1 27 25 28 -17 -18 -21 -22 -20 -3 29 -16 -10
right_child=1 14 4 6 7 -7 -8 -9 18 10 12 -13 -14 -15 20 21 22 -19 19 23 24 -23 -24 -25 -26 -27 -28 -29 -30 -31
leaf_value=0.018685387764554126 -0.0031773472021242493 0.020618200862820932 0.02134153097834033 -0.0062762388564023587 0.0012163549826112799 0.0031253816029508073 0.0047822136893159121 -0.0056713967507883512 -0.025111902713870149 0.0021381326507293815 -0.0019956535288240432 -0.008506394053985001 0.0062420136942361185 0.0076294920407755963 -0.015374172212052797 0.0057448626888915609 -0.0043557990785474824 -0.004378957935673668 -0.0086987000591356063 0.011628292136679565 -0.00050366666680190162 0.013383806686854703 0.0088126126129389713 -0.0032636063772003734 0.009680676749014662 -0.017243744145347163 0.016215466037994421 -0.0045960261829925859 -0.0039627777931692601 -0.0033569519075897195
leaf_weight=4652 68031 2233 4591 135889 230545 116874 14634 19672 774 35292 11245 8581 69013 2278 283 3486 454 425 797 211 722 2042 5330 708 593 804 2870 53 182 26
leaf_count=4652 68031 2233 4591 135889 230545 116874 14634 19672 774 35292 11245 8581 69013 2278 283 3486 454 425 797 211 722 2042 5330 708 593 804 2870 53 182 26
internal_value=0.000391671 -0.000346019 -0.000589953 -0.00188944 0.00110553 0.000806456 -0.00520112 0.000674842 0.00361681 0.00400662 0.00330944 5.61988e-05 0.00508783 0.0167941 0.0112997 0.0131629 0.0119747 0.0167547 -0.0119838 -0.00819599 0.00017128 0.00856663 0.00777899 0.000155535 0.00408897 -0.0129899 0.018142 -0.0231741 -0.0109078 -0.0244049
internal_weight=743290 604925 592514 335428 257086 184905 150523 250217 138365 134992 124131 43873 80258 6869 12411 10631 10861 5077 3373 2520 1780 5528 5784 919 1315 1601 5103 853 465 800
internal_count=743290 604925 592514 335428 257086 184905 150523 250217 138365 134992 124131 43873 80258 6869 12411 10631 10861 5077 3373 2520 1780 5528 5784 919 1315 1601 5103 853 465 800
is_linear=0
shrinkage=0.0340909


Tree=30
num_leaves=31
num_cat=0
split_feature=22 24 21 17 19 24 19 19 17 24 17 22 88 88 24 23 22 19 78 111 21 87 79 107 8 79 48 37 19 56
split_gain=1373.25 1135.01 974.415 1118.1 2512.08 1120.32 653.414 582.336 567.535 550.18 458.196 334.328 213.741 169.409 122.422 95.8051 75.6405 73.9804 40.1573 36.7093 30.7416 23.7678 20.9763 19.5634 32.3174 16.0878 15.3625 13.4499 10.124 9.6163
threshold=-0.012820487918963506 2.304999947547913 -0.15393693672101072 -1.2184708714485166 0.49998477917593404 -0.8149999976158141 0.57749219819278796 0.39112507047233708 2.3003250360488896 1.9750000238418581 -0.98083403706550587 1.1484765991655215 0.063637606474926792 0.052038738122643154 1.3450000286102297 -4.0086869763750874 -0.51730193241534106 0.60308582908770181 0.13515199963738114 91.935997009277358 0.18743117335989903 4.2467544690821368 4.2535879611969003 48.676967620849616 3.1990000009536748 2.2057316303253178 0.16180793911375882 -0.05800869692017839 0.82212243650924066 -0.017546977510361491
decision_type=2 2 2 2 2 2 2 2 2 2 2 2 2 2 2 2 2 2 2 2 2 2 2 2 2 2 2 2 2 2
left_child=6 2 10 4 -4 -5 7 13 9 -9 11 -2 -12 16 23 28 -1 21 29 -10 -15 25 -17 -8 -25 -3 -23 -20 -16 -19
right_child=1 17 3 5 -6 -7 14 8 19 -11 12 -13 -14 20 15 22 -18 18 27 -21 -22 26 -24 24 -26 -27 -28 -29 -30 -31
leaf_value=0.0090483059719516888 0.002025691919100351 -0.0039663509404813616 0.0031763583170116238 0.0010941557759418532 -0.0037045756175210116 -0.0011573219456511804 0.0068818316207081443 0.0013807112277741177 0.013941566263195496 0.008908582998870835 0.0063949441920772079 -0.0051523723136131542 0.0026925681531792698 0.0019767073622847225 -0.012142530139461377 -0.0060924303444782821 0.0051509676169942554 -0.010465588661180532 0.0032389098374301147 -0.008618478529629988 0.009834620806984988 -0.005655993543568355 -0.0010206525482620811 -0.0047200795496894019 0.0062686822761537121 -0.009538140378597168 0.015521847668492258 -0.0034065278093402028 0.00135471275594219 -0.0020520760166824075
leaf_weight=5200 7792 191 77192 99649 24813 363662 173 119166 1401 3538 11398 3256 10698 2807 1184 1210 2666 382 120 26 188 27 379 257 150 4609 22 1059 20 55
leaf_count=5200 7792 191 77192 99649 24813 363662 173 119166 1401 3538 11398 3256 10698 2807 1184 1210 2666 382 120 26 188 27 379 257 150 4609 22 1059 20 55
internal_value=0.00020533 -0.000181397 -9.67014e-05 -0.000280506 0.00150255 -0.000673074 0.00189608 0.00210043 0.00173494 0.00159777 0.00303834 -8.97839e-05 0.0046024 0.00627762 -0.0062824 -0.00791562 0.00772739 -0.0080216 -0.00453562 0.0135305 0.00246996 -0.00918336 -0.00488274 0.00158241 -0.000670167 -0.00931643 0.00385242 -0.00273015 -0.0119183 -0.00940668
internal_weight=743290 604925 598460 565316 102005 463311 138365 134992 124131 122704 33144 11048 22096 10861 3373 2793 7866 6465 1616 1427 2995 4849 1589 580 407 4800 49 1179 1204 437
