tree
version=v4
num_class=1
num_tree_per_iteration=1
label_index=0
max_feature_idx=114
objective=regression
feature_names=fund_debt_equity fund_div_yield fund_ev_ebitda fund_ev_revenue fund_gross_margin fund_net_margin fund_op_margin fund_pb fund_pe fund_rev_growth fund_roe macro_brent_chg20 macro_dxy_chg20 macro_fedfunds macro_india10y macro_us10y macro_us10y_chg20 macro_vix macro_vix_chg5 macro_yield_curve pattern_bear_count pattern_bull_count pattern_doji pattern_engulfing pattern_hammer pattern_net smc_base smc_bos_dn smc_bos_up smc_choch_dn smc_choch_up smc_demand_zone smc_dist_bear_ob smc_dist_bull_ob smc_doji smc_ema_20 smc_ema_200 smc_ema_200_dist smc_ema_20_dist smc_ema_50 smc_ema_50_dist smc_ema_9 smc_ema_9_dist smc_ema_stack smc_engulfing_bear smc_engulfing_bull smc_equal_high smc_equal_low smc_fvg_bear smc_fvg_bear_mit smc_fvg_bear_pct smc_fvg_bull smc_fvg_bull_mit smc_fvg_bull_pct smc_hammer smc_liq_sweep_high smc_liq_sweep_low smc_order_block_bear smc_order_block_bull smc_pinbar smc_shooting_star smc_supply_zone smc_swing_high smc_swing_low smc_trendline_break_dn smc_trendline_break_up smc_vp_in_value smc_vp_poc smc_vp_poc_dist smc_vp_vah smc_vp_val tech_adx_14 tech_adx_strong tech_atr_14 tech_atr_pct tech_bb_bandwidth tech_bb_pctb tech_cci_20 tech_cmf_20 tech_consec_updown tech_di_diff tech_donchian_20 tech_ema20_50_ratio tech_golden_death tech_ha_streak tech_macd_hist tech_macd_line tech_mean_rev_z tech_mfi_14 tech_mom_12_1m tech_mom_12m tech_mom_1m tech_mom_3m tech_mom_6m tech_obv_slope tech_price_vs_sma200 tech_price_vs_sma50 tech_price_vs_vwap20 tech_range_52w tech_resistance_dist_20d tech_ret_20d tech_ret_5d tech_rsi_14 tech_rsi_2 tech_rsi_7 tech_stoch_d tech_stoch_k tech_supertrend_10_3 tech_support_dist_20d tech_vol_20d tech_vol_regime tech_vol_sma_ratio tech_volume_spike tech_vwap20_slope_5d tech_williams_r
feature_infos=[0:3.1340699195861816] [0:857] [0:1093.8409423828125] [0:240.27799987792969] [0:100] [0:43.383998870849609] [0:60.646999359130859] [0:51.834121704101562] [0:79.368423461914062] [-82.199996948242188:272.70001220703125] [0:76.338996887207031] [-71.725059509277344:281.14035034179688] [-4.8091545104980469:7.5745401382446289] [-0.043026440042421066:1.0967896511011443] [0:0.84532822270522345] [-0.063295312829442674:0.69083841110677735] [-0.45392621566718333:0.40521309794036842] [-2.9890418503201488:22.709053259573619] [-23.808181889547697:21.316829528430244] [-1.690000057220459:2.5999999046325684] [-0.5319615766992527:0.9992645143996941] [-1.0628315929730392:1.9791219631804298] [-0.67349822346411647:0.9954099847910769] [-1.4669140946255508:1.4798140142109801] [-0.62305241613723616:0.99968968103926759] [-1.9950166420077586:2.3784988211752616] none [0:1] [0:1] [0:1] [0:1] none [-0.36999739338545556:0.50829922834220265] [-0.98284209838307524:0.97075639260327273] [-0.67349822346411647:0.9954099847910769] [-252.1691788764706:3231.5449367996007] [0:2310.7716825660318] [-0.8349719193629479:0.23931757466626927] [-0.73831681388566051:0.23411247854777853] [-61.910352952286303:2841.8544975347322] [-0.89720852535283646:0.24028411416939077] [-398.81930938623464:3660.0428799695474] [-0.53840709505305473:0.21829998034735865] [-1.1485631110359575:1.254985794337955] [-0.5319615766992527:0.9992645143996941] [-0.53042126463381112:1] [-0.65359925223746362:1] [-0.63994523352097399:1] [-0.74180742016094225:0.99688656833578548] [-0.92230931873329103:0.96406606982913723] [0:0.35594946146011353] [-0.74781033084743698:0.99498528054535651] [-0.91613445985692965:0.96902823767919932] [0:0.16626125574111938] [-0.54442065246792593:1] [-0.70216444562303149:0.9990727926256886] [-0.7225610136440066:0.99987844476948951] [-0.69352895368488121:0.99635182319032223] [-0.73514182286132668:0.99455564611728886] [-0.78672268367964737:0.97172456064889412] [-0.5346158527356667:1] none [-0.62832043909730528:0.98852471780053663] [-0.60430788286790538:0.98829371306724567] [-0.86011518411535048:0.99440906804643492] [-0.86233682614105767:0.99329476593342281] [-0.88692522627262116:0.95500554027983064] [-2290.1379336503451:6250.2702862520564] [-0.70097983057247282:0.37941860502685038] [-1477.5663353844357:5207.5417671969117] [-1273.1970174699318:3879.6948223819491] [6.3845200538635254:74.0830078125] [0:1] [-36.860302833901869:262.7111617622752] [0.97351664304733276:31.776361465454102] [-0.27246955278549673:0.45937248967605593] [-0.53495562076568604:1.5145539045333862] [-621.80280555133709:605.88624799642844] [-0.55762957565893934:0.46316884494252136] [-10.356521260431272:8.8604114194892336] [-41.355482187426446:35.982825345413438] [-0.66966981162878181:0.77135796489534947] [-8.5974984243462345:4.7009594503051195] [-0.060040024858495022:0.16258163412323556] [-15.88353608803971:15.635729733045009] [-525.95452880859375:518.525634765625] [-431.79585591821842:464.14298055878311] [-4.546768630053081:4.3966442422194394] [-50.098707691982611:39.927979366462985] [-125.60209352335028:87.499084835949319] [-123.19436361849307:86.096135106637831] [-35.216788573266825:51.31557473489049] [-41.102165673975236:53.035093813448526] [-54.475861946753461:83.287293946730415] [-108138648.36699642:110277158.22831069] [-44.033486668741283:36.848258229850813] [-34.733054999834842:29.694725578690829] [-27.149604740590092:21.493226668359952] [-43.058672241098378:43.393305418590558] [-33.29118305809412:16.611633244096993] [-73.887420654296875:77.211166381835938] [-53.813125610351562:66.1416015625] [7.610039234161377:92.276603698730469] [0.0054137185215950012:99.999488830566406] [2.9372127056121826:98.431373596191406] [1.4834244251251221:98.542396545410156] [0.55116403102874756:99.544540405273438] [-1.9238176763219954:1.9048142995822039] [-24.519601589347737:69.116187345911513] [-0.56832654410366956:0.8669946791251828] [-0.95407781408258563:0.8494401344447603] [-5.0452978943812345:11.901823849053637] [-5.0452978943812345:11.901823849053637] [-16.754347173669828:11.12444301626447] [-99.448837280273438:-0.4554564356803894]
tree_sizes=2932 3038 2915 3038 3008 3024 3040 2994 2495 3019 3015 3023 3030 2595 2922 2837 2921 2653 2582 3015 2837 3044 2984 3025 2449 2778 2560 2760 2939 3014 2695 3030 3027 2377 2790 2150 3009 3010 3010 2982 2807 2400 3009 2165 2314 2454 3020 2914 2506 3004 2918 2674 2643 2850 2941 2655 3032 2997 2917 2276 2846 2996 2747 2721 2511 2400 2783 2562 2956 3047 3020 2198 2984 2945 2982 2443 2555 2484 3049 2440 2116 2753 3034 2564 2441 2449 2984 2574 2164 3021 2548 2860 3041 2642 2145 2408 2335 3034 2594 3015

Tree=0
num_leaves=31
num_cat=0
split_feature=19 16 13 13 14 19 13 17 13 14 13 19 17 13 14 13 13 19 18 18 16 19 13 92 45 47 82 58 45 5
split_gain=255.684 245.079 233.446 175.273 174.718 141.949 136.719 136.01 121.983 87.0452 103.826 95.7241 86.3324 111.803 71.9226 58.7778 40.8731 37.5859 36.1925 37.7784 37.7024 23.8544 22.5798 18.3778 17.7792 16.6472 16.5469 11.8213 10.4944 7.71488
threshold=-0.82499998807907093 -0.1595861579018609 -0.0070064090780493351 0.54110441810983601 0.6249031522258256 -0.24499999731779096 -0.034439586689557697 -0.039913860122371851 0.19873940412412858 0.50548250560151253 0.43909484650371416 -1.424999952316284 0.32372152343891264 0.40577803994288569 0.39476502255674989 -0.038174947090943288 0.50174004668533179 1.1950000524520876 -0.034176147751841045 -2.1878383452617611 -0.076434895724786761 -1.2849999666213987 0.38161600935447076 5.7092247279676789 -0.0014376977050234415 -0.00041254564278207475 0.83858279478692543 -0.032440467654742122 -0.00057770633966691405 12.403999328613283
decision_type=2 2 2 2 2 2 2 2 2 2 2 2 2 2 2 2 2 2 2 2 2 2 2 2 2 2 2 2 2 2
left_child=7 3 6 12 5 -4 15 18 -6 10 11 -9 13 -2 -8 -3 -12 24 19 28 -21 25 -23 -14 -5 -11 29 -28 -1 -20
right_child=1 2 4 17 8 -7 14 9 -10 21 16 -13 23 -15 -16 -17 -18 -19 26 20 -22 22 -24 -25 -26 -27 27 -29 -30 -31
leaf_value=0.027418173561892131 0.0044897700025852381 0.016045036206288943 0.011822897112582945 0.0084090408359185735 0.016293155419251908 0.014661161377198143 0.017963268776908629 0.021520018400021143 0.002575707502585239 0.0039714576680083625 0.023225629097465089 0.015382737563207564 0.027047110526540612 0.022683030734908474 0.023546614489021192 0.0030010547248074614 0.017159040835465843 0.028096540835918574 0.028836275135435484 0.02146699102748946 0.016627919436506874 0.008388786206288943 0.014466936367181757 0.014051032561686893 0.026395151947029689 0.021835429724807461 0.020959006960579819 0.003790985280363016 0.013668763058140795 0.024244716137319683
leaf_weight=311 192 288 8688 504 384 47518 2448 1248 912 167 1488 7008 1297 528 1584 288 672 48 276 1392 1296 288 2208 47 24 25 82 21 25 341
leaf_count=311 192 288 8688 504 384 47518 2448 1248 912 167 1488 7008 1297 528 1584 288 672 48 276 1392 1296 288 2208 47 24 25 82 21 25 341
internal_value=0.0152478 0.0146648 0.0144059 0.0207574 0.0140515 0.0142224 0.0188275 0.0174883 0.00664014 0.0165078 0.0173531 0.0163105 0.0235364 0.0178315 0.0201567 0.00952305 0.0213382 0.0107991 0.0209202 0.0199407 0.0191339 0.0132322 0.0137656 0.0265926 0.00922659 0.0062975 0.025034 0.0174587 0.0263952 0.0262986
internal_weight=81598 64750 62110 2640 57502 56206 4608 16848 1296 13104 10416 8256 2064 720 4032 576 2160 576 3744 3024 2688 2688 2496 1344 528 192 720 103 336 617
internal_count=81598 64750 62110 2640 57502 56206 4608 16848 1296 13104 10416 8256 2064 720 4032 576 2160 576 3744 3024 2688 2688 2496 1344 528 192 720 103 336 617
is_linear=0
shrinkage=0.408333


Tree=1
num_leaves=31
num_cat=0
split_feature=16 13 13 12 18 13 13 13 13 12 16 18 16 12 13 13 12 18 15 12 13 83 12 13 13 15 16 39 12 88
split_gain=196.037 146.727 137.269 141.539 180.922 124.289 129.325 116.877 102.589 104.773 96.7696 100.6 96.1055 116.811 75.59 73.1161 109.375 70.0886 68.8197 66.9925 62.673 62.1134 60.8565 55.6555 53.0469 50.8763 41.0013 31.3337 30.0755 22.3638
threshold=-0.072558382180342551 -0.0070064090780493351 0.37481213855312062 -0.043107639998197549 -3.227663841313158 0.25861176036179551 0.47521065170796734 -0.034439586689557697 0.2208581547675639 0.92984426021575939 0.15485673472681399 -0.30157265737994149 -0.15364460135707761 1.1474875807762148 0.49344174929726364 0.3952130484687198 -0.59732362627983082 14.095319239468703 0.34561461558663759 -1.5922709107398985 0.23266748592752376 0.063544137342330678 -2.2022955417633052 -0.023187531017662643 -0.038174947090943288 0.082427421431529271 -0.078095187981340256 62.134513062779156 -0.75150936841964711 14.479724446927216
decision_type=2 2 2 2 2 2 2 2 2 2 2 2 2 2 2 2 2 2 2 2 2 2 2 2 2 2 2 2 2 2
left_child=5 7 3 4 -3 8 15 24 12 20 14 -12 28 -14 -4 16 -7 -5 21 22 -10 -8 -9 -21 27 -17 -11 -2 -1 -26
right_child=1 2 10 17 -6 6 18 19 9 26 11 -13 13 -15 -16 25 -18 -19 -20 23 -22 -23 -24 -25 29 -27 -28 -29 -30 -31
leaf_value=-0.0048249421175569291 -0.0030209366631294998 0.0049676331381003063 0.0014976990184024275 -0.0015157413790714317 -0.00033498072952889039 -0.0002573795492450396 0.0024226289259836461 0.0039887944147700355 -0.0086844881375630675 -0.00082491503821478947 0.0013198061610940688 -0.0032618940809495851 0.0015333529358308408 -0.0043513218252276909 -0.00092643297991740735 -0.0046235496023048963 0.0034505347890335346 0.0091866056124369315 0.0067851760269453127 0.0013647509090581233 -0.0027093408419750628 -0.0021763371615163671 -0.0027051186447756156 0.0049706685136219394 -0.008376182490119748 0.0046242349641143132 0.0086079286204444015 0.0053421588242053989 0.0053940951606879627 0.0025596460609725027
leaf_weight=48 168 1056 10320 23615 20975 2160 618 336 384 144 1248 1872 1680 768 2496 96 2928 96 192 1056 960 1782 576 1824 255 2928 144 120 720 33
leaf_count=48 168 1056 10320 23615 20975 2160 618 336 384 144 1248 1872 1680 768 2496 96 2928 96 192 1056 960 1782 576 1824 255 2928 144 120 720 33
internal_value=5.52316e-12 -0.00029731 -0.0004541 -0.000802167 -8.08134e-05 0.00126261 0.00201465 0.00191663 -0.000397832 -0.0029504 0.000544975 -0.00142921 0.000897503 -0.00031282 0.00102558 0.00279131 0.00187642 -0.00147241 -0.000416009 0.00271355 -0.00441653 -0.000992103 -0.00023894 0.0036485 -0.00332972 0.00433065 0.00389151 0.000463686 0.00475541 -0.00712312
internal_weight=81598 66046 61678 45742 22031 15552 10704 4368 4848 1632 15936 3120 3216 2448 12816 8112 5088 23711 2592 3792 1344 2400 912 2880 576 3024 288 288 768 288
internal_count=81598 66046 61678 45742 22031 15552 10704 4368 4848 1632 15936 3120 3216 2448 12816 8112 5088 23711 2592 3792 1344 2400 912 2880 576 3024 288 288 768 288
is_linear=0
shrinkage=0.0125


Tree=2
num_leaves=30
num_cat=0
split_feature=19 19 16 12 19 13 13 19 11 11 12 19 13 11 76 11 19 19 102 12 11 12 1 0 15 11 0 2 20
split_gain=207.445 219.032 272.49 272.29 236.751 184.929 172.807 168.122 121.161 96.4638 69.2225 76.1705 171.866 85.0599 59.2989 62.6491 41.5414 41.4415 40.7732 30.8446 29.9309 22.559 18.8978 17.3243 9.7456 10.3693 9.69374 6.85532 5.2262
threshold=-0.82499998807907093 0.55500000715255748 -0.15364460135707761 0.20954702794551852 1.5850000381469729 0.2385051870625983 0.23162078386561905 -0.71500000357627858 71.641292572021499 -52.165761947631829 -2.851852178573608 -1.3949999809265134 0.37606634812223444 -2.0359280109405513 0.67687469720840465 -2.4578888416290279 0.49500000476837164 -1.3450000286102293 69.903877258300795 -0.86915704607963551 -0.80969053506851185 -0.84097498655319203 688.50000000000011 0.045435000211000449 0.18699468019723689 -10.151802062988279 0.11009000241756441 49.252000808715827 -0.012335024445081784
decision_type=2 2 2 2 2 2 2 2 2 2 2 2 2 2 2 2 2 2 2 2 2 2 2 2 2 2 2 2 2
left_child=10 3 21 14 8 9 -6 -7 -4 -5 24 18 17 -14 16 -16 -2 -13 19 -12 -20 23 -23 -3 28 26 -26 -27 -1
right_child=1 2 4 5 6 7 -8 -9 -10 -11 11 12 13 -15 15 -17 -18 -19 20 -21 -22 22 -24 -25 25 27 -28 -29 -30
leaf_value=0.0076555392321418321 0.00086363629797841623 -0.0042900582136611602 0.00072841678264016477 0.0020802317485550418 -0.0015529262006741596 -0.0066193144830283728 -0.0097185336154510544 0.00017707587827881535 0.0080906409545752189 -0.0049649858683734954 0.0023175777756449553 -0.00097285805604396705 0.0033400280566004341 0.00055103774366827604 0.00044434213355253537 -0.0023213606571324541 -0.0026519010106464493 -0.0080362643693822431 -0.0025535208567947802 0.0056514338047581351 0.0065909127839794438 0.0084341265010238944 -0.0019553301021524149 0.0093081874761106759 -0.0042612795592433189 0.012809248898363761 0.0095973183774300825 0.0041226235665886655 -0.0023778889351840477
leaf_weight=24 10505 63 24142 480 5520 1008 672 5088 528 7008 1102 288 3504 9072 3338 4374 839 576 377 1535 106 1110 42 33 20 168 28 24 24
leaf_count=24 10505 63 24142 480 5520 1008 672 5088 528 7008 1102 288 3504 9072 3338 4374 839 576 377 1535 106 1110 42 33 20 168 28 24 24
internal_value=5.51955e-11 -0.000391032 0.000500496 -0.00126808 0.000218855 -0.0029128 -0.00243912 -0.000946737 0.000885987 -0.00451337 0.00150281 0.00137429 0.000877485 0.00132812 -9.56582e-05 -0.00112428 0.000603628 -0.0056818 0.00351438 0.00425822 -0.000546668 0.00746527 0.00805534 0.000384339 0.00889257 0.0101433 0.0038229 0.0117234 0.00263883
internal_weight=81598 64750 32110 32640 30862 13584 6192 6096 24670 7488 16848 16560 13440 12576 19056 7712 11344 864 3120 2637 483 1248 1152 96 288 240 48 192 48
internal_count=81598 64750 32110 32640 30862 13584 6192 6096 24670 7488 16848 16560 13440 12576 19056 7712 11344 864 3120 2637 483 1248 1152 96 288 240 48 192 48
is_linear=0
shrinkage=0.0152036


Tree=3
num_leaves=31
num_cat=0
split_feature=19 19 16 12 19 18 19 17 11 15 17 12 32 14 12 19 12 17 11 11 15 102 17 14 11 100 99 1 75 107
split_gain=187.219 197.676 245.922 245.742 213.668 170.406 165.112 114.095 111.763 91.4284 90.2674 89.3242 86.334 75.7268 52.4576 86.5138 50.9779 41.6294 34.6614 45.0625 34.0053 33.6076 33.4889 29.9365 34.6388 25.2516 16.298 14.3642 12.5927 7.85524
threshold=-0.82499998807907093 0.55500000715255748 -0.15364460135707761 0.20954702794551852 1.5850000381469729 -2.9497516192050353 0.27500000596046453 -0.039913860122371851 -8.6189231872558576 0.45426166538230023 16.378220899094988 -0.65417221188545216 -0.0048511612463041235 0.50548250560151253 0.65001145005226146 -1.424999952316284 -2.851852178573608 0.18607550413480392 -2.0359280109405513 -0.59663760662078846 0.24349024751407458 66.786289215087905 0.32372152343891264 0.52206293368777612 -11.240687847137449 5.8702876567840585 -1.2062339030113567 688.50000000000011 -0.0015589547238247304 0.30648489965201947
decision_type=2 2 2 2 2 2 2 2 2 2 2 2 2 2 2 2 2 2 2 2 2 2 2 2 2 2 2 2 2 2
left_child=7 3 22 5 8 20 10 18 -4 -8 -5 -6 -7 14 15 -9 29 -16 23 26 -2 -18 -3 24 -1 -21 -20 -24 -25 -15
right_child=1 2 4 6 11 12 9 13 -10 -11 -12 -13 -14 16 17 -17 21 -19 19 25 -22 -23 27 28 -26 -27 -28 -29 -30 -31
leaf_value=0.0011098862270062621 0.0011787383285435764 -0.0038464026153087623 -0.0010936525600568282 -0.0016407115508096865 -0.0042093273380188036 -0.0014494470484970826 -0.0064992922647175719 0.002684437212401203 0.00092153193079645452 0.00083092209696769732 0.0089800475266846747 -0.00098851442758289467 0.00019709638365117481 0.0088734382082532367 -0.001679527487775142 -0.00011882872238435684 -0.00098208183262560767 0.0027007786798701216 0.0042023175487697689 0.0030051788873537676 0.0060106676702315984 -0.0052837119710818807 0.0056817371870579092 0.0013540542125701908 0.004810777444357409 -2.8718299024537074e-05 -0.0046735946306355226 -0.00060062008193044979 -0.0098601864267896123 0.002199742276647574
leaf_weight=384 240 48 3888 11952 1296 5382 1296 1680 20782 240 96 4896 12810 65 288 5952 2354 2496 29 1291 624 238 1155 22 1392 437 163 45 26 31
leaf_count=384 240 48 3888 11952 1296 5382 1296 1680 20782 240 96 4896 12810 65 288 5952 2354 2496 29 1291 624 238 1155 22 1392 437 163 45 26 31
internal_value=2.61983e-11 -0.000266549 0.000341166 -0.000864397 0.000149183 -6.5206e-05 -0.00198552 0.0010244 0.000603938 -0.00535395 -0.00155608 -0.00166264 -0.000290024 0.00054454 0.000965824 0.000498242 -0.00108794 0.00224764 0.00270391 0.00168084 0.00466847 -0.00137706 0.00508874 0.00378082 0.00401058 0.00223793 -0.00333296 0.00544615 -0.00472033 0.00671839
internal_weight=81598 64750 32110 32640 30862 19056 13584 16848 24670 1536 12048 6192 18192 13104 10416 7632 2688 2784 3744 1920 864 2592 1248 1824 1776 1728 192 1200 48 96
internal_count=81598 64750 32110 32640 30862 19056 13584 16848 24670 1536 12048 6192 18192 13104 10416 7632 2688 2784 3744 1920 864 2592 1248 1824 1776 1728 192 1200 48 96
is_linear=0
shrinkage=0.0109091


Tree=4
num_leaves=31
num_cat=0
split_feature=19 19 16 19 13 11 13 11 14 102 16 15 95 19 13 14 14 14 107 14 9 107 32 15 1 110 100 46 1 66
split_gain=168.965 178.403 221.945 192.835 152.314 108.642 102.716 141.229 147.594 88.8505 78.1302 74.3021 68.862 51.7279 115.029 71.3775 66.666 42.7546 27.4897 27.2885 27.0002 24.4114 20.0347 21.1775 19.9878 17.4205 15.3869 13.32 9.0383 8.48706
threshold=-0.82499998807907093 0.55500000715255748 -0.15364460135707761 1.5850000381469729 0.23162078386561905 71.641292572021499 0.25861176036179551 -4.2748303413391104 0.40276833297414566 37.954748153686531 -0.13677006169356845 0.56289547224277381 2.9852800447626779 -1.3949999809265134 0.37606634812223444 0.45526732392214081 0.47735984128046388 0.50887614171375362 0.14973167630123693 0.47409782581842791 24.750000000000004 -0.3838966170382147 0.026898874877802483 0.050646287758839843 185.00000000000003 0.15669287239657573 -7.6912226676940909 -0.068883295348184728 624.00000000000011 0.33860398747705234
decision_type=2 2 2 2 2 2 2 2 2 2 2 2 2 2 2 2 2 2 2 2 2 2 2 2 2 2 2 2 2 2
left_child=12 6 19 5 -5 -4 9 8 -8 17 -11 -9 13 18 15 -15 -16 -2 25 26 -20 28 23 -23 -21 -1 -3 -24 29 -14
right_child=1 2 3 4 -6 -7 7 11 -10 10 -12 -13 21 14 16 -17 -18 -19 20 24 -22 22 27 -25 -26 -27 -28 -29 -30 -31
leaf_value=0.0071814382160440291 -0.0042437507160748653 0.014309983970293035 0.00076051536374459534 -0.0016011582102128657 -0.01056529035959294 0.0089123730241048218 0.010286071814511747 -0.0012866968023361731 0.001049294884428352 -0.0088633010857722596 -0.001374214397592976 -0.012466203719377518 0.012150238898404981 -0.0020238695046871269 0.0045277908701156569 -0.015032268957922073 0.0012558612063509615 -0.012802155127892127 0.0013515394147608944 0.010675376411720557 0.0077952209180740372 -0.015855670744372954 -0.0082018273141649025 -0.001090087858316918 0.0044701761064075288 0.00090906675640182555 0.0015751756624704061 0.0073514949553839214 -0.0035683005701297181 0.00042183700789753196
leaf_weight=1070 3420 34 24142 5520 672 528 624 8784 4416 454 14555 192 78 531 2671 178 7479 195 1026 750 257 31 20 3165 210 161 254 134 21 26
leaf_count=1070 3420 34 24142 5520 672 528 624 8784 4416 454 14555 192 78 531 2671 178 7479 195 1026 750 257 31 20 3165 210 161 254 134 21 26
internal_value=8.38946e-12 -0.000412658 0.000528176 0.000230958 -0.00257401 0.000934986 -0.00133822 -0.000188617 0.0021929 -0.00220338 -0.00160075 -0.00152583 0.00158592 0.00216529 0.00163329 -0.00528973 0.00211688 -0.00470541 0.00446323 0.00787813 0.00264228 -0.000643694 -0.000931519 -0.00123331 0.00931799 0.00636109 0.00307859 0.00533158 0.00707002 0.00921814
internal_weight=81598 64750 32110 30862 6192 24670 32640 14016 5040 18624 15009 8976 16848 13373 10859 709 10150 3615 2514 1248 1283 3475 3350 3196 960 1231 288 154 125 104
internal_count=81598 64750 32110 30862 6192 24670 32640 14016 5040 18624 15009 8976 16848 13373 10859 709 10150 3615 2514 1248 1283 3475 3350 3196 960 1231 288 154 125 104
is_linear=0
shrinkage=0.0177778


Tree=5
num_leaves=31
num_cat=0
split_feature=19 19 16 19 12 13 13 13 11 17 19 15 18 19 13 104 17 71 16 19 13 17 15 74 12 20 101 16 69 16
split_gain=152.491 162.3 195.549 188.945 163.707 137.463 111.326 129.918 110.281 105.187 157.148 107.311 96.3623 80.68 70.9221 69.401 66.3681 39.797 39.2005 60.7786 36.7495 28.8623 28.2965 26.2794 22.6454 21.6509 18.0768 16.4434 15.474 13.2134
threshold=-0.82499998807907093 0.60500001907348644 -0.15364460135707761 1.5850000381469729 0.20954702794551852 0.23162078386561905 -1.0000000180025095e-35 0.2385051870625983 -8.6189231872558576 1.031060227326533 -1.3949999809265134 0.31316499801048853 -3.9727738354185225 -1.0850000381469724 -0.034439586689557697 66.722507476806655 1.539919638451446 24.268605232238773 -0.078095187981340256 -0.90500000119209278 0.27313551544605158 0.32372152343891264 0.20925286333095941 2.7794585227966313 -1.2994033694267271 -0.012882555103043531 7.206284999847413 -0.10824678848429586 15.861399975185167 0.065207445437495695
decision_type=2 2 2 2 2 2 2 2 2 2 2 2 2 2 2 2 2 2 2 2 2 2 2 2 2 2 2 2 2 2
left_child=9 4 21 8 12 -5 28 -8 -4 15 22 13 20 -12 -14 18 -13 24 19 -1 -2 -3 27 -20 -17 -19 -23 -11 -6 -24
right_child=1 2 3 5 6 -7 7 -9 -10 10 11 16 14 -15 -16 17 -18 25 23 -21 -22 26 29 -25 -26 -27 -28 -29 -30 -31
leaf_value=0.0080502092339556422 0.014232671057636089 -0.0077133585106242781 -0.0028372291088274069 -0.0019445885853824722 -0.0019359084745991888 -0.012831425036251287 -0.005466879326639063 -0.0011234051789215578 0.0020125031338784419 0.0051545811365499633 -0.0090604665013443372 -0.0041866560753786837 -0.010871521987472521 0.0016143217654616545 -0.00034219673437365977 0.007904362239092258 0.0041488035998414625 0.00067716746304584223 0.0025546302432409781 -0.00057894826008729786 0.0037517144975036075 0.010790382805977161 -0.0010038747127647653 0.007584958523064806 0.0016517023748439886 -0.0038802972684971893 -0.0043877835720132433 0.012574168386232574 0.011656942079512126 0.008972735982035485
leaf_weight=2285 288 48 2784 5520 51 672 8448 6144 18622 240 1536 816 336 480 19920 410 1248 1148 4673 517 432 1158 240 606 1107 1014 42 432 285 96
leaf_count=2285 288 48 2784 5520 51 672 8448 6144 18622 240 1536 816 336 480 19920 410 1248 1148 4673 517 432 1158 240 606 1107 1014 42 432 285 96
internal_value=-6.20567e-11 -0.000501169 0.000768282 0.000370358 -0.00152107 -0.00312611 -0.00334023 -0.00363805 0.00138176 0.00192608 -0.000804051 -0.00278936 -0.000226432 -0.00651885 -0.000516854 0.00310729 0.000853389 0.000519704 0.00428532 0.00645803 0.0079441 0.0095679 0.00723174 0.00313208 0.00334161 -0.00146033 0.0102591 0.00992432 0.00959374 0.00184659
internal_weight=81598 64750 28846 27598 35904 6192 14928 14592 21406 16848 5088 4080 20976 2016 20256 11760 2064 3679 8081 2802 720 1248 1008 5279 1517 2162 1200 672 336 336
internal_count=81598 64750 28846 27598 35904 6192 14928 14592 21406 16848 5088 4080 20976 2016 20256 11760 2064 3679 8081 2802 720 1248 1008 5279 1517 2162 1200 672 336 336
is_linear=0
shrinkage=0.0227273


Tree=6
num_leaves=31
num_cat=0
split_feature=19 19 12 16 19 13 19 18 13 11 17 11 32 19 13 11 17 11 11 11 12 13 17 13 17 15 18 80 101 60
split_gain=155.038 165.252 218.246 203.404 177.526 158.728 167.722 141.699 139.134 108.849 101.527 98.0933 80.8171 63.2262 145.916 60.4001 56.7682 44.9524 42.7461 53.1193 41.1391 40.5636 40.3505 29.1755 28.9109 24.4984 24.2406 19.7868 16.3765 13.8926
threshold=-0.82499998807907093 0.55500000715255748 0.20954702794551852 -0.15364460135707761 1.5850000381469729 0.2385051870625983 -0.71500000357627858 -2.9497516192050353 0.23162078386561905 71.641292572021499 0.12082202298804125 -52.165761947631829 -0.0048511612463041235 -1.3949999809265134 0.37606634812223444 -2.9101122617721553 0.67229273862827832 -4.1420366764068595 -2.0359280109405513 -0.59663760662078846 -1.0369390845298765 0.33276690195552311 -0.84926698924881439 0.27313551544605158 0.32372152343891264 0.20925286333095941 0.42567285854148129 1.4874478302555272 7.206284999847413 -0.0024471034033624515
decision_type=2 2 2 2 2 2 2 2 2 2 2 2 2 2 2 2 2 2 2 2 2 2 2 2 2 2 2 2 2 2
left_child=10 2 7 24 9 11 -7 23 -6 -5 18 -4 -9 16 21 -16 17 -12 20 29 27 -15 -22 -2 -3 -18 -21 -1 -26 -20
right_child=1 3 5 4 8 6 -8 12 -10 -11 13 -13 -14 14 15 -17 25 -19 19 26 22 -23 -24 -25 28 -27 -28 -29 -30 -31
leaf_value=0.0093340317757815167 0.01071292382699472 -0.0052348649253447857 0.0026539162954798451 0.00063572498826313501 -0.0013438582319403351 -0.0065652202051362882 0.00038020896804390463 -0.001943257948554387 -0.0088404527251367201 0.0077754111152443317 -0.0034477824095153695 -0.0046150146232798043 0.00032833739240276647 -0.0029200429638364797 0.0029401112983670134 -0.00011997934176224028 0.0062040989881864319 0.0036927848292031768 -0.0064201718241078745 0.0020794863922913606 0.0094116077165084869 -0.010069991909565739 0.0016592316147604777 0.0043309687604421894 0.0074227633939048321 0.0019000288522974761 0.0066262494331156769 0.0050611904171288394 -0.0024652181069056197 -0.00050229470632229636
leaf_weight=485 240 48 480 24142 5520 1008 5088 5382 672 528 480 7008 12810 384 2016 6912 960 384 194 1824 192 384 1056 624 1158 480 336 571 42 190
leaf_count=485 240 48 480 24142 5520 1008 5088 5382 672 528 480 7008 12810 384 2016 6912 960 384 194 1824 192 384 1056 624 1158 480 336 571 42 190
internal_value=5.91741e-12 -0.000345875 -0.00112532 0.000446433 0.000197466 -0.00263187 -0.000768248 -5.13742e-05 -0.00215744 0.000788532 0.00132926 -0.00414906 -0.000343701 0.000561736 1.13236e-05 0.000571009 0.00287806 -0.000274197 0.00322908 0.00183901 0.00476394 -0.00649502 0.0028519 0.00610373 0.00660316 0.00476941 0.00278676 0.00702362 0.00707668 -0.00349206
internal_weight=81598 64750 32640 32110 30862 13584 6096 19056 6192 24670 16848 7488 18192 12000 9696 8928 2304 864 4848 2544 2304 768 1248 864 1248 1440 2160 1056 1200 384
internal_count=81598 64750 32640 32110 30862 13584 6096 19056 6192 24670 16848 7488 18192 12000 9696 8928 2304 864 4848 2544 2304 768 1248 864 1248 1440 2160 1056 1200 384
is_linear=0
shrinkage=0.0155556


Tree=7
num_leaves=31
num_cat=0
split_feature=19 16 13 11 13 14 13 17 16 14 13 14 17 17 13 13 16 17 11 71 18 15 13 18 18 11 15 11 6 102
split_gain=138.77 148.701 159.849 143.72 127.562 106.213 101.367 94.7034 70.5487 66.9017 67.8208 74.2746 50.6587 46.6217 87.4355 45.3101 39.0361 30.5339 47.9177 29.2141 26.5663 25.8047 25.332 28.9196 28.2437 22.0028 18.6082 16.6334 16.0943 12.9608
threshold=-0.82499998807907093 -0.1595861579018609 -0.0070064090780493351 71.641292572021499 0.54110441810983601 0.6249031522258256 -0.034439586689557697 0.12082202298804125 -0.009801598210804242 0.50548250560151253 0.43909484650371416 0.50370891728068135 0.43702555365700141 0.32372152343891264 0.40577803994288569 -0.038174947090943288 -0.076434895724786761 1.3527846068445799 -7.4976060390472403 18.702721595764164 -2.6082295316375013 0.11915210760697877 0.4005210150857193 0.34659305838663346 -1.281521459290474 -3.1469099521636958 0.31316499801048853 -16.705369949340817 18.515500068664554 66.130809783935561
decision_type=2 2 2 2 2 2 2 2 2 2 2 2 2 2 2 2 2 2 2 2 2 2 2 2 2 2 2 2 2 2
left_child=7 4 6 5 13 -4 15 16 -8 10 11 -9 -12 14 -2 -3 22 18 -11 28 -21 -6 24 -24 -1 -15 -19 -23 -18 -5
right_child=1 2 3 29 21 -7 8 9 -10 17 12 -13 -14 25 -16 -17 19 26 -20 20 -22 27 23 -25 -26 -27 -28 -29 -30 -31
leaf_value=0.012893046756195865 -0.0088955518744003974 0.00070959888800845201 -0.0008492010564610928 0.010209774019424665 0.0097076159694009529 -0.0065021813027703991 0.0083238394527244217 0.00024406006503229031 0.0024509518294510689 0.0047139923634871945 -0.0015282763439564057 0.011276215770751906 0.0064514483282682089 0.01142499646647621 0.0064873333824753575 -0.010240332083562415 0.0084125886768745533 -0.0028543894133363501 -0.0058520090349065863 0.0088400054677199632 0.0004489628373994509 0.0021081868201472576 0.0061207519453970278 0.013569425446448676 0.0015738190891263098 0.0063778989962535483 0.0021779294245989319 -0.0068748950138706119 0.0024453398292972866 -0.00053030468219234905
leaf_weight=96 192 288 55678 481 48 1296 1056 7488 2976 192 384 240 1440 576 528 288 386 480 1104 156 1835 96 1152 240 672 768 672 432 311 47
leaf_count=96 192 288 55678 481 48 1296 1056 7488 2976 192 384 240 1440 576 528 288 386 480 1104 156 1835 96 1152 240 672 768 672 432 311 47
internal_value=3.60041e-11 -0.000410637 -0.000603502 -0.000883842 0.00412681 -0.000977791 0.00289478 0.00157815 0.00398909 0.000647914 0.00138579 0.000586674 0.00477151 0.0063936 0.00238523 -0.00476537 0.00388073 -0.00223124 -0.00428668 0.00231051 0.00110642 -0.00399584 0.00583477 0.00740501 0.00298872 0.00854094 8.11299e-05 -0.00524161 0.00575001 0.00925374
internal_weight=81598 64750 62110 57502 2640 56974 4608 16848 4032 12000 9552 7728 1824 2064 720 576 4848 2448 1296 2688 1991 576 2160 1392 768 1344 1152 528 697 528
internal_count=81598 64750 62110 57502 2640 56974 4608 16848 4032 12000 9552 7728 1824 2064 720 576 4848 2448 1296 2688 1991 576 2160 1392 768 1344 1152 528 697 528
is_linear=0
shrinkage=0.0195207


Tree=8
num_leaves=26
num_cat=0
split_feature=16 11 19 19 19 12 11 14 17 12 19 11 11 19 100 12 109 102 12 19 85 52 102 89 11
split_gain=126.208 117.29 98.027 83.5741 128.479 58.2497 47.947 44.3864 107.699 91.7358 70.7388 53.4603 44.2305 42.7423 30.4476 18.279 12.6287 11.6972 9.62718 14.6898 6.63186 6.1839 5.97984 1.92143 0.307253
threshold=-0.072558382180342551 71.641292572021499 2.304999947547913 -1.0049999952316282 0.60500001907348644 -0.86915704607963551 27.966725349426273 0.46567347281417121 0.3474623113452156 0.0065837700385600337 0.66500002145767223 -3.6121631860733028 -16.156400680541989 -1.3450000286102293 12.248236179351808 2.7654885053634648 0.025251844737965049 66.130809783935561 -1.4653377532958982 0.62500000000000011 3.2740279436111455 -0.11746888960269179 58.990608215332038 -3.505480077456729 31.818993568420414
decision_type=2 2 2 2 2 2 2 2 2 2 2 2 2 2 2 2 2 2 2 2 2 2 2 2 2
left_child=6 2 3 5 -5 -2 7 9 12 11 -10 -1 -9 -11 15 -4 -16 18 22 -20 -19 -8 -3 -23 -25
right_child=1 17 14 4 -6 -7 21 8 10 13 -12 -13 -14 -15 16 -17 -18 20 19 -21 -22 23 -24 24 -26
leaf_value=-0.0013799031027769944 -0.0014558919811403044 0.015675362848533464 -0.0077906371420218825 -0.0016389881810244722 0.00047892118741872354 0.0025152012492111104 0.0061609521785642883 -0.015787768673587159 -0.0011388240822350919 0.006593784181875297 0.004008079482903399 0.0039653136197649085 0.0052486836675494789 -0.005923525827655457 0.009508288864333525 -0.015988516705788162 -0.0092914367326219043 0.0089505403007844753 0.01735936733587444 0.003373620334899307 -0.0076092314778616263 0.010685609175370529 0.0092395446025693266 0.019955566215012797 0.017253990080666016
leaf_weight=1488 2352 185 458 31680 23854 6912 34 48 3936 144 1872 2208 4416 1296 58 180 24 20 48 139 27 20 109 30 60
leaf_count=1488 2352 185 458 31680 23854 6912 34 48 3936 144 1872 2208 4416 1296 58 180 24 20 48 139 27 20 109 30 60
internal_value=2.84376e-11 -0.000415966 -0.000498423 -0.000409552 -0.000729264 0.001507 0.00176652 0.00164952 0.00247674 -4.91976e-06 0.000520095 0.00181334 0.00502249 -0.00467179 -0.00849661 -0.0101035 0.00400593 0.0098159 0.01083 0.00696354 -0.00056252 0.0142854 0.0132893 0.0167965 0.0181545
internal_weight=81598 66046 65518 64798 55534 9264 15552 15408 10272 5136 5808 3696 4464 1440 720 638 82 528 481 187 47 144 294 110 90
internal_count=81598 66046 65518 64798 55534 9264 15552 15408 10272 5136 5808 3696 4464 1440 720 638 82 528 481 187 47 144 294 110 90
is_linear=0
shrinkage=0.0217964


Tree=9
num_leaves=31
num_cat=0
split_feature=19 13 16 12 11 13 14 17 19 15 18 14 13 15 102 17 73 16 14 14 14 13 15 16 15 45 13 14 16 13
split_gain=133.051 140.27 154.186 153.969 117.911 100.456 99.1211 91.7903 136.65 91.4267 67.8289 65.5487 116.741 72.5887 63.3049 61.2276 48.5861 44.4555 48.1738 40.7038 35.9668 24.3581 24.1795 18.4504 17.6542 16.0906 15.4542 15.2219 14.117 12.5392
threshold=-0.82499998807907093 -0.0070064090780493351 -0.1595861579018609 -0.84097498655319203 71.641292572021499 -0.034439586689557697 0.6249031522258256 1.031060227326533 -1.3949999809265134 0.26551145439585616 -1.8355318769318039 0.39476502255674989 -0.011675437221478962 0.16512860342390193 76.975399017333999 1.539919638451446 0.58652726437913316 -0.078095187981340256 0.52309218617710951 0.50308353068506195 0.50350925039573025 -0.038174947090943288 0.20925286333095941 -0.10824678848429586 0.17607895009229238 -0.013851990130945778 -0.038174947090943288 0.59411382984337779 -0.10824678848429586 0.37557379378418126
decision_type=2 2 2 2 2 2 2 2 2 2 2 2 2 2 2 2 2 2 2 2 2 2 2 2 2 2 2 2 2 2
left_child=7 5 3 10 6 16 -4 14 22 19 -3 12 -7 -13 17 -11 26 18 -1 -10 -19 -18 28 24 -16 -25 -2 -5 -9 -24
right_child=1 2 4 27 -6 11 -8 8 9 15 -12 13 -14 -15 23 -17 21 20 -20 -21 -22 -23 29 25 -26 -27 -28 -29 -30 -31
leaf_value=0.0029643361361476827 -0.003684376212482902 0.0046704887939221932 -0.00049252162028332568 0.0054093284676291738 0.0049577762755480684 0.0018081533730857904 -0.0037478461367246416 0.0024635874054648663 -0.0054467657713647855 -0.0018831891598929834 -0.0022821233398035959 0.0052634376826095376 -0.0089915474544871952 -0.0016839901548443418 -0.0038631238841047204 0.0015988168760962874 0.0029128821941337216 0.0014194257056223578 -0.0024142558878118346 -0.0013003568373435785 -0.0010301718229784116 -0.003306657750464717 0.0044575323986284663 -0.0012537824229938263 0.0062317453359628664 -0.0067400054658883933 -0.0096830008590720277 0.0024303569321078486 0.0059834439730403416 -0.00051847974820570526
leaf_weight=3727 108 240 55678 1200 528 2304 1296 240 816 1344 912 1344 144 240 45 1392 180 6471 240 528 928 162 96 122 49 178 126 288 432 240
leaf_count=3727 108 240 55678 1200 528 2304 1296 240 816 1344 912 1344 144 240 45 1392 180 6471 240 528 928 162 96 122 49 178 126 288 432 240
internal_value=1.75774e-11 -0.000239685 -0.000389601 0.00236014 -0.000515845 0.00171696 -0.000566571 0.000921153 -0.000384632 -0.0013325 -0.000833662 0.00236635 0.00117288 0.0042108 0.00148611 -0.000111642 -0.0028287 0.00164506 0.00263894 -0.00381782 0.00111219 -3.32157e-05 0.00345198 -0.00309941 0.0013991 -0.00450894 -0.0069144 0.00483275 0.00472635 0.000903238
internal_weight=81598 64750 60142 2640 57502 4608 56974 16848 5088 4080 1152 4032 2448 1584 11760 2736 576 11366 3967 1344 7399 342 1008 394 94 300 234 1488 672 336
internal_count=81598 64750 60142 2640 57502 4608 56974 16848 5088 4080 1152 4032 2448 1584 11760 2736 576 11366 3967 1344 7399 342 1008 394 94 300 234 1488 672 336
is_linear=0
shrinkage=0.0116364


Tree=10
num_leaves=31
num_cat=0
split_feature=16 13 11 13 110 13 11 13 14 12 16 18 14 12 15 17 14 12 17 83 13 15 14 11 11 16 42 104 104 12
split_gain=116.655 100.865 105.479 97.694 93.5459 92.2536 145.687 98.0583 90.919 83.3163 80.1785 77.7111 68.5308 68.1186 65.8213 65.3532 52.11 51.9437 65.2593 50.5108 47.9559 40.5099 39.3336 38.7397 37.0143 19.3985 13.3531 11.6875 8.68718 9.45686
threshold=-0.072558382180342551 -0.0070064090780493351 71.641292572021499 0.37481213855312062 0.0087197852213267719 0.25861176036179551 1.3224202990531924 0.47521065170796734 0.50052934567569196 0.66074851155281078 0.15485673472681399 1.3793541663556266 0.44678912488635542 0.51419386267662059 0.34561461558663759 0.24447519714641255 0.50370891728068135 -1.5922709107398985 0.43702555365700141 0.062145514718515323 0.0052579105818638125 0.19867034219467153 0.45526732392214081 -16.156400680541989 -12.621081829071043 -0.10630964354577645 -0.0099570011502607466 64.11182022094728 80.127414703369155 -1.4653377532958982
decision_type=2 2 2 2 2 2 2 2 2 2 2 2 2 2 2 2 2 2 2 2 2 2 2 2 2 2 2 2 2 2
left_child=5 4 3 9 13 6 8 15 12 -3 -5 20 -1 24 19 22 -17 18 -6 -9 -8 -19 -7 -10 -2 -13 -15 -16 29 -4
right_child=1 2 28 10 17 7 11 14 23 -11 -12 25 -14 26 27 16 -18 21 -20 -21 -22 -23 -24 -25 -26 -27 -28 -29 -30 -31
leaf_value=0.0034788187482226933 -0.010107931616819568 -0.00044547670416292479 0.0097382021474527614 0.0012203381049991271 0.0065453700599206605 -0.0010984770198249156 0.0068738704701212967 0.003236146701572391 -0.010668010910352072 -0.0020304226822223173 -0.001907924504051409 0.0048019954162063436 -0.0065008483862079129 0.013271691056175365 0.011590640103788919 0.00060083201151244782 0.0044882990596721876 0.0073375389018931116 -0.0049376189665999385 -0.002847561740398023 -0.0009277167531337165 -0.0060313507934955718 0.0056651995996253408 0.0061421679720949779 -0.00087629697192086284 0.010659316429629872 0.0049207494261709946 0.0014749781593032505 -0.0018605381051699319 0.0047786746398394662
leaf_weight=240 144 29806 307 12816 293 288 288 539 48 15408 3120 432 1728 72 146 3168 1584 1413 314 1861 1488 73 3072 335 1743 289 316 46 30 191
leaf_count=240 144 29806 307 12816 293 288 288 539 48 15408 3120 432 1728 72 146 3168 1584 1413 314 1861 1488 73 3072 335 1743 289 316 46 30 191
internal_value=-3.45762e-11 -0.000321084 -0.00050308 -0.000570327 0.00224877 0.00136358 -0.000639181 0.00227065 -0.00376563 -0.000985594 0.000607877 0.00230446 -0.00528382 -0.000207652 -0.000692495 0.00321746 0.00189665 0.00491879 0.000605241 -0.00148126 0.000337405 0.00668079 0.00508546 0.00403541 -0.00158078 0.0071498 0.00647041 0.0091671 0.00728511 0.00783605
internal_weight=81598 66046 61678 61150 4368 15552 4848 10704 2351 45214 15936 2497 1968 2275 2592 8112 4752 2093 607 2400 1776 1486 3360 383 1887 721 388 192 528 498
internal_count=81598 66046 61678 61150 4368 15552 4848 10704 2351 45214 15936 2497 1968 2275 2592 8112 4752 2093 607 2400 1776 1486 3360 383 1887 721 388 192 528 498
is_linear=0
shrinkage=0.0175


Tree=11
num_leaves=31
num_cat=0
split_feature=19 19 12 16 19 18 19 13 13 11 32 15 17 95 17 19 74 15 11 11 11 17 100 19 13 95 78 11 101 99
split_gain=127.437 149.671 220.753 175.73 169.171 160.29 157.93 125.046 94.165 90.9678 90.2544 89.8845 89.0826 47.6755 50.4998 124.493 37.6219 33.8875 32.0931 46.0222 28.1158 26.7269 22.6376 20.508 29.9858 17.4545 16.8606 16.6006 16.234 15.5274
threshold=-0.82499998807907093 0.55500000715255748 0.20954702794551852 -0.15364460135707761 1.5850000381469729 -2.9497516192050353 0.27500000596046453 0.23162078386561905 0.40420847155638834 -52.165761947631829 -0.0048511612463041235 0.45426166538230023 -0.039913860122371851 4.240075424696367 1.031060227326533 -1.3949999809265134 2.741854310035706 0.24349024751407458 -2.0359280109405513 -0.59663760662078846 -11.240687847137449 0.32372152343891264 5.8702876567840585 -1.424999952316284 0.37606634812223444 -1.7796926382692171 -0.022000556874656466 -1.2989928126335142 7.206284999847413 -1.2062339030113567
decision_type=2 2 2 2 2 2 2 2 2 2 2 2 2 2 2 2 2 2 2 2 2 2 2 2 2 2 2 2 2 2
left_child=12 2 5 21 8 17 9 -6 -5 -4 -7 -8 18 14 16 -16 -14 -2 20 29 25 -3 -21 27 -25 -1 -22 -15 -23 -20
right_child=1 3 6 4 7 10 11 -9 -10 -11 -12 -13 13 23 15 -17 -18 -19 19 22 26 28 -24 24 -26 -27 -28 -29 -30 -31
leaf_value=-0.0094705894278983276 0.0012887015721450251 -0.0041938707232475284 0.0044018694936918713 0.0004762348365241906 -0.0010594995868091971 -0.0015883047674186959 -0.0071416404588007147 -0.0067704142603491023 0.0044695906878526636 -0.0017814546718348278 0.00034072094495638341 0.0011863436767210562 0.0011107410809613136 -0.001053106938440775 0.0037594479893099672 -0.0012991038827906923 0.0041241213303946801 0.0068156908111025889 0.004162630721412857 0.0030183662465642948 0.0064897311616718299 0.0055951938599296596 -0.00027312714632097591 -0.0094058895217520849 -0.0016821849412772037 0.0015390430183874234 0.0036590662972737788 0.0067203718249673975 -0.0023158626896994453 -0.0057643389043632457
leaf_weight=24 240 48 384 23710 5520 5382 1296 672 960 11664 12810 240 6263 97 957 3696 722 624 29 1291 508 1158 437 84 1208 360 932 77 42 163
leaf_count=24 240 48 384 23710 5520 5382 1296 672 960 11664 12810 240 6263 97 957 3696 722 624 29 1291 508 1158 437 84 1208 360 932 77 42 163
internal_value=-1.60531e-11 -0.000251983 -0.000848062 0.000353935 0.000167979 1.98708e-05 -0.00206562 -0.00167929 0.000631631 -0.00158438 -0.00022997 -0.00584039 0.000968418 0.000482573 0.000750171 -0.000258693 0.00142222 0.00528042 0.00266888 0.00154088 0.00385625 0.00495245 0.00218597 -0.00164179 -0.00218435 0.000850941 0.00465766 0.00238688 0.00531831 -0.00426495
internal_weight=81598 64750 32640 32110 30862 19056 13584 6192 24670 12048 18192 1536 16848 13104 11638 4653 6985 864 3744 1920 1824 1248 1728 1466 1292 384 1440 174 1200 192
internal_count=81598 64750 32640 32110 30862 19056 13584 6192 24670 12048 18192 1536 16848 13104 11638 4653 6985 864 3744 1920 1824 1248 1728 1466 1292 384 1440 174 1200 192
is_linear=0
shrinkage=0.0125


Tree=12
num_leaves=31
num_cat=0
split_feature=19 19 12 13 19 19 14 18 13 13 14 11 17 19 15 11 32 19 102 13 11 11 105 14 15 36 19 22 105 112
split_gain=108.931 128.759 191.584 143.418 153.046 142.841 167.791 139.619 124.908 186.628 113.266 87.7542 80.6288 128.458 90.1744 79.2767 78.896 61.7958 59.437 44.316 37.9323 47.1013 32.1706 32.1522 22.9754 21.6569 16.8465 16.0508 13.2318 12.7914
threshold=-0.82499998807907093 0.55500000715255748 0.20954702794551852 0.2385051870625983 -0.71500000357627858 1.5850000381469729 0.52720683579672223 -2.9497516192050353 0.23162078386561905 0.017262485587568207 0.52618073629185969 -52.165761947631829 1.031060227326533 -1.3949999809265134 0.2729020374637004 -3.8043513298034664 -0.0048511612463041235 1.3350000381469729 76.975399017333999 0.37622546124163941 -2.0359280109405513 -10.151802062988279 81.413764953613295 0.51020087707083761 0.20925286333095941 144.03936760486229 -1.1549999713897703 -0.063916743507299714 87.835815429687514 0.14624494240129801
decision_type=2 2 2 2 2 2 2 2 2 2 2 2 2 2 2 2 2 2 2 2 2 2 2 2 2 2 2 2 2 2
left_child=12 2 7 11 -5 6 10 22 9 -7 -3 -4 18 24 19 -16 -9 -8 20 -15 21 -1 -2 -22 29 -10 28 -28 -20 -14
right_child=1 5 3 4 -6 8 17 16 25 -11 -12 -13 13 14 15 -17 -18 -19 26 -21 23 -23 -24 -25 -26 -27 27 -29 -30 -31
leaf_value=0.0011673667238857833 0.0093869521514137362 0.00077988785867215697 0.0029577738103717063 -0.0069949320558245331 0.00054438714291475503 -0.0045742042631218985 0.0065672500817123645 -0.0020935603399550467 -0.011130812836327301 0.0018000520205210533 -0.0065862094823828411 -0.0048549414909329104 0.0084256423554233788 -0.0092959967574147012 0.008745950564123299 -0.001090890845875513 0.00045693299589923754 5.0933541642244817e-05 0.001586790587428078 -0.0030330927767243743 0.0019067000077351379 0.0050187791891093082 0.0021512307473338143 -0.002066524672878124 0.0012836877063782228 -0.0041492321941071601 -0.0088327903676815693 0.0046021575231189032 -0.0090360885873381255 0.0029281300197216316
leaf_weight=1560 576 22222 480 1008 5088 2592 2160 5382 476 3216 672 7008 491 576 288 2304 12810 576 44 912 6373 2726 288 707 336 196 40 91 219 181
leaf_count=1560 576 22222 480 1008 5088 2592 2160 5382 476 3216 672 7008 491 576 288 2304 12810 576 44 912 6373 2726 288 707 336 196 40 91 219 181
internal_value=6.22451e-11 -0.000329453 -0.00111129 -0.00271531 -0.000702272 0.00046529 0.00105811 3.21268e-05 -0.00187946 -0.00104466 0.000563673 -0.00435413 0.00126615 -0.000592954 -0.00198903 2.09153e-06 -0.000297616 0.00519539 0.0020705 -0.00545744 0.00230447 0.00361696 0.00697505 0.00150994 0.00505784 -0.00909452 -0.00467919 0.000499883 -0.00725888 0.00694491
internal_weight=81598 64750 32640 13584 6096 32110 25630 19056 6480 5808 22894 7488 16848 5088 4080 2592 18192 2736 11760 1488 11366 4286 864 7080 1008 672 394 131 263 672
internal_count=81598 64750 32640 13584 6096 32110 25630 19056 6480 5808 22894 7488 16848 5088 4080 2592 18192 2736 11760 1488 11366 4286 864 7080 1008 672 394 131 263 672
is_linear=0
shrinkage=0.0176768


Tree=13
num_leaves=27
num_cat=0
split_feature=19 17 19 19 12 13 18 11 17 19 104 11 12 100 95 11 47 54 57 79 41 43 56 19 20 25
split_gain=101.507 98.7707 107.879 124.316 135.158 105.143 85.1049 84.261 72.2342 113.852 59.6734 58.1725 54.0921 33.3828 25.7063 19.0997 22.1529 14.3042 13.2127 13.7727 12.5505 9.22113 7.40699 5.1567 4.42594 0.118713
threshold=2.2150000333786015 5.2606017890057304 -0.82499998807907093 0.60500001907348644 0.20954702794551852 0.40420847155638834 1.3793541663556266 13.027445316314699 1.031060227326533 -1.3949999809265134 66.722507476806655 -12.621081829071043 -0.57214230298995961 11.755888462066652 -5.13247258388507 -14.826326847076414 -0.00072495522070141385 -0.0020265528480449967 -0.023637361077864207 1.2974094606155731 89.394183234457515 0.18065676460330701 -0.0054927805401594554 1.6549999713897707 -0.011957864692681766 -0.014471609467124218
decision_type=2 2 2 2 2 2 2 2 2 2 2 2 2 2 2 2 2 2 2 2 2 2 2 2 2 2
left_child=1 2 8 4 -4 -5 21 13 10 -10 -1 14 -13 15 -8 16 -2 -17 19 -15 -20 23 24 -3 25 -9
right_child=7 6 3 5 -6 -7 11 22 9 -11 -12 12 -14 18 -16 17 -18 -19 20 -21 -22 -23 -24 -25 -26 -27
leaf_value=0.0023900751175350591 0.00085937008158913967 0.0094875445051325683 -0.00012717710379336631 0.00025289674125016537 -0.0020178550838630357 0.0048891339109589666 0.0098925187795058551 0.013270321860909462 0.0042686462430528514 -0.001613269040379503 8.5516649602904006e-05 -0.0012193831462914552 0.0039330550561458549 0.011793472532715118 -0.006784675884906049 -0.0057398853705542055 -0.01024840323520558 -0.0098363692561785378 0.0035600715130567548 -0.0028571037135340953 -0.012318563035556248 0.0025845749718802322 0.0017258102867914286 0.013848928213119508 0.0063696428060531617 0.01478342183998653
leaf_weight=8081 145 216 20496 24670 14544 1152 23 20 912 3936 3679 624 1728 42 217 470 56 324 24 22 21 35 23 85 25 28
leaf_count=8081 145 216 20496 24670 14544 1152 23 20 912 3936 3679 624 1728 42 217 470 56 324 24 22 21 35 23 85 25 28
internal_value=3.07181e-11 6.46351e-05 -3.75767e-05 -0.000329977 -0.000911938 0.000459734 0.00276899 -0.00433044 0.00103396 -0.00050677 0.00166912 0.00184826 0.00256608 -0.00550255 -0.00518644 -0.00636586 -0.00223533 -0.0074115 0.00237818 0.00675734 -0.00384996 0.00987181 0.00914872 0.0107192 0.0114874 0.014153
internal_weight=81598 80398 77470 60862 35040 25822 2928 1200 16608 4848 11760 2592 2352 1104 240 995 201 794 109 64 45 336 96 301 73 48
internal_count=81598 80398 77470 60862 35040 25822 2928 1200 16608 4848 11760 2592 2352 1104 240 995 201 794 109 64 45 336 96 301 73 48
is_linear=0
shrinkage=0.015


Tree=14
num_leaves=30
num_cat=0
split_feature=16 11 13 19 110 13 11 13 14 19 18 12 14 15 12 14 105 14 12 12 83 11 16 102 102 101 100 106 102
split_gain=96.6888 90.9186 91.4276 84.6752 83.1685 77.8111 129.82 83.5664 79.0077 73.9139 70.7752 63.065 61.5097 59.7177 52.0345 50.0827 74.7506 71.5695 48.1451 46.1152 44.994 33.0262 19.8969 12.5363 10.0154 9.04981 6.67384 6.06702 4.14433
threshold=-0.072558382180342551 71.641292572021499 -0.0070064090780493351 -1.0049999952316282 0.0087197852213267719 0.25861176036179551 1.3224202990531924 0.47521065170796734 0.50052934567569196 -0.24499999731779096 0.40758493639540155 0.51419386267662059 0.44678912488635542 0.34561461558663759 -0.86915704607963551 0.50370891728068135 67.159202575683608 0.59411382984337779 0.083548013120889678 -1.5922709107398985 0.063544137342330678 -12.814852237701414 -0.097158108969101764 63.145992279052741 66.130809783935561 -4.7274682521820059 -4.9512877464294425 91.170845031738295 37.460178375244148
decision_type=2 2 2 2 2 2 2 2 2 2 2 2 2 2 2 2 2 2 2 2 2 2 2 2 2 2 2 2 2
left_child=5 2 4 14 11 6 8 15 12 -5 18 -2 -1 20 -4 16 -7 -17 -8 -6 -9 -10 -12 -15 25 28 -27 -26 -3
right_child=1 24 3 9 19 7 10 13 21 -11 22 -13 -14 23 -16 17 -18 -19 -20 -21 -22 -23 -24 -25 27 26 -28 -29 -30
leaf_value=0.0037130847909597493 -0.0017156863263473902 0.0068781090736552922 -0.0013713785332489703 -0.0024425665697935029 0.00061040044431846666 0.0042453809457647738 0.0023546293724525449 0.00295577877953362 -0.0057438982507357229 -0.00054264414613754684 0.0043219158005040996 0.0069036657296410626 -0.0068065014363338176 0.012021721285750166 0.0019814854131202362 0.0061262552769874197 -0.00039404354163116945 -0.0079701043196389668 -0.005191175268413061 0.0069797402780592396 -0.0031413694785035152 0.0074491067976458422 0.0099458372576259578 -0.001011691939052009 0.0059916876990777964 0.013767810543140784 0.0080924705801024791 -0.0080028608111184975 -0.0047516739817016554
leaf_weight=240 1887 21 2352 9504 607 2950 816 618 96 42382 816 388 1728 158 6912 2640 2378 144 528 1486 1782 287 337 34 24 103 331 23 26
leaf_count=240 1887 21 2352 9504 607 2950 816 618 96 42382 816 388 1728 158 6912 2640 2378 144 528 1486 1782 287 337 34 24 103 331 23 26
internal_value=-4.57722e-11 -0.000325245 -0.000390098 -0.000584496 0.00233139 0.00138124 -0.000665253 0.00230813 -0.00394896 -0.000890654 0.00242646 -0.000245661 -0.00552363 -0.000735422 0.00113024 0.00328063 0.00217471 0.00539713 -0.000609794 0.00513254 -0.00157135 0.00414224 0.00596568 0.00971372 0.0077222 0.00856048 0.00943938 -0.000856708 0.000444612
internal_weight=81598 66046 65518 61150 4368 15552 4848 10704 2351 51886 2497 2275 1968 2592 9264 8112 5328 2784 1344 2093 2400 383 1153 192 528 481 434 47 47
internal_count=81598 66046 65518 61150 4368 15552 4848 10704 2351 51886 2497 2275 1968 2592 9264 8112 5328 2784 1344 2093 2400 383 1153 192 528 481 434 47 47
is_linear=0
shrinkage=0.0194712


Tree=15
num_leaves=29
num_cat=0
split_feature=16 11 13 110 13 13 11 13 16 11 15 15 16 16 83 13 15 13 13 15 13 15 79 102 102 101 102 76
split_gain=87.2617 82.0541 82.5134 75.0595 73.5864 70.2245 117.61 75.4187 66.6977 63.3701 53.8952 49.3232 100.971 48.4312 40.8712 38.0799 55.805 37.7393 76.6081 37.5887 30.8488 21.4559 17.4864 11.314 9.16086 7.52645 7.26112 3.74527
threshold=-0.072558382180342551 71.641292572021499 -0.0070064090780493351 0.0087197852213267719 0.37481213855312062 0.25861176036179551 1.0318529605865481 0.47521065170796734 0.15485673472681399 -52.165761947631829 0.34561461558663759 0.16943512698497201 -0.084254415276304187 -0.005601197516746253 0.062145514718515323 0.4005210150857193 0.32883061004692099 0.23266748592752376 0.2208581547675639 0.068703163326819597 0.2208581547675639 0.29152726443504201 1.5550866299199766 63.145992279052741 68.20975494384767 -4.7274682521820059 58.990608215332038 0.12310780584812166
decision_type=2 2 2 2 2 2 2 2 2 2 2 2 2 2 2 2 2 2 2 2 2 2 2 2 2 2 2 2
left_child=5 2 3 13 9 6 11 15 -6 -4 14 12 -1 -2 -9 16 -7 18 -8 -5 -13 -17 -19 -12 25 27 -27 -3
right_child=1 24 4 19 8 7 17 10 -10 -11 23 20 -14 -15 -16 21 -18 22 -20 -21 -22 -23 -24 -25 -26 26 -28 -29
leaf_value=-0.0032244878562305143 0.0025900691552750155 0.0038865031559526171 0.0029592752962568653 -0.00023468768278371937 0.00071567337257560839 0.0016808226499722874 0.0015706413484003691 0.0019191764499885892 -0.0011713516792634 -0.00062165112822898556 0.0067886722097727841 -0.00074717551632004096 0.004318739973112112 -0.001183794558014279 -0.0017001947614289793 0.0022585272224215124 -0.0024442459588847405 0.0076590318370748436 -0.0053467470702961697 0.0036662307533811412 -0.0048224930226275272 0.0045259425246357314 0.0018742414167596654 -0.00057130291132755518 -0.0033226815845679349 0.0061468731208867387 0.0030721085081533432 -0.0026852368215295325
leaf_weight=624 630 21 672 412 12816 5184 2016 539 3120 44542 158 336 384 1645 1861 1584 480 170 240 1681 959 864 119 34 20 306 155 26
leaf_count=624 630 21 672 412 12816 5184 2016 539 3120 44542 158 336 384 1645 1861 1584 480 170 240 1681 959 864 119 34 20 306 155 26
internal_value=-3.25595e-11 -0.000183666 -0.000220288 0.00131654 -0.000330065 0.000779989 -0.000375669 0.0013034 0.000346226 -0.000568429 -0.000415293 -0.00227074 -0.000350877 -0.000138725 -0.000887344 0.00185257 0.00133124 0.0013392 0.000834749 0.00289835 -0.00376511 0.00305879 0.00527706 0.00548534 0.00436073 0.00466323 0.00511306 0.000251073
internal_weight=81598 66046 65518 4368 61150 15552 4848 10704 15936 45214 2592 2303 1008 2275 2400 8112 5664 2545 2256 2093 1295 2448 289 192 528 508 461 47
internal_count=81598 66046 65518 4368 61150 15552 4848 10704 15936 45214 2592 2303 1008 2275 2400 8112 5664 2545 2256 2093 1295 2448 289 192 528 508 461 47
is_linear=0
shrinkage=0.0115741


Tree=16
num_leaves=30
num_cat=0
split_feature=16 11 13 13 13 13 11 17 14 17 14 13 16 18 14 16 18 73 12 13 14 11 16 12 102 12 74 82 85
split_gain=96.5258 92.6241 92.3205 82.191 79.4952 74.7203 119.947 84.2005 74.8535 73.9214 69.2015 68.7551 75.7007 62.4089 60.0659 58.447 50.7128 45.3174 44.3726 43.0423 39.313 31.1478 19.3541 18.1674 10.1537 8.11624 9.48757 7.85596 5.73775
threshold=-0.072558382180342551 71.641292572021499 -0.0070064090780493351 -0.034439586689557697 0.37481213855312062 0.25861176036179551 1.0318529605865481 0.24447519714641255 0.50052934567569196 6.2562505896044209 0.50350925039573025 0.33276690195552311 -0.17396290445236262 0.40758493639540155 0.44678912488635542 -0.009801598210804242 -3.3155688626030551 0.58652726437913316 0.083548013120889678 0.54110441810983601 0.45526732392214081 -16.156400680541989 -0.097158108969101764 -2.3950662612915035 66.130809783935561 -1.4653377532958982 4.5411853790283212 -0.84725451973990196 3.2740279436111455
decision_type=2 2 2 2 2 2 2 2 2 2 2 2 2 2 2 2 2 2 2 2 2 2 2 2 2 2 2 2 2
left_child=5 2 3 17 9 6 8 19 14 -4 -6 12 -9 18 -1 -5 -13 -2 -8 20 -7 -10 -15 -21 25 26 -3 -27 -26
right_child=1 24 4 15 10 7 13 11 21 -11 -12 16 -14 22 -16 -17 -18 -19 -20 23 -22 -23 -24 -25 28 27 -28 -29 -30
leaf_value=0.0019704349249833912 -0.0059189656324824284 0.004141399994707703 -0.00060040785627648815 0.0042624839148054381 0.00097710897140322432 -0.00047560149899908622 0.001199450691517798 0.0059355363539573243 -0.0056756170385596555 0.0021168894282810446 -0.00039077967813614197 -0.005446219917963676 0.0010035044460575829 0.0021147352707486188 -0.0035767535464488365 0.0011290351736527328 1.5631012377046307e-06 4.7125966684345404e-06 -0.0026594498265352907 -0.0032210936920554125 0.0030202441718261775 0.0032582346254277574 0.0050453250259823966 0.0012910111468522347 0.0037630993670203674 0.0074237316640182183 0.0079374108631084343 0.0019117979332936214 -0.003566694271092226
leaf_weight=240 234 175 44110 816 8256 384 816 432 48 1104 7680 192 1488 864 1680 2976 4320 342 528 192 3504 335 337 192 20 34 119 153 27
leaf_count=240 234 175 44110 816 8256 384 816 432 48 1104 7680 192 1488 864 1680 2976 4320 342 528 192 3504 335 337 192 20 34 119 153 27
internal_value=-3.13672e-11 -0.000173109 -0.000207979 0.0012488 -0.000312038 0.000735158 -0.000333126 0.001219 -0.00204818 -0.000534059 0.000317886 0.000469286 0.00211321 0.00121885 -0.00288335 0.00180332 -0.000230257 -0.00240178 -0.000316546 0.00234778 0.00267498 0.00213859 0.00293706 -0.000965041 0.00415373 0.00460334 0.00567788 0.00291397 -0.000447633
internal_weight=81598 66046 65518 4368 61150 15552 4848 10704 2303 45214 15936 6432 1920 2545 1920 3792 4512 576 1344 4272 3888 383 1201 384 528 481 294 187 47
internal_count=81598 66046 65518 4368 61150 15552 4848 10704 2303 45214 15936 6432 1920 2545 1920 3792 4512 576 1344 4272 3888 383 1201 384 528 481 294 187 47
is_linear=0
shrinkage=0.0103721


Tree=17
num_leaves=28
num_cat=0
split_feature=19 19 19 11 14 15 13 11 18 18 100 15 66 102 19 11 36 20 85 57 16 41 7 90 48 32 63
split_gain=90.3533 86.6105 144.519 98.0815 91.3296 88.0845 76.9158 76.3193 66.3027 39.1963 30.2332 22.7557 26.0361 20.4194 20.5514 17.4572 17.0657 13.3751 12.0507 11.9019 11.7901 11.2918 11.0491 9.65573 9.56001 3.12333 0.522593
threshold=2.2150000333786015 1.9750000238418581 1.7050000429153445 6.2276303768157968 0.555155289833973 0.56289547224277381 0.53363482843849963 13.027445316314699 4.7011426099796294 -3.9727738354185225 11.755888462066652 0.24662566296971059 0.23260625958833411 50.34778022766114 2.0949999094009404 -14.826326847076414 144.03936760486229 -0.040361986362401396 -1.0140348672866819 -0.023637361077864207 -0.10630964354577645 89.394183234457515 2.7677497863769536 2.8422715108647387 -0.02749382630174008 0.0068695576048754406 -0.053727036657066927
decision_type=2 2 2 2 2 2 2 2 2 2 2 2 2 2 2 2 2 2 2 2 2 2 2 2 2 2 2
left_child=1 2 4 18 5 -1 -6 10 -5 13 15 20 -13 14 -3 17 -17 -2 -4 24 -11 -21 -15 25 -12 26 -9
right_child=7 9 3 8 6 -7 -8 23 -10 11 19 12 -14 22 -16 16 -18 -19 -20 21 -22 -23 -24 -25 -26 -27 -28
leaf_value=2.8455932738361131e-05 0.0056105464114699268 0.0053512093842029568 0.0098973946752492336 -0.0061301325697607663 0.0038224549680586661 -0.0086989159937947962 -0.0037397719725267959 0.015063032488931313 0.0073176596970297401 0.0049993372345343229 -0.00082528704643249518 0.0052787682291722191 -0.00047091705982501696 0.0011642342805862427 -0.007391188645607805 -0.008866072161326885 -0.0038013985735865737 -0.0042969548983287217 0.0025562602521648345 0.0035869937874376777 0.010961121828993784 -0.012227446049451828 0.013215379246473313 -0.00055732427537441272 0.011651349550256361 0.0068953440493863555 0.011836557798832652
leaf_weight=73486 43 40 75 1728 2544 288 384 33 96 144 25 687 273 77 146 560 234 158 213 24 192 21 25 20 39 23 20
leaf_count=73486 43 40 75 1728 2544 288 384 33 96 144 25 687 273 77 146 560 234 158 213 24 192 21 25 20 39 23 20
internal_value=-3.16548e-11 6.40296e-05 -9.25607e-06 -0.00407367 0.000102658 -5.61411e-06 0.00283069 -0.00428988 -0.00542235 0.00371045 -0.00546115 0.00487839 0.0036437 -0.00154526 -0.00465089 -0.00632381 -0.00737346 -0.00217744 0.00446801 0.0024136 0.00840607 -0.00379308 0.00411795 0.00917977 0.00677766 0.0117422 0.0138455
internal_weight=81598 80398 78814 2112 76702 73774 2928 1200 1824 1584 1104 1296 960 288 186 995 794 201 288 109 336 45 102 96 64 76 53
internal_count=81598 80398 78814 2112 76702 73774 2928 1200 1824 1584 1104 1296 960 288 186 995 794 201 288 109 336 45 102 96 64 76 53
is_linear=0
shrinkage=0.01575


Tree=18
num_leaves=27
num_cat=0
split_feature=19 17 19 19 12 11 18 11 17 19 104 17 17 100 11 47 36 11 57 79 41 43 90 19 55 40
split_gain=90.8956 97.7205 93.2809 114.906 130.21 95.9298 86.1929 76.7071 69.695 113.548 59.0874 56.0416 54.8745 30.387 17.5376 22.0148 15.809 14.5458 11.9658 13.3498 11.3532 9.19464 8.91641 5.72779 3.22619 0.146276
threshold=2.2150000333786015 5.2606017890057304 -0.82499998807907093 0.60500001907348644 0.20954702794551852 9.3266401290893572 1.3793541663556266 13.027445316314699 1.031060227326533 -1.3949999809265134 66.722507476806655 16.378220899094988 9.3110439139583683 11.755888462066652 -14.826326847076414 -0.00072495522070141385 144.03936760486229 -10.570936203002928 -0.023637361077864207 1.2974094606155731 89.394183234457515 0.18065676460330701 2.8422715108647387 1.6549999713897707 -0.013532724408019215 0.0075484372244099584
decision_type=2 2 2 2 2 2 2 2 2 2 2 2 2 2 2 2 2 2 2 2 2 2 2 2 2 2
left_child=1 2 8 4 -4 -5 21 13 10 -10 -1 12 -8 14 15 -2 -16 -13 19 -15 -20 23 24 -3 -9 -26
right_child=7 6 3 5 -6 -7 11 22 9 -11 -12 17 -14 18 16 -17 -18 -19 20 -21 -22 -23 -24 -25 25 -27
leaf_value=0.00223339302939759 0.00097534359100906335 0.0091848641702974281 -9.8818583591059878e-05 0.0011127773959025346 -0.00190301629936251 -0.00073029307650715795 0.0021297112315450148 0.007078869682219293 0.0040945392297049828 -0.0016163455449970427 3.8780116449031991e-06 0.00240281497180048 -0.0038853062410554333 0.011110809445381165 -0.0081763825800347453 -0.0097901667468249798 -0.0036628420366520893 0.011672690665107911 0.0033282850196378103 -0.002912447229027748 -0.011354442561666171 0.0025495746731758117 -0.0001442677030960719 0.013653728412646874 0.013947210948054609 0.012288307516525189
leaf_weight=8081 145 216 20496 16318 14544 9504 2016 30 912 3936 3679 48 384 42 560 56 234 144 24 22 21 35 20 85 26 20
leaf_count=8081 145 216 20496 16318 14544 9504 2016 30 912 3936 3679 48 384 42 560 56 234 144 24 22 21 35 20 85 26 20
internal_value=3.89111e-11 5.94644e-05 -3.93786e-05 -0.000303724 -0.000847684 0.00043442 0.00267468 -0.00398401 0.000929347 -0.000542021 0.00153591 0.00177382 0.00116731 -0.00507128 -0.00587206 -0.002024 -0.0068462 0.00935522 0.00223868 0.00629031 -0.00352365 0.0096242 0.00851952 0.0104468 0.0107995 0.0132259
internal_weight=81598 80398 77470 60862 35040 25822 2928 1200 16608 4848 11760 2592 2400 1104 995 201 794 192 109 64 45 336 96 301 76 46
internal_count=81598 80398 77470 60862 35040 25822 2928 1200 16608 4848 11760 2592 2400 1104 995 201 794 192 109 64 45 336 96 301 76 46
is_linear=0
shrinkage=0.0145833


Tree=19
num_leaves=31
num_cat=0
split_feature=13 13 14 13 14 16 110 14 14 15 14 13 12 12 95 12 18 12 12 17 15 16 12 47 110 20 42 57 54 54
split_gain=88.6886 141.405 97.98 97.781 92.4145 86.2169 85.1253 76.4353 72.4452 136.144 72.1476 87.0092 72.5065 54.9697 54.8502 51.4518 48.1185 46.6261 35.698 67.7709 36.6273 32.4117 31.2839 27.7056 22.0011 17.886 15.82 18.4756 15.1357 13.2013
threshold=0.3952130484687198 0.48757328267280903 0.50887614171375362 -0.0070064090780493351 0.52618073629185969 -0.1595861579018609 0.0087197852213267719 0.61166334580354953 0.56464179345323517 0.56289547224277381 0.50852825399081703 -0.0045726992229612176 -0.81983241438865651 0.51419386267662059 3.2382646394932597 1.344235420227051 0.082929698924197728 0.76042872667312633 -1.6599410176277158 0.43702555365700141 0.19867034219467153 -0.009801598210804242 -2.851852178573608 -0.00026234205233647542 0.18779277646280859 -0.016550434870674667 0.012535829935525589 -0.069933865665004258 -0.0015151046562257799 -0.0016640710828949186
decision_type=2 2 2 2 2 2 2 2 2 2 2 2 2 2 2 2 2 2 2 2 2 2 2 2 2 2 2 2 2 2
left_child=3 8 22 6 17 15 13 -6 9 14 11 -7 -12 21 -2 16 -5 -4 19 -8 -20 -1 25 -24 -17 -3 28 -28 -10 -15
right_child=1 2 4 5 7 10 18 -9 26 -11 12 -13 -14 29 -16 24 -18 -19 20 -21 -22 -23 23 -25 -26 -27 27 -29 -30 -31
leaf_value=0.0024327978879860987 0.0025965212554916999 0.0015827927351319679 -0.0031011581721104979 -0.0032911324878873312 0.0012628661052429633 -0.0051122128114401448 0.0056424766083472541 -0.0080187566119890932 0.0096156704171618985 -0.01302948792775472 -0.0049042110833633912 -0.0001870312363495841 -0.0011678245870425067 0.0078440820777809228 -0.00069633064550361518 0.0067375926874004878 0.0032900017991511921 -0.0083328366783944081 0.0057810078082783101 -0.00416270661505924 -0.0053727865972810354 -0.0022921379694841389 0.0027293849093002415 -0.0053875239952143302 -0.0021958401952034386 -0.0095045637915768949 0.0082926458475032633 -0.0039459755011564185 0.0048354309998747905 0.0021624004072558116
leaf_weight=446 7254 57 1344 432 1680 864 356 240 386 144 1440 48814 8400 203 1434 696 672 576 1534 314 73 1497 1911 105 72 87 53 65 264 185
leaf_count=446 7254 57 1344 432 1680 864 356 240 386 144 1440 48814 8400 203 1434 696 672 576 1534 314 73 1497 1911 105 72 87 53 65 264 185
internal_value=8.73466e-13 0.00104324 -0.000809512 -0.000246591 -0.002284 -0.000408831 0.00191484 0.000102663 0.00220121 0.00180711 -0.00051108 -0.00027269 -0.00171461 -0.000151828 0.00205302 0.00284208 0.000714775 -0.00467066 0.00403052 0.00104721 0.00527433 -0.00120757 0.0018118 0.00230663 0.00590008 -0.00511582 0.00673337 0.00155103 0.00767416 0.00513503
internal_weight=81598 15600 6000 65998 3840 61390 4608 1920 9600 8832 59518 49678 9840 2331 8688 1872 1104 1920 2277 670 1607 1943 2160 2016 768 144 768 118 650 388
internal_count=81598 15600 6000 65998 3840 61390 4608 1920 9600 8832 59518 49678 9840 2331 8688 1872 1104 1920 2277 670 1607 1943 2160 2016 768 144 768 118 650 388
is_linear=0
shrinkage=0.0153846


Tree=20
num_leaves=29
num_cat=0
split_feature=13 14 15 16 17 14 14 13 11 110 14 11 14 16 17 11 15 12 14 97 15 13 111 74 74 11 90 34
split_gain=99.776 144.483 137.023 117.593 98.3693 109.234 101.26 91.5425 89.1625 79.3429 72.8337 101.843 123.518 73.6524 70.9207 69.1964 79.0103 62.6342 75.8791 38.9585 28.767 22.4391 19.5441 15.82 11.6886 10.4504 11.6172 9.08632
threshold=0.27151022591825541 0.61166334580354953 0.27925894885774311 -0.1595861579018609 0.19712266990110197 0.56464179345323517 0.38113704309743796 -0.0070064090780493351 71.641292572021499 0.0087197852213267719 0.46163121490924303 -5.5075156688690177 0.50794958097616061 0.016562451787834918 0.32372152343891264 -3.3643249273300166 0.35113728494421831 -1.4653377532958982 0.44292033773286305 -0.20928715475636595 0.38957085324492052 0.26182096033293117 -0.56793147665540278 2.038903117179871 2.3688629865646367 0.92561823129653942 -1.0947862466899003 -0.063838904034583074
decision_type=2 2 2 2 2 2 2 2 2 2 2 2 2 2 2 2 2 2 2 2 2 2 2 2 2 2 2 2
left_child=2 4 3 14 15 6 -6 9 -9 -5 17 13 -13 -12 24 16 -2 22 -19 -17 -7 -16 -4 -3 -1 26 -25 -27
right_child=1 23 10 7 5 20 -8 8 -10 -11 11 12 -14 -15 21 19 -18 18 -20 -21 -22 -23 -24 25 -26 27 -28 -29
leaf_value=-0.0004412807139432486 0.002475444883062148 0.0024220093138634215 0.011901565250896272 -7.154010971412797e-05 0.0070484286192772239 -0.00042006631216888007 -0.00015070950666461213 -0.00045957033934358613 0.0055728866636787578 0.0035736918423406806 -0.0074743367835339736 0.0012608596447719104 -0.0023077288635807922 -0.0015302442045691687 0.0049096950939224093 0.0023518055153107244 0.0080156645645605915 0.0012588899617117864 -0.0047280928198225325 -5.8468717783355807e-05 0.0054948881734162569 0.01025349813668678 0.0017376688845229865 0.0054652984274758225 -0.0083560828499416595 -0.0049362143624615933 -0.0083730858233239912 -0.0092248003714829468
leaf_weight=71 3600 35 49 2331 384 192 20352 30816 480 2277 718 4222 3360 914 720 2098 576 480 2736 3374 912 192 143 25 73 138 22 308
leaf_count=71 3600 35 49 2331 384 192 20352 30816 480 2277 718 4222 3360 914 720 2098 576 480 2736 3374 912 192 143 25 73 138 22 308
internal_value=1.42307e-11 0.000604393 -0.000390267 3.64104e-05 0.000725212 0.000209251 -1.73921e-05 -9.79445e-05 -0.000367048 0.00172972 -0.00163967 -0.000998029 -0.000320578 -0.00414535 0.00460448 0.00189318 0.00323961 -0.00337445 -0.00383451 0.000865646 0.0044662 0.00603471 0.00433158 -0.00660084 -0.00445365 -0.0072414 -0.00101224 -0.00789784
internal_weight=81598 32016 49582 36960 31488 21840 20736 35904 31296 4608 12622 9214 7582 1632 1056 9648 4176 3408 3216 5472 1104 912 192 528 144 493 47 446
internal_count=81598 32016 49582 36960 31488 21840 20736 35904 31296 4608 12622 9214 7582 1632 1056 9648 4176 3408 3216 5472 1104 912 192 528 144 493 47 446
is_linear=0
shrinkage=0.0138889


Tree=21
num_leaves=31
num_cat=0
split_feature=19 19 12 19 14 19 18 13 13 15 15 17 13 32 14 13 14 13 11 12 18 18 17 15 15 36 100 65 45 37
split_gain=117.814 131.804 187.024 148.255 155.864 147.068 141.125 132.71 182.612 112.527 96.815 89.0488 82.2662 79.5253 63.5195 80.5439 66.9984 57.4257 51.947 41.9541 34.2795 34.2613 33.2183 31.7055 28.0049 19.8728 14.5168 13.6485 11.015 9.46657
threshold=-0.82499998807907093 0.55500000715255748 0.20954702794551852 1.5850000381469729 0.52720683579672223 0.28499999642372137 -2.9497516192050353 0.23162078386561905 0.017262485587568207 0.35613453724563821 0.45426166538230023 -0.039913860122371851 0.2385051870625983 -0.0048511612463041235 0.50525949340226017 0.43909484650371416 0.50370891728068135 0.53363482843849963 -10.28024387359619 -2.851852178573608 -0.034176147751841045 -2.1878383452617611 1.3527846068445799 0.24349024751407458 0.35050057140045393 144.03936760486229 9.8232064247131365 -0.038020954260741466 -0.00057770633966691405 0.0085362673991971772
decision_type=2 2 2 2 2 2 2 2 2 2 2 2 2 2 2 2 2 2 2 2 2 2 2 2 2 2 2 2 2 2
left_child=11 2 6 4 9 12 23 8 -5 -3 -7 20 -4 -8 15 16 -13 -6 -17 -16 21 28 -21 -2 -23 -9 29 -28 -1 -22
right_child=1 3 5 7 17 10 13 25 -10 -11 -12 14 -14 -15 19 18 -18 -19 -20 22 26 24 -24 -25 -26 -27 27 -29 -30 -31
leaf_value=0.0049204488088506245 0.0010943910302939237 0.0008291843038485705 -0.001443174562053463 -0.0019601953163518172 0.0032266137965028725 -0.0049385744741189501 -0.00074344979183582009 -0.0053578470389938704 0.0012104683909194534 -0.001302721412030313 0.001290567660773242 0.00043174517672673365 1.4568338254552885e-05 0.00054418846234253982 0.0052161404656039341 -0.0018928281129855246 0.0051980309287707012 -0.0018147655300520082 0.0029564080606042232 -0.0016433042036803393 0.0055068205699401358 0.0011105930319904875 0.0003672267124056816 0.0048960550787442089 0.0038540036831465029 -0.0019948223821159932 0.0028849087467900029 -0.005532417619861842 -0.0012123674604627821 0.0033588410089886375
leaf_weight=311 240 20734 6240 2592 2544 1104 5382 476 3216 2160 240 8016 6000 12810 96 192 240 192 1920 1488 302 2352 1152 624 336 196 45 23 25 350
leaf_count=311 240 20734 6240 2592 2544 1104 5382 476 3216 2160 240 8016 6000 12810 96 192 240 192 1920 1488 302 2352 1152 624 336 196 45 23 25 350
internal_value=0.000331925 0.000159635 -0.000238139 0.000563974 0.000867675 -0.00103507 0.000329954 -0.000637235 -0.000204539 0.000628044 -0.00382623 0.000994069 -0.000728595 0.000163248 0.000648644 0.000966558 0.0005703 0.00287283 0.00251557 -0.000556083 0.00220306 0.00178803 -0.000765982 0.00384004 0.00145352 -0.00437696 0.00394615 3.78719e-05 0.00446414 0.00435376
internal_weight=81598 64750 32640 32110 25630 13584 19056 6480 5808 22894 1344 16848 12240 18192 13104 10368 8256 2736 2112 2736 3744 3024 2640 864 2688 672 720 68 336 652
internal_count=81598 64750 32640 32110 25630 13584 19056 6480 5808 22894 1344 16848 12240 18192 13104 10368 8256 2736 2112 2736 3744 3024 2640 864 2688 672 720 68 336 652
is_linear=0
shrinkage=0.00888889


Tree=22
num_leaves=31
num_cat=0
split_feature=16 11 13 19 17 13 13 11 17 19 14 14 14 14 16 73 13 95 11 13 14 11 102 83 102 101 101 85 85 102
split_gain=86.5561 82.6725 79.5199 81.051 81.3659 74.2846 70.3054 112.737 78.0872 75.9468 72.8159 61.7331 57.8507 57.2215 52.4909 43.6894 38.8741 37.6075 36.9748 44.0138 36.7773 30.9439 16.4308 16.2942 8.91951 8.45445 5.44375 5.01667 6.70564 3.63379
threshold=-0.072558382180342551 71.641292572021499 -0.0070064090780493351 -1.0049999952316282 5.7745328527512632 -0.034439586689557697 0.25861176036179551 1.0318529605865481 0.24447519714641255 0.86500000953674328 0.50052934567569196 0.65473583678941083 0.44678912488635542 0.47735984128046388 0.0080348536046621639 0.58652726437913316 0.54110441810983601 3.0811647396745419 16.61741924285889 0.23266748592752376 0.45526732392214081 -16.156400680541989 57.756830215454109 0.055627670431778527 64.36380767822267 -4.7274682521820059 6.7362465858459482 3.2740279436111455 1.6366920471191408 37.460178375244148
decision_type=2 2 2 2 2 2 2 2 2 2 2 2 2 2 2 2 2 2 2 2 2 2 2 2 2 2 2 2 2 2
left_child=6 2 5 17 -5 15 7 10 16 13 12 -11 -1 -10 -7 -2 20 -4 19 -9 -8 -12 -20 -18 25 29 -27 28 -26 -3
right_child=1 24 3 4 -6 14 8 18 9 11 21 -13 -14 -15 -16 -17 23 -19 22 -21 -22 -23 -24 -25 27 26 -28 -29 -30 -31
leaf_value=0.0028267971502120622 -0.008007572047369944 0.0050883241411712431 0.0014232578171910677 -0.00063103256640037529 0.0028846396471824314 0.0046616475884285243 -0.00057677343688232626 0.00041060504922319933 0.0019194721805573555 0.0063489659856659957 -0.0078573419246822564 -0.0061007397029445411 -0.0048274300234010708 -0.0010832188807014772 0.0011262925708064042 0.00017019917654712298 0.0081839299139877166 -0.00086686849306252887 0.010276850675200594 0.006496054652085765 0.0041772610416784366 0.0046625532932690729 0.0024741291945898224 -0.0021222548181069763 -0.00089086040177128534 0.0061063820258126953 0.0099849661370405018 -0.0025985131056135537 0.010776568682243429 -0.0030678988697055059
leaf_weight=240 234 21 7339 50446 1440 1440 384 2016 2256 720 48 96 1680 3360 2352 342 36 1925 145 289 3504 335 95 348 22 296 104 39 20 26
leaf_count=240 234 21 7339 50446 1440 1440 384 2016 2256 720 48 96 1680 3360 2352 342 36 1925 145 289 3504 335 95 348 22 296 104 39 20 26
internal_value=0.000103467 -0.000127014 -0.000173332 -0.000309119 -0.000533462 0.00172762 0.00108227 -0.000374695 0.00174215 0.000727036 -0.00271248 0.00488429 -0.00387065 0.00012299 0.00246883 -0.00315202 0.00327053 0.000947384 0.0017408 0.0011736 0.00370773 0.00309348 0.00718827 -0.00115605 0.00562046 0.00642733 0.00711481 0.00116778 0.00466506 0.000576371
internal_weight=81598 66046 65518 61150 51886 4368 15552 4848 10704 6432 2303 816 1920 5616 3792 576 4272 9264 2545 2305 3888 383 240 384 528 447 400 81 42 47
internal_count=81598 66046 65518 61150 51886 4368 15552 4848 10704 6432 2303 816 1920 5616 3792 576 4272 9264 2545 2305 3888 383 240 384 528 447 400 81 42 47
is_linear=0
shrinkage=0.0145833


Tree=23
num_leaves=31
num_cat=0
split_feature=19 19 19 14 13 13 15 17 17 18 13 15 14 13 19 19 11 18 18 15 93 1 11 36 37 45 45 77 105 0
split_gain=113.606 123.897 135.14 145.582 122.983 169 110.699 104.585 84.5568 77.8928 181.389 63.2733 60.9196 79.8246 66.3799 56.7208 52.1659 32.7756 32.6886 26.5967 22.4366 21.1392 21.0031 18.999 13.8361 11.0253 10.8051 7.10992 3.5564 0.169204
threshold=-0.82499998807907093 0.55500000715255748 1.5850000381469729 0.52720683579672223 0.23162078386561905 0.017262485587568207 0.18280504550188151 16.378220899094988 -0.039913860122371851 -2.4859334992356397 0.26345164507254343 0.56289547224277381 0.50525949340226017 0.43909484650371416 -1.424999952316284 1.3350000381469729 -10.28024387359619 -0.034176147751841045 -2.1878383452617611 0.35050057140045393 4.4547874458559766 1.0000000180025095e-35 -4.9682576656341544 144.03936760486229 0.0085362673991971772 -0.049017084764531448 -0.00057770633966691405 -83.928540641843924 28.135325431823734 1.0000000180025095e-35
decision_type=2 2 2 2 2 2 2 2 2 2 2 2 2 2 2 2 2 2 2 2 2 2 2 2 2 2 2 2 2 2
left_child=8 7 3 6 5 -4 -3 9 17 10 -2 -11 13 14 -10 -5 -15 18 26 -20 21 -14 -22 -6 27 -26 -1 -19 -9 -30
right_child=1 2 4 15 23 -7 -8 28 12 11 -12 -13 20 16 -16 -17 -18 24 19 -21 22 -23 -24 -25 25 -27 -28 -29 29 -31
leaf_value=0.0042675676350856133 -0.001441450444093789 0.00087537169173794731 -0.0016547735584212611 0.0030478107945954738 -0.0045666090379304749 0.0010475167237213397 -0.00035454254691169845 0.0040315345276532499 0.0021686026966020178 -0.00031117614595403426 0.0029141673604388416 -0.0048464355681790035 -0.0054456866655660727 -0.0017028073907058572 0.00019731846305538447 0.00026655122404918075 0.0026023555814506842 0.00015967226475477219 0.00096581333967541078 0.003334409434668487 0.0024671813314611265 -5.2761464465222785e-05 -0.0027294476765340999 -0.0016534156373568946 -0.0013379970341920852 0.0029173194815051108 -0.0011137051588296892 0.0050175386306003369 0.006459140402823688 0.0072560851253176996
leaf_weight=311 1008 16656 2592 2160 476 3216 6238 29 1248 29856 1440 192 46 192 7008 576 1920 20 2352 336 55 2243 392 196 42 374 25 284 20 95
leaf_count=311 1008 16656 2592 2160 476 3216 6238 29 1248 29856 1440 192 46 192 7008 576 1920 20 2352 336 55 2243 392 196 42 374 25 284 20 95
internal_value=0.000291124 0.000141237 0.000488546 0.00074543 -0.00052749 -0.000158464 0.000540253 -0.000200433 0.000867171 -0.000230107 0.00112068 -0.000340155 0.000568965 0.000844792 0.000495303 0.00246228 0.00221098 0.00191089 0.00155136 0.00126189 -0.000476277 -0.000161138 -0.00209004 -0.00371693 0.00342091 0.0024877 0.00386718 0.00469794 0.00649601 0.00711749
internal_weight=81598 64750 32110 25630 6480 5808 22894 32640 16848 32496 2448 30048 13104 10368 8256 2736 2112 3744 3024 2688 2736 2289 447 672 720 416 336 304 144 115
internal_count=81598 64750 32110 25630 6480 5808 22894 32640 16848 32496 2448 30048 13104 10368 8256 2736 2112 3744 3024 2688 2736 2289 447 672 720 416 336 304 144 115
is_linear=0
shrinkage=0.007875


Tree=24
num_leaves=25
num_cat=0
split_feature=19 17 19 19 12 16 18 11 17 17 83 95 18 100 11 54 11 60 113 12 43 51 19 60
split_gain=90.0418 86.6151 98.3531 120.436 134.359 101.891 81.079 72.8994 70.8424 55.1754 55.1664 41.7599 31.3968 29.0824 17.0529 13.3991 13.2885 13.1057 11.6372 11.7443 8.44953 7.76065 4.66508 3.07793
threshold=2.2150000333786015 5.2606017890057304 -0.82499998807907093 0.60500001907348644 0.20954702794551852 -0.15364460135707761 1.3793541663556266 13.027445316314699 -0.039913860122371851 16.378220899094988 0.049614464489979089 4.240075424696367 -0.034176147751841045 11.755888462066652 -14.826326847076414 -0.0020265528480449967 -10.570936203002928 -0.0008442810617476774 0.73687805974181253 0.019673300441354517 0.18065676460330701 -0.087817882434957237 1.6549999713897707 -0.0020374014871366577
decision_type=2 2 2 2 2 2 2 2 2 2 2 2 2 2 2 2 2 2 2 2 2 2 2 2
left_child=1 2 8 4 -4 -5 20 13 12 10 -8 -10 -1 14 17 -16 -11 -2 -15 -20 22 -9 -3 -23
right_child=7 6 3 5 -6 -7 9 21 11 16 -12 -13 -14 18 15 -17 -18 -19 19 -21 -22 23 -24 -25
leaf_value=0.0012748404150153252 -0.0021012570371257734 0.0051385016954971323 4.4964774773066895e-05 0.0029255524350789309 -0.00099079290738002821 0.00025252223255593738 0.0025236187400398675 0.00045239827135107021 0.0005230395197961833 0.0015293453912158586 -0.00015972515529463091 -0.00095693069708396557 0.0031898612477185527 0.0054812623894067262 -0.002834325706638937 -0.0050127735337955849 0.0065366787795018352 0.0031214468251026146 0.0018660780993599076 -0.0049401685368782962 0.0015036807891151025 0.0043917766854623752 0.0074177744258351677 0.0077547419393237255
leaf_weight=3024 160 216 20496 1008 14544 24814 763 22 11403 48 1637 1461 720 32 470 324 144 41 51 26 35 38 85 36
leaf_count=3024 160 216 20496 1008 14544 24814 763 22 11403 48 1637 1461 720 32 470 324 144 41 51 26 35 38 85 36
internal_value=0.00010233 0.000135778 8.31872e-05 -7.02154e-05 -0.000384946 0.000356868 0.00152725 -0.00213863 0.000645349 0.00103347 0.000693355 0.000354955 0.00164311 -0.00273765 -0.0031804 -0.00372326 0.00528485 -0.00103593 0.00130391 -0.000432135 0.00533648 0.00475011 0.00578215 0.00602781
internal_weight=81598 80398 77470 60862 35040 25822 2928 1200 16608 2592 2400 12864 3744 1104 995 794 192 201 109 77 336 96 301 74
internal_count=81598 80398 77470 60862 35040 25822 2928 1200 16608 2592 2400 12864 3744 1104 995 794 192 201 109 77 336 96 301 74
is_linear=0
shrinkage=0.00824176


Tree=25
num_leaves=29
num_cat=0
split_feature=13 14 13 16 11 14 14 13 110 18 13 13 11 16 41 102 14 102 14 88 6 18 74 85 60 9 35 14
split_gain=81.8764 128.507 108.075 112.177 95.0978 89.8629 82.338 81.9767 79.0823 75.8327 48.1326 72.0497 47.9083 53.4964 31.7775 26.1278 25.222 22.9753 22.155 21.2489 17.6951 16.1085 15.1286 10.6092 10.0206 9.5492 18.5352 7.78669
threshold=0.27151022591825541 0.61166334580354953 -0.0070064090780493351 -0.1595861579018609 66.617691040039077 0.36476569484584381 0.56464179345323517 0.26719736476361505 0.0087197852213267719 -2.4859334992356397 0.25861176036179551 0.24577650540697785 -12.621081829071043 0.0043496192002037944 58.859066025785019 55.791496276855476 0.59411382984337779 59.400676727294929 0.39476502255674989 9.7835856146806588 17.102000236511234 -1.6321168586235677 2.038903117179871 -15.372493267059324 -0.00067612282484870825 27.500000000000004 195.06225983691471 0.6761391569721501
decision_type=2 2 2 2 2 2 2 2 2 2 2 2 2 2 2 2 2 2 2 2 2 2 2 2 2 2 2 2
left_child=2 5 8 10 7 15 9 -5 12 -7 11 -4 19 -14 21 24 -8 -6 -16 -1 -17 -10 -3 -12 -2 27 -27 -24
right_child=1 22 3 4 17 6 16 -9 14 -11 23 -13 13 -15 18 20 -18 -19 -20 -21 -22 -23 25 -25 -26 26 -28 -29
leaf_value=-0.016302206156156102 0.018555352569733348 0.0044806524667739883 0.0059918590186536329 -0.00083337161333916479 0.0090819140538833509 0.0053396152548082186 0.0090932316660485256 -0.0083101760373496935 0.013973429663572737 0.00068020966161412674 0.0012366181929409504 -0.015012993449047211 0.0054166864335012301 -0.0018845801718746864 0.0013050977018479381 0.011584136353662192 0.00078220779131166684 0.00036322549817664784 0.0071210864967507816 0.0079137328586795144 -0.00098444596442309284 0.0073473477464853602 -0.015385220978971737 0.014965723959968279 0.0074399629975264951 -0.013290138241262996 0.012435006204986571 -0.0092928230836565422
leaf_weight=122 196 35 672 42286 607 1920 864 768 268 27984 32 96 835 1352 775 121 240 209 596 22 110 638 201 304 53 34 25 233
leaf_count=122 196 35 672 42286 607 1920 864 768 268 27984 32 96 835 1352 775 121 240 209 596 22 110 638 201 304 53 34 25 233
internal_value=0.000274557 0.00116861 -0.000302747 -0.000641684 -0.000821371 0.00135467 0.00120393 -0.000966743 0.00300528 0.000979369 0.00649858 0.00336625 6.87318e-05 0.000903055 0.00601146 0.0110928 0.00728649 0.00684882 0.00383342 -0.0126025 0.0055991 0.00930738 -0.0099277 0.0136582 0.0161894 -0.0109506 -0.00238965 -0.0121144
internal_weight=81598 32016 49582 44974 43870 31488 31008 43054 4608 29904 1104 768 2331 2187 2277 480 1104 816 1371 144 231 906 528 336 249 493 59 434
internal_count=81598 32016 49582 44974 43870 31488 31008 43054 4608 29904 1104 768 2331 2187 2277 480 1104 816 1371 144 231 906 528 336 249 493 59 434
is_linear=0
shrinkage=0.02268


Tree=26
num_leaves=27
num_cat=0
split_feature=19 19 19 17 14 19 13 11 14 13 18 100 101 74 14 98 17 11 47 36 2 113 47 90 55 42
split_gain=82.5805 80.7431 131.101 128.399 86.9478 82.399 69.5223 69.1197 62.5482 41.4713 35.9498 27.5967 23.5888 30.1141 23.3071 22.032 16.6468 16.1401 20.0841 14.9883 11.4405 11.0468 13.754 8.47649 2.92005 0.135294
threshold=2.2150000333786015 1.9750000238418581 1.6749999523162844 1.5609738250887484 0.555155289833973 -1.3949999809265134 0.53363482843849963 13.027445316314699 0.52748523427231275 0.0055079755772637637 -3.9727738354185225 11.755888462066652 0.24782716482877734 3.411766886711121 0.62040173772964835 4.7892797727322289 3.2920889762864456 -14.826326847076414 -0.00072495522070141385 144.03936760486229 11.991500377655031 0.73687805974181253 -0.0021135476296123075 2.8422715108647387 -0.013532724408019215 0.0071779470917395236
decision_type=2 2 2 2 2 2 2 2 2 2 2 2 2 2 2 2 2 2 2 2 2 2 2 2 2 2
left_child=1 2 4 9 5 -1 -6 11 -5 -4 15 17 14 -14 -12 16 -3 18 -2 -19 -17 -13 -23 24 -9 -26
right_child=7 10 3 8 6 -7 -8 23 -10 -11 12 21 13 -15 -16 20 -18 19 -20 -21 -22 22 -24 -25 25 -27
leaf_value=0.0035170421884108938 0.0016000266618655559 -0.0084226983591525334 0.0080552875794946965 -0.00526412504620981 0.0051471214027849817 9.209183201166781e-05 -0.0042787208464874667 0.0097896247943309277 0.0030753995018671155 -0.011639151852439574 0.012692356294194358 0.01344298949208023 0.0057146396672380804 -0.0057856688637449912 0.0047462401085999421 0.0022447669148752433 0.0066034891277996777 -0.010824749197086527 -0.012941022538376175 -0.004609842395304934 0.018696345325672267 0.0067768423673587787 -0.01077550753160122 -0.00029415298717391217 0.019040679096465465 0.016784538186910978
leaf_weight=3120 145 160 48 720 2496 70366 384 30 816 864 359 32 540 118 279 64 39 560 56 234 25 43 34 20 26 20
leaf_count=3120 145 160 48 720 2496 70366 384 30 816 864 359 32 540 118 279 64 39 560 56 234 25 43 34 20 26 20
internal_value=0.000237171 0.000317324 0.000224672 -0.00447313 0.000375265 0.000237505 0.00389034 -0.00513291 -0.000833753 -0.0106026 0.00492736 -0.00659243 0.00639194 0.00365227 0.00921749 -0.00166327 -0.00547787 -0.00767161 -0.00245121 -0.00899315 0.006866 0.00325883 -0.000973546 0.0116516 0.0147952 0.0180597
internal_weight=81598 80398 78814 2448 76366 73486 2880 1200 1536 912 1584 1104 1296 658 638 288 199 995 201 794 89 109 77 96 76 46
internal_count=81598 80398 78814 2448 76366 73486 2880 1200 1536 912 1584 1104 1296 658 638 288 199 995 201 794 89 109 77 96 76 46
is_linear=0
shrinkage=0.0206229


Tree=27
num_leaves=28
num_cat=0
split_feature=16 14 11 11 18 12 12 14 18 12 18 1 12 107 11 14 12 11 16 14 12 106 89 104 94 78 11
split_gain=91.7378 83.744 106.119 87.9545 99.7503 113.717 91.9422 74.0655 72.6488 119.686 97.5609 64.0401 141.439 61.3611 43.3094 35.8162 75.6697 69.8103 77.1145 53.3652 46.113 35.7257 29.7732 12.9433 5.93906 0.895804 0.249624
threshold=-0.072558382180342551 0.50852825399081703 16.400938034057621 13.027445316314699 0.066678302161111078 0.83613300323486339 -3.3523532152175899 0.45301670983345149 -0.15973950255220701 1.1133885979652407 0.14485084112556326 1.0000000180025095e-35 0.96691149473190319 0.10841751876849705 27.966725349426273 0.46567347281417121 0.0065837700385600337 -0.71032398939132679 -0.10054848083483277 0.49788064079557165 -0.66753268241882313 6.411830186843873 -2.8447514986194493 61.641178131103523 716228.85687683069 0.048358564560176523 31.818993568420414
decision_type=2 2 2 2 2 2 2 2 2 2 2 2 2 2 2 2 2 2 2 2 2 2 2 2 2 2 2
left_child=14 3 8 4 5 -2 23 -6 9 -3 -10 12 -4 -8 15 16 20 18 -17 -19 -1 -13 -18 -5 25 26 -16
right_child=1 2 11 6 7 -7 13 -9 10 -11 -12 21 -14 -15 24 17 22 19 -20 -21 -22 -23 -24 -25 -26 -27 -28
leaf_value=0.00012393440957106421 3.8058330499536966e-05 -0.0012580242362137887 -0.0051716020569719124 -0.0027914761719496357 0.00178620402240986 -0.0017117695383416878 0.0032292623019603791 0.00010681424474067617 -0.0050107587811847529 0.002407845584693757 -0.00071413136263499268 -0.00040498740033598137 0.003380959692436296 0.00034417850761268994 0.011034254956504574 0.0014199156589270812 -0.0061100072203001728 0.0020515389789701054 0.0046896039047319184 -0.00093030357264417313 0.0031745370667245567 -0.0070574468447171471 -0.0014851375713623672 -0.008602254509925843 0.0033476721601826808 0.0073386768411312781 0.0094953297797975879
leaf_weight=2592 21020 2736 725 115 6672 8016 2964 10658 960 2832 5904 151 518 1884 23 4656 267 1440 1487 2689 1104 766 1173 125 35 28 58
leaf_count=2592 21020 2736 725 115 6672 8016 2964 10658 960 2832 5904 151 518 1884 23 4656 267 1440 1487 2689 1104 766 1173 125 35 28 58
internal_value=0.000140447 -6.29356e-05 -0.000898761 0.000174099 2.89913e-06 -0.000445019 0.00173421 0.000753374 -0.000454432 0.000606513 -0.00131506 -0.00345613 -0.00160746 0.00210808 0.00100417 0.0009404 8.81014e-05 0.00136655 0.00221139 0.000109622 0.00103515 -0.005962 -0.00234267 -0.00581792 0.00782756 0.00926605 0.00993231
internal_weight=81598 66046 14592 51454 46366 29036 5088 17330 12432 5568 6864 2160 1243 4848 15552 15408 5136 10272 6143 4129 3696 917 1440 240 144 109 81
internal_count=81598 66046 14592 51454 46366 29036 5088 17330 12432 5568 6864 2160 1243 4848 15552 15408 5136 10272 6143 4129 3696 917 1440 240 144 109 81
is_linear=0
shrinkage=0.0125


Tree=28
num_leaves=30
num_cat=0
split_feature=13 15 14 17 93 14 17 12 12 11 13 11 12 14 11 14 11 15 12 14 11 14 111 32 15 11 90 79 85
split_gain=94.951 139.024 127.323 100.994 94.2199 85.9707 85.6592 181.353 100.244 130.456 81.1179 79.8864 79.6373 67.6541 99.8024 127.043 67.2199 71.6958 62.5885 73.6659 38.4794 36.7679 20.5188 18.5486 8.93812 8.4162 11.7448 9.61126 5.31941
threshold=0.27151022591825541 0.27925894885774311 0.61166334580354953 0.19712266990110197 3.1100690934985238 0.555155289833973 0.26526956431382059 -0.78542655706405629 0.51419386267662059 17.198242187500004 0.0055736104329437855 -52.165761947631829 -3.3523532152175899 0.46163121490924303 -5.5075156688690177 0.50794958097616061 -3.3643249273300166 0.35113728494421831 -1.4653377532958982 0.44292033773286305 -2.9101122617721553 0.47119890333031483 -0.56793147665540278 0.056315923146485515 0.64619973576551659 0.92561823129653942 -1.0947862466899003 -2.5753829217123769 -3.3597605228424068
decision_type=2 2 2 2 2 2 2 2 2 2 2 2 2 2 2 2 2 2 2 2 2 2 2 2 2 2 2 2 2
left_child=1 6 3 16 5 -5 7 12 9 -8 -10 -9 -1 18 21 -16 17 -2 22 -20 -18 -15 -3 -6 25 26 -4 -27 -26
right_child=2 13 24 4 23 -7 8 11 10 -11 -12 -13 -14 14 15 -17 20 -19 19 -21 -22 -23 -24 -25 28 27 -28 -29 -30
leaf_value=-0.0052675378781098592 0.0021902895062857384 0.010217934290131372 0.0045793410631326543 0.00050455594100860118 -0.0010357241591912216 0.0037293655567219083 0.00059452206838239198 0.0028431537090340161 0.00073522748987978493 -0.0038550686722289979 0.0037662772116490465 -0.0012310430227895129 0.0015019465033686359 -0.010238672678287214 0.001166845747974452 -0.0018398287521731518 -0.006389547089258066 0.0065747141706733372 0.0011617288408944241 -0.0037389968120114855 0.00098048890996813931 -0.0028781089215324475 0.0015661011946464238 0.0030991912832998691 0.0040987928490062338 -0.00036471293398843244 -0.0068457042891843685 -0.0065147910041493369 -0.0036442006245637551
leaf_weight=240 3600 49 25 14504 5997 1191 10176 672 2400 960 2304 13776 6432 96 4222 3360 96 576 480 2736 5376 1536 143 148 21 37 23 395 27
leaf_count=240 3600 49 25 14504 5997 1191 10176 672 2400 960 2304 13776 6432 96 4222 3360 96 576 480 2736 5376 1536 143 148 21 37 23 395 27
internal_value=0.000125337 -0.000190949 0.000615157 0.000709381 0.000275055 0.000749268 0.000166101 -0.000314959 0.000807515 0.000210937 0.00221982 -0.00104155 0.00125844 -0.00123647 -0.000722714 -0.000165577 0.00169256 0.00279504 -0.00262548 -0.00300755 0.00085119 -0.00331108 0.00377412 -0.000936136 -0.00500402 -0.00547876 -0.00089516 -0.00598805 -0.000256641
internal_weight=81598 49582 32016 31488 21840 15695 36960 21120 15840 11136 4704 14448 6672 12622 9214 7582 9648 4176 3408 3216 5472 1632 192 6145 528 480 48 432 48
internal_count=81598 49582 32016 31488 21840 15695 36960 21120 15840 11136 4704 14448 6672 12622 9214 7582 9648 4176 3408 3216 5472 1632 192 6145 528 480 48 432 48
is_linear=0
shrinkage=0.0115385


Tree=29
num_leaves=31
num_cat=0
split_feature=19 19 12 19 18 16 19 15 11 11 32 17 19 15 11 12 104 11 71 15 74 17 12 17 75 15 83 101 16 46
split_gain=82.3421 114.492 166.628 138.097 125.947 125.349 117.444 92.765 80.2232 80.0331 77.7851 72.0436 113.345 92.7565 73.6843 63.2307 56.6452 36.5331 35.7718 31.8159 30.9267 34.6537 31.2427 25.0541 21.8505 20.976 17.2822 15.6772 14.3257 11.896
threshold=-0.82499998807907093 0.55500000715255748 0.20954702794551852 0.28499999642372137 -2.9497516192050353 -0.15364460135707761 1.5850000381469729 0.45426166538230023 -8.6189231872558576 -52.165761947631829 -0.0048511612463041235 1.031060227326533 -1.3949999809265134 0.2729020374637004 -3.8043513298034664 -0.65417221188545216 66.722507476806655 6.8082957267761239 19.291501045227054 0.24349024751407458 2.741854310035706 -0.039913860122371851 2.0731562376022343 0.32372152343891264 0.047821651700866254 0.20925286333095941 0.091380087630246645 7.206284999847413 -0.10824678848429586 -0.017581559387063843
decision_type=2 2 2 2 2 2 2 2 2 2 2 2 2 2 2 2 2 2 2 2 2 2 2 2 2 2 2 2 2 2
left_child=11 2 4 9 19 23 8 -5 -7 -4 -6 16 25 17 -15 -8 20 -14 26 -2 21 -1 -22 -3 -20 28 -18 -25 -13 -27
right_child=1 5 3 7 10 6 15 -9 -10 -11 -12 12 13 14 -16 -17 18 -19 24 -21 22 -23 -24 27 -26 29 -28 -29 -30 -31
leaf_value=0.0081624305077857978 0.0026169174350798136 -0.01230059682645581 0.011962915294465018 -0.019042532530285625 -0.0035951719153648862 -0.0026106799390501747 -0.010063282385004391 0.0043426123955710369 0.0027247121980909562 -0.0038506377081058995 0.001288883562362126 0.0061357789503579795 -0.011962210517146099 0.016722554820730831 -0.0015671288119709504 -0.0015950066027964466 0.0080730509580912817 0.0061054672961207961 -0.00023267064367775002 0.017222523171506774 0.012586618408285524 0.0030663657500938847 -0.011149359815441101 0.013558839323649249 -0.0096361354358290904 -0.0054454944350502714 -0.017520439726385204 -0.0076435144942302207 0.016523833748781018 0.0076386073915088197
leaf_weight=2308 240 48 384 1104 5382 3888 1296 240 20782 11856 12810 240 1344 288 2304 4896 734 144 2590 624 977 4727 69 1158 323 135 32 42 432 201
leaf_count=2308 240 48 384 1104 5382 3888 1296 240 20782 11856 12810 240 1344 288 2304 4896 734 144 2590 624 977 4727 69 1158 323 135 32 42 432 201
internal_value=0.000365685 -0.000186729 -0.00160857 -0.00449353 0.000447959 0.00125858 0.00083026 -0.0148666 0.00188385 -0.00335453 -0.000156037 0.00248871 -0.00090045 -0.00342956 0.000465058 -0.00336744 0.00395504 -0.0102137 0.000448458 0.0131654 0.00555147 0.00473825 0.0110209 0.0118507 -0.00127535 0.00933641 0.00700387 0.0128168 0.0128138 0.0023816
internal_weight=81598 64750 32640 13584 19056 32110 30862 1344 24670 12240 18192 16848 5088 4080 2592 6192 11760 1488 3679 864 8081 7035 1046 1248 2913 1008 766 1200 672 336
internal_count=81598 64750 32640 13584 19056 32110 30862 1344 24670 12240 18192 16848 5088 4080 2592 6192 11760 1488 3679 864 8081 7035 1046 1248 2913 1008 766 1200 672 336
is_linear=0
shrinkage=0.0340909


Tree=30
num_leaves=28
num_cat=0
split_feature=16 14 11 17 17 19 11 11 19 14 11 18 14 19 11 16 14 17 11 11 14 75 52 105 89 88 11
split_gain=77.9639 74.997 100.45 99.7971 93.8674 103.512 80.1203 97.2879 69.4454 136.819 64.0383 54.8258 52.3605 56.8722 37.1262 34.0234 31.4499 80.0328 45.2717 30.5185 27.125 10.0551 5.19265 3.10665 1.81436 0.962574 0.374141
threshold=-0.072558382180342551 0.50852825399081703 16.400938034057621 4.3566728888410493 5.7745328527512632 1.9950000047683718 -9.6830735206603986 -52.165761947631829 2.2150000333786015 0.52720683579672223 22.340125083923343 5.5876441946091173 0.3924567365522576 0.75499999523162853 27.966725349426273 -0.074090169405011674 0.46567347281417121 0.3474623113452156 3.5666697025299077 13.027445316314699 0.4782904375185924 -0.0078445662932799722 -0.11746888960269179 28.5232048034668 -3.505480077456729 4.7696419204601641 31.818993568420414
decision_type=2 2 2 2 2 2 2 2 2 2 2 2 2 2 2 2 2 2 2 2 2 2 2 2 2 2 2
left_child=14 3 8 6 5 -4 7 -2 9 -3 -8 -6 23 -14 15 16 18 -18 -1 -10 21 -17 -16 -5 -24 -22 -26
right_child=1 2 4 12 11 -7 10 -9 19 -11 -12 -13 13 -15 22 20 17 -19 -20 -21 25 -23 24 -25 26 -27 -28
leaf_value=-0.0011516655404831236 0.0047341626474242671 -0.0021880885526742375 -0.0084500049397824781 0.0094993687741270032 0.013181045214397415 0.0038108399352115322 0.00020092675787560318 -0.002881769528415087 -0.0059430333123958561 0.0019411209091453616 0.0034883438425900833 -0.0032351259403750783 0.00091383461898374347 0.0085353947479202916 0.004472319637957781 0.010879245222070368 0.0036826358511870649 0.00031641689202631981 0.0028945339059850391 0.0094104941723371482 0.017396155534469847 0.001069457039948082 0.0077587765711044851 0.015239413289006076 0.015738372832635978 0.013544099992401339 0.013165321533244984
leaf_weight=3600 672 5904 1584 43 144 288 41757 5089 1008 5472 2208 144 1008 528 34 50 4416 5760 1344 48 58 142 20 149 30 38 60
leaf_count=3600 672 5904 1584 43 144 288 41757 5089 1008 5472 2208 144 1008 528 34 50 4416 5760 1344 48 58 142 20 149 30 38 60
internal_value=0.000191707 -9.04708e-05 -0.00128088 0.000247121 -0.0050255 -0.00656372 9.26757e-05 -0.0019934 -0.000630271 -0.000201887 0.000366027 0.00497296 0.00469154 0.00353375 0.00139005 0.0013012 0.00117919 0.00177723 -5.17278e-05 -0.00524515 0.00770652 0.00362409 0.010898 0.0139539 0.0128841 0.0158714 0.014023
internal_weight=81598 66046 14592 51454 2160 1872 49726 5761 12432 11376 43965 288 1728 1536 15552 15408 15120 10176 4944 1056 288 192 144 192 110 96 90
internal_count=81598 66046 14592 51454 2160 1872 49726 5761 12432 11376 43965 288 1728 1536 15552 15408 15120 10176 4944 1056 288 192 144 192 110 96 90
is_linear=0
shrinkage=0.0188125


Tree=31
num_leaves=31
num_cat=0
split_feature=19 19 12 16 19 19 13 11 19 17 19 16 11 13 14 14 19 104 71 14 16 17 14 71 83 12 14 101 3 17
split_gain=91.9591 120.936 168.745 141.454 138.445 117.346 89.1286 80.2729 76.7306 71.2169 116.197 84.1914 68.5584 64.3447 59.15 94.7575 79.9991 58.0877 36.1003 33.247 38.6282 25.2381 23.7856 21.6719 17.3182 17.1622 16.9825 15.7416 11.6611 9.68145
threshold=-0.82499998807907093 0.55500000715255748 0.20954702794551852 -0.15364460135707761 0.28499999642372137 1.5850000381469729 0.23162078386561905 -8.6189231872558576 -0.74500000476837147 1.031060227326533 -1.3949999809265134 0.23151434712145544 6.2276303768157968 0.37606634812223444 0.42910873311753989 0.46163121490924303 -0.33500000834465021 66.722507476806655 19.291501045227054 0.52206293368777612 -0.078095187981340256 0.32372152343891264 0.53609761431900982 55.805532455444343 0.091380087630246645 -0.84097498655319203 0.44292033773286305 7.206284999847413 2.0644999742507939 2.8507640877364016
decision_type=2 2 2 2 2 2 2 2 2 2 2 2 2 2 2 2 2 2 2 2 2 2 2 2 2 2 2 2 2 2
left_child=9 2 14 21 8 7 -7 -5 -4 17 25 13 -6 -12 16 -16 -2 19 24 20 -1 -3 -21 -20 -19 28 -27 -23 -11 -13
right_child=1 3 4 5 12 6 -8 -9 -10 10 11 29 -14 -15 15 -17 -18 18 23 22 -22 27 -24 -25 -26 26 -28 -29 -30 -31
leaf_value=0.0035158344486262653 -0.0050199004452830803 -0.0042927602306008341 -0.0053636675977724651 -0.00095975523590411586 -0.0079287635278888057 -0.00071265654365192143 -0.0055341316398144482 0.00099716177429141689 -0.001018852681947413 -0.0051717966794967655 -0.0058664302824058033 0.0023312261514365673 -0.0022238604452771444 -0.0011479765807729191 -0.0022755158721297036 0.00029147383757123897 0.0012090328365049613 0.0030011247872687085 -0.00028726272141453265 -0.0042606229954790849 0.0016404883215138969 0.0052233447315933792 0.0017666963708339906 -0.0080053832510422022 -0.0063929345458745958 0.0024048595257530302 0.0060176983820619413 -0.0025668054109527954 0.0019424359935025376 0.0060971004810805125
leaf_weight=2592 336 48 672 3888 768 5520 672 20782 11568 48 528 240 576 3120 3168 7728 7824 734 2855 214 5079 1158 196 58 32 384 432 42 144 192
leaf_count=2592 336 48 672 3888 768 5520 672 20782 11568 48 528 240 576 3120 3168 7728 7824 734 2855 214 5079 1158 196 58 32 384 432 42 144 192
internal_value=0.000138829 -7.52244e-05 -0.000611037 0.000469432 -0.00167555 0.000302595 -0.00123592 0.000688751 -0.00125739 0.000961475 -0.000274066 -0.001213 -0.00548381 -0.00183091 0.000147799 -0.000454876 0.000952547 0.00149604 0.000194021 0.0020888 0.00227416 0.00459517 -0.00137927 -0.000440936 0.00260868 0.00352637 0.00431754 0.00495069 0.000163878 0.00400495
internal_weight=81598 64750 32640 32110 13584 30862 6192 24670 12240 16848 5088 4080 1344 3648 19056 10896 8160 11760 3679 8081 7671 1248 410 2913 766 1008 816 1200 192 432
internal_count=81598 64750 32640 32110 13584 30862 6192 24670 12240 16848 5088 4080 1344 3648 19056 10896 8160 11760 3679 8081 7671 1248 410 2913 766 1008 816 1200 192 432
is_linear=0
shrinkage=0.0125


Tree=32
num_leaves=31
num_cat=0
split_feature=19 19 12 13 19 18 16 19 13 32 11 11 17 19 15 19 17 102 18 18 17 13 17 15 19 1 16 105 45 13
split_gain=75.2862 105.071 150.15 125.174 134.105 116.538 115.122 100.763 80.4453 71.7191 69.3175 67.56 62.811 103.242 86.3459 71.3435 55.8327 52.3197 32.9912 46.4702 42.7649 30.3901 22.3506 19.2799 15.9567 15.1438 13.0388 12.5379 12.2981 12.1578
threshold=-0.82499998807907093 0.55500000715255748 0.20954702794551852 0.2385051870625983 -0.71500000357627858 -2.9497516192050353 -0.15364460135707761 1.5850000381469729 0.23162078386561905 -0.0048511612463041235 -8.6189231872558576 -52.165761947631829 1.031060227326533 -1.3949999809265134 0.31316499801048853 -1.0850000381469724 1.539919638451446 76.975399017333999 0.027927718398239713 0.70429300160705055 -0.21808781259299168 0.27313551544605158 0.32372152343891264 0.20925286333095941 -1.1549999713897703 688.50000000000011 -0.10824678848429586 87.835815429687514 -0.0040276781997569617 0.37557379378418126
decision_type=2 2 2 2 2 2 2 2 2 2 2 2 2 2 2 2 2 2 2 2 2 2 2 2 2 2 2 2 2 2
left_child=12 2 5 11 -5 21 22 10 -9 -7 -8 -4 17 23 15 -15 -16 18 20 -20 -1 -2 -3 26 27 -24 -14 -19 -26 -25
right_child=1 6 3 4 -6 9 7 8 -10 -11 -12 -13 13 14 16 -17 -18 24 19 -21 -22 -23 25 29 28 -27 -28 -29 -30 -31
