tree
version=v4
num_class=1
num_tree_per_iteration=1
label_index=0
max_feature_idx=115
objective=binary sigmoid:1
feature_names=fund_debt_equity fund_div_yield fund_ev_ebitda fund_ev_revenue fund_gross_margin fund_net_margin fund_op_margin fund_pb fund_pe fund_rev_growth fund_roe macro_brent_chg20 macro_dxy_chg20 macro_fedfunds macro_india10y macro_us10y macro_us10y_chg20 macro_vix macro_vix_chg5 macro_yield_curve pattern_bear_count pattern_bull_count pattern_doji pattern_engulfing pattern_hammer pattern_net smc_base smc_bos_dn smc_bos_up smc_choch_dn smc_choch_up smc_demand_zone smc_dist_bear_ob smc_dist_bull_ob smc_doji smc_ema_20 smc_ema_200 smc_ema_200_dist smc_ema_20_dist smc_ema_50 smc_ema_50_dist smc_ema_9 smc_ema_9_dist smc_ema_stack smc_engulfing_bear smc_engulfing_bull smc_equal_high smc_equal_low smc_fvg_bear smc_fvg_bear_mit smc_fvg_bear_pct smc_fvg_bull smc_fvg_bull_mit smc_fvg_bull_pct smc_hammer smc_liq_sweep_high smc_liq_sweep_low smc_order_block_bear smc_order_block_bull smc_pinbar smc_shooting_star smc_supply_zone smc_swing_high smc_swing_low smc_trendline_break_dn smc_trendline_break_up smc_vp_in_value smc_vp_poc smc_vp_poc_dist smc_vp_vah smc_vp_val tech_adx_14 tech_adx_strong tech_atr_14 tech_atr_pct tech_bb_bandwidth tech_bb_pctb tech_cci_20 tech_cmf_20 tech_consec_updown tech_di_diff tech_donchian_20 tech_ema20_50_ratio tech_golden_death tech_ha_streak tech_macd_hist tech_macd_line tech_mean_rev_z tech_mfi_14 tech_mom_12_1m tech_mom_12m tech_mom_1m tech_mom_3m tech_mom_6m tech_obv_slope tech_price_vs_sma200 tech_price_vs_sma50 tech_price_vs_vwap20 tech_range_52w tech_resistance_dist_20d tech_ret_20d tech_ret_5d tech_rsi_14 tech_rsi_2 tech_rsi_7 tech_stoch_d tech_stoch_k tech_supertrend_10_3 tech_support_dist_20d tech_vol_20d tech_vol_regime tech_vol_sma_ratio tech_volume_spike tech_vwap20_slope_5d tech_williams_r primary_pred
feature_infos=[0:3.1340699195861816] [0:857] [0:1093.8409423828125] [0:240.27799987792969] [0:100] [0:43.383998870849609] [0:60.646999359130859] [0:51.834121704101562] [0:79.368423461914062] [-82.199996948242188:272.70001220703125] [0:76.338996887207031] [-71.725059509277344:281.14035034179688] [-4.8091545104980469:7.5745401382446289] [-0.043026440042421066:1.0967896511011443] [0:0.84532822270522345] [-0.063295312829442674:0.69083841110677735] [-0.45392621566718333:0.40521309794036842] [-2.9890418503201488:22.709053259573619] [-23.808181889547697:21.316829528430244] [-1.690000057220459:2.5999999046325684] [-0.5319615766992527:0.9992645143996941] [-1.0628315929730392:1.9791219631804298] [-0.67349822346411647:0.9954099847910769] [-1.4669140946255508:1.4798140142109801] [-0.62305241613723616:0.99968968103926759] [-1.9950166420077586:2.3784988211752616] none [0:1] [0:1] [0:1] [0:1] none [-0.36999739338545556:0.50829922834220265] [-0.98284209838307524:0.97075639260327273] [-0.67349822346411647:0.9954099847910769] [-252.1691788764706:3231.5449367996007] [0:2310.7716825660318] [-0.8349719193629479:0.23931757466626927] [-0.73831681388566051:0.23411247854777853] [-61.910352952286303:2841.8544975347322] [-0.89720852535283646:0.24028411416939077] [-398.81930938623464:3660.0428799695474] [-0.53840709505305473:0.21829998034735865] [-1.1485631110359575:1.254985794337955] [-0.5319615766992527:0.9992645143996941] [-0.50459681130708023:1] [-0.65359925223746362:1] [-0.63994523352097399:1] [-0.74180742016094225:0.99688656833578548] [-0.92230931873329103:0.96406606982913723] [0:0.35594946146011353] [-0.74781033084743698:0.99498528054535651] [-0.91613445985692965:0.96902823767919932] [0:0.16626125574111938] [-0.54442065246792593:1] [-0.70216444562303149:0.9990727926256886] [-0.7225610136440066:0.99987844476948951] [-0.69352895368488121:0.99635182319032223] [-0.73514182286132668:0.99455564611728886] [-0.78672268367964737:0.97172456064889412] [-0.5346158527356667:1] none [-0.62832043909730528:0.98852471780053663] [-0.60430788286790538:0.98829371306724567] [-0.86011518411535048:0.99440906804643492] [-0.86233682614105767:0.99329476593342281] [-0.88692522627262116:0.95500554027983064] [-2290.1379336503451:6250.2702862520564] [-0.70097983057247282:0.37941860502685038] [-1477.5663353844357:5207.5417671969117] [-1273.1970174699318:3879.6948223819491] [6.3845200538635254:74.0830078125] [0:1] [-36.860302833901869:262.7111617622752] [0.97351664304733276:31.776361465454102] [-0.27246955278549673:0.45937248967605593] [-0.53495562076568604:1.5145539045333862] [-621.80280555133709:605.88624799642844] [-0.55762957565893934:0.46316884494252136] [-10.356521260431272:8.8604114194892336] [-41.355482187426446:35.982825345413438] [-0.66966981162878181:0.77135796489534947] [-8.5974984243462345:4.7009594503051195] [-0.060040024858495022:0.16258163412323556] [-15.88353608803971:15.635729733045009] [-525.95452880859375:518.525634765625] [-431.79585591821842:464.14298055878311] [-4.546768630053081:4.3966442422194394] [-50.098707691982611:39.927979366462985] [-125.60209352335028:87.499084835949319] [-123.19436361849307:86.096135106637831] [-35.216788573266825:51.31557473489049] [-41.102165673975236:53.035093813448526] [-54.475861946753461:83.287293946730415] [-108138648.36699642:110277158.22831069] [-44.033486668741283:36.848258229850813] [-34.733054999834842:29.694725578690829] [-27.149604740590092:21.493226668359952] [-43.058672241098378:43.393305418590558] [-33.29118305809412:16.611633244096993] [-73.887420654296875:77.211166381835938] [-53.813125610351562:66.1416015625] [7.610039234161377:92.276603698730469] [0.0054137185215950012:99.999488830566406] [2.9372127056121826:98.431373596191406] [1.4834244251251221:98.542396545410156] [0.55116403102874756:99.544540405273438] [-1.9238176763219954:1.9048142995822039] [-24.519601589347737:69.116187345911513] [-0.56832654410366956:0.8669946791251828] [-0.95407781408258563:0.8494401344447603] [-5.0452978943812345:11.901823849053637] [-5.0452978943812345:11.901823849053637] [-16.754347173669828:11.12444301626447] [-99.448837280273438:-0.4554564356803894] [-0.54639803643469476:0.70072694717790684]
tree_sizes=1821 1869 1892 1868 1868 1869 1869 1868 1885 1871 1884 1874 1773 1874 1872 1879 1871 1870 1873 1763 1754 1760 1878 1759 1881 1881 1881 1862 1878 1884 1882 1891 1896 1767 1877 1871 1865 1873 1886 1872 1893 1871 1895 1906 1865 1889 1663 1742 1877 1553 1846 1557 1853 1857 1852 1885 1876 1753 1856 1899 1882 1885 1876 1872 1890 1789 1454 1451 1773 1897 1896 1873 1856 1853 1878 1653 1669 1663 1880 1874 1891 1750 1878 1868 1661 1844 1538 1645 1646 1453 1763 1876 1772 1647 1875 1867 1877 1894 1872 1897

Tree=0
num_leaves=16
num_cat=0
split_feature=19 19 15 13 19 115 12 100 19 95 17 12 13 19 65
split_gain=476.575 431.488 330.584 301.915 219.359 168.629 109.06 93.121 88.377 74.4354 57.7656 54.6338 53.5404 23.634 10.3917
threshold=-1.0049999952316282 0.55500000715255748 0.11915210760697877 0.44670684137894417 2.3599998950958256 1.0000000180025095e-35 4.1737890243530282 -11.878501892089842 0.35500000417232519 3.4854894846886997 4.9680639503948454 0.12578144669532779 0.47234219385305171 -1.3450000286102293 -0.1767013728947934
decision_type=2 2 2 2 2 2 2 2 2 2 2 2 2 2 2
left_child=3 6 5 10 -4 -3 7 -2 -8 12 11 -1 -5 -11 -12
right_child=1 2 4 9 -6 -7 8 -9 -10 13 14 -13 -14 -15 -16
leaf_value=0.11417521901051338 0.073343400928608748 0.087689920253061757 0.10921391583505333 0.17541278340301852 0.17298173744300863 0.13881347122747245 0.18026768953838274 0.10320199918460476 0.074071017108967019 0.14736687353094016 0.13145027744648879 0.13337165750034707 0.1504220763330138 0.091775126600462276 0.18835409630923988
leaf_weight=1163.3859561830759 271.59792080521584 173.67316587269306 3651.6215866059065 369.77184814214706 140.03489127755165 2263.7312940508127 77.990962579846382 6772.0076070129871 26.163102462887764 29.651516124606133 10.216068580746649 543.94335882365704 509.80673941969872 53.821239352226257 37.375860661268234
leaf_count=4669 1090 697 14655 1484 562 9085 313 27178 105 119 41 2183 2046 216 150
internal_value=0.115063 0.111185 0.120804 0.13415 0.111569 0.135171 0.102802 0.102051 0.153591 0.156646 0.121806 0.120291 0.160928 0.111523 0.176139
internal_weight=16094.8 13376.8 6229.06 2717.97 3791.66 2437.4 7147.76 7043.61 104.154 963.051 1754.92 1707.33 879.579 83.4728 47.5919
internal_count=64593 53685 24999 10908 15217 9782 28686 28268 418 3865 7043 6852 3530 335 191
is_linear=0
shrinkage=1


Tree=1
num_leaves=16
num_cat=0
split_feature=19 11 13 13 19 14 19 11 107 83 13 18 13 82 83
split_gain=430.599 446.877 342.381 273.819 227.547 217.895 171.689 123.095 107.651 70.4002 71.3577 52.4327 49.2105 33.2364 9.50478
threshold=-1.0049999952316282 18.240691184997562 -0.008885218292987716 0.44670684137894417 2.3599998950958256 0.40953052221242509 0.57499998807907116 24.146109580993656 0.11949442179714866 0.065342090683725776 0.48034105604156269 3.8040174749758582 0.37400087627737671 1.8136071871631483 0.083561607166207322
decision_type=2 2 2 2 2 2 2 2 2 2 2 2 2 2 2
left_child=3 2 5 11 -4 -2 7 -3 -8 13 -11 12 -1 -5 -13
right_child=1 6 4 9 -6 -7 8 -9 -10 10 -12 14 -14 -15 -16
leaf_value=-0.018707564858233414 0.044073737302482985 0.025915253615213102 -0.0091239236341584887 0.062459850189121952 0.055127961720965124 -0.027996144189343371 0.046315822171380916 -0.080514345152860586 0.0078261180610399491 0.043782853066317386 0.010463328867760508 0.070959450414696007 0.0079004842515529288 -0.067967111885311779 0.018961747242083445
leaf_weight=196.35937368869781 507.91645044088364 50.840861439704895 11593.681498557329 282.48860013484955 139.45418161153793 132.16739265620708 643.4243611395359 58.346851170063019 253.13464073836803 407.48270833492279 265.31193545460701 35.718661069869995 1510.4250493943691 4.9704369753599158 11.656545579433439
leaf_count=788 2041 204 46513 1137 562 531 2584 234 1016 1641 1067 144 6064 20 47
internal_value=-0.0001284 -0.00381232 -0.00641761 0.0180291 -0.00836026 0.0291924 0.0282393 -0.0309577 0.0354486 0.0394929 0.0306435 0.00627952 0.00483932 0.0602046 0.0581656
internal_weight=16093.4 13379 12373.2 2714.41 11733.1 640.084 1005.75 109.188 896.559 960.254 672.795 1754.16 1706.78 287.459 47.3752
internal_count=64593 53685 49647 10908 47075 2572 4038 438 3600 3865 2708 7043 6852 1157 191
is_linear=0
shrinkage=0.05


Tree=2
num_leaves=16
num_cat=0
split_feature=74 13 13 13 12 13 115 72 107 12 12 46 100 115 46
split_gain=295.785 227.663 186.838 234.795 176.851 165.644 140.248 75.5398 48.6512 45.2887 72.5567 38.5657 30.4769 19.1362 18.1271
threshold=3.6725590229034428 -0.008885218292987716 0.0054211778423598764 0.14997646567285064 0.67320075631141674 -0.025697412457519376 1.0000000180025095e-35 1.0000000180025095e-35 -0.20393266214938158 4.1737890243530282 3.5296870470047002 -0.00077444137473209741 6.1473851203918466 0.23793804048287578 -0.0045315484776526152
decision_type=2 2 2 2 2 2 2 2 2 2 2 2 2 2 2
left_child=1 5 4 -4 -3 11 -7 8 14 10 -9 -1 -10 -11 -2
right_child=7 2 3 -5 -6 6 -8 9 12 13 -12 -13 -14 -15 -16
leaf_value=-0.0017814345888944754 0.036817872878833521 -0.0064532346599882233 0.017530213917391756 -0.0034924400081248401 -0.031803046188583033 -0.05039919673910262 0.051270680116738077 0.011276181477483556 0.054455651871586831 -0.0033209205607655154 -0.052394468664136079 -0.066948139051963201 0.028294680453681016 0.045271268352744733 -0.0058728522365272392
leaf_weight=200.51788258552551 35.6109669059515 2280.4847046583891 1554.0543074309826 9137.7622183859348 985.26424831151962 36.878958135843277 422.71783468127251 679.2984547317028 255.42236438393593 24.198546230792999 47.899533912539482 25.602110058069229 197.34002010524273 124.51878169178963 82.408297911286354
leaf_count=807 143 9148 6242 36678 3951 148 1703 2728 1027 97 192 103 794 501 331
internal_value=-0.000121253 -0.00225209 -0.00363395 -0.0004368 -0.0141012 0.0258753 0.0431125 0.0214468 0.0356003 0.0122238 0.00708228 -0.00915984 0.0430532 0.0373646 0.00700859
internal_weight=16090 14643.3 13957.6 10691.8 3265.75 685.717 459.597 1446.7 570.782 875.915 727.198 226.12 452.762 148.717 118.019
internal_count=64593 58780 56019 42920 13099 2761 1851 5813 2295 3518 2920 910 1821 598 474
is_linear=0
shrinkage=0.05


Tree=3
num_leaves=16
num_cat=0
split_feature=19 11 13 13 19 13 19 11 107 95 14 15 12 13 17
split_gain=395.606 385.911 289.098 249.199 199.869 192.765 151.082 110.385 99.1716 73.3809 61.642 59.9462 64.4793 35.1737 26.4863
threshold=-1.0049999952316282 18.240691184997562 -0.008885218292987716 0.44435349241984584 2.3599998950958256 -0.025697412457519376 0.57499998807907116 24.146109580993656 0.11949442179714866 2.1061868350729878 0.47905083654402608 0.16943512698497201 0.12578144669532779 0.577106210427761 1.3218784158882857
decision_type=2 2 2 2 2 2 2 2 2 2 2 2 2 2 2
left_child=3 2 5 11 -4 -2 7 -3 -8 13 -11 14 -13 -5 -1
right_child=1 6 4 9 -6 -7 8 -9 -10 10 -12 12 -14 -15 -16
leaf_value=0.016950024223168662 -0.0038489783680822134 0.024654867031294336 -0.0085539352598546989 0.047505549137771101 0.051890199361591643 0.051471643970354197 0.043458769038753904 -0.076117587890565608 0.0064609296861454363 0.03593045678814754 -0.015457289431696167 -0.0059445806003917464 0.016158465438569376 0.0061943076512047668 0.051565481710340179
leaf_weight=170.67874686419964 284.75082878768444 50.753647908568382 11599.433743029833 714.08770616352558 138.39714224636555 352.28451363742352 640.2109123468399 58.493664741516113 252.58201439678669 128.68771851062775 106.78073726594448 946.72422097623348 506.4746248871088 55.532392874360085 81.719961658120155
leaf_count=685 1146 204 46513 2885 562 1426 2584 234 1016 519 430 3800 2036 224 329
internal_value=-0.000114733 -0.00364427 -0.00606089 0.0173031 -0.00784126 0.0267437 0.0262002 -0.0293012 0.0329916 0.0370518 0.012627 0.00566541 0.00175886 0.0445247 0.0281576
internal_weight=16087.6 13376.9 12374.9 2710.69 11737.8 637.035 1002.04 109.247 892.793 1005.09 235.468 1705.6 1453.2 769.62 252.399
internal_count=64593 53685 49647 10908 47075 2572 4038 438 3600 4058 949 6850 5836 3109 1014
is_linear=0
shrinkage=0.05


Tree=4
num_leaves=16
num_cat=0
split_feature=19 74 19 11 14 11 11 83 11 83 5 4 107 115 82
split_gain=357.626 356.24 198.357 296.395 235.097 138.74 189.483 123.186 78.1498 66.1446 75.9861 59.8664 39.6338 29.6097 28.4786
threshold=-1.0049999952316282 3.6429167985916142 0.59499999880790722 -8.661956310272215 0.39713750314136403 -10.314804553985594 -52.165761947631829 0.082558972447396087 26.526336669921879 0.057347898466867005 22.721500396728519 58.58549880981446 0.098761561025173486 0.06688797911887262 1.8136071871631483
decision_type=2 2 2 2 2 2 2 2 2 2 2 2 2 2 2
left_child=7 2 3 -2 -4 6 -3 9 -7 14 -11 12 -9 -13 -1
right_child=1 5 4 -5 -6 8 -8 11 -10 10 -12 13 -14 -15 -16
leaf_value=0.053843718046523353 -0.03645437196733247 0.04183729913799028 0.029520774277907131 -0.0074425094730183831 -0.0028686541858193994 0.021956990594040757 -0.031828584464264724 0.013348625646715826 0.054496673160640378 0.0269060984905597 0.0017758151079567215 -0.0077867671332004403 -0.013309460792120618 0.035253731768442112 -0.067278412791208761
leaf_weight=198.31012167036533 1033.5401675701141 134.69118849933147 644.03713917732239 5939.9162276536226 4306.3417774140835 831.59031523764133 248.05507357418537 194.20892529189587 237.1365033686161 1199.0081028193235 401.53618749976158 53.23860689997673 494.29055145382881 160.20399710536003 4.9747589081525794
leaf_count=804 4141 543 2611 23800 17287 3343 996 782 964 4835 1619 214 1989 645 20
internal_value=-0.0001082 -0.00346187 -0.00630887 -0.0117424 0.00134516 0.0199261 -0.00590503 0.0164699 0.0291771 0.0240138 0.0206015 0.00138248 -0.00578986 0.0245182 0.0508796
internal_weight=16081.1 13375.3 11923.8 6973.46 4950.38 1451.47 382.746 2705.77 1068.73 1803.83 1600.54 901.942 688.499 213.443 203.285
internal_count=64593 53685 47839 27941 19898 5846 1539 10908 4307 7278 6454 3630 2771 859 824
is_linear=0
shrinkage=0.05


Tree=5
num_leaves=16
num_cat=0
split_feature=19 74 13 13 19 14 11 11 14 95 13 16 13 4 14
split_gain=324.355 315.046 253.713 226.281 203.109 147.79 124.225 177.116 97.8908 77.886 65.0408 65.5943 48.2559 47.1905 28.3997
threshold=-1.0049999952316282 3.6429167985916142 -0.008885218292987716 0.44435349241984584 2.3599998950958256 0.40953052221242509 -10.314804553985594 -52.165761947631829 0.41211523384678111 3.4854894846886997 0.42456402393153697 -0.0071541256224399849 0.577106210427761 28.496000289916996 0.47774206286565996
decision_type=2 2 2 2 2 2 2 2 2 2 2 2 2 2 2
left_child=3 2 5 10 -4 -2 7 -3 -8 12 11 -1 -5 -12 -11
right_child=1 6 4 9 -6 -7 8 -9 -10 14 13 -13 -14 -15 -16
leaf_value=0.017632592006307353 0.034134207261423521 0.04094198053108853 -0.0081883656967908069 0.04228923309064183 0.054990248077249199 -0.029108819278276278 0.040374470127636647 -0.030356230757296005 0.0096269957156643968 0.02302026367889452 -0.062627718617720818 -0.0036579184451718222 -0.0028057517989823356 -0.0077933914975432846 -0.032531030276492144
leaf_weight=854.58940745890141 572.503692522645 133.91403736174107 11105.440737113357 853.21017234027386 128.68642061948776 110.14916910231113 630.34196509420872 249.1894459426403 439.23825711011887 40.341332122683525 51.039867490530014 627.34289091825485 63.757613152265549 169.66432558000088 53.544642642140388
leaf_count=3440 2330 542 44508 3473 526 442 2556 999 1767 163 205 2522 258 682 215
internal_value=0.000212515 -0.00298641 -0.00566623 0.0159737 -0.00746466 0.0239297 0.0189969 -0.0054339 0.0277476 0.0347128 0.00484841 0.00861973 0.0391537 -0.0204743 -0.00866151
internal_weight=16083 13369.5 11916.8 2713.49 11234.1 682.653 1452.68 383.103 1069.58 1010.85 1702.64 1481.93 916.968 220.704 93.886
internal_count=64628 53670 47806 10958 45034 2772 5864 1541 4323 4109 6849 5962 3731 887 378
is_linear=0
shrinkage=0.05


Tree=6
num_leaves=16
num_cat=0
split_feature=19 11 13 13 19 14 19 11 107 95 13 16 13 4 14
split_gain=293.334 291.46 232.484 205.948 182.468 170.624 139.909 92.1896 90.4005 70.9001 58.6808 59.3099 47.2236 42.4026 25.615
threshold=-1.0049999952316282 18.240691184997562 -0.008885218292987716 0.44435349241984584 2.3599998950958256 0.40953052221242509 0.57499998807907116 24.146109580993656 0.11949442179714866 3.4854894846886997 0.42456402393153697 -0.0071541256224399849 0.47234219385305171 28.496000289916996 0.47774206286565996
decision_type=2 2 2 2 2 2 2 2 2 2 2 2 2 2 2
left_child=3 2 5 10 -4 -2 7 -3 -8 12 11 -1 -5 -12 -11
right_child=1 6 4 9 -6 -7 8 -9 -10 14 13 -13 -14 -15 -16
leaf_value=0.016775467583579749 0.037568609863634563 0.022118667198696575 -0.0072002340568443034 0.049856940159771213 0.052476170061493126 -0.026253508469742462 0.039435776048965143 -0.07342299738489301 0.0043235733223662828 0.02192242861935724 -0.059315949300606734 -0.0034741358855185666 0.027008689418703602 -0.0073997653636881768 -0.030852030199119668
leaf_weight=853.37245555222034 507.9146713167429 44.465515688061714 11594.332693696022 414.99555806815624 129.52306418120861 131.92128551006317 642.61071699857712 58.421820431947708 256.47723615169525 40.245935022830963 51.190665110945702 627.49886725842953 496.96455557644367 169.75266517698765 53.633208975195885
leaf_count=3440 2078 179 46460 1702 534 529 2621 234 1035 163 205 2522 2029 682 215
internal_value=0.000202914 -0.00283727 -0.0049392 0.01521 -0.00654094 0.0244098 0.0230991 -0.0321321 0.0294195 0.0331468 0.0046087 0.00819498 0.037406 -0.0194283 -0.00822765
internal_weight=16073.3 13365.7 12363.7 2707.65 11723.9 639.836 1001.98 102.887 899.088 1005.84 1701.81 1480.87 911.96 220.943 93.8791
internal_count=64628 53670 49601 10958 46994 2607 4069 413 3656 4109 6849 5962 3731 887 378
is_linear=0
shrinkage=0.05


Tree=7
num_leaves=16
num_cat=0
split_feature=19 74 13 13 19 14 11 83 13 11 13 16 14 82 12
split_gain=265.342 275.178 209.367 187.581 168.475 121.935 108.283 65.0278 66.4866 61.3993 52.961 53.6324 38.1988 29.9893 25.0914
threshold=-1.0049999952316282 3.6429167985916142 -0.008885218292987716 0.44435349241984584 2.3599998950958256 0.40953052221242509 25.402019500732425 0.062986145928439444 0.52043998363459842 -10.314804553985594 0.42456402393153697 -0.0071541256224399849 0.4930005937697764 1.8136071871631483 -3.3523532152175899
decision_type=2 2 2 2 2 2 2 2 2 2 2 2 2 2 2
left_child=3 2 5 10 -4 -2 9 13 -9 -3 11 -1 -12 -5 -8
right_child=1 6 4 7 -6 -7 14 8 -10 -11 12 -13 -14 -15 -16
leaf_value=0.015961217384200699 0.031156635636898369 -0.0048293673546006312 -0.0074770973731028536 0.056406493703172793 0.050592716073423416 -0.026284414833508359 0.0050979564608856637 0.030169795769651727 -0.013536160257626878 0.01943271100114535 0.048952136733445631 -0.0032996496694263412 -0.024854807926386478 -0.061976079007036847 0.053999331213375835
leaf_weight=852.09435801208019 567.06180387735367 382.84968672692776 11109.733774363995 243.60615511238575 126.323950111866 110.37185019254684 29.845009341835976 650.86935183405876 100.4429680109024 817.73013578355312 19.19761823117733 627.64317642152309 201.8755244165659 5.4698384553194037 216.65219973027706
leaf_count=3440 2330 1541 44508 1009 526 442 124 2670 408 3301 77 2522 810 22 898
internal_value=0.000193802 -0.00269583 -0.0051967 0.0144864 -0.00682423 0.021798 0.0178933 0.0316667 0.0243267 0.0116958 0.00438123 0.00779156 -0.0184455 0.0538068 0.0480785
internal_weight=16061.8 13360.6 11913.5 2701.2 11236.1 677.434 1447.08 1000.39 751.312 1200.58 1700.81 1479.74 221.073 249.076 246.497
internal_count=64628 53670 47806 10958 45034 2772 5864 4109 3078 4842 6849 5962 887 1031 1022
is_linear=0
shrinkage=0.05


Tree=8
num_leaves=16
num_cat=0
split_feature=19 19 14 14 14 19 83 115 115 83 5 107 56 73 8
split_gain=240.048 255.43 277.1 173.048 210.297 124.906 110.305 94.7683 85.4111 72.4196 54.5946 46.1319 32.5004 31.1704 21.0483
threshold=-1.0049999952316282 0.55500000715255748 0.39713750314136403 0.49693029058722177 0.5200527835963854 2.3599998950958256 0.084065635235053185 0.34355194056468813 1.0000000180025095e-35 0.056764284787667325 22.721500396728519 0.11346440743340964 -0.0094021049481060465 5.3817389000317428 25.879634857177738
decision_type=2 2 2 2 2 2 2 2 2 2 2 2 2 2 2
left_child=6 3 8 7 -5 -4 9 -2 -3 13 -11 14 -13 -1 -8
right_child=1 2 5 4 -6 -7 11 -9 -10 10 -12 12 -14 -15 -16
leaf_value=0.054756365105271501 -0.0031067053096694888 -0.049389745356397521 -0.0018779513712160753 -0.035212631950342958 -0.0019113964212259652 0.048377617307547104 0.001314882597446749 -0.045322467344256628 0.027599965127861531 0.022172082810959066 0.0015163006793016628 0.022655559529747155 -0.015553388228895246 -0.021104718589982967 0.028807426976454709
leaf_weight=181.47803467512131 5062.5359777957201 37.082228690385818 4766.8185370117426 1163.0362121909857 800.30399793386459 126.93136151134968 145.59702640771866 136.52444079518318 1262.0559976696968 1281.1441730111837 426.35151565074921 63.541393935680389 448.37185110151768 14.632590189576147 133.41140551865101
leaf_count=754 20275 150 19123 4655 3204 534 589 547 5182 5216 1732 258 1809 60 540
internal_value=0.000185188 -0.00256143 0.00487495 -0.00899122 -0.0216383 -0.00057445 0.0137987 -0.00421527 0.0254024 0.0203195 0.0170145 -0.00189583 -0.0108107 0.0490961 0.0144608
internal_weight=16049.8 13355.3 6192.89 7162.4 1963.34 4893.75 2694.53 5199.06 1299.14 1903.61 1707.5 790.922 511.913 196.111 279.008
internal_count=64628 53670 24989 28681 7859 19657 10958 20822 5332 7762 6948 3196 2067 814 1129
is_linear=0
shrinkage=0.05


Tree=9
num_leaves=16
num_cat=0
split_feature=19 74 19 11 19 115 11 11 19 83 73 71 83 82 2
split_gain=217.081 236.808 173.629 250.862 118.264 103.626 97.9594 162.491 80.9336 66.8293 46.3644 44.7782 28.4295 28.3953 12.6465
threshold=-1.0049999952316282 3.6429167985916142 -0.31499999761581415 -4.7800157070159903 2.3599998950958256 0.12286277584520079 -10.314804553985594 -52.165761947631829 1.2649999856948855 0.05705510025757627 0.46904781204198348 18.655439376831058 0.08207790084565493 1.9649404452162476 4.1525001525878915
decision_type=2 2 2 2 2 2 2 2 2 2 2 2 2 2 2
left_child=5 2 3 -2 -4 10 7 -3 -8 13 14 -11 -12 -7 -1
right_child=1 6 4 -5 -6 9 8 -9 -10 11 12 -13 -14 -15 -16
leaf_value=-0.0091653155335215796 -0.040366199250092265 0.039558096367178996 -0.0025154306810892032 -0.004935438480549675 0.046711401232633933 0.050889171704062763 0.033321639377617611 -0.028804538191957902 0.0027698902060170148 0.02806824268623366 0.0031059904778350123 0.010894268802689393 -0.018896625447459754 -0.073185546273951019 0.037548997226237585
leaf_weight=17.833237528800964 773.83886083960533 133.44778798520565 9601.6691123247147 1409.6853780001402 123.57867115736008 178.33886511623859 754.53132238984108 249.31877475976944 304.14710891246796 539.58723820745945 270.56598347425461 1279.6645827442408 320.9758755415678 4.7336597591638556 77.234912380576134
leaf_count=72 3096 542 38543 5641 526 748 3096 999 1227 2200 1095 5219 1291 19 314
internal_value=0.000176753 -0.00243382 -0.00475063 -0.0174921 -0.00188991 0.0131379 0.0167069 -0.00497058 0.0245444 0.0188857 -0.00362409 0.015988 -0.00883282 0.047681 0.0287862
internal_weight=16039.2 13350.2 11908.8 2183.52 9725.25 2688.93 1441.44 382.767 1058.68 2002.32 686.61 1819.25 591.542 183.073 95.0681
internal_count=64628 53670 47806 8737 39069 10958 5864 1541 4323 8186 2772 7419 2386 767 386
is_linear=0
shrinkage=0.05


Tree=10
num_leaves=16
num_cat=0
split_feature=11 14 13 13 12 11 12 14 20 11 5 43 100 107 60
split_gain=195.358 171.025 232.803 125.045 87.7161 106.104 62.5913 171.46 59.691 55.8957 42.4451 34.5438 25.0044 21.1297 16.0793
threshold=14.845298767089846 0.48133558453109432 0.41080674460986094 -0.008885218292987716 -0.32489828765392298 53.835346221923835 -1.6881000995635984 0.51574635010192715 -0.0038222432248804956 -11.320734977722166 14.093999385833742 0.18069672515449139 5.5930161476135263 0.12953927565260218 -0.010235785807755271
decision_type=2 2 2 2 2 2 2 2 2 2 2 2 2 2 2
left_child=1 2 3 -1 12 8 7 -3 -6 -8 -4 -7 13 -2 -14
right_child=4 6 10 -5 5 11 9 -9 -10 -11 -12 -13 14 -15 -16
leaf_value=0.022958248939072095 0.047428590342621507 -0.048730989339425407 0.045302973450103805 -0.0012614887438762257 -0.009751022263114386 0.055001591030435198 0.0097642973097877943 0.0038756566949659345 0.03220731157366305 -0.0084184985061330174 0.017709382860239542 -0.057764590461568538 -0.014309484845291612 0.021096736735905605 0.02380677826403825
leaf_weight=572.09736894071102 246.96798960864544 323.86759997904301 324.57912093400955 7783.920654386282 521.02373586595058 113.67556230723858 465.31068417429924 296.86453866958618 101.23370699584484 4611.8466186672449 244.22779648005962 7.2228075861930838 30.26832003891468 110.17102256417274 322.13889847695827
leaf_count=2361 1018 1298 1348 31232 2098 469 1891 1188 414 18558 1011 29 124 447 1332
internal_value=-7.96286e-05 -0.00181695 0.00250364 0.000396723 0.017408 0.00540272 -0.00858445 -0.0235719 -0.00292491 -0.00675208 0.0334552 0.0482646 0.0299819 0.0393057 0.020533
internal_weight=16075.4 14622.7 8924.82 8356.02 1452.7 743.156 5697.89 620.732 622.257 5077.16 568.807 120.898 709.546 357.139 352.407
internal_count=64818 58887 35952 33593 5931 3010 22935 2486 2512 20449 2359 498 2921 1465 1456
is_linear=0
shrinkage=0.05


Tree=11
num_leaves=16
num_cat=0
split_feature=19 13 13 74 13 13 17 14 13 95 12 4 14 76 5
split_gain=189.161 199.199 162.552 153.479 143.761 129.949 77.3311 70.931 70.7902 55.2225 53.4429 49.2758 48.0998 44.0153 37.9273
threshold=-1.0249999761581419 0.39280185775169102 0.4424327715290271 3.6429167985916142 0.41321805072085876 -0.008885218292987716 1.0764505519033396 0.48942511675375938 0.42456402393153697 2.1389182738408974 0.12578144669532779 28.496000289916996 0.47905083654402608 0.11768868565559389 14.342500209808351
decision_type=2 2 2 2 2 2 2 2 2 2 2 2 2 2 2
left_child=2 3 8 5 7 -2 -6 -3 10 14 -1 -10 -11 -5 -4
right_child=1 4 9 13 6 -7 -8 -9 11 12 -12 -13 -14 -15 -16
leaf_value=-0.00040062871562247842 0.019047685454365047 0.078420965448304084 0.044112044379420352 -0.0042603633543960287 0.001000833845366192 -0.0037109501874414219 -0.02219117367280337 -0.055576989299257654 -0.074154931004105376 0.028263241280275443 0.020957126198394207 -0.012613857600579696 -0.015773868209392358 0.019261878260393019 0.021613016991558279
leaf_weight=975.18418905138969 670.82392899692059 10.244984358549116 440.66304476559162 239.15461839735508 646.86540569365025 9650.0642995387316 808.89997161924839 274.18764171004295 42.969854086637497 131.10685506463051 418.63974058628082 133.83993384242058 117.65160548686981 1180.8962224721909 325.79739825427532
leaf_count=3939 2775 41 1852 970 2589 38694 3239 1098 172 543 1695 537 477 4837 1360
internal_value=-7.50718e-05 -0.00245113 0.0123123 -0.000111224 -0.0182382 -0.00223171 -0.0118859 -0.0507505 0.00223358 0.027905 0.00601425 -0.0275701 0.00743566 0.0153004 0.0345484
internal_weight=16067 13481.1 2585.85 11740.9 1740.2 10320.9 1455.77 284.433 1570.63 1015.22 1393.82 176.81 248.758 1420.05 766.46
internal_count=64818 54243 10575 47276 6967 41469 5828 1139 6343 4232 5634 709 1020 5807 3212
is_linear=0
shrinkage=0.05


Tree=12
num_leaves=15
num_cat=0
split_feature=11 14 13 13 74 12 13 115 12 47 16 14 109 100
split_gain=172.134 143.104 194.356 104.487 79.7521 68.0896 91.1225 55.4125 50.5989 38.8768 33.1794 20.5699 15.3209 7.07161
threshold=14.845298767089846 0.48133558453109432 0.41080674460986094 -0.008885218292987716 4.4159021377563485 -0.32489828765392298 0.22809064139877469 -0.33525147316999171 -1.6599410176277158 -0.00047461710712601209 0.015944637171717596 0.60738603091972332 0.084676854565112911 5.1404263973236093
decision_type=2 2 2 2 2 2 2 2 2 2 2 2 2 2
left_child=1 2 3 -1 5 10 -7 11 -9 -4 -2 -3 13 -6
right_child=4 7 9 -5 12 6 -8 8 -10 -11 -12 -13 -14 -15
leaf_value=0.021040142986512068 0.014600719457798179 0.074919256987611912 0.034541670913675541 -0.001169729380957334 0.066264780751464677 -0.0085772541101491809 0.034636617604004015 -0.021718199866960483 -0.0066709901821079172 -0.014601003510387204 0.038113236977491541 0.0093253125921220724 -0.031614789441458228 0.043963870170466102
leaf_weight=568.214430347085 358.0451969653368 26.591545581817627 518.12142087519169 7782.907546967268 65.745569780468941 522.16563002765179 159.17522969841957 628.6618055999279 5019.3523738533258 43.634413003921509 258.27155131101608 21.710236445069313 5.3963783234357825 77.393682092428207
leaf_count=2361 1479 111 2178 31232 285 2106 644 2520 20217 181 1063 87 22 332
internal_value=-7.08377e-05 -0.00169973 0.00225641 0.000341441 0.016384 0.0124115 0.00151839 -0.0078898 -0.00834585 0.0307245 0.0244538 0.0454367 0.051089 0.0542069
internal_weight=16055.4 14609.2 8912.88 8351.12 1446.19 1297.66 681.341 5696.32 5648.01 561.756 616.317 48.3018 148.536 143.139
internal_count=64818 58887 35952 33593 5931 5292 2750 22935 22737 2359 2542 198 639 617
is_linear=0
shrinkage=0.05


Tree=13
num_leaves=16
num_cat=0
split_feature=19 11 13 13 11 13 19 11 13 107 16 95 4 14 13
split_gain=166.677 191.729 138.827 134.2 163.18 107.882 102.394 79.6884 63.495 61.9389 53.0067 51.1941 44.6899 43.3928 34.6694
threshold=-1.0249999761581419 18.240691184997562 0.4424327715290271 0.39280185775169102 -8.0152401924133283 -0.014643154942645861 0.57499998807907116 24.146109580993656 0.42456402393153697 0.12383251710427985 -0.0071541256224399849 2.1061868350729878 28.496000289916996 0.47905083654402608 0.47437112754236083
decision_type=2 2 2 2 2 2 2 2 2 2 2 2 2 2 2
left_child=2 3 8 5 -5 -2 7 -3 10 -8 -1 14 -10 -13 -4
right_child=1 6 11 4 -6 -7 9 -9 12 -11 -12 13 -14 -15 -16
leaf_value=0.014025628335005487 0.01994492517562026 0.019855938267975871 0.043497828628316408 -0.044616018074400549 -0.0084046362798569918 -0.0030312585018179433 0.033022708994646502 -0.066824507857238494 -0.070374524196462271 0.0035071607484957325 -0.0057958058795568347 0.026375915771658227 -0.011711043280629238 -0.015226673079601259 0.022056631317298608
leaf_weight=820.64522340893745 537.8004475235939 48.829636871814728 371.03603199124336 405.75203807651997 1333.8352330774069 10212.013895794749 625.77085340023041 58.021440222859383 42.851062282919884 248.26489593088627 572.64804825186729 131.48751097917557 133.94280302524567 119.7717038244009 383.29636096954346
leaf_count=3329 2241 198 1575 1629 5338 40968 2625 234 172 1010 2305 551 537 485 1621
internal_value=-6.66775e-05 -0.00229502 0.0115871 -0.00396675 -0.0168508 -0.00188179 0.0189906 -0.0272126 0.00229725 0.024639 0.00587895 0.026092 -0.0259298 0.00654455 0.032603
internal_weight=16046 13470.3 2575.68 12489.4 1739.59 10749.8 980.887 106.851 1570.09 874.036 1393.29 1005.59 176.794 251.259 754.332
internal_count=64818 54243 10575 50176 6967 43209 4067 432 6343 3635 5634 4232 709 1036 3196
is_linear=0
shrinkage=0.05


Tree=14
num_leaves=16
num_cat=0
split_feature=19 11 14 11 19 19 93 11 107 17 12 115 73 3 17
split_gain=150.861 173.72 114.42 146.514 116.366 92.9084 83.5711 72.481 56.653 49.1861 52.8681 36.6655 24.1778 24.5041 8.55498
threshold=-1.0249999761581419 18.240691184997562 0.46197950522028824 -8.661956310272215 2.304999947547913 0.57499998807907116 4.8899116618662086 24.146109580993656 0.12383251710427985 0.037085692619394102 0.12578144669532779 0.10082730061416549 0.60157843202066996 2.8034999370574956 1.4191004455288534
decision_type=2 2 2 2 2 2 2 2 2 2 2 2 2 2 2
left_child=6 2 3 -2 -4 7 9 -3 -7 11 -11 -1 14 -14 -8
right_child=1 5 4 -5 -6 8 12 -9 -10 10 -12 -13 13 -15 -16
leaf_value=-0.007588727532974968 -0.015888119840748016 0.018905989774179035 -0.0096570943339173154 0.0044264241985965064 0.035667443403047831 0.031592790479675933 0.032908618896552541 -0.063945210138715305 0.0033331695194072607 0.0040575662659436814 0.022831425968429634 0.033412191319419325 -0.02886902160205411 -0.0028661081796047109 -0.032692005612856671
leaf_weight=61.968621209263802 1069.1046611219645 48.721768915653229 6046.2043730020523 5227.1942753940821 145.00811603665352 621.49948365986347 40.393828183412552 57.612447455525398 248.16571612656116 1047.5520337074995 584.08197183907032 454.05683635175228 153.81212325394154 220.46197685599327 5.6670990586280814
leaf_count=252 4299 198 24213 21046 618 2625 166 234 1010 4289 2415 1916 621 893 23
internal_value=-6.28348e-05 -0.00218114 -0.00376896 0.000977037 -0.00859552 0.0181344 0.011043 -0.0259832 0.0235287 0.0150334 0.0107781 0.0284885 -0.00934549 -0.0135523 0.0248375
internal_weight=16031.5 13463.5 12487.5 6296.3 6191.21 975.999 2567.99 106.334 869.665 2147.66 1631.63 516.025 420.335 374.274 46.0609
internal_count=64818 54243 50176 25345 24831 4067 10575 432 3635 8872 6704 2168 1703 1514 189
is_linear=0
shrinkage=0.05


Tree=15
num_leaves=16
num_cat=0
split_feature=11 19 19 11 115 74 37 11 19 73 100 7 19 69 71
split_gain=142.231 155.487 114.792 182.201 112.241 77.1093 70.6119 54.2193 44.0952 92.3353 60.074 22.9151 13.5259 13.1525 6.55684
threshold=14.410498142242433 -1.0049999952316282 -0.33500000834465021 -9.0964241027832013 1.0000000180025095e-35 4.2922880649566659 0.016816463991358516 2.2050300836563115 0.59499999880790722 0.69804803055287412 -1.2521620392799375 4.9224917888641366 0.72500002384185802 36.853697100203824 38.888593673706062
decision_type=2 2 2 2 2 2 2 2 2 2 2 2 2 2 2
left_child=1 6 3 -3 -4 8 7 -1 9 -2 -10 -8 14 -14 -7
right_child=5 2 4 -5 -6 12 11 -9 10 -11 -12 -13 13 -15 -16
leaf_value=0.022886632054817183 0.026740901871267569 -0.044086331297361468 -0.012040014918392697 -0.0071542421592909258 0.0012821015715746241 0.054857786826028487 -0.0070597189285530621 0.0038845021525540837 0.031102437490841264 -0.034239343606729963 0.0063667768341197977 0.0090761169249790573 -0.01140719423120542 0.060592675705264637 -0.003528108799634742
leaf_weight=1047.4933484494686 109.06802161037922 411.94304245710373 1987.3430232852697 1763.9085130989552 7733.5800189673901 137.18293635547161 595.66157291829586 585.07019366323948 382.90567487478256 144.08223047852516 683.81340923905373 348.91197898983955 17.614681065082554 9.9120875149965268 4.9832740128040305
leaf_count=4359 451 1657 7995 7062 31089 613 2430 2408 1564 588 2815 1426 75 41 22
internal_value=0.000160923 -0.00135313 -0.00376513 -0.0141464 -0.00144147 0.0148728 0.00978134 0.0160767 0.0107937 -0.00796643 0.0152458 -0.00109937 0.0465997 0.0145192 0.0528112
internal_weight=15963.5 14473.9 11896.8 2175.85 9720.92 1489.56 2577.14 1632.56 1319.87 253.15 1066.72 944.574 169.693 27.5268 142.166
internal_count=64595 58426 47803 8719 39084 6169 10623 6767 5418 1039 4379 3856 751 116 635
is_linear=0
shrinkage=0.05


Tree=16
num_leaves=16
num_cat=0
split_feature=74 14 13 11 115 11 11 11 41 36 102 74 60 115 14
split_gain=131.332 93.8306 189.31 153.868 76.5812 70.1653 119.567 69.7943 51.5296 47.4659 41.4506 29.3242 28.1065 21.3476 20.8023
threshold=3.6429167985916142 0.47946678105490875 0.41080674460986094 -15.988222599029539 -0.33525147316999171 -10.314804553985594 -52.165761947631829 53.835346221923835 2035.159853565807 63.169048673379116 32.007289886474616 4.7297439575195321 -0.0040362975574445492 0.23793804048287578 0.60738603091972332
decision_type=2 2 2 2 2 2 2 2 2 2 2 2 2 2 2
left_child=1 2 3 -1 14 6 13 -6 -4 11 -8 -7 -11 -2 -3
right_child=5 4 8 -5 7 9 10 -9 -10 12 -12 -13 -14 -15 -16
leaf_value=-0.051434470026863958 -0.0089532243937362199 0.076229536018215277 0.032448862108147666 0.0012216957471541238 -0.006962512533010304 0.020774721701573198 -0.064046323560513971 0.041717172268003921 -0.13470963480492815 -0.022706396374868029 -0.013786417420242392 0.04195433699518239 0.013657543562453692 0.043720805929327221 0.019065316672534853
leaf_weight=141.38565877079964 23.298783481121063 33.036353960633278 530.96870656311512 7402.5630853176117 6241.0832086503506 652.81500861048698 51.115361362695694 74.510740995407104 4.6508008539676657 83.028381735086441 207.77295587956905 218.00658568739891 147.60514797270298 110.2841265052557 30.708081483840942
leaf_count=566 94 139 2281 29812 25176 2706 205 308 20 338 834 939 603 451 123
internal_value=0.000153384 -0.00130487 0.00227418 0.000234835 -0.00583782 0.0142671 -0.00388585 -0.00638819 0.0309974 0.0207353 -0.0237098 0.026077 0.000566476 0.0345337 0.0486914
internal_weight=15952.8 14458.9 8079.57 7543.95 6379.34 1493.93 392.471 6315.59 535.62 1101.46 258.888 870.822 230.634 133.583 63.7444
internal_count=64595 58425 32679 30378 25746 6170 1584 25484 2301 4586 1039 3645 941 545 262
is_linear=0
shrinkage=0.05


Tree=17
num_leaves=16
num_cat=0
split_feature=11 19 13 13 19 13 12 19 55 12 14 18 18 104 11
split_gain=123.305 136.642 121.38 161.641 112.773 79.7399 65.9085 76.7665 91.2342 58.2403 55.1976 51.5939 29.5189 31.7681 20.4203
threshold=14.410498142242433 -1.0049999952316282 -0.008885218292987716 -0.025697412457519376 2.3599998950958256 0.44435349241984584 -0.32489828765392298 0.57499998807907116 -0.016317487566982973 -2.0747917890548702 0.51252653807708326 3.8040174749758582 -1.1624898359583551 64.981132507324233 26.526336669921879
decision_type=2 2 2 2 2 2 2 2 2 2 2 2 2 2 2
left_child=1 5 3 -3 -4 11 12 10 -9 -7 -8 -1 14 -14 -2
right_child=6 2 4 -5 -6 9 7 8 -10 -11 -12 -13 13 -15 -16
leaf_value=0.0011836643670574153 0.061913030069498054 -0.008421262960801857 -0.0051863397405223803 0.044718468177351339 0.042347285115900787 -0.048186093191345508 0.0020572432120490977 -0.012992488502171776 0.026291440573180766 0.02331776054410295 -0.062467207931298112 0.056371299363652198 0.028826410134877925 0.0052488237097881515 0.0043257159364117987
leaf_weight=1609.5107601583004 77.029147267341614 278.00062103569508 11193.02440994978 294.91629800200462 126.18657949566841 29.42207995057106 64.679226353764534 243.02863597869873 377.17906111478806 887.219069480896 67.981100231409073 43.494547173380852 413.63879612088203 218.24841533601284 19.238697186112404
leaf_count=6513 321 1140 44859 1257 547 121 260 981 1574 3808 279 181 1749 926 79
internal_value=0.000146412 -0.00126076 -0.00351998 0.0189331 -0.00465643 0.00919472 0.0138871 0.0035139 0.010898 0.0210227 -0.031008 0.00263578 0.0246123 0.0206829 0.0504045
internal_weight=15942.8 14461.8 11892.1 572.917 11319.2 2569.65 1481.02 752.868 620.208 916.641 132.66 1653.01 728.155 631.887 96.2678
internal_count=64595 58426 47803 2397 45406 10623 6169 3094 2555 3929 539 6694 3075 2675 400
is_linear=0
shrinkage=0.05


Tree=18
num_leaves=16
num_cat=0
split_feature=74 19 19 11 12 95 11 12 11 95 19 19 69 36 7
split_gain=117.668 134.915 106.397 158.055 111.389 71.7792 61.4031 109.991 48.1169 44.1107 40.3306 36.4435 33.2425 31.8252 25.5726
threshold=3.6429167985916142 -1.0049999952316282 -0.31499999761581415 -4.7800157070159903 0.92091351747512828 2.0733173876932924 -10.314804553985594 4.1737890243530282 -8.8036642074584943 0.026286224696709496 0.51499998569488536 0.35500000417232519 201.95312539854515 62.554657061931614 4.8505563735961923
decision_type=2 2 2 2 2 2 2 2 2 2 2 2 2 2 2
left_child=1 5 3 -3 -4 8 7 10 -1 13 -2 -9 -11 -8 -7
right_child=6 2 4 -5 -6 14 9 11 -10 12 -12 -13 -14 -15 -16
leaf_value=0.03585431242889215 -0.056200399900946413 -0.031621312198958106 0.0018738446341026085 -0.0034665719597089008 -0.010451513931063684 -0.0097135255702869051 0.026793571297629548 0.053661507603593055 0.011726355244379132 -0.00033114333171833509 -0.011280774781764868 0.0050169140212044435 -0.082029629888164479 0.004625652206118539 0.0076843364889166406
leaf_weight=240.8799137622118 71.448480516672134 773.56612467765808 7247.3003391772509 1401.7429110705853 2453.7185941338539 510.00026647746563 814.97106839716434 77.386683955788612 1453.3043825924397 62.311863109469414 166.21724283695221 76.627931624650955 15.560269668698309 202.0444588214159 360.52234165370464
leaf_count=1028 289 3113 29198 5609 9874 2075 3444 319 6056 253 666 310 63 826 1472
internal_value=0.000140009 -0.00123884 -0.00348468 -0.0134787 -0.00124366 0.0091609 0.0135346 -0.00345529 0.0151569 0.0196125 -0.0247848 0.029459 -0.016656 0.0223896 -0.00250829
internal_weight=15927.6 14441 11876.3 2175.31 9701.02 2564.71 1486.57 391.68 1694.18 1094.89 237.666 154.015 77.8721 1017.02 870.523
internal_count=64595 58425 47794 8722 39072 10631 6170 1584 7084 4586 955 629 316 4270 3547
is_linear=0
shrinkage=0.05


Tree=19
num_leaves=15
num_cat=0
split_feature=11 14 13 11 74 14 12 11 12 82 5 18 107 101
split_gain=108.341 100.612 124.771 87.0866 61.6566 55.5459 142.777 95.7947 50.02 74.8456 42.1383 36.8514 10.9023 6.71096
threshold=14.410498142242433 0.47946678105490875 0.41080674460986094 -9.8433218002319318 4.2922880649566659 0.5176979003546639 -1.8356210589408872 -3.0361516475677486 -0.32489828765392298 -0.90663042790480042 14.093999385833742 -1.1624898359583551 0.10283088376614032 4.8137266635894784
decision_type=2 2 2 2 2 2 2 2 2 2 2 2 2 2
left_child=1 2 3 -1 8 6 -3 -7 11 -10 -4 -2 13 -6
right_child=4 5 10 -5 12 7 -8 -9 9 -11 -12 -13 -14 -15
leaf_value=-0.012854330234890968 0.049141715905804975 -0.04536710322631568 0.039090656431331444 0.0027656104832069974 0.050727754383709037 0.011237360051100931 -0.007337384035035051 -0.0087763092304582492 0.029599684153853275 -0.0091152460998364573 0.01000468378175645 0.01468186924150474 -0.032909409733913639 0.027679227669862628
leaf_weight=1022.7934986352921 90.795876175165176 267.50948166847229 284.76778611540794 6996.492376819253 114.0530546605587 1023.6505544930696 3188.7732171863317 1437.5527856349945 164.03956952691078 522.40026976168156 221.2873051315546 533.13935320079327 4.7029158622026435 43.676045253872871
leaf_count=4125 381 1083 1252 28195 529 4184 12860 5770 679 2120 957 2238 20 202
internal_value=0.000133461 -0.00118389 0.00229292 0.000773416 0.0130519 -0.00619294 -0.0102808 -0.000452331 0.00945001 0.00013652 0.026372 0.0196965 0.0421087 0.0443455
internal_weight=15915.6 14442.8 8525.34 8019.29 1472.81 5917.49 3456.28 2461.2 1310.38 686.44 506.055 623.935 162.432 157.729
internal_count=64595 58426 34529 32320 6169 23897 13943 9954 5418 2799 2209 2619 751 731
is_linear=0
shrinkage=0.05


Tree=20
num_leaves=15
num_cat=0
split_feature=11 19 13 13 13 19 98 14 76 74 4 46 11 19
split_gain=106.75 110.591 104.717 192.183 93.5255 84.3735 48.8436 48.7438 35.3665 17.27 9.84625 8.92982 8.8154 8.27965
threshold=60.187828063964851 -1.0249999761581419 -0.014643154942645861 -0.025697412457519376 0.44670684137894417 2.3599998950958256 10.017836686567017 0.44486994580489464 0.72401252388954174 3.9886587858200078 74.73450088500978 -0.013458737466977474 78.368366241455092 0.64499998092651378
decision_type=2 2 2 2 2 2 2 2 2 2 2 2 2 2
left_child=1 4 3 -3 7 -4 -6 -1 10 13 11 -2 -11 -10
right_child=8 2 5 -5 6 -7 -8 -9 9 12 -12 -13 -14 -15
leaf_value=0.031399026116510811 -0.039440890634376294 -0.0099912181611451836 -0.0035220950343269868 0.049531039399553896 0.029548850624963059 0.038098851565269924 0.00267044831429533 -0.00034056142801910667 0.0012600296681210595 -0.01011177640631177 -0.017111646812264111 0.057810148673893363 0.041830840511023794 -0.057488425118338508
leaf_weight=131.53485783934593 2.4089867472648612 275.43817195296288 12528.131638273597 267.13409112393856 642.84857109189034 122.96005244553089 229.31342048943043 1505.1881807297468 12.891440793871881 11.325807854533194 4.8100114166736594 117.14318025112152 29.299900159239769 11.214596614241598
leaf_count=541 10 1129 50404 1160 2821 540 981 6101 56 52 20 532 137 48
internal_value=8.44149e-05 -0.000365285 -0.00219508 0.0193144 0.00925721 -0.00311757 0.0224818 0.00221018 0.0374279 0.00745615 0.0530285 0.0558505 0.0273501 -0.0260709
internal_weight=15891.6 15702.5 13193.7 542.572 2508.89 12651.1 872.162 1636.72 189.094 64.7317 124.362 119.552 40.6257 24.106
internal_count=64532 63677 53233 2289 10444 50944 3802 6642 855 293 562 542 189 104
is_linear=0
shrinkage=0.05


Tree=21
num_leaves=15
num_cat=0
split_feature=11 19 13 11 13 13 95 12 104 74 19 107 106 82
split_gain=97.7518 100.033 97.3358 128.709 85.286 80.7494 45.5758 44.8858 36.7993 18.7578 8.90852 8.88291 8.31387 7.15649
threshold=60.187828063964851 -1.0249999761581419 0.39280185775169102 -6.3648276329040518 0.44670684137894417 -0.014643154942645861 3.1319800122092576 0.12578144669532779 61.468214035034187 3.9886587858200078 0.60500001907348644 -0.41601444270840238 79.627197265625014 -0.40564678486522854
decision_type=2 2 2 2 2 2 2 2 2 2 2 2 2 2
left_child=1 4 5 -4 7 -3 -6 -1 11 12 -11 -2 -10 -13
right_child=8 2 3 -5 6 -7 -8 -9 9 10 -12 13 -14 -15
leaf_value=-0.0033370562090840623 -0.016938987053388171 0.018475860116819117 -0.034525114846147259 -0.0044536556321602364 0.02571298664184159 -0.0013473258421858438 -0.0097175950040877864 0.014713565326049614 0.027787892826649587 0.060073145226964809 0.0092155452435410488 0.070947361202577996 -0.045738422774489258 0.045364399092560598
leaf_weight=1143.2230602800846 4.5283899903297415 539.0961512029171 500.03798870742321 1233.8090853393078 763.52343206107616 10916.70203204453 103.01035666465759 492.8851981908083 4.8442985117435482 12.862376779317854 26.04868246614933 42.269657537341118 18.631302431225777 77.376271650195122
leaf_count=4635 19 2289 2026 4941 3374 43977 428 2007 21 61 122 182 80 370
internal_value=8.11872e-05 -0.000346563 -0.00208549 -0.0131262 0.0088181 -0.00041447 0.0215011 0.00210078 0.0360607 0.0047315 0.026027 0.0518009 -0.0305659 0.0544026
internal_weight=15878.8 15692.3 13189.6 1733.85 2502.64 11455.8 866.534 1636.11 186.561 62.3867 38.9111 124.174 23.4756 119.646
internal_count=64532 63677 53233 6967 10444 46266 3802 6642 855 284 183 571 101 552
is_linear=0
shrinkage=0.05


Tree=22
num_leaves=16
num_cat=0
split_feature=74 19 13 13 14 19 15 82 101 65 105 14 66 74 115
split_gain=91.0936 109.124 82.0431 75.0609 131.083 68.9596 48.0828 43.8387 28.1207 33.5124 30.6337 28.0259 23.5824 23.2975 12.5549
threshold=3.6093032360076909 -1.0249999761581419 0.44670684137894417 0.39280185775169102 0.5176979003546639 2.3599998950958256 0.16806100893800638 0.2160537807173615 -9.9587221145629865 -0.055547147890197338 71.804061889648452 0.39112455769835469 -0.12227026262138359 8.0995292663574237 0.017039107923633109
decision_type=2 2 2 2 2 2 2 2 2 2 2 2 2 2 2
left_child=1 2 6 5 -5 -3 -1 -4 12 11 -11 -10 14 -14 -2
right_child=8 3 7 4 -6 -7 -8 -9 9 10 -12 -13 13 -15 -16
leaf_value=0.022677558449736072 -0.039525341747431719 -0.0019555304190500031 0.032914832979600288 -0.027899403492405318 -8.4844598307371247e-05 0.036403187297538525 -0.0017496582491864894 0.010069756555561159 0.044837350390427112 0.023399062148324722 0.0049492422565036295 -0.006385964883331559 -0.03698351876060884 0.011064483181483047 0.040450089035285526
leaf_weight=236.13397739827633 5.914103850722312 10072.560186594725 406.42869628965855 782.41173169016838 923.62374347448349 118.54630771279335 1371.8113142997026 434.49564211070538 29.747459217905998 765.17556591331959 318.69166724383831 260.94398184120655 72.860829770565033 38.591793909668922 28.82535745203495
leaf_count=969 24 40543 1801 3163 3699 527 5560 1912 129 3222 1341 1068 297 159 118
internal_value=7.76649e-05 -0.00115582 0.00845596 -0.00313428 -0.012841 -0.00150933 0.00183759 0.0211111 0.0117137 0.0139311 0.0179742 -0.00114411 -0.0091347 -0.0203463 0.0268349
internal_weight=15866.8 14346 2448.87 11897.1 1706.04 10191.1 1607.95 840.924 1520.75 1374.56 1083.87 290.691 146.192 111.453 34.7395
internal_count=64532 58174 10242 47932 6862 41070 6529 3713 6358 5760 4563 1197 598 456 142
is_linear=0
shrinkage=0.05


Tree=23
num_leaves=15
num_cat=0
split_feature=11 19 13 14 83 19 12 13 100 19 53 107 85 85
split_gain=87.5159 82.0991 86.6113 113.369 72.3115 70.9118 46.8419 33.7526 27.909 14.2879 9.81704 10.5463 9.20975 7.6154
threshold=60.187828063964851 -1.0249999761581419 -0.008885218292987716 0.40953052221242509 0.063336705534794771 2.3599998950958256 0.10296932607889177 0.37642874936222498 -0.14228100329637525 0.6850000023841859 0.004687248496338726 -0.41601444270840238 3.4575792551040654 0.48335148394107824
decision_type=2 2 2 2 2 2 2 2 2 2 2 2 2 2
left_child=1 4 3 -3 7 -4 -6 -1 10 13 11 -2 -11 -10
right_child=8 2 5 -5 6 -7 -8 -9 9 12 -12 -13 -14 -15
leaf_value=-0.0077277733484046015 -0.01592926954768507 0.02364800388404581 -0.0032732703748467339 -0.026656665777691647 -0.00096914433905456255 0.035318181819663841 0.014507284698685169 0.035383944974999679 0.051179509564274195 -0.058077633866086179 -0.018379509420487779 0.062343793801693907 0.0085702858689243652 0.015532554076985259
leaf_weight=53.446127578616142 4.5463305860757819 618.51348058879375 12305.303235396743 136.76538194715977 1377.4198524206877 120.1981288343668 757.94755364954472 301.57074758410454 21.078922003507614 9.3076025694608706 4.4061171859502783 80.54321101307869 11.698025807738302 51.804841205477715
leaf_count=219 19 2661 49483 549 5686 540 3183 1356 101 40 21 375 52 247
internal_value=7.42506e-05 -0.000327603 -0.00190068 0.0145389 0.0079982 -0.00289996 0.00452421 0.0288937 0.0344146 0.0153709 0.0543933 0.0581617 -0.0209614 0.0258421
internal_weight=15854.5 15671.2 13180.8 755.279 2490.38 12425.5 2135.37 355.017 183.385 93.8894 89.4957 85.0895 21.0056 72.8838
internal_count=64532 63677 53233 3210 10444 50023 8869 1575 855 440 415 394 92 348
is_linear=0
shrinkage=0.05


Tree=24
num_leaves=16
num_cat=0
split_feature=14 19 19 19 115 14 82 19 14 0 115 14 85 107 107
split_gain=80.4339 132.363 113.544 123.209 80.7006 194.775 76.2135 70.2183 50.0486 43.4259 62.2018 47.9023 34.766 34.3613 2.94925
threshold=0.47946678105490875 1.4750000238418581 0.40500000119209295 -0.61500000953674305 1.0000000180025095e-35 0.46084860438881764 -0.1170076023768518 2.3599998950958256 0.44548383884771431 0.3740099966526032 -0.012878826492810866 0.5176979003546639 -0.92348942160606373 0.14940699693907852 0.26583213654089
decision_type=2 2 2 2 2 2 2 2 2 2 2 2 2 2 2
left_child=1 2 3 -1 8 -6 -4 9 -3 11 -11 -2 14 -14 -9
right_child=7 4 6 -5 5 -7 -8 12 -10 10 -12 -13 13 -15 -16
leaf_value=0.012199127070691039 -0.012203795374800826 -0.069305761852085243 0.028419405209057991 -0.004164576624768419 0.028957784107614966 -0.038764401310330043 0.0085595838550506977 0.067297354641127405 -0.019783105536517433 -0.012832179912822518 0.0066034983443536664 -0.0017579828705198382 -0.094861718620242813 0.0219181355037735 0.029101111971626421
leaf_weight=1613.5440871864557 2490.8593904227018 103.44524881243706 607.17290990054607 4006.8945600390434 201.97173576056957 223.84108260273933 2363.7160038799047 48.854477867484093 100.6650425940752 570.43644513189793 1479.0293080210686 1962.023131981492 7.0784664005041114 57.205167382955551 5.636808216571807
leaf_count=6783 10084 414 2479 16066 810 896 9825 222 403 2298 6010 7924 32 260 26
internal_value=7.12867e-05 0.0030902 0.00471228 0.000533199 -0.0190328 -0.00664238 0.0126184 -0.00413316 -0.0448817 -0.00482907 0.00119388 -0.00760118 0.0339648 0.00905915 0.0633462
internal_weight=15842.4 9221.25 8591.33 5620.44 629.923 425.813 2970.89 6621.12 204.11 6502.35 2049.47 4452.88 118.775 64.2836 54.4913
internal_count=64532 37676 35153 22849 2523 1706 12304 26856 817 26316 8308 18008 540 292 248
is_linear=0
shrinkage=0.05


Tree=25
num_leaves=16
num_cat=0
split_feature=11 14 11 11 17 107 14 13 12 12 14 11 0 115 35
split_gain=90.5793 69.8491 77.1615 115.864 63.2119 50.7173 56.8545 85.8097 49.6867 46.4026 119.133 62.547 44.5609 32.7236 24.6188
threshold=14.845298767089846 0.48021643702205991 -9.8433218002319318 -52.165761947631829 4.5101378823908442 0.11499717969810692 0.51158424307873418 0.22287339683986043 -0.51726791262626637 -1.8167675733566282 0.51574635010192715 -3.8504378795623775 0.062259998172521598 0.0085114573482141295 633.92518559524899
decision_type=2 2 2 2 2 2 2 2 2 2 2 2 2 2 2
left_child=1 2 3 -1 -4 6 12 -8 14 10 -3 -11 -2 -10 -7
right_child=5 9 4 -5 -6 8 7 -9 13 11 -12 -13 -14 -15 -16
leaf_value=0.034633862424438493 0.022054901673744548 -0.041841128164102737 0.0027634535327969861 -0.015923939264263959 0.024420224637185323 0.017245199172678253 0.022349999278462998 -0.034330192989892983 0.01868072743348612 0.0042752949870312265 0.0037204814182846763 -0.0074130659037513194 0.057464078990436464 -0.026705205988667942 -0.060548279887838098
leaf_weight=127.73264335095882 487.31497545540333 281.58418813347816 7182.4543747603893 1004.4368022680283 353.52338790893555 266.74398984014988 180.76670140028 105.89087894558907 50.582944437861443 1687.2180742770433 292.52031044661999 3558.6448605954647 108.66335901618004 184.85380882024765 10.573087006807325
leaf_count=526 2177 1154 29172 4093 1451 1116 739 440 203 6902 1171 14353 461 745 44
internal_value=0.000277976 -0.000893823 0.00195091 -0.01022 0.0037794 0.0124446 0.0197101 0.00141242 -6.19436e-05 -0.00513072 -0.0186264 -0.00365376 0.028511 -0.0169542 0.0142792
internal_weight=15883.5 14488.1 8668.15 1132.17 7535.98 1395.39 882.636 286.658 512.754 5819.97 574.104 5245.86 595.978 235.437 277.317
internal_count=64747 58822 35242 4619 30623 5925 3817 1179 2108 23580 2325 21255 2638 948 1160
is_linear=0
shrinkage=0.05


Tree=26
num_leaves=16
num_cat=0
split_feature=11 19 14 11 19 13 13 83 107 14 19 12 100 115 60
split_gain=82.1008 71.969 76.5046 106.182 91.9746 54.4892 122.302 54.0548 46.3491 53.4275 113.143 50.1596 38.3812 30.8707 25.4833
threshold=14.845298767089846 -1.0049999952316282 0.46197950522028824 -9.5515828132629377 2.3599998950958256 0.37400087627737671 0.3189154459291475 0.082390997461967111 0.1083221235002438 0.51158424307873418 1.485000014305115 -0.51726791262626637 -6.6939551830291739 0.0085114573482141295 -0.0026166480969398447
decision_type=2 2 2 2 2 2 2 2 2 2 2 2 2 2 2
left_child=1 5 3 -3 -4 6 -1 -7 9 12 -11 14 -2 -13 -10
right_child=8 2 4 -5 -6 7 -8 -9 11 10 -12 13 -14 -15 -16
leaf_value=0.025319551598372233 0.054164319345966029 -0.014502781940894618 -0.0075823845366958511 0.0040551171187782368 0.036251281356168334 0.014618964104126381 -0.051834599494305515 -0.0012867313109771906 -0.0024383811431209278 -0.049138710953014281 0.02092605380578794 0.018111522232655306 0.021468177292346052 -0.025733470459058112 0.02768841363842044
leaf_weight=92.083378583192825 111.19644045829773 901.48114991188049 5602.4027056246996 5316.3904716819525 122.28397330641747 1505.8584620952606 116.1535812318325 827.79033051431179 125.47479934990406 79.96769018471241 206.17539747059345 50.801610141992569 465.51152643561363 191.40842185914516 159.31647054851055
leaf_count=379 500 3637 22480 21477 564 6420 469 3396 525 333 846 204 2075 771 671
internal_value=0.00026451 -0.000849348 -0.00247535 0.00136455 -0.00664606 0.00679011 -0.0177167 0.00897691 0.0118727 0.0190085 0.00134523 0.000189291 0.0277724 -0.0165373 0.014415
internal_weight=15874.3 14484.4 11942.6 6217.87 5724.69 2541.89 208.237 2333.65 1389.85 862.851 286.143 527.001 576.708 242.21 284.791
internal_count=64747 58822 48158 25114 23044 10664 848 9816 5925 3754 1179 2171 2575 975 1196
is_linear=0
shrinkage=0.05


Tree=27
num_leaves=16
num_cat=0
split_feature=11 11 11 14 14 107 13 13 12 115 12 115 16 83 104
split_gain=74.4562 61.3206 120.165 79.308 74.8182 42.2435 49.1524 126.079 45.3356 28.8134 31.8576 27.855 23.5477 14.3177 12.9251
threshold=14.845298767089846 -52.165761947631829 -16.517037391662594 0.51930120813358294 0.48021643702205991 0.1083221235002438 0.22809064139877469 0.22287339683986043 -0.51726791262626637 0.23793804048287578 6.593067169189454 0.0085114573482141295 0.015944637171717596 0.05705510025757627 44.530714035034187
decision_type=2 2 2 2 2 2 2 2 2 2 2 2 2 2 2
left_child=1 9 3 -3 -4 6 7 -2 12 10 -1 -10 -7 -8 -11
right_child=5 2 4 -5 -6 8 13 -9 11 14 -12 -13 -14 -15 -16
leaf_value=0.069541767507587768 0.020012814086344324 -0.036066728229265488 0.0027636429016648038 0.018232824029289045 -0.0047022113179009213 -0.0036618446425671701 0.02389773373797249 -0.046859167028694859 0.017218654276309923 0.061108310940199473 -0.049711364821386862 -0.024440500638635457 0.02565172682343202 0.054081971776071193 0.024887523254206484
leaf_weight=8.0983564257621783 611.19931277632713 375.2461975812912 8221.8856912255287 81.927464842796326 5669.8944373726845 115.43157936632633 63.525720551609993 79.672334849834442 50.765037804841995 58.528070360422134 18.155683130025864 191.45620080828667 168.53826187551022 102.96773232519627 42.524746730923653
leaf_count=33 2703 1517 33458 345 22976 477 276 333 204 244 73 771 719 442 176
internal_value=0.000252045 -0.000807066 -0.00111359 -0.026336 -0.000283526 0.0113336 0.0181781 0.012301 0.000181351 0.0337414 -0.0129264 -0.0157095 0.013736 0.0425651 0.045866
internal_weight=15859.8 14476.3 14349 457.174 13891.8 1383.56 857.365 690.872 526.191 127.307 26.254 242.221 283.97 166.493 101.053
internal_count=64747 58822 58296 1862 56434 5925 3754 3036 2171 526 106 975 1196 718 420
is_linear=0
shrinkage=0.05


Tree=28
num_leaves=16
num_cat=0
split_feature=74 19 19 11 17 83 5 67 11 12 19 4 83 82 96
split_gain=74.5926 74.6958 74.1285 205.033 78.9333 59.9279 48.9189 44.4561 46.0018 94.264 46.3144 42.5279 28.2104 29.8452 11.4786
threshold=3.6093032360076909 -1.0049999952316282 0.23499999940395358 -8.661956310272215 0.095662116188948168 0.082558972447396087 18.447000503540043 175.74583571331303 -10.314804553985594 4.1737890243530282 1.2849999666213991 59.986000061035163 1.0000000180025095e-35 -0.94524929317562123 0.20742222111994485
decision_type=2 2 2 2 2 2 2 2 2 2 2 2 2 2 2
left_child=1 5 3 -3 -4 6 -1 8 9 -2 -10 -7 14 -14 -9
right_child=7 2 4 -5 -6 11 -8 12 10 -11 -12 -13 13 -15 -16
leaf_value=0.018271690872139149 -0.022238120005455983 -0.029217294823977141 0.0082275306333370792 -0.00253641194084524 -0.0030958213067897424 -0.0093669615472567469 -0.00024968776776216776 0.055706210192668942 0.024686493377255935 0.029190433278625989 0.00059220887931422505 0.018125986960529281 0.0040239668733759726 -0.061871719440484564 -0.01765731092695319
leaf_weight=1142.2794027924538 226.49912418425083 868.94056752324104 2376.0636554509401 4202.2661164849997 4368.8959586769342 687.59741944074631 518.2589390873909 13.613100945949556 770.86049190163612 146.87903846800327 269.06228795647621 176.83518478274345 27.490527629852295 45.828208222985268 8.7643685787916166
leaf_count=4891 915 3529 9624 16832 17753 2819 2191 56 3376 608 1093 724 113 186 37
internal_value=0.000239878 -0.00087276 -0.00254084 -0.00710812 0.000893084 0.00693338 0.0124911 0.0108141 0.0130473 -0.00200722 0.0184525 -0.00374279 -0.0221667 -0.0371644 0.0269726
internal_weight=15850.1 14341.1 11816.2 5071.21 6744.96 2524.97 1660.54 1509 1413.3 373.378 1039.92 864.433 95.6962 73.3187 22.3775
internal_count=64747 58363 47738 20361 27377 10625 7082 6384 5992 1523 4469 3543 392 299 93
is_linear=0
shrinkage=0.05


Tree=29
num_leaves=16
num_cat=0
split_feature=74 13 15 12 115 107 11 13 67 102 13 76 76 86 49
split_gain=67.8616 64.6945 205.876 142.644 186.684 74.5952 71.9281 62.1484 36.3081 39.3906 35.6473 23.5936 21.4266 19.8844 11.6236
threshold=3.7072548866271977 0.0054211778423598764 0.16512860342390193 0.67320075631141674 1.0000000180025095e-35 0.1524704827890688 -2.2821702957153316 0.14997646567285064 175.74583571331303 29.222680091857914 0.14997646567285064 0.10714263468980791 0.54353374242782604 15.682511813310983 0.18432807120140152
decision_type=2 2 2 2 2 2 2 2 2 2 2 2 2 2 2
left_child=1 3 5 4 -1 -3 -5 -4 9 11 13 -2 -11 -10 -12
right_child=8 2 7 6 -6 -7 -8 -9 10 12 14 -13 -14 -15 -16
leaf_value=-0.039526410173857954 -0.025397929962779616 0.02898477384430255 0.012168818438440523 -0.03341404390727485 0.0035722842285714988 0.0044867488377205505 -0.0069997308483630205 -0.0025987343016356974 0.019414306117473697 0.02324183885906296 -0.08081253915952942 0.023026155925040141 0.009330902712137509 -0.064626887001786038 -0.0012720800189288939
leaf_weight=277.59942215681076 96.596483156085014 823.52933144569397 778.08369962871075 596.37182573974133 2647.8166291117668 499.02623422443867 453.87088619172573 8445.640775591135 39.504297167062759 550.35485143959522 23.743041560053829 34.010878428816795 556.92218685150146 8.5641658008098585 5.6947331875562659
leaf_count=1115 397 3364 3209 2400 10828 2038 1818 34372 163 2348 96 142 2399 35 23
internal_value=0.000228347 -0.000756698 0.00129232 -0.00619216 -0.000517449 0.0197412 -0.0219989 -0.00135299 0.0111033 0.0131819 -0.0220951 -0.012788 0.0162451 0.00444102 -0.0654254
internal_weight=15837.3 14521.9 10546.3 3975.66 2925.42 1322.56 1050.24 9223.72 1315.39 1237.88 77.5062 130.607 1107.28 48.0685 29.4378
internal_count=64747 59144 42983 16161 11943 5402 4218 37581 5603 5286 317 539 4747 198 119
is_linear=0
shrinkage=0.05


Tree=30
num_leaves=16
num_cat=0
split_feature=15 115 12 45 92 14 0 19 11 14 39 11 47 82 71
split_gain=70.3792 129.23 154.895 117.253 81.808 67.488 61.4817 68.3965 56.3879 40.9496 36.996 38.1995 32.5442 23.8741 21.0088
threshold=0.16512860342390193 1.0000000180025095e-35 0.67320075631141674 -0.0030147417370224587 -0.39234634948575881 0.44548383884771431 0.3740099966526032 2.304999947547913 -1.6070616245269773 0.66492046753615874 13.399533246799963 53.835346221923835 -0.00070414498941598022 0.67905333648353117 43.705389022827156
decision_type=2 2 2 2 2 2 2 2 2 2 2 2 2 2 2
left_child=1 5 4 -4 -3 14 7 9 -7 -2 13 -12 -9 -8 -1
right_child=6 2 3 -5 -6 8 10 12 -10 -11 11 -13 -14 -15 -16
leaf_value=-0.05472313094522311 -0.0067520090284490355 0.02722230441124375 0.013152875636141249 -0.016324537601088884 0.008144443499120654 -0.040963014553834227 0.023826215905775133 0.015715577558428038 0.013308156650831116 0.027599794000415703 0.00043027347699595598 0.057668529290828843 0.07297669025394421 -0.018522353636591139 0.0063902831331243554
leaf_weight=145.09401360154152 6539.044689565897 689.30118161439896 491.79694101214409 1074.2289923876524 3040.7968837320805 73.764877751469612 282.28417564928532 100.30624064803123 136.29594494402409 87.920645251870155 3063.2249736338854 29.429091587662697 32.970031097531319 37.728544011712074 15.571892127394674
leaf_count=584 26560 2868 1991 4366 12639 296 1155 460 548 352 12455 132 152 153 63
internal_value=-0.000333758 0.00413174 0.00612943 -0.00706741 0.0116699 -0.0244069 -0.00282128 -0.00558304 -0.00574969 -0.00629626 0.00264957 0.000974942 0.0298809 0.0188334 -0.0488
internal_weight=15839.8 5666.85 5296.12 1566.03 3730.1 370.727 10172.9 6760.24 210.061 6626.97 3412.67 3092.65 133.276 320.013 160.666
internal_count=64774 23355 21864 6357 15507 1491 41419 27524 844 26912 13895 12587 612 1308 647
is_linear=0
shrinkage=0.05


Tree=31
num_leaves=16
num_cat=0
split_feature=15 12 115 92 45 12 0 115 11 115 98 11 39 47 2
split_gain=64.1252 113.428 116.319 102.868 90.9458 140.377 57.2853 36.9643 49.678 36.9365 31.2285 31.1591 26.2125 25.518 15.8567
threshold=0.14236274991522405 0.67320075631141674 1.0000000180025095e-35 -0.18127981412414326 -0.0025204137765952538 1.7833922505378725 0.3740099966526032 -0.15619368077141349 4.2406687736511239 -0.33525147316999171 1.9041113547776052 53.835346221923835 7.6559546988563492 -0.0019637481332251106 14.715499877929689
decision_type=2 2 2 2 2 2 2 2 2 2 2 2 2 2 2
left_child=1 2 10 -4 13 -6 9 8 -8 14 -1 -9 -11 -3 -2
right_child=6 4 3 -5 5 -7 7 11 -10 12 -12 -13 -14 -15 -16
leaf_value=-0.033290211050157732 0.059696575391564671 -0.0018044860219779803 0.031063623535907994 0.0076335768245364257 -0.029703033381600037 0.0092078324350180259 -0.038379681204921023 0.003651489314752072 0.0080865000555118676 0.046150454085512771 0.0044108303301371218 0.055790820205260674 -0.0055400809119478074 0.021391856741245954 -0.001349676078473155
leaf_weight=193.38074205815792 31.265155106782913 221.17927151918411 561.38649207353592 2830.0714995115995 651.55875365436077 359.78128108382225 122.63936021924019 3220.1600355356932 108.33257754147053 24.610615640878677 76.717202574014664 28.911813825368881 7131.2908602058887 255.54790964722633 16.122822165489197
leaf_count=779 139 899 2351 11782 2638 1474 500 13114 436 104 308 132 29018 1035 65
internal_value=-0.000316863 0.00426634 0.00899699 0.0115119 -0.00737395 -0.0158606 -0.00252608 0.00274151 -0.0165857 -0.00507094 -0.0225818 0.00411545 -0.00536231 0.0106298 0.0389268
internal_weight=15833 5149.62 3661.56 3391.46 1488.07 1011.34 10683.3 3480.04 230.972 7203.29 270.098 3249.07 7155.9 476.727 47.388
internal_count=64774 21266 15220 14133 6046 4112 43508 14182 936 29326 1087 13246 29122 1934 204
is_linear=0
shrinkage=0.05


Tree=32
num_leaves=16
num_cat=0
split_feature=15 115 12 11 11 14 11 0 15 10 39 11 83 115 12
split_gain=58.0326 107.759 126.791 82.4121 72.1074 59.3055 55.0213 50.0689 42.3729 33.6649 33.4269 32.4627 26.5014 24.2359 18.5348
threshold=0.16512860342390193 1.0000000180025095e-35 0.67320075631141674 -52.165761947631829 -16.517037391662594 0.44628077906673053 -8.8036642074584943 0.3740099966526032 0.17727935332796244 21.553000450134281 13.399533246799963 53.835346221923835 0.089212695403199829 -0.0064475497224286615 -0.79615867137908924
decision_type=2 2 2 2 2 2 2 2 2 2 2 2 2 2 2
left_child=1 5 4 -4 -3 14 -7 8 13 -10 12 -12 -9 -2 -1
right_child=7 2 3 -5 -6 6 -8 10 9 -11 11 -13 -14 -15 -16
leaf_value=-0.052449826471008626 -0.064010052473579812 -0.027858112032434809 0.033322458962553758 -0.009672691480153579 0.011871585183815193 -0.071870028403679453 0.0058409161619087345 0.021298883312268455 -0.0019445038870623725 -0.010037147965642798 0.0002956751206709883 0.054016809719988901 -0.041043467314369447 -0.018241863808446286 -0.010229606001650134
leaf_weight=135.24717882275581 32.18793873488903 117.94644226133823 120.77636636793613 1443.7853195220232 3601.3251805305481 26.137998774647713 177.16411779820919 301.53797990083694 4670.1393534094095 1772.9719114154577 3062.3442894071341 28.381828933954239 18.068218901753426 285.32436981797218 32.179940834641457
leaf_count=545 129 476 508 5849 15031 105 712 1235 19027 7209 12455 132 73 1159 129
internal_value=-0.000300916 0.00375985 0.00558817 -0.00635368 0.0106117 -0.0222983 -0.00415017 -0.00255851 -0.00505011 -0.00417138 0.00238082 0.000788991 0.0177745 -0.0228816 -0.044335
internal_weight=15825.5 5654.56 5283.83 1564.56 3719.27 370.729 203.302 10171 6760.62 6443.11 3410.33 3090.73 319.606 317.512 167.427
internal_count=64774 23355 21864 6357 15507 1491 817 41419 27524 26236 13895 12587 1308 1288 674
is_linear=0
shrinkage=0.05


Tree=33
num_leaves=15
num_cat=0
split_feature=14 19 19 11 11 115 14 19 12 11 14 100 115 85
split_gain=53.7376 112.434 106.971 143.194 102.734 75.8481 150.249 57.4539 41.3006 41.2914 35.8511 35.8036 29.7037 25.5209
threshold=0.48157202625955359 1.435000002384186 0.62500000000000011 2.6416008472442631 4.4789931774139413 1.0000000180025095e-35 0.46084860438881764 2.304999947547913 -0.54057449102401722 53.835346221923835 0.66492046753615874 -1.8283213973045347 -0.0022078610950321074 5.6154565811157235
decision_type=2 2 2 2 2 2 2 2 2 2 2 2 2 2
left_child=1 2 4 -4 -1 8 -7 9 -3 10 -2 -11 13 -9
right_child=7 5 3 -5 -6 6 -8 12 -10 11 -12 -13 -14 -15
leaf_value=-0.0027866497907310691 -0.0055395428805041086 -0.049817739218770904 0.030674042062265972 0.0028636140346662438 0.011338706431740569 0.020581561643836011 -0.031517716418331884 0.046635225525321643 0.012513202888637658 0.048886854518984731 0.024055846207454663 -0.038190539809869556 -0.068468712407316723 -0.0079000941690792383
leaf_weight=5118.5163899958134 5973.0606655478477 188.8193332105875 777.53520245850086 1143.6955157965422 1719.7016270756721 267.90064249932766 286.24678678810596 96.936435386538506 30.929199308156967 61.206471234560013 104.11166830360889 14.625499457120894 7.411339357495307 27.54945769906044
leaf_count=20874 24218 759 3244 4861 7098 1077 1148 452 124 281 417 61 33 127
internal_value=-0.000285807 0.00208042 0.0036944 0.0141187 0.00076565 -0.0161877 -0.0063305 -0.00387505 -0.0410448 -0.00457498 -0.00503253 0.0320925 0.0287767 0.0345662
internal_weight=15818.2 9533.34 8759.45 1921.23 6838.22 773.896 554.147 6284.9 219.749 6153 6077.17 75.832 131.897 124.486
internal_count=64774 39185 36077 8105 27972 3108 2225 25589 883 24977 24635 342 612 579
is_linear=0
shrinkage=0.05


Tree=34
num_leaves=16
num_cat=0
split_feature=74 11 19 19 13 13 83 19 104 115 39 83 102 51 1
split_gain=50.9968 66.0164 77.1536 56.5258 73.3672 66.1649 36.3722 38.7721 33.4529 29.4716 26.785 26.5311 19.3667 17.277 16.3508
threshold=3.8830808401107793 -16.517037391662594 0.55500000715255748 -1.0049999952316282 0.37400087627737671 0.39280185775169102 0.065696627980831049 0.62500000000000011 24.554983139038089 -0.025517273202720545 177.23530226502137 0.077615806664262779 54.371883392333991 -0.038651970272879234 104.50000000000001
decision_type=2 2 2 2 2 2 2 2 2 2 2 2 2 2 2
left_child=1 2 12 4 -3 -5 7 8 -2 -9 11 -8 -1 -12 -4
right_child=6 3 14 5 -6 -7 10 9 -10 -11 13 -13 -14 -15 -16
leaf_value=-0.06140838411480995 -0.023368893116061943 -0.022365115400154525 0.018462382172965194 -0.00054592012931735867 0.0086736090847886506 -0.011360059141383825 -0.044245583801495875 -0.053004732872274855 0.010220912585905937 0.028682249346087704 -0.081941048444548401 0.01994911669863959 -0.026484842380257813 0.012298933561567875 -0.033979287541415971
leaf_weight=95.976134702563286 86.242445841431618 207.1722162514925 81.278028190135956 10274.283008620143 2349.6496350765228 1640.2464510947466 24.711366683244705 11.399806141853331 527.51064063608646 351.54093278944492 21.340469464659694 46.161780342459679 67.698184788227081 6.2988378554582587 18.190225750207901
leaf_count=397 358 847 347 41646 9930 6625 102 46 2252 1570 86 189 280 26 73
internal_value=-0.000271265 -0.00103838 -0.0258575 -0.000587072 0.00615863 -0.00203468 0.0102411 0.0131617 0.00550099 0.0261165 -0.0187151 -0.00243367 -0.0469635 -0.0604643 0.00887213
internal_weight=15809.7 14734.5 263.143 14471.4 2556.82 11914.5 1075.21 976.694 613.753 362.941 98.5125 70.8731 163.674 27.6393 99.4683
internal_count=64774 60145 1097 59048 10777 48271 4629 4226 2610 1616 403 291 677 112 420
is_linear=0
shrinkage=0.05


Tree=35
num_leaves=16
num_cat=0
split_feature=11 11 11 100 74 12 55 74 18 104 82 11 103 101 11
split_gain=51.7343 44.7971 80.9053 48.2921 41.2179 38.8253 57.2666 41.8593 31.6367 28.0698 25.9428 15.4416 12.6821 17.2941 6.18504
threshold=14.410498142242433 -52.165761947631829 -16.517037391662594 5.4135951995849618 3.6725590229034428 -0.32489828765392298 -0.016317487566982973 2.8743530511856084 -1.1624898359583551 65.203487396240249 -0.81645272165424698 28.235412597656254 34.960502624511726 -8.3954730033874494 -57.70179367065429
decision_type=2 2 2 2 2 2 2 2 2 2 2 2 2 2 2
left_child=1 12 3 -3 -4 8 10 -8 11 -10 -7 -2 14 -14 -1
right_child=5 2 4 -5 -6 6 7 -9 9 -11 -12 -13 13 -15 -16
leaf_value=0.035866524357267442 0.051767069475515952 -0.033769099225492705 -0.0011772925413699132 0.00065848492220955176 0.010952648773452062 0.019072477514268868 -0.0050286055894188846 0.026131004363343809 0.021162425801144344 -0.0015793796060745297 -0.022504496847962668 -0.016803869493672012 -0.043054394840969151 0.025706747410996569 0.073933546475374742
leaf_weight=29.817344889044762 82.299841746687889 298.09138396382332 13044.505111515522 154.73334255814552 740.07299719750881 44.239966571331024 192.38751435279846 245.0918066650629 395.40466247498989 206.5691525042057 246.96449542045593 9.1200015395879728 10.537026092410086 69.185770854353905 16.617150098085403
leaf_count=124 361 1236 53101 634 3067 186 798 1095 1765 915 1000 38 44 295 71
internal_value=-4.5693e-05 -0.000946349 -0.0012092 -0.022005 -0.000526054 0.0090513 0.000992211 0.0124281 0.0175206 0.0133585 -0.0161881 0.0449265 0.0287172 0.0166185 0.0494893
internal_weight=15785.6 14363.6 14237.4 452.825 13784.6 1422.08 728.684 437.479 693.394 601.974 291.204 91.4198 126.157 79.7228 46.4345
internal_count=64730 58572 58038 1870 56168 6158 3079 1893 3079 2680 1186 399 534 339 195
is_linear=0
shrinkage=0.05


Tree=36
num_leaves=16
num_cat=0
split_feature=19 11 115 13 19 98 3 56 13 74 19 19 93 14 110
split_gain=51.5839 53.3397 43.6676 92.4002 45.3709 42.0427 52.2339 50.8912 42.1971 34.1 39.6678 13.0425 12.9197 19.0987 12.1742
threshold=-1.3949999809265134 14.410498142242433 -0.10188879925094642 0.14997646567285064 1.435000002384186 4.3916137992262536 3.4385000467300419 -0.0081968239743544207 0.37400087627737671 4.553783893585206 1.8949999809265139 0.72500002384185802 -2.8762570840440551 0.45819550303960904 0.084796083092938637
decision_type=2 2 2 2 2 2 2 2 2 2 2 2 2 2 2
left_child=5 2 3 -2 -4 12 7 -7 -8 10 -3 -11 13 -1 -14
right_child=1 9 4 -5 -6 6 8 -9 -10 11 -12 -13 14 -15 -16
leaf_value=0.034173292551281195 0.021874965038918476 0.0038093029766408369 0.00035246133647042741 -0.016729448167249875 -0.009307682446477861 0.018163646049137692 -0.018467854621511598 -0.037311384060681595 0.031601475568685207 0.042985373511901785 0.035062889202872587 -0.0099868526980023166 0.060126702977741642 -0.027131907439752429 0.024578663694093172
leaf_weight=49.291096717119217 183.45767901837826 1202.4393080770969 11226.513835921884 999.34402492642403 1363.0652745217085 68.877746388316154 53.760833039879799 103.41031740605831 193.67983824014664 90.642584711313248 110.88892491161823 13.328633472323416 63.705186724662781 17.115655928850174 38.726801991462708
leaf_count=223 814 5150 45697 4048 5488 302 219 435 827 496 451 61 277 73 169
internal_value=-4.31588e-05 -0.000605916 -0.00155641 -0.0107417 -0.000693436 0.0144804 0.00600486 -0.0151334 0.020723 0.00863031 0.00644815 0.0361946 0.0355505 0.0183725 0.0466869
internal_weight=15778.2 15189.7 13772.4 1182.8 12589.6 588.567 419.729 172.288 247.441 1417.3 1313.33 103.971 168.839 66.4068 102.432
internal_count=64730 62205 56047 4862 51185 2525 1783 737 1046 6158 5601 557 742 296 446
is_linear=0
shrinkage=0.05


Tree=37
num_leaves=16
num_cat=0
split_feature=19 11 12 11 98 3 56 13 12 82 12 19 12 40 11
split_gain=46.794 48.2432 43.2089 81.1089 38.5432 47.297 45.8209 38.3719 35.6835 52.9345 30.8952 22.7235 19.0269 26.3082 7.87545
threshold=-1.3949999809265134 14.410498142242433 4.1737890243530282 -16.517037391662594 4.3916137992262536 3.4385000467300419 -0.0089358196034764314 0.37400087627737671 -0.32489828765392298 -0.90663042790480042 -3.3523532152175899 0.35500000417232519 -0.26244197785854334 -0.00018564970159965288 -1.2989928126335142
decision_type=2 2 2 2 2 2 2 2 2 2 2 2 2 2 2
left_child=4 2 3 -2 12 6 -6 -7 10 -10 -3 -4 13 -1 -14
right_child=1 8 11 -5 5 7 -8 -9 9 -11 -12 -13 14 -15 -16
leaf_value=0.0024043116901344827 -0.023339902384562843 -0.025495834800564124 0.045186919254303633 -0.0010862820129776375 0.020615581928631162 -0.017512140649536583 -0.033328130136433862 0.030236573911268827 0.025256496570196199 -0.0068744041547825806 0.019055874523174414 0.0067378040342275297 0.058701753986615382 0.059167272876681123 -0.0031123807806904633
leaf_weight=67.100858256220818 422.5702940672636 41.404603853821754 72.604228094220161 13193.350387051702 60.740163668990135 53.857469886541367 111.86893820762634 192.3363224118948 166.26678158342838 559.63679750263691 646.84665885567665 81.634778201580048 65.152131482958794 29.33751817047596 5.5952812582254401
leaf_count=287 1754 193 315 53643 268 219 469 827 723 2356 2886 335 288 142 25
internal_value=-4.06075e-05 -0.000575654 -0.00147882 -0.00177692 0.0138237 0.00572165 -0.0143456 0.019791 0.00821885 0.000485115 0.0163757 0.0248368 0.0341194 0.0196722 0.053813
internal_weight=15770.3 15184.3 13770.2 13615.9 585.989 418.803 172.609 246.194 1414.15 725.904 688.251 154.239 167.186 96.4384 70.7474
internal_count=64730 62205 56047 55397 2525 1783 737 1046 6158 3079 3079 650 742 429 313
is_linear=0
shrinkage=0.05


Tree=38
num_leaves=16
num_cat=0
split_feature=74 13 15 13 115 107 17 86 71 107 45 104 107 14 12
split_gain=43.5352 70.5863 156.908 100.014 127.372 58.774 47.6453 35.1513 30.4217 31.7356 27.7624 18.721 19.7537 17.2461 15.4548
threshold=3.8830808401107793 0.0054211778423598764 0.16512860342390193 0.0049774389251555926 1.0000000180025095e-35 0.18879942875764663 16.378220899094988 -48.19135908382966 29.023006439208988 0.15875530706823324 -0.010291598541912248 68.634288787841811 -0.20880024660206656 0.40953052221242509 -3.3523532152175899
decision_type=2 2 2 2 2 2 2 2 2 2 2 2 2 2 2
left_child=1 3 5 4 -1 -3 -4 -5 11 10 -10 12 -2 -11 -13
right_child=8 2 6 7 -6 -7 -8 -9 9 13 -12 14 -14 -15 -16
leaf_value=-0.037396619456411262 0.0022980840426595314 0.02432651296882557 -0.00070617977392606866 0.048282901522499214 -0.0012325676658691805 0.0011416709049044992 -0.077603571593331311 -0.033183855463900631 0.037950360672310578 0.045878344444633033 0.00037288103819261577 -0.084811577537600685 0.027519604786768584 -0.057501475636131651 0.0010338993321938274
leaf_weight=261.80734281241894 99.348360985517502 934.66453912854195 9245.5068763643503 13.722037732601164 3477.6520747542381 386.33446407318115 20.18755479156971 377.71891710162163 55.4573814868927 4.6338978707790366 432.3113804012537 5.7345932871103278 355.16755989193916 31.173852398991585 61.14082045853138
leaf_count=1056 411 3849 37759 55 14276 1588 81 1514 235 21 1828 27 1625 127 278
internal_value=-3.81337e-05 -0.000738314 0.00142467 -0.00628163 -0.00376449 0.017546 -0.000873719 -0.030328 0.00982338 0.00130999 0.00464529 0.0183724 0.0220067 -0.044123 -0.00632738
internal_weight=15762.6 14717.6 10586.7 4130.9 3739.46 1321 9265.69 391.441 1044.97 523.577 487.769 521.391 454.516 35.8078 66.8754
internal_count=64730 60178 43277 16901 15332 5437 37840 1569 4552 2211 2063 2341 2036 148 305
is_linear=0
shrinkage=0.05


Tree=39
num_leaves=16
num_cat=0
split_feature=115 115 13 15 13 13 15 13 14 2 73 101 18 40 19
split_gain=41.0726 47.612 76.2931 72.0353 63.0042 40.9387 137.739 129.935 19.5057 13.6692 10.6351 6.29942 4.39523 4.99694 0.492144
threshold=-0.33525147316999171 -0.10188879925094642 0.14997646567285064 0.3218520160704475 0.0054700496741453145 0.0054211778423598764 0.16512860342390193 0.0049774389251555926 0.60738603091972332 14.715499877929689 4.3547724650228874 2.2136764526367192 0.067813527397523901 1.0000000180025095e-35 2.3599998950958256
decision_type=2 2 2 2 2 2 2 2 2 2 2 2 2 2 2
left_child=8 2 4 -4 -2 7 -7 -3 12 11 -11 -10 14 -14 -1
right_child=1 5 3 -5 -6 6 -8 -9 9 10 -12 -13 13 -15 -16
leaf_value=0.0860863542227846 -0.047428985140352403 -0.00067223738579756599 -0.034871578022921602 -0.0060798551385069467 0.034635479654916444 0.017417158474672564 8.5758465775827387e-05 -0.030112020800195677 0.070252900664891732 -0.060670875789902712 0.028066923629524582 0.010640474658976259 0.070117903476190527 -0.0011183969053281723 0.067168441647303775
leaf_weight=16.177946075797088 27.992824047803879 4532.9995150566101 315.45086014270782 697.82216462492943 142.18816788494587 1331.7198061645031 8237.0455687046051 408.58074641227722 9.3299006521701866 8.2137062847614271 5.7333574891090384 8.4412117749452573 6.2501741349697095 4.0613730847835541 4.3655169904232016
leaf_count=67 113 18848 1293 2819 636 5501 33610 1640 38 33 23 34 32 20 23
internal_value=-3.60252e-05 -0.000197219 -0.00984055 -0.0150433 0.0211368 0.000589285 0.00249783 -0.00310638 0.0403925 0.0128587 -0.0241926 0.0419372 0.0686965 0.0420603 0.0820663
internal_weight=15756.4 15693.8 1183.45 1013.27 170.181 14510.3 9568.77 4941.58 62.5732 31.7182 13.9471 17.7711 30.855 10.3115 20.5435
internal_count=64730 64460 4861 4112 749 59599 39111 20488 270 128 56 72 142 52 90
is_linear=0
shrinkage=0.05


Tree=40
num_leaves=16
num_cat=0
split_feature=19 74 13 13 83 13 13 13 37 12 15 13 83 54 39
split_gain=58.1881 62.524 60.8693 46.7098 47.9527 43.6556 101.862 54.3176 43.1278 38.7702 40.9571 34.1194 33.895 32.7113 21.5292
threshold=-1.0049999952316282 3.3953030109405522 0.44435349241984584 0.52043998363459842 0.057347898466867005 -0.014643154942645861 -0.025697412457519376 0.0054211778423598764 0.033162389678919102 0.12578144669532779 0.29235480008906639 -0.038174947090943288 0.069690951665890247 -0.0081241268752897215 30.025615075891327
decision_type=2 2 2 2 2 2 2 2 2 2 2 2 2 2 2
left_child=2 5 9 8 -5 6 -2 -7 -4 13 -11 14 -13 -1 -3
right_child=1 11 3 4 -6 7 -8 -9 -10 10 -12 12 -14 -15 -16
leaf_value=0.012182998989473439 -0.012740449365738439 -0.11005229428700397 0.025640567285248494 0.056354583042152351 -0.022409915359716728 -0.0089466643857034883 0.038969141145835134 -0.0011533263364953508 -0.019311474709009797 0.028169460248661918 -9.6043348774373886e-05 0.0099184420582133226 -0.012396935011477388 -0.0083496953123631621 0.0071233190445410439
leaf_weight=246.99136580526829 185.50323002040386 10.095781922340395 699.96842402219772 23.184218153357506 116.05095531046391 3145.1342309862375 195.72122307121754 7733.0668314993382 57.760888397693634 231.53612266480923 287.0503573268652 1676.6941821277142 189.38416889309883 903.69409421086311 6.4083572179079047
leaf_count=1009 764 41 3183 118 508 12716 904 31261 242 965 1163 7182 777 3680 26
internal_value=-6.87749e-05 -0.00141352 0.00681784 0.0173229 -0.00929474 -0.00282372 0.0138073 -0.00340656 0.0222139 0.00117309 0.0125238 0.00702067 0.0076537 -0.00394241 -0.0645544
internal_weight=15708.2 13142 2566.24 896.964 139.235 11259.4 381.224 10878.2 757.729 1669.27 518.586 1882.58 1866.08 1150.69 16.5041
internal_count=64539 53671 10868 4051 626 45645 1668 43977 3425 6817 2128 8026 7959 4689 67
is_linear=0
shrinkage=0.05


Tree=41
num_leaves=16
num_cat=0
split_feature=17 115 14 74 13 15 12 17 104 83 113 8 12 70 115
split_gain=43.404 73.4905 46.6012 39.0255 43.7959 98.798 76.2915 34.2091 31.6417 36.9978 25.0037 24.2009 19.3858 14.6695 8.4508
threshold=4.7793800124005577 0.17416274659721523 0.5160019006617077 3.6429167985916142 0.0054211778423598764 0.15450434970093199 0.67320075631141674 16.378220899094988 27.831015586853031 0.069532094490005872 0.093505611400442126 28.543073654174808 -0.83275887370109547 1.0000000180025095e-35 -0.025517273202720545
decision_type=2 2 2 2 2 2 2 2 2 2 2 2 2 2 2
left_child=3 7 13 4 6 -6 -1 12 11 -10 -4 -5 -2 -3 -9
right_child=1 2 10 8 5 -7 -8 14 9 -11 -12 -13 -14 -15 -16
leaf_value=-0.001839484547536335 0.025341214509149793 -0.03136179564414409 0.014599491520553188 -0.018589996694900923 0.014753775241327411 -0.001462882078917334 -0.018138844536619229 -0.085311213173406647 0.013530883903475795 -0.0164672790659291 -0.060194220823603033 0.042705987694085214 -0.00053529198870194087 0.050831688328810076 -0.014846621011219724
leaf_weight=2746.3391981869936 86.019986853003502 5.610589087009429 61.126189932227135 156.8030364215374 1051.4961382448673 8795.7100993990898 972.01126720011234 13.630711257457735 1032.5362725108862 114.14721901714802 13.673754513263701 17.946036115288734 456.42301516234875 167.27993784844875 6.1859802901744834
leaf_count=11245 347 23 255 660 4339 35924 3926 55 4524 468 56 74 1876 742 25
internal_value=-6.47488e-05 0.0112073 0.0338991 -0.000678021 -0.00147702 0.000268751 -0.00610029 0.0012109 0.00752431 0.0105447 0.000926876 -0.0122951 0.00356817 0.0481644 -0.063315
internal_weight=15696.9 809.95 247.69 14887 13565.6 9847.21 3718.35 562.26 1321.43 1146.68 74.7999 174.749 542.443 172.891 19.8167
internal_count=64539 3379 1076 61160 55434 40263 15171 2303 5726 4992 311 734 2223 765 80
is_linear=0
shrinkage=0.05


Tree=42
num_leaves=16
num_cat=0
split_feature=19 13 13 13 19 13 19 14 14 13 83 37 12 14 15
split_gain=51.8555 55.8028 55.1828 128.293 61.8112 51.2204 60.1703 51.2018 47.1926 43.0819 43.7819 39.2896 35.6579 50.8153 36.9166
threshold=-1.0049999952316282 0.44435349241984584 0.40073414189798889 0.41321805072085876 -0.48000000417232508 0.28993387331144232 0.55500000715255748 0.48942511675375938 0.53343599775513628 0.52043998363459842 0.057347898466867005 0.033162389678919102 0.12578144669532779 0.44486994580489464 0.29235480008906639
decision_type=2 2 2 2 2 2 2 2 2 2 2 2 2 2 2
left_child=1 12 5 7 -5 6 -2 -4 -7 11 -11 -3 13 -1 -14
right_child=2 9 3 4 -6 8 -8 -9 -10 10 -12 -13 14 -15 -16
leaf_value=0.030582731622534876 -0.0052481517951829997 0.024583079181382677 0.074401794096607785 -0.013818437212050947 0.0070475893158893346 0.0057889284503287375 0.0024159667472353438 -0.047147772641043195 0.034879130684813547 0.054827866790292348 -0.021338591720119218 -0.018278168434417433 0.026874586197140601 -0.0070579006609920161 -3.7412355362127705e-06
leaf_weight=98.017331764101982 4881.1957888156176 694.00201344490051 8.9861223399639112 754.41572971642017 670.22957083582878 1025.3619557619095 5387.4880333095789 241.69702336192131 161.35836257040501 22.510446667671204 116.57431980967522 57.930397316813469 230.16272033751011 1052.1959098428488 287.1007321625948
leaf_count=422 19669 3183 36 3059 2694 4114 22441 1011 647 118 508 242 965 4267 1163
internal_value=-6.1278e-05 0.00645079 -0.00133014 -0.00980598 -0.00400194 -9.05667e-05 -0.00122715 -0.0427906 0.00974432 0.0165524 -0.00901128 0.021281 0.00105297 -0.00385029 0.0119561
internal_weight=15689.2 2558.49 13130.7 1675.33 1424.65 11455.4 10268.7 250.683 1186.72 891.017 139.085 751.932 1667.48 1150.21 517.263
internal_count=64539 10868 53671 6800 5753 46871 42110 1047 4761 4051 626 3425 6817 4689 2128
is_linear=0
shrinkage=0.05


Tree=43
num_leaves=16
num_cat=0
split_feature=115 13 13 115 13 14 13 115 17 115 16 115 14 83 76
split_gain=39.0074 91.5782 114.19 71.3811 64.4668 64.1141 63.9456 108.933 56.8252 52.5365 45.4982 40.7757 38.2764 51.0036 20.3817
threshold=0.2470499653958477 0.0054211778423598764 0.14997646567285064 -0.12629089697487025 0.52043998363459842 0.52643158594751516 0.0049774389251555926 1.0000000180025095e-35 -0.25156286874481454 -0.02791496893720994 -0.17806108414387981 1.0000000180025095e-35 0.51387533112946671 0.057347898466867005 0.35370942950248724
decision_type=2 2 2 2 2 2 2 2 2 2 2 2 2 2 2
left_child=1 6 9 -4 5 8 7 -1 -2 -3 -7 -8 13 -6 -14
right_child=4 2 3 -5 12 10 11 -9 -10 -11 -12 -13 14 -15 -16
leaf_value=-0.036468090057656853 0.027834820962526419 0.029643679110426063 -0.015709036335436449 -0.00013279165800185723 0.033148669104999216 0.044325886719403455 0.026000589050284711 -0.0021896007055092195 0.0052276325605677826 0.0079463462972909071 -0.032345601384454158 -0.033207311209764535 -0.02043271517705194 -0.03327649852664525 0.03386434666281208
leaf_weight=266.18402433395386 300.69364538788795 359.51549714803696 833.29144328832626 6269.1184501945972 32.805885553359985 21.964666590094566 31.584577575325966 1792.657596886158 3677.1823826432228 1245.5777167379856 162.50397673249245 366.58790512382984 26.66534112393856 242.62989456951618 49.122457787394524
leaf_count=1077 1362 1546 3398 25370 158 88 127 7396 15508 5046 653 1475 107 1031 197
internal_value=-5.80343e-05 -0.00164379 0.000761695 -0.00196028 0.00386441 0.00560022 -0.0101687 -0.00662141 0.00693654 0.0128062 -0.0232163 -0.0285107 -0.0167066 -0.0253649 0.0147604
internal_weight=15678.1 11164.5 8707.5 7102.41 4513.57 4162.34 2457.01 2058.84 3977.88 1605.09 184.469 398.172 351.224 275.436 75.7878
internal_count=64539 45435 35360 28768 19104 17611 10075 8473 16870 6592 741 1602 1493 1189 304
is_linear=0
shrinkage=0.05


Tree=44
num_leaves=16
num_cat=0
split_feature=17 115 14 11 11 100 74 17 11 13 115 54 103 103 74
split_gain=38.0683 66.0279 43.2452 36.0025 90.1792 51.0865 46.0425 30.7428 25.2411 15.4027 14.826 13.9334 13.6768 8.24618 8.03149
threshold=4.7793800124005577 0.17416274659721523 0.5160019006617077 -52.165761947631829 -15.988222599029539 4.1689405441284189 3.8830808401107793 16.378220899094988 36.203044891357429 0.0055079755772637637 0.23793804048287578 -0.00011094738700980192 65.478317260742202 40.657745361328132 3.3519568443298344
decision_type=2 2 2 2 2 2 2 2 2 2 2 2 2 2 2
left_child=3 7 11 10 5 -5 -6 9 -4 -2 13 -3 -12 -1 -9
right_child=1 2 8 4 6 -7 -8 14 -10 -11 12 -13 -14 -15 -16
leaf_value=0.014887460805108655 -0.014430410783780738 0.049420100874835345 0.012734857112677548 -0.035130600391360879 -0.00077063480815144894 -0.0017575341403380834 0.012562281332126102 -0.07931336664445407 -0.068498504161337737 0.0073182028518032115 0.049773049735600212 -0.01617904898942386 0.011319630069875394 -0.043828638598969925 -0.0066461259415111114
leaf_weight=15.38322000205517 99.802925541996956 161.50585997104645 63.390670210123062 294.1863150447607 13575.880133360624 187.92077369987965 679.94336538016796 14.5341122597456 11.26149709522724 441.72539187967777 60.555303767323494 8.5218075513839704 37.408138304948807 9.7821570336818677 5.1496614366769782
leaf_count=63 402 726 264 1231 55572 772 3054 59 47 1821 265 39 163 40 21
internal_value=-5.50699e-05 0.0105288 0.0322039 -0.000629018 -0.000853961 -0.0221221 -0.00013471 0.00107885 0.000480568 0.00330996 0.0262956 0.0461323 0.0350893 -0.00793636 -0.0603022
internal_weight=15667 805.892 244.68 14861.1 14737.9 482.107 14255.8 561.212 74.6522 541.528 123.129 170.028 97.9634 25.1654 19.6838
internal_count=64539 3379 1076 61160 60629 2003 58626 2303 311 2223 531 765 428 103 80
is_linear=0
shrinkage=0.05


Tree=45
num_leaves=16
num_cat=0
split_feature=11 45 19 15 115 11 19 107 89 12 12 115 115 12 12
split_gain=38.6222 39.835 49.261 44.0133 73.3546 41.9042 39.5717 33.7366 34.1469 33.0653 28.0164 25.5517 25.0025 22.9628 15.8832
threshold=14.410498142242433 -0.006303259706582842 1.435000002384186 0.16512860342390193 -0.0022078610950321074 -7.1778113842010489 2.304999947547913 0.11949442179714866 3.6700952143357646 -1.0909752845764158 -0.41027580201625818 0.010686562749369031 0.0042446721699819501 -1.5255211591720579 -3.3523532152175899
decision_type=2 2 2 2 2 2 2 2 2 2 2 2 2 2 2
left_child=1 3 5 4 -1 -3 -5 8 14 13 -4 -10 -11 -9 -2
right_child=7 2 10 6 -6 -7 -8 9 11 12 -12 -13 -14 -15 -16
leaf_value=-0.024950767255249352 -0.012659658844013474 -0.0087395025270394396 -0.0024534010490126559 -0.0007091646905629319 0.01499409899291358 0.00011497069701279133 0.034552330236946149 0.00013079749141244821 0.057008943768883026 0.011713246661575756 -0.020755469010984028 -0.025043569621383096 -0.022189579679338659 0.032845035861651495 0.018836330185477985
leaf_weight=128.87333787977695 42.340625897049904 1740.1460248827934 324.54111115634441 4576.6790289729834 1062.5270709097385 5756.2042214423418 80.972905352711678 153.80162236094475 10.7657123953104 72.616560682654381 587.83562441170216 79.947023406624794 216.56318716704845 82.36696270108223 732.95966947078705
leaf_count=522 198 7218 1316 18607 4426 23518 389 664 44 294 2392 339 876 352 3343
internal_value=-0.000295383 -0.00107134 -0.00327556 0.00209749 0.0106733 -0.00194044 -9.61464e-05 0.00765612 0.0137202 -0.00234018 -0.0142452 -0.0153056 -0.0136762 0.0115403 0.0171163
internal_weight=15649.1 14257.8 8408.73 5849.05 1191.4 7496.35 4657.65 1391.36 866.013 525.348 912.377 90.7127 289.18 236.169 775.3
internal_count=64498 58388 34444 23944 4948 30736 18996 6110 3924 2186 3708 383 1170 1016 3541
is_linear=0
shrinkage=0.05


Tree=46
num_leaves=14
num_cat=0
split_feature=13 35 13 13 36 15 13 15 11 35 101 85 75
split_gain=37.2069 97.9052 83.7899 72.1106 51.4926 49.5664 44.9395 108.918 99.925 28.0141 18.731 12.1851 11.9375
threshold=-0.034439586689557697 64.188769046426856 -0.014643154942645861 -0.025697412457519376 60.431419685473266 0.055840248586236714 0.0054211778423598764 0.16512860342390193 -0.14803011715412137 308.70210684610134 3.3326781988143925 -1.8673674464225767 -0.0090542858038175338
decision_type=2 2 2 2 2 2 2 2 2 2 2 2 2
left_child=1 10 3 5 -5 -2 8 -8 -4 12 11 -1 -3
right_child=2 9 6 4 -6 -7 7 -9 -10 -11 -12 -13 -14
leaf_value=-0.051724908648726545 0.0159239565039711 0.082336657467200397 -0.01480049180428609 0.059073891010540537 0.012029139157212203 -0.041840941086584531 0.014404624208819284 -0.00083711625130503142 0.00082593185713040237 -0.053310406502364197 0.025543522129201648 -0.096354840141796641 0.023916048260320354
leaf_weight=28.911801293492317 115.03114897012711 14.200221285223959 1620.7428925037384 142.16006250679493 98.443486332893372 54.841186940670013 1339.4056463986635 9384.5397123396397 2774.1398737281561 8.7111590057611448 4.9746392220258704 32.469556123018265 22.758374512195587
leaf_count=117 485 57 6610 677 468 236 5577 38443 11550 35 20 131 92
internal_value=-0.000280505 -0.0289924 -7.33822e-05 0.0222164 0.0398254 -0.00272473 -0.000678548 0.00106656 -0.00493677 0.0273506 -0.0677707 -0.0753333 0.0463624
internal_weight=15641.3 112.026 15529.3 410.476 240.604 169.872 15118.8 10723.9 4394.88 45.6698 66.356 61.3814 36.9586
internal_count=64498 452 64046 1866 1145 721 62180 44020 18160 184 268 248 149
is_linear=0
shrinkage=0.05


Tree=47
num_leaves=15
num_cat=0
split_feature=11 19 19 13 11 76 74 85 107 74 4 19 101 35
split_gain=35.8138 36.0767 33.829 54.4562 39.6767 30.52 19.8384 17.6623 24.6573 9.22027 9.44197 6.60133 2.57468 2.18754
threshold=60.187828063964851 2.4700000286102299 -0.96500000357627858 0.37400087627737671 -8.661956310272215 0.78725251555442821 4.7297439575195321 -0.92348942160606373 0.12660097970310438 7.107142686843873 74.73450088500978 0.64499998092651378 8.428688049316408 203.9271168258347
decision_type=2 2 2 2 2 2 2 2 2 2 2 2 2 2
left_child=1 2 3 -1 -4 9 11 13 -9 10 -2 -7 -8 -3
right_child=5 7 4 -5 -6 6 12 8 -10 -11 -12 -13 -14 -15
leaf_value=-0.01941454977442747 0.043683983342836921 0.065616149691524447 -0.0083132046535986468 0.0065254244189222963 -0.00056074286452250505 -0.011191154984914879 0.018761115164661869 -0.095928489214102727 0.026880242501288648 -0.02941297768366731 -0.033538732585191834 -0.055567129542411435 0.065581192109896311 0.030433003915771764
leaf_weight=220.28359805047512 102.40995392203331 29.872677281498909 1949.5876222997904 2481.6588413864374 10755.530199736357 19.761579319834709 5.2604241073131544 4.7372252494096747 29.787490293383598 4.9050945341587058 4.1174836903810492 14.55184458196163 6.6459922194480896 5.1848179996013632
leaf_count=908 555 151 8030 10589 43789 100 29 22 145 31 18 68 37 26
internal_value=-0.000266144 -0.000507672 -0.000669903 0.00441059 -0.00175035 0.0234446 -0.0107144 0.0354139 0.0100293 0.0376129 0.0406992 -0.0300104 0.0448954 0.0604127
internal_weight=15634.3 15476.6 15407.1 2701.94 12705.1 157.652 46.2198 69.5822 34.5247 111.433 106.527 34.3134 11.9064 35.0575
internal_count=64498 63660 63316 11497 51819 838 234 344 167 604 573 168 66 177
is_linear=0
shrinkage=0.05


Tree=48
num_leaves=16
num_cat=0
split_feature=74 13 15 115 12 12 11 41 67 11 12 83 86 19 51
split_gain=34.5686 45.735 101.311 77.9032 145.986 66.9413 38.3197 37.2036 27.8931 34.3731 60.8265 26.0111 23.0716 22.3448 17.36
threshold=3.6725590229034428 0.0054211778423598764 0.16512860342390193 -0.0022078610950321074 -1.003399074077606 -0.66107833385467518 4.0366971492767343 14.367293554136994 159.78279302409899 -10.314804553985594 4.1737890243530282 0.069532094490005872 15.025335162816544 1.2649999856948855 -0.041223593830946668
decision_type=2 2 2 2 2 2 2 2 2 2 2 2 2 2 2
left_child=1 3 6 5 -5 -1 -3 -4 9 10 -2 12 -10 -11 -13
right_child=8 2 7 4 -6 -7 -8 -9 11 13 -12 14 -14 -15 -16
leaf_value=-0.044674722516539499 -0.020128413464490544 0.019273524747998042 0.011850825738831484 0.013796128390779533 -0.0094479933622558191 0.013648817572546573 8.256416032359723e-05 -0.001883015182378426 0.0231650789811359 0.019341586294217269 0.021641435418411886 -0.073627530249193607 -0.059665111063434619 0.00096936635741392836 -0.0025006686211077726
leaf_weight=212.56822666525841 219.54615063965321 926.22243200242519 523.07990695536137 900.47709630429745 2703.7031795084476 64.013549327850342 361.6931579709053 8605.5296375006437 37.54029056429863 658.2735548466444 144.53862185776234 26.151375442743301 10.832960113883017 221.08003795146942 12.766767442226408
leaf_count=866 899 3885 2158 3832 10959 258 1482 35232 158 3039 617 106 45 909 53
internal_value=-0.00025256 -0.000969986 0.000756108 -0.00560307 -0.00364063 -0.031176 0.013884 -0.00109605 0.00745543 0.00937342 -0.00354613 -0.0198658 0.00461565 0.0147226 -0.050295
internal_weight=15628 14297.3 10416.5 3880.76 3604.18 276.582 1287.92 9128.61 1330.73 1243.44 364.085 87.2914 48.3733 879.354 38.9181
internal_count=64498 58672 42757 15915 14791 1124 5367 37390 5826 5464 1516 362 203 3948 159
is_linear=0
shrinkage=0.05


Tree=49
num_leaves=13
num_cat=0
split_feature=19 11 19 14 19 55 115 15 115 54 60 113
split_gain=32.7745 33.21 35.0021 54.4683 49.953 30.3248 28.7663 21.0431 16.7791 17.9749 29.1152 6.30472
threshold=2.4700000286102299 14.410498142242433 1.435000002384186 0.68290459746846299 1.1150000095367434 -0.02094111658979789 -0.10188879925094642 0.14236274991522405 -0.023500102082363979 -0.0067940811458985497 -0.0028000953057696304 0.88733025902841811
decision_type=2 2 2 2 2 2 2 2 2 2 2 2
left_child=1 2 4 -4 -1 7 -7 -3 9 10 -2 -11
right_child=8 5 3 -5 -6 6 -8 -9 -10 11 -12 -13
leaf_value=-0.0012372946842479544 -0.063019116204270351 0.013764420392715249 -0.0099104486036315012 0.03680745246036194 0.0095718115245792823 0.056045948998328876 0.010592946388467177 -0.009592273274666701 -0.058612470786421712 0.062549882113252409 0.068634990853501956 -0.0014859639083648125
leaf_weight=11368.581391066313 9.254582345485689 133.38665643334389 1553.371835783124 65.000985994935036 1179.7863636314869 36.270943433046341 863.99942347407341 348.08373811841011 4.5391903370618811 42.762664988636971 7.6880168020725241 4.2234170585870734
leaf_count=46711 44 590 6301 261 4771 152 3932 1436 21 219 39 21
internal_value=-0.000239903 -0.000391901 -0.00111357 -0.00803405 -0.000221032 0.00700726 0.0124242 -0.00312153 0.0342777 0.0408733 -0.00327864 0.0567939
internal_weight=15616.9 15548.5 14166.7 1618.37 12548.4 1381.74 900.27 481.47 68.4679 63.9287 16.9426 46.9861
internal_count=64498 64154 58044 6562 51482 6110 4084 2026 344 323 83 240
is_linear=0
shrinkage=0.05


Tree=50
num_leaves=16
num_cat=0
split_feature=12 11 19 14 13 19 100 9 19 19 101 74 103 101 103
split_gain=39.9364 76.4528 59.0208 39.4332 51.131 32.7137 31.6107 24.8045 20.1141 43.7518 11.1551 9.96499 5.01223 6.42271 2.02953
threshold=4.1737890243530282 -16.517037391662594 0.55500000715255748 0.47946678105490875 0.38467557944823977 2.3599998950958256 3.9277640581130986 7.9500000476837167 0.35500000417232519 0.56499999761581432 1.3179547786712649 6.3863520622253427 65.478317260742202 2.1349097490310673 30.736012458801273
decision_type=2 2 2 2 2 2 2 2 2 2 2 2 2 2 2
left_child=1 2 6 4 -3 -5 -1 -4 12 11 -11 -10 14 -14 -2
right_child=8 3 7 5 -6 -7 -8 -9 9 10 -12 -13 13 -15 -16
