tree
version=v4
num_class=1
num_tree_per_iteration=1
label_index=0
max_feature_idx=115
objective=binary sigmoid:1
feature_names=fund_debt_equity fund_div_yield fund_ev_ebitda fund_ev_revenue fund_gross_margin fund_net_margin fund_op_margin fund_pb fund_pe fund_rev_growth fund_roe macro_brent_chg20 macro_dxy_chg20 macro_fedfunds macro_india10y macro_us10y macro_us10y_chg20 macro_vix macro_vix_chg5 macro_yield_curve pattern_bear_count pattern_bull_count pattern_doji pattern_engulfing pattern_hammer pattern_net smc_base smc_bos_dn smc_bos_up smc_choch_dn smc_choch_up smc_demand_zone smc_dist_bear_ob smc_dist_bull_ob smc_doji smc_ema_20 smc_ema_200 smc_ema_200_dist smc_ema_20_dist smc_ema_50 smc_ema_50_dist smc_ema_9 smc_ema_9_dist smc_ema_stack smc_engulfing_bear smc_engulfing_bull smc_equal_high smc_equal_low smc_fvg_bear smc_fvg_bear_mit smc_fvg_bear_pct smc_fvg_bull smc_fvg_bull_mit smc_fvg_bull_pct smc_hammer smc_liq_sweep_high smc_liq_sweep_low smc_order_block_bear smc_order_block_bull smc_pinbar smc_shooting_star smc_supply_zone smc_swing_high smc_swing_low smc_trendline_break_dn smc_trendline_break_up smc_vp_in_value smc_vp_poc smc_vp_poc_dist smc_vp_vah smc_vp_val tech_adx_14 tech_adx_strong tech_atr_14 tech_atr_pct tech_bb_bandwidth tech_bb_pctb tech_cci_20 tech_cmf_20 tech_consec_updown tech_di_diff tech_donchian_20 tech_ema20_50_ratio tech_golden_death tech_ha_streak tech_macd_hist tech_macd_line tech_mean_rev_z tech_mfi_14 tech_mom_12_1m tech_mom_12m tech_mom_1m tech_mom_3m tech_mom_6m tech_obv_slope tech_price_vs_sma200 tech_price_vs_sma50 tech_price_vs_vwap20 tech_range_52w tech_resistance_dist_20d tech_ret_20d tech_ret_5d tech_rsi_14 tech_rsi_2 tech_rsi_7 tech_stoch_d tech_stoch_k tech_supertrend_10_3 tech_support_dist_20d tech_vol_20d tech_vol_regime tech_vol_sma_ratio tech_volume_spike tech_vwap20_slope_5d tech_williams_r primary_pred
feature_infos=[0:3.1340699195861816] [0:857] [0:1093.8409423828125] [0:240.27799987792969] [0:100] [0:43.383998870849609] [0:60.646999359130859] [0:51.834121704101562] [0:79.368423461914062] [-82.199996948242188:272.70001220703125] [0:76.338996887207031] [-71.725059509277344:281.14035034179688] [-4.8091545104980469:7.5745401382446289] [-0.043026440042421066:1.0967896511011443] [0:0.84532822270522345] [-0.063295312829442674:0.69083841110677735] [-0.45392621566718333:0.40521309794036842] [-2.9890418503201488:22.709053259573619] [-23.808181889547697:21.316829528430244] [-1.690000057220459:2.5999999046325684] [-0.5319615766992527:0.9992645143996941] [-1.0628315929730392:1.9791219631804298] [-0.67349822346411647:0.9954099847910769] [-1.4669140946255508:1.4798140142109801] [-0.62305241613723616:0.99968968103926759] [-1.9950166420077586:2.3784988211752616] none [0:1] [0:1] [0:1] [0:1] none [-0.36999739338545556:0.50829922834220265] [-0.98284209838307524:0.97075639260327273] [-0.67349822346411647:0.9954099847910769] [-252.1691788764706:3231.5449367996007] [0:2310.7716825660318] [-0.8349719193629479:0.23931757466626927] [-0.73831681388566051:0.23411247854777853] [-61.910352952286303:2841.8544975347322] [-0.89720852535283646:0.24028411416939077] [-398.81930938623464:3660.0428799695474] [-0.53840709505305473:0.21829998034735865] [-1.1485631110359575:1.254985794337955] [-0.5319615766992527:0.9992645143996941] [-0.53042126463381112:1] [-0.65359925223746362:1] [-0.63994523352097399:1] [-0.74180742016094225:0.99688656833578548] [-0.92230931873329103:0.96406606982913723] [0:0.35594946146011353] [-0.74781033084743698:0.99498528054535651] [-0.91613445985692965:0.96902823767919932] [0:0.16626125574111938] [-0.54442065246792593:1] [-0.70216444562303149:0.9990727926256886] [-0.7225610136440066:0.99987844476948951] [-0.69352895368488121:0.99635182319032223] [-0.73514182286132668:0.99455564611728886] [-0.78672268367964737:0.97172456064889412] [-0.5346158527356667:1] none [-0.62832043909730528:0.98852471780053663] [-0.60430788286790538:0.98829371306724567] [-0.86011518411535048:0.99440906804643492] [-0.86233682614105767:0.99329476593342281] [-0.88692522627262116:0.95500554027983064] [-2290.1379336503451:6250.2702862520564] [-0.70097983057247282:0.37941860502685038] [-1477.5663353844357:5207.5417671969117] [-1273.1970174699318:3879.6948223819491] [6.3845200538635254:74.0830078125] [0:1] [-36.860302833901869:262.7111617622752] [0.97351664304733276:31.776361465454102] [-0.27246955278549673:0.45937248967605593] [-0.53495562076568604:1.5145539045333862] [-621.80280555133709:605.88624799642844] [-0.55762957565893934:0.46316884494252136] [-10.356521260431272:8.8604114194892336] [-41.355482187426446:35.982825345413438] [-0.66966981162878181:0.77135796489534947] [-8.5974984243462345:4.7009594503051195] [-0.060040024858495022:0.16258163412323556] [-15.88353608803971:15.635729733045009] [-525.95452880859375:518.525634765625] [-431.79585591821842:464.14298055878311] [-4.546768630053081:4.3966442422194394] [-50.098707691982611:39.927979366462985] [-125.60209352335028:87.499084835949319] [-123.19436361849307:86.096135106637831] [-35.216788573266825:51.31557473489049] [-41.102165673975236:53.035093813448526] [-54.475861946753461:83.287293946730415] [-108138648.36699642:110277158.22831069] [-44.033486668741283:36.848258229850813] [-34.733054999834842:29.694725578690829] [-27.149604740590092:21.493226668359952] [-43.058672241098378:43.393305418590558] [-33.29118305809412:16.611633244096993] [-73.887420654296875:77.211166381835938] [-53.813125610351562:66.1416015625] [7.610039234161377:92.276603698730469] [0.0054137185215950012:99.999488830566406] [2.9372127056121826:98.431373596191406] [1.4834244251251221:98.542396545410156] [0.55116403102874756:99.544540405273438] [-1.9238176763219954:1.9048142995822039] [-24.519601589347737:69.116187345911513] [-0.56832654410366956:0.8669946791251828] [-0.95407781408258563:0.8494401344447603] [-5.0452978943812345:11.901823849053637] [-5.0452978943812345:11.901823849053637] [-16.754347173669828:11.12444301626447] [-99.448837280273438:-0.4554564356803894] [-0.39745708033011773:0.60651490167415034]
tree_sizes=1854 1866 1883 1873 1879 1871 1869 1868 1874 1876 1885 1886 1877 1885 1874 1855 1895 1878 1884 1789 1866 1768 1879 1869 1777 1884 1897 1765 1880 1882 1763 1436 1755 1752 1872 1905 1783 1666 1882 1883 1886 1879 1544 1874 1865 1647 1640 1447 1883 1528 1887 1892 1850 1895 1638 1908 1891 1894 1900 1780 1889 1454 1534 1866 1560 1895 1888 1892 1858 1645 1751 1879 1641 1753 1769 1559 1878 1876 1890 1866 1784 1891 1768 1443 1894 1649 1552 1563 1653 1671 1764 1863 1765 1868 1763 1887 1858 1883 1779 1897

Tree=0
num_leaves=16
num_cat=0
split_feature=12 17 19 19 17 12 100 15 16 19 12 74 107 19 19
split_gain=308.02 122.602 95.8991 78.875 76.3772 76.1644 75.9041 70.9957 78.5485 53.5586 42.57 40.6547 28.719 27.5772 25.8098
threshold=-0.057298080995678895 0.55795146995637002 -1.3949999809265134 0.60500001907348644 0.19712266990110197 4.1737890243530282 -9.1567850112915021 0.12123195789405884 1.0000000180025095e-35 1.5549999475479128 -0.84097498655319203 3.3903961181640629 0.17046784398011158 -1.4950000047683714 0.17500000447034839
decision_type=2 2 2 2 2 2 2 2 2 2 2 2 2 2 2
left_child=2 5 10 4 -4 6 -2 11 -9 -5 12 -3 -1 -12 -7
right_child=1 7 3 9 -6 14 -8 8 -10 -11 13 -13 -14 -15 -16
leaf_value=0.072783930905721633 0.00723295789437748 0.052631470651086455 0.052318463883822941 0.061009103434206083 0.040183241806366128 0.10050582666816221 0.031565324163029228 0.029213535538402204 0.045204979617239141 0.044356975496487629 0.070086764804395379 0.085725157075300693 0.04009085761970238 0.1052357478562094 0.053248037576188054
leaf_weight=160.17158100008965 355.57591226696968 490.75972712039948 2518.766827583313 1910.5645995736122 2672.1917117238045 38.481159865856171 3249.6589873731136 1097.7125668227673 2555.7487214803696 646.18363255262375 106.94763910770416 114.44396895170212 115.69335725903511 116.6928679049015 115.94323492050171
leaf_count=641 1423 1964 10080 7646 10694 154 13005 4393 10228 2586 428 458 463 467 464
internal_value=0.0441967 0.0372186 0.0509811 0.0496121 0.0460715 0.0306383 0.0291655 0.0430277 0.0404002 0.0568005 0.0722155 0.0588895 0.059073 0.0884271 0.0650243
internal_weight=16265.5 8018.32 8247.21 7747.71 5190.96 3759.66 3605.23 4258.66 3653.46 2556.75 499.505 605.204 275.865 223.641 154.424
internal_count=65094 32089 33005 31006 20774 15046 14428 17043 14621 10232 1999 2422 1104 895 618
is_linear=0
shrinkage=1


Tree=1
num_leaves=16
num_cat=0
split_feature=19 13 11 110 19 11 11 105 115 18 85 18 41 110 98
split_gain=164.987 165.766 122.757 93.4383 75.991 69.2958 45.2998 39.5503 25.3717 19.4122 24.4478 15.525 16.7621 15.8873 10.4185
threshold=-1.3949999809265134 -0.0070064090780493351 60.187828063964851 0.0087474771489998177 0.74500000476837169 -7.3734736442565909 -12.621081829071043 80.076278686523452 0.080422665366919652 -2.7176371878431933 -1.3017033934593198 0.68409907826019967 24.030706064812708 -0.029268794934963312 4.723099744875463
decision_type=2 2 2 2 2 2 2 2 2 2 2 2 2 2 2
left_child=7 3 5 6 -4 -3 -2 9 -5 14 -11 12 -9 -13 -1
right_child=1 2 4 8 -6 -7 -8 11 -10 10 -12 13 -14 -15 -16
leaf_value=0.082989217919219593 -0.05628726018370931 -0.010076066208084095 0.04988734757708408 0.01292327154302096 -0.028510998687932766 -0.0012227982437338545 0.0080102502096421838 -0.075395260324009561 0.042176619787829987 0.01414778000552231 0.041407276803581396 -0.019429137380492071 0.0026353265240396349 0.036918033480200368 0.040004702438144885
leaf_weight=28.710684984922409 29.232796728610992 2719.4439785182476 171.13024935126305 93.912762865424156 37.722650617361069 11804.041222527623 435.37777042388916 7.2433547973632804 351.69759321212769 139.58299165964127 200.25537806749344 15.481537967920302 138.11082170903683 65.167045176029205 27.694818004965782
leaf_count=115 117 10883 685 376 151 47239 1743 29 1408 559 802 62 553 261 111
internal_value=-4.94374e-05 -0.00105382 -0.0023332 0.0196536 0.0357272 -0.00288052 0.00396472 0.0251995 0.0360115 0.0347196 0.0302109 0.0085083 -0.00125313 0.0261015 0.061884
internal_weight=16264.8 15642.6 14732.3 910.221 208.853 14523.5 464.611 622.247 445.61 396.244 339.838 226.003 145.354 80.6486 56.4055
internal_count=65094 62602 58958 3644 836 58122 1860 2492 1784 1587 1361 905 582 323 226
is_linear=0
shrinkage=0.05


Tree=2
num_leaves=16
num_cat=0
split_feature=12 17 17 12 115 12 12 13 13 12 3 85 113 76 45
split_gain=270.893 110.21 81.8495 74.9816 83.0051 70.4437 69.2079 60.6287 80.0481 74.7213 26.7435 24.5414 16.643 16.5955 12.0369
threshold=-0.057298080995678895 0.55795146995637002 -1.2229117891873391 -3.3523532152175899 0.093975002120649284 4.1737890243530282 3.5296870470047002 0.005311418231769457 0.0053907703007375499 0.51419386267662059 4.993000030517579 -2.293928742408752 -0.40448366220331711 0.35764142870903021 -0.048963637038527144
decision_type=2 2 2 2 2 2 2 2 2 2 2 2 2 2 2
left_child=2 5 12 10 -5 6 -2 9 -9 -3 -4 -7 13 -1 -14
right_child=1 7 3 4 -6 11 -8 8 -10 -11 -12 -13 14 -15 -16
leaf_value=0.046541426362571164 -0.013365629631279114 -0.0050925929915414166 -0.044257363698374463 0.0014935274470905184 0.011712845197008862 -0.00067995786691675878 -0.06890310323630143 -0.047510973267127533 -0.0019448249682663934 0.035777046098974134 0.0080684061565738565 0.039239463663991475 -0.0034538730602208852 -0.032483913855948975 0.058572747166114471
leaf_weight=14.214946687221529 3549.1882752031088 213.55814036726952 100.69390314817429 4228.4414870738983 3748.4966697841883 73.438187003135681 56.995719730854034 98.954096987843513 3711.4101586639881 234.79246436059475 32.236535370349884 80.929178237915039 8.4884672313928586 12.472795233130453 99.566559806466103
leaf_count=57 14200 855 403 16924 15009 294 228 396 14852 940 129 324 34 50 399
internal_value=-4.68507e-05 -0.00658981 0.00631728 0.00567512 0.00629576 -0.0128275 -0.0142434 -0.00108174 -0.00312817 0.01631 -0.031568 0.0202483 0.0449671 0.00960811 0.0537001
internal_weight=16263.9 8019.27 8244.61 8109.87 7976.94 3760.55 3606.18 4258.71 3810.36 448.351 132.93 154.367 134.743 26.6877 108.055
internal_count=65094 32089 33005 32465 31933 15046 14428 17043 15248 1795 532 618 540 107 433
is_linear=0
shrinkage=0.05


Tree=3
num_leaves=16
num_cat=0
split_feature=12 17 11 19 11 11 12 15 16 11 12 85 71 12 74
split_gain=244.505 99.4486 77.9825 79.6189 76.8238 90.0523 63.2834 62.9272 70.4472 45.8189 37.146 23.7674 12.8936 11.2229 1.90114
threshold=-0.057298080995678895 0.55795146995637002 78.368366241455092 -1.3949999809265134 -52.165761947631829 -8.462129592895506 -3.3523532152175899 0.12123195789405884 -0.019133079032713021 8.0864057540893572 -0.84097498655319203 -2.293928742408752 15.761886119842531 -0.44727256894111628 3.8296004533767705
decision_type=2 2 2 2 2 2 2 2 2 2 2 2 2 2 2
left_child=2 4 3 10 11 -6 -5 9 -9 -3 -1 -2 14 -14 -4
right_child=1 7 12 6 5 -7 -8 8 -10 -11 -12 -13 13 -15 -16
leaf_value=0.012564654111245103 0.0055880734931865184 0.0086697040272244227 0.058599970338715772 -0.029978348002712964 -0.029615292588258353 -0.0096670643094952467 0.0048180292569411131 -0.016020176760735208 0.00034958341714198306 0.050044900957048902 0.040026920764452134 0.04915503566880905 0.046921160146498095 -0.015255186095702556 0.08913490542020519
leaf_weight=275.38724684715271 65.942919999361038 528.21865937113762 6.9756117761135128 132.97777406871319 700.87846474349499 2934.4684397727251 7515.5237853378057 859.34489116072655 2794.4359769374132 76.617598906159401 222.71928368508816 59.596253484487534 62.036002814769745 8.2192215174436551 18.933267742395401
leaf_count=1104 264 2115 28 532 2804 11739 30088 3438 11183 307 895 239 249 33 76
internal_value=-4.44182e-05 -0.00626007 0.00600287 0.00547448 -0.012185 -0.013513 0.00421306 -0.0010276 -0.00350047 0.0139109 0.0248439 0.0262703 0.0507653 0.0396471 0.0809138
internal_weight=16262.3 8019.5 8242.77 8146.61 3760.89 3635.35 7648.5 4258.62 3653.78 604.836 498.107 125.539 96.1641 70.2552 25.9089
internal_count=65094 32089 33005 32619 15046 14543 30620 17043 14621 2422 1999 503 386 282 104
is_linear=0
shrinkage=0.05


Tree=4
num_leaves=16
num_cat=0
split_feature=19 19 19 115 17 17 11 11 105 17 17 17 110 55 90
split_gain=134.459 99.9489 108.349 79.6517 78.604 65.9434 101.499 41.0768 35.8592 19.8419 30.2566 17.2942 13.6871 11.2762 11.0928
threshold=-1.3949999809265134 0.39499999582767492 1.5850000381469729 0.18543191028458847 4.6138689318971489 -0.13071401147774961 -6.3648276329040518 -2.0359280109405513 80.076278686523452 -0.15659198053386267 0.96705143416635597 0.67229273862827832 -0.029268794934963312 -0.067688136199867674 5.0858756236870741
decision_type=2 2 2 2 2 2 2 2 2 2 2 2 2 2 2
left_child=8 5 4 -4 -3 7 -7 -2 9 14 -11 13 -13 -10 -1
right_child=1 2 3 -5 -6 6 -8 -9 11 10 -12 12 -14 -15 -16
leaf_value=0.070224381808281916 0.015777810130349273 0.0047184677593612497 -0.0065749951927453823 -0.057656317789402584 0.028678171179870166 -0.017450241721385016 -0.0032705479737410951 -0.0023122497284706676 -0.021169410631753417 0.012202725939625984 0.042399873014556833 -0.023666035261138998 0.031845308291130324 0.0080075507951520887 0.02264167196451411
leaf_weight=46.239468604326248 570.92361108958721 5610.8199984580278 1207.5306219309568 81.463623046875 364.55264268815517 1640.8559866249561 5466.2838024646044 696.78352062404156 57.648505717515945 169.36717544496059 162.58077639341354 12.971079006791113 77.151278913021088 77.812292322516441 16.662118390202522
leaf_count=186 2285 22468 4832 326 1460 6567 21875 2789 231 680 654 52 310 312 67
internal_value=-4.20882e-05 -0.000947715 0.0033441 -0.0098033 0.00618023 -0.00467045 -0.00654427 0.00583478 0.022786 0.0318717 0.0269926 0.00688275 0.0238557 -0.00440939 0.0576201
internal_weight=16259.6 15639.2 7264.37 1288.99 5975.37 8374.85 7107.14 1267.71 620.433 394.85 331.948 225.583 90.1224 135.461 62.9016
internal_count=65094 62602 29086 5158 23928 33516 28442 5074 2492 1587 1334 905 362 543 253
is_linear=0
shrinkage=0.05


Tree=5
num_leaves=16
num_cat=0
split_feature=12 19 12 19 16 18 18 19 17 12 11 14 113 43 18
split_gain=243.202 92.365 154.816 111.397 101.447 141.441 87.0535 85.9254 81.1413 63.8796 68.3937 44.9445 17.905 14.125 7.97457
threshold=-0.057298080995678895 0.56499999761581432 0.34748840332031256 1.2649999856948855 0.0043496192002037944 2.5689401516780861 -3.8345077345444607 1.4950000047683718 -1.2229117891873391 -3.3523532152175899 28.235412597656254 0.52643158594751516 -0.52774046851734835 0.12929843299132313 1.3298866439276611
decision_type=2 2 2 2 2 2 2 2 2 2 2 2 2 2 2
left_child=8 4 7 -4 6 -6 -2 -3 12 11 -11 -10 13 -1 -14
right_child=1 2 3 -5 5 -7 -8 -9 9 10 -12 -13 14 -15 -16
leaf_value=0.027325218573759809 0.028025690322666448 -0.0090626297774167586 0.016644436617829658 -0.0038304026312983418 0.0020340723090183635 -0.039056326634198113 -0.019378607901254771 -0.04635964370432983 -0.036012458301758386 0.0054528278619105971 0.038769489122742154 0.082764295000559249 0.056444678622229544 -0.066907983444321334 0.004487175123090042
leaf_weight=14.40050730109215 100.90891359746456 529.6545806825161 1255.2993597835302 1411.0544612854719 1865.9624471664429 235.90426723659039 2406.5706714689732 217.97553165256977 126.72060610353947 7822.9349423646927 157.13388454914093 8.4985373914241773 104.35003726184368 5.4937928617000571 7.9474557787179938
leaf_count=58 404 2120 5026 5647 7466 944 9629 872 507 31333 632 34 420 22 32
internal_value=0.000135093 -0.00606263 0.000170918 0.005809 -0.0106796 -0.00257773 -0.0174709 -0.0199368 0.00616437 0.00553141 0.00610886 -0.0285473 0.0450223 0.00130281 0.0527676
internal_weight=16270.8 8023.33 3413.98 2666.35 4609.35 2101.87 2507.48 747.63 8247.48 8115.29 7980.07 135.219 132.192 19.8943 112.297
internal_count=65146 32108 13665 10673 18443 8410 10033 2992 33038 32506 31965 541 532 80 452
is_linear=0
shrinkage=0.05


Tree=6
num_leaves=16
num_cat=0
split_feature=12 19 12 19 16 18 18 19 17 11 19 113 37 104 18
split_gain=219.54 83.3606 139.73 100.587 91.5788 127.597 78.5851 77.616 73.6312 58.15 56.928 16.284 12.4969 9.68692 7.61721
threshold=-0.057298080995678895 0.56499999761581432 0.34748840332031256 1.2649999856948855 0.0043496192002037944 2.5689401516780861 -3.8345077345444607 1.4950000047683718 -1.2229117891873391 78.368366241455092 -1.3949999809265134 -0.42090495927539945 -0.0045538288671478277 80.141426086425795 1.3298866439276611
decision_type=2 2 2 2 2 2 2 2 2 2 2 2 2 2 2
left_child=8 4 7 -4 6 -6 -2 -3 11 10 -10 12 -1 -11 -13
right_child=1 2 3 -5 5 -7 -8 -9 9 13 -12 14 -14 -15 -16
leaf_value=0.063118122676012675 0.026642724065145187 -0.0086081681712665056 0.0158193538791939 -0.003638731811180337 0.0019324268095907535 -0.037088697459188316 -0.018411494748349338 -0.044060423127448671 0.021504090107301702 0.049259757095564502 0.0037443225017737935 0.055147263003389513 -0.016122176072728221 -0.01955185716156916 0.004264419096640072
leaf_weight=6.9313420206308392 100.84114640951157 529.73422934114933 1254.7466626614332 1411.1116347163916 1865.9086001515388 235.99531073868275 2406.3371800482273 217.8841008991003 479.93316973745823 85.018457606434822 7542.8870417028666 99.146348983049393 17.634489759802818 5.4418586939573279 7.9445490539073935
leaf_count=28 404 2120 5026 5647 7466 944 9629 872 1933 344 30207 401 71 22 32
internal_value=0.000128461 -0.00576002 0.00016245 0.00551966 -0.0101462 -0.00244875 -0.0165994 -0.0189403 0.00585812 0.00525621 0.00480673 0.0429504 0.00623577 0.0451202 0.0513725
internal_weight=16267.5 8022.56 3413.48 2665.86 4609.08 2101.9 2507.18 747.618 8244.94 8113.28 8022.82 131.657 24.5658 90.4603 107.091
internal_count=65146 32108 13665 10673 18443 8410 10033 2992 33038 32506 32140 532 99 366 433
is_linear=0
shrinkage=0.05


Tree=7
num_leaves=16
num_cat=0
split_feature=12 13 17 17 16 11 12 11 14 18 17 113 82 43 45
split_gain=198.202 75.9756 66.9004 60.0597 72.4189 65.5187 57.4175 57.8768 40.6042 32.6662 26.5003 15.0252 14.5156 14.4594 9.35177
threshold=-0.057298080995678895 -0.008885218292987716 -1.2229117891873391 1.6071904806873489 -0.17806108414387981 -52.165761947631829 -3.3523532152175899 28.235412597656254 0.52643158594751516 2.5689401516780861 2.679614521911978 -0.53803464806573742 0.5145104874987082 0.12929843299132313 -0.0017097420595224998
decision_type=2 2 2 2 2 2 2 2 2 2 2 2 2 2 2
left_child=2 9 11 5 -5 -3 8 -8 -4 10 -2 13 -11 -1 -13
right_child=1 3 6 4 -6 -7 7 -9 -10 12 -12 14 -14 -15 -16
leaf_value=0.026803235134146498 0.02393368791526819 0.026442378251696798 -0.034418134607018702 0.032399193455794471 -0.0020495417064065554 -0.010049972302578128 0.0049406362631943786 0.035683585011315695 0.07856061685184515 -2.9126363170859141e-05 0.071871048636999862 0.054224205419798978 -0.077312063348837515 -0.070644103273074549 0.014388097486638537
leaf_weight=13.857155218720438 110.89744947850704 125.95615349709988 126.65170538425446 163.36593583226204 2306.8107094764709 5238.8364219665527 7819.7423061132431 156.14950633049011 8.4855772852897626 28.227540925145149 38.957561686635017 94.442818149924278 7.7423893213272086 5.2485461086034766 17.455609634518623
leaf_count=56 445 505 507 654 9235 20968 31333 632 34 113 157 384 31 21 71
internal_value=0.000122181 -0.00547326 0.00556742 -0.00622269 0.000228737 -0.00919319 0.00499493 0.00554251 -0.0273239 0.0261251 0.0363959 0.041013 -0.016664 3.33804e-05 0.04801
internal_weight=16262.8 8020.79 8242.03 7834.97 2470.18 5364.79 8111.03 7975.89 135.137 185.825 149.855 131.004 35.9699 19.1057 111.898
internal_count=65146 32108 33038 31362 9889 21473 32506 31965 541 746 602 532 144 77 455
is_linear=0
shrinkage=0.05


Tree=8
num_leaves=16
num_cat=0
split_feature=19 19 19 17 115 100 18 19 105 15 83 111 17 1 107
split_gain=104.198 103.131 94.0107 80.6711 67.5119 66.6541 60.3005 39.5682 33.8537 19.8464 41.5679 18.7551 16.1187 13.3418 12.26
threshold=-1.3949999809265134 0.56499999761581432 1.5850000381469729 4.6138689318971489 0.18543191028458847 -8.9152612686157209 2.2463633556531901 0.35500000417232519 80.366451263427749 0.22211059953480741 0.068407655243187829 0.18102852515052539 0.54812889837810286 159.50000000000003 0.12253096959133798
decision_type=2 2 2 2 2 2 2 2 2 2 2 2 2 2 2
left_child=8 5 3 -3 -4 7 -7 -2 9 11 -11 -1 14 -14 -10
right_child=1 2 4 -5 -6 6 -8 -9 12 10 -12 -13 13 -15 -16
leaf_value=0.041788703526622784 -0.014502320028508951 0.0056667966758623158 -0.0047378141217530442 0.031054553418353139 -0.050940528332314411 -0.0015929743327558758 -0.017006002006469883 -0.051082766078403501 0.027169074379263487 0.048176004329873512 -0.025061880388356314 0.014430138549569014 0.030525573331689183 -0.0098904339675920955 -0.014921169846921205
leaf_weight=234.05158023536205 606.81592504680157 4668.3253919482231 1205.9624197781086 335.38240578770638 84.612494736909866 7962.2077608853579 689.53241690993309 84.179557517170906 20.890903621912003 34.031254276633263 44.98424756526947 85.536503091454506 73.43255552649498 28.284872442483902 100.67402015626431
leaf_count=947 2431 18719 4827 1346 339 31878 2760 337 84 137 181 346 296 114 404
internal_value=0.000116242 -0.000681995 0.0042651 0.00736846 -0.00776695 -0.0040149 -0.00282137 -0.0189587 0.0201875 0.0289187 0.00648101 0.0344663 0.0046006 0.019287 -0.00768797
internal_weight=16258.9 15637 6294.28 5003.71 1290.57 9342.74 8651.74 690.995 621.886 398.604 79.0155 319.588 223.282 101.717 121.565
internal_count=65146 62637 25231 20065 5166 37406 34638 2768 2509 1611 318 1293 898 410 488
is_linear=0
shrinkage=0.05


Tree=9
num_leaves=16
num_cat=0
split_feature=19 19 19 11 11 115 115 105 15 83 115 74 86 1 82
split_gain=94.2664 93.0872 84.8707 72.3623 73.001 65.324 55.8632 30.7288 18.0436 37.6131 18.236 15.7184 14.311 13.3731 12.4443
threshold=-1.3949999809265134 0.56499999761581432 1.5850000381469729 32.184763908386238 -6.3648276329040518 0.041600012990068137 -0.022550121118615971 80.366451263427749 0.22211059953480741 0.068407655243187829 0.11305554457693447 1.5843256711959841 1.8500006515767955 312.00000000000006 0.81294132853502743
decision_type=2 2 2 2 2 2 2 2 2 2 2 2 2 2 2
left_child=7 3 6 4 -2 -4 -3 8 10 -10 -1 14 -13 -5 -9
right_child=1 2 5 13 -6 -7 -8 11 9 -11 -12 12 -14 -15 -16
leaf_value=0.0033558167811682527 -0.011823432162315572 -0.015441635581117783 0.0057568810303831337 -0.097416510058681599 -0.0011884083648728953 -0.017013295143435758 0.0082463817527788207 -0.0061353001603942654 0.045949422996499262 -0.023771761245828225 0.037718312258491364 -0.023758256005418858 0.015833556618166256 -0.017831944773314647 -0.069607121664392688
leaf_weight=44.957705482840538 2076.7407441884279 262.68536449968815 545.97257739305496 24.244099661707882 7235.1519753932953 744.47184482216835 4739.4141875952482 24.862761065363884 33.899582237005234 45.052451923489571 273.46119627356529 26.609695941209793 160.45162743330002 6.7476896047592154 11.201490938663481
leaf_count=182 8317 1052 2185 97 28965 2981 19013 100 137 181 1111 107 646 27 45
internal_value=0.00011057 -0.000647933 0.00405304 -0.00381409 -0.00356023 -0.00737949 0.00700241 0.0192235 0.0275613 0.00616438 0.0328667 0.00437456 0.0102016 -0.080089 -0.0258495
internal_weight=16255.9 15635.4 6292.54 9342.88 9311.89 1290.44 5002.1 620.497 397.371 78.952 318.419 223.126 187.061 30.9918 36.0643
internal_count=65146 62637 25231 37406 37282 5166 20065 2509 1611 318 1293 898 753 124 145
is_linear=0
shrinkage=0.05


Tree=10
num_leaves=16
num_cat=0
split_feature=12 18 13 115 13 12 14 13 12 115 35 11 54 49 93
split_gain=156.661 76.4114 63.2883 65.6994 58.3202 67.0573 91.7136 69.635 45.5232 45.1208 35.6704 26.7968 20.6036 18.2184 13.7502
threshold=-0.17149897664785382 -4.1568955882030645 -0.034439586689557697 0.081722951872224323 -0.0070064090780493351 1.8585196137428286 0.51761818048658947 0.42791894206600306 0.51419386267662059 1.0000000180025095e-35 65.572689479124293 -3.2453719377517696 -0.0019752663510316086 0.15176816539848162 5.6827780601155817
decision_type=2 2 2 2 2 2 2 2 2 2 2 2 2 2 2
left_child=1 9 10 -4 8 6 -6 -7 11 13 -3 -2 -10 -1 -11
right_child=4 2 3 -5 5 7 -8 -9 12 14 -12 -13 -14 -15 -16
leaf_value=0.017557420569114097 0.079093490445105843 -0.058387741803951836 -5.5981779858663986e-05 0.0094423853747107166 -0.0047255502686039492 -0.0014185121664179439 -0.019986076036203646 0.02342988733684967 0.064867861074648148 0.045565196402614923 0.00034302599882759415 -0.01053886765810233 0.022195783915161606 -0.069628387378703055 -0.010521907080950998
leaf_weight=10.954243794083597 9.1353504657745344 61.871551185846329 3409.4051836282015 3906.6042663007975 5409.8190433084965 1479.4897440075874 1203.5856720805168 348.33104628324509 55.235534831881523 184.85409277677536 44.410448327660561 95.607687622308731 57.98112116754055 13.226540833711622 11.614124953746794
leaf_count=44 37 248 13656 15689 21665 5926 4819 1395 223 748 178 383 234 53 47
internal_value=0.000104271 0.00532146 0.00445947 0.00501596 -0.00450063 -0.00515999 -0.00750284 0.00331689 0.0210355 0.0343174 -0.0338468 -0.00272142 0.0430144 -0.030132 0.0422496
internal_weight=16302.1 7642.94 7422.29 7316.01 8659.19 8441.23 6613.4 1827.82 217.96 220.649 106.282 104.743 113.217 24.1808 196.468
internal_count=65345 30663 29771 29345 34682 33805 26484 7321 877 892 426 420 457 97 795
is_linear=0
shrinkage=0.05


Tree=11
num_leaves=16
num_cat=0
split_feature=12 18 19 19 16 19 13 115 115 115 115 13 49 100 17
split_gain=141.423 69.3005 69.1181 69.3104 92.9617 79.5394 57.076 59.3397 44.0212 49.3783 40.8983 31.5884 16.464 13.5164 10.6232
threshold=-0.17149897664785382 -4.1568955882030645 2.1700000762939458 0.56499999761581432 -0.16511544467733275 -1.314999997615814 -0.034439586689557697 0.081722951872224323 0.020298011776845974 -0.13372089851637073 1.0000000180025095e-35 -0.038174947090943288 0.210742920873254 10.898247241973879 0.24447519714641255
decision_type=2 2 2 2 2 2 2 2 2 2 2 2 2 2 2
left_child=1 10 3 5 -5 -2 11 -8 9 -4 12 -3 -1 -10 -12
right_child=2 6 8 4 -6 -7 7 -9 13 -11 14 -13 -14 -15 -16
leaf_value=-0.0023062603266374971 0.016179357831956547 -0.0014556893593845161 -0.066363064287903117 0.039402071154124939 8.9330662835683557e-05 -0.0090153806352335063 -5.3181740487582816e-05 0.0089747905987680992 -0.060901119287582767 0.010026425882170599 0.049948744359582742 -0.056329033913825655 -0.093297746786322522 0.019739428118263787 0.026232784178453247
leaf_weight=17.192121997475628 335.76068007946014 46.928261756896973 28.929005146026611 157.59549935162067 3282.4093538075686 4674.2074738740921 3409.4112842082977 3904.684525474906 95.16529081761837 78.720361664891243 116.09201216697693 59.453457176685333 6.9936593621969214 5.4964397847652426 79.591149136424065
leaf_count=69 1348 188 116 632 13155 18713 13656 15689 381 315 473 238 28 22 322
internal_value=9.92277e-05 0.0050573 -0.00427594 -0.00357452 0.00189035 -0.00732687 0.00423762 0.00476647 -0.0327285 -0.010502 0.0327213 -0.0321227 -0.0286177 -0.0564979 0.0403026
internal_weight=16298.6 7640.35 8658.28 8449.97 3440 5009.97 7420.48 7314.1 208.311 107.649 219.869 106.382 24.1858 100.662 195.683
internal_count=65345 30663 34682 33848 13787 20061 29771 29345 834 431 892 426 97 403 795
is_linear=0
shrinkage=0.05


Tree=12
num_leaves=16
num_cat=0
split_feature=12 18 12 115 11 17 11 14 14 115 49 14 93 42 74
split_gain=127.683 63.1986 56.1816 58.8 52.4625 54.2803 60.1158 56.0542 39.8876 37.1037 15.4948 13.4737 12.5343 12.2812 11.695
threshold=-0.14246949553489682 -4.1568955882030645 -3.3523532152175899 0.081722951872224323 60.187828063964851 0.56983372313901282 -52.165761947631829 0.45771727809590251 0.52643158594751516 1.0000000180025095e-35 0.15176816539848162 0.50996750858312112 5.6827780601155817 -0.020433432083788044 6.3722364902496347
decision_type=2 2 2 2 2 2 2 2 2 2 2 2 2 2 2
left_child=1 9 8 -4 5 6 -2 -7 -3 10 -1 14 -11 -13 -6
right_child=4 2 3 -5 11 7 -8 -9 -10 12 -12 13 -14 -15 -16
leaf_value=0.016809530793095624 0.024395681224122532 -0.035620101321111625 -0.00020951659009621015 0.0087256195284744886 0.051209449429776947 0.0088316506927673521 -0.0098733638414120108 -0.0040156711305313576 0.071028247649144463 0.041665809083763168 -0.063610454979424524 0.036167356538196575 -0.011965123426796984 -0.045501633990851081 -0.019358647978093373
leaf_weight=10.944892376661302 132.34693084657192 124.57025541365147 3454.4259694367647 3942.8619208782911 62.462369993329048 1142.1380902975798 3873.9559029340744 3308.3568802922964 9.4311605989932996 183.16781210899353 13.229456812143324 9.4643666446208972 11.583549171686171 8.9623234868049604 6.4802530556917182
leaf_count=44 531 499 13836 15850 251 4583 15516 13249 38 748 53 38 47 36 26
internal_value=9.43659e-05 0.00474161 0.00397181 0.00455304 -0.00412104 -0.00451927 -0.0087413 -0.000718641 -0.0281141 0.0312238 -0.0272005 0.0344253 0.0384759 -0.00355459 0.0445764
internal_weight=16294.4 7750.22 7531.29 7397.29 8544.17 8456.8 4006.3 4450.49 134.001 218.926 24.1743 87.3693 194.751 18.4267 68.9426
internal_count=65345 31115 30223 29686 34230 33879 16047 17832 537 892 97 351 795 74 277
is_linear=0
shrinkage=0.05


Tree=13
num_leaves=16
num_cat=0
split_feature=19 13 110 11 13 11 13 16 95 19 11 15 17 18 28
split_gain=83.0142 84.5603 84.7007 70.9681 57.0304 44.4834 43.8321 63.4904 52.0571 38.1592 37.3461 36.351 36.3481 25.2394 20.3245
threshold=-1.2549999952316282 -0.0070064090780493351 0.0087474771489998177 60.187828063964851 -0.0045726992229612176 -12.621081829071043 0.39460776118482871 0.12546322744835192 2.0729391446354248 0.79500001668930065 -12.241961002349852 0.068703163326819597 -0.74174613479789275 0.13222211537292219 1.0000000180025095e-35
decision_type=2 2 2 2 2 2 2 2 2 2 2 2 2 2 2
left_child=6 2 5 4 -3 -2 7 12 10 -5 -8 -4 -1 -10 -9
right_child=1 3 11 9 -6 -7 8 14 13 -11 -12 -13 -14 -15 -16
leaf_value=0.054372355983821757 -0.059705235472054946 -0.029159270156080483 0.0045130654918648866 0.035592891708031114 -0.0019980004658344251 0.0027988152458331577 -0.024375664201978533 -0.07380706522416236 -0.013647005258419109 -0.027331592113322874 0.03163710799789176 0.037248900820052395 0.0030223472441039531 0.017511080765470987 -0.012396623978512784
leaf_weight=37.215926066040993 30.472815006971359 196.04506254196167 112.9422220736742 178.99383597075939 13613.545577794313 432.16843815147877 31.618531569838524 33.680502891540527 137.18959918618202 27.841054573655128 505.86364343762398 340.36853677034378 465.70859932899475 123.50700090825558 22.456768572330475
leaf_count=156 122 786 458 729 54548 1739 127 135 551 112 2038 1375 1882 497 90
internal_value=8.97791e-05 -0.000986326 0.0137324 -0.00194817 -0.00238359 -0.00131814 0.0119291 0.00119272 0.0194491 0.0271229 0.028342 0.0290928 0.0068222 0.00111438 -0.0492409
internal_weight=16289.6 14932.4 915.952 14016.4 13809.6 462.641 1357.24 559.062 798.179 206.835 537.482 453.311 502.925 260.697 56.1373
internal_count=65345 59869 3694 56175 55334 1861 5476 2263 3213 841 2165 1833 2038 1048 225
is_linear=0
shrinkage=0.05


Tree=14
num_leaves=16
num_cat=0
split_feature=12 19 12 14 19 17 12 11 115 115 14 113 102 100 107
split_gain=112.005 60.5483 71.3333 55.9952 55.0482 54.8182 49.9531 50.2933 39.9581 44.5231 36.0836 14.5385 14.5164 12.2578 5.00171
threshold=-0.057298080995678895 2.1700000762939458 1.8585196137428286 0.45859390988274434 0.67500001192092907 -1.5589482591587396 -3.3523532152175899 26.526336669921879 0.020298011776845974 -0.13372089851637073 0.52643158594751516 -0.40448366220331711 45.17894363403321 10.898247241973879 0.92540466239853736
decision_type=2 2 2 2 2 2 2 2 2 2 2 2 2 2 2
left_child=5 2 3 -2 -4 11 10 -8 9 -3 -7 12 -1 -10 -13
right_child=1 8 4 -5 -6 6 7 -9 13 -11 -12 14 -14 -15 -16
leaf_value=0.066245337545038793 -0.00012098491740140955 -0.062784939774547466 -0.0016744902709744593 -0.009905054496018896 0.016593239205789877 -0.033709546786555432 0.0036091487066570263 0.02931065082629139 -0.057637771483763416 0.0098852680485358585 0.068062892275768269 0.055662807581891807 -0.025403517678096073 0.019157351921200858 0.004061124620400194
leaf_weight=6.3618585467338589 2448.3817044049501 28.784024626016617 1041.7568881809711 3631.1154069900513 682.62305350601673 124.34828762710094 7851.2220028787851 195.07069408893585 94.932280823588371 78.720316305756569 9.3653723895549756 69.508209392428398 13.465690970420836 5.4970829933881751 5.0362790524959555
leaf_count=27 9818 116 4173 14541 2737 499 31512 797 381 315 38 293 55 22 21
internal_value=8.5528e-05 -0.00412834 -0.00341883 -0.00596474 0.00555708 0.00416568 0.00372855 0.00423224 -0.030757 -0.009572 -0.0265814 0.0420553 0.00400289 -0.0534343 0.0521766
internal_weight=16286.2 8011.81 7803.88 6079.5 1724.38 8274.38 8180.01 8046.29 207.934 107.504 133.714 94.372 19.8275 100.429 74.5445
internal_count=65345 32103 31269 24359 6910 33242 32846 32309 834 431 537 396 82 403 314
is_linear=0
shrinkage=0.05


Tree=15
num_leaves=16
num_cat=0
split_feature=19 11 115 11 17 11 17 17 102 8 11 102 90 10 78
split_gain=69.2582 67.6204 83.2712 53.2118 50.5141 49.1591 27.4197 38.666 15.8521 14.2301 13.4574 12.8226 9.52651 8.97788 7.31502
threshold=-1.3949999809265134 1.3224202990531924 0.35540377018668973 78.368366241455092 5.8442839951756076 -52.165761947631829 -0.15659198053386267 0.96705143416635597 69.042083740234389 41.843955993652351 -7.023533582687377 65.747814178466811 5.0858756236870741 21.196499824523929 0.048383616858341673
decision_type=2 2 2 2 2 2 2 2 2 2 2 2 2 2 2
left_child=6 2 5 4 -3 -2 12 8 -8 -9 -4 -5 14 -14 -1
right_child=1 3 10 11 -6 -7 7 9 -10 -11 -12 -13 13 -15 -16
leaf_value=0.060733709548737337 0.024885860792411937 0.0014295181503539423 0.0042745794111738672 0.046495171964163987 0.02695449720525632 -0.0055587032024553631 0.0066986439950574217 0.035658655511059879 -0.020589549175212787 0.0077130130362373624 0.028895103337380979 -0.011161471000537139 -0.014615037156291005 0.050706673823242267 0.015321290629169926
leaf_weight=51.418543323874474 134.98795385658741 7424.8243926763535 75.259192675352097 83.609409064054489 199.02605579793453 7477.0721553117037 234.21520233154297 162.56908872723579 68.86923548579216 63.286851212382317 211.41679665446281 10.900264114141462 11.93259207904339 9.4069652706384641 10.715614870190619
leaf_count=214 542 29777 302 348 800 29975 950 666 277 259 849 45 49 39 44
internal_value=-0.000123411 -0.000770219 -0.00402253 0.0025581 0.00209587 -0.00501882 0.0163708 0.0121678 0.000498006 0.027828 0.0224316 0.0398453 0.043003 0.0141803 0.0529019
internal_weight=16229.5 15617.1 7898.74 7718.36 7623.85 7612.06 612.414 528.94 303.084 225.856 286.676 94.5097 83.4737 21.3396 62.1342
internal_count=65136 62638 31668 30970 30577 30517 2498 2152 1227 925 1151 393 346 88 258
is_linear=0
shrinkage=0.05


Tree=16
num_leaves=16
num_cat=0
split_feature=12 18 115 17 11 11 14 14 12 11 115 115 52 103 56
split_gain=102.93 50.8963 50.8038 48.5638 59.9049 66.5278 48.0864 59.4251 59.4017 46.991 42.298 21.8823 18.5485 16.9459 16.3544
threshold=-0.17149897664785382 -4.1568955882030645 0.093975002120649284 0.54812889837810286 -52.165761947631829 -8.6189231872558576 0.45771727809590251 0.45401925832537821 1.9790025353431704 -7.6643941402435294 -0.12267490313459416 1.0000000180025095e-35 -0.18235203080882204 42.002136230468757 -0.0020470526923952984
decision_type=2 2 2 2 2 2 2 2 2 2 2 2 2 2 2
left_child=1 11 10 4 13 -6 7 -5 -8 -4 -3 12 -1 -2 -13
right_child=3 2 9 6 5 -7 8 -9 -10 -11 -12 14 -14 -15 -16
leaf_value=-0.05982724728236849 0.048856422680112886 0.026379354773730108 -0.0061460370249727218 0.0036001798527991132 -0.02249267413087452 -0.0058057120877964309 -0.0072515946145846142 0.034774993411183112 0.0076631140547705106 0.010218235805576164 -0.0015074845512893587 0.037902257072624373 0.029324944312527631 0.011310224554025389 -0.024120617046846492
leaf_weight=12.196036368608477 49.605967596173286 141.0982156842947 514.34141151607037 976.69043649733067 735.23268520832062 3183.6739531308413 2522.6912213116884 181.22715136408806 907.83254720270634 2982.7663298100233 3745.4076403826475 175.05419726669788 11.18470676243305 76.238037928938866 11.31546328961849
leaf_count=49 199 565 2070 3922 2951 12756 10104 727 3639 12022 15011 722 45 307 47
internal_value=-0.000117064 0.0041291 0.00343915 -0.00385179 -0.00784597 -0.00893638 -0.000330891 0.00847939 -0.00330466 0.00781144 -0.000495063 0.0284164 -0.0171793 0.0261104 0.0341365
internal_weight=16226.6 7593.36 7383.61 8633.19 4044.75 3918.91 4588.44 1157.92 3430.52 3497.11 3886.51 209.75 23.3807 125.844 186.37
internal_count=65136 30531 29668 34605 16213 15707 18392 4649 13743 14092 15576 863 94 506 769
is_linear=0
shrinkage=0.05


Tree=17
num_leaves=16
num_cat=0
split_feature=12 19 19 16 14 18 11 11 93 56 16 56 16 51 104
split_gain=92.9291 47.7164 61.801 88.8119 59.9743 46.2538 45.3482 45.2646 17.4761 17.9823 16.9403 19.6638 12.8352 11.4048 9.46718
threshold=-0.17149897664785382 2.1700000762939458 0.55500000715255748 -0.16511544467733275 0.51685982805545383 -4.1568955882030645 78.368366241455092 53.835346221923835 3.5957023081586219 -0.0021138519472427438 0.0020426746324736515 -0.12422719754865701 0.2538234305908475 -0.048244260410048485 80.141426086425795
decision_type=2 2 2 2 2 2 2 2 2 2 2 2 2 2 2
left_child=5 2 4 -4 -2 8 7 -7 9 -1 11 -3 -12 -10 -8
right_child=1 10 3 -5 -6 6 14 -9 13 -11 12 -13 -14 -15 -16
leaf_value=0.038035148356580756 -0.0047981574942023708 -0.063249823779028311 0.03815271293413567 0.00026955134661621488 -0.02294209753507338 0.0031475765224578097 0.042230447587022636 -0.045179519809162252 -0.032884523391125416 -0.027080765285143429 -0.040696880050159347 0.010615848238183699 0.0034693349722890337 0.023339648786867135 -0.019970990409377762
leaf_weight=161.25394150614738 4428.3260213881731 11.182827711105345 162.2757873237133 3318.3860790878534 507.66476666927338 7239.2862028628588 86.984545528888702 48.779086858034134 17.871320188045502 11.348781898617743 138.37622618675232 46.370608910918236 18.669159382581711 18.209657326340675 6.5800470411777487
leaf_count=668 17749 45 652 13307 2034 29079 366 196 73 47 557 186 75 75 27
internal_value=-0.000111151 -0.00366004 -0.00306642 0.00203574 -0.00666425 0.00392443 0.00326816 0.00282412 0.0271382 0.0337537 -0.0269422 -0.0037365 -0.0354465 -0.00450883 0.0378561
internal_weight=16221.6 8631.25 8416.65 3480.66 4935.99 7590.31 7381.63 7288.07 208.684 172.603 214.599 57.5534 157.045 36.081 93.5646
internal_count=65136 34605 33742 13959 19783 30531 29668 29275 863 715 863 231 632 148 393
is_linear=0
shrinkage=0.05


Tree=18
num_leaves=16
num_cat=0
split_feature=12 17 11 11 12 18 15 17 102 17 12 19 7 65 37
split_gain=84.371 48.9413 56.5097 65.3225 49.7871 74.8595 62.5877 44.7802 43.8192 53.6771 34.5334 15.7447 12.1804 10.1838 1.94017
threshold=-0.057298080995678895 0.54812889837810286 -52.165761947631829 -8.6189231872558576 0.38742293417453771 2.8227719526172206 0.38744878290982127 -1.1623614088085732 58.842197418212898 0.12082202298804125 -3.1030068397521968 0.17500000447034839 8.5490694046020526 0.33751514935734561 0.01593476523104714
decision_type=2 2 2 2 2 2 2 2 2 2 2 2 2 2 2
left_child=7 2 11 -4 6 -6 -3 12 9 -9 -10 -2 13 -1 -14
right_child=1 4 3 -5 5 -7 -8 8 10 -11 -12 -13 14 -15 -16
leaf_value=0.033961215901092308 0.051270301731197121 -0.016451361310005051 -0.022980157259145997 -0.0058305371750649194 0.0058086912903442265 -0.014168186253491678 0.02455819627386065 0.012204081369984941 -0.032444875637982769 0.0016691097516729561 -0.00087818850274218102 0.013089903292813202 0.08233602034097029 -0.00010276153834784944 0.044623446368857615
leaf_weight=94.643029347062111 39.275990307331085 717.40638670325279 685.25871181488037 2926.8364428430796 2874.9882948547602 560.35899150371552 106.90131469070911 1989.6089069098234 89.291439697146416 3082.1430208235979 2918.4095972329378 86.403307259082794 11.932995647192003 28.563065379858017 4.7751289010047904
leaf_count=399 158 2876 2755 11730 11525 2249 428 8005 359 12383 11731 348 51 119 20
internal_value=-0.00010553 -0.00376171 -0.00793726 -0.00908403 -9.77448e-05 0.00255015 -0.011133 0.00345193 0.00296627 0.0058019 -0.00181533 0.0250216 0.0314968 0.0260641 0.0715579
internal_weight=16216.8 7997.43 3737.77 3612.1 4259.65 3435.35 824.308 8219.37 8079.45 5071.75 3007.7 125.679 139.914 123.206 16.7081
internal_count=65136 32069 14991 14485 17078 13774 3304 33067 32478 20388 12090 506 589 518 71
is_linear=0
shrinkage=0.05


Tree=19
num_leaves=15
num_cat=0
split_feature=12 17 16 13 17 115 18 115 11 12 18 115 55 22
split_gain=76.353 47.6524 41.9314 92.2623 65.8022 41.2389 38.6237 39.0062 38.5658 75.12 41.0603 24.1047 3.93389 4.87785
threshold=-0.17149897664785382 -2.1108473370649672 1.0000000180025095e-35 -0.00046237447085164385 9.5160326335256116 0.093975002120649284 -4.1568955882030645 -0.087063882438688442 16.622014045715336 -3.1030068397521968 0.073318069589480353 1.0000000180025095e-35 -0.01071590820325328 -0.046503044227192099
decision_type=2 2 2 2 2 2 2 2 2 2 2 2 2 2
left_child=5 12 3 -3 -4 6 11 -8 10 -10 -7 -1 13 -2
right_child=1 2 4 -5 -6 8 7 -9 9 -11 -12 -13 -14 -15
leaf_value=-0.017289595160982555 -0.023104285533837202 0.027554234240937281 0.001068085687339726 -0.008052735703749871 -0.064963343461386422 0.00069111673307206537 0.021741511915050256 -0.0018977782522799443 -0.027220803452508515 0.036985200464812205 0.011897544161486043 0.03946197088712227 -0.095998163548901949 -0.076617393197644948
leaf_weight=23.316996768116951 6.9679713547229793 190.13228744268417 4157.0587555617094 4214.937122002244 38.074915587902069 1758.0380669087172 183.13572613894939 3702.3037284314632 56.271003380417824 239.23821099102497 1527.6652019321918 94.709598630666733 9.2225592285394651 10.951057195663454
leaf_count=94 28 765 16660 16918 153 7098 734 14842 227 982 6162 392 37 44
internal_value=-0.000100222 -0.00331754 -0.00310879 -0.00651586 0.000468786 0.00355938 7.23828e-05 -0.000783567 0.00745753 0.0247591 0.00590147 0.0282503 -0.0694646 -0.0558084
internal_weight=16212 8627.34 8600.2 4405.07 4195.13 7584.68 4003.47 3885.44 3581.21 295.509 3285.7 118.027 27.1416 17.919
internal_count=65136 34605 34496 17683 16813 30531 16062 15576 14469 1209 13260 486 109 72
is_linear=0
shrinkage=0.05


Tree=20
num_leaves=16
num_cat=0
split_feature=19 13 16 19 13 14 11 14 11 4 14 56 48 9 43
split_gain=67.6874 57.2914 68.6064 66.5299 61.8521 58.5738 57.5598 27.1853 27.0474 22.8671 21.9968 25.2 9.27176 7.48411 6.29877
threshold=-1.3949999809265134 -0.0070064090780493351 -0.0097577800614953008 0.83499997854232799 -0.0045726992229612176 0.48434760678679251 -3.6757018566131587 0.50503065658142721 -11.240687847137449 45.158500671386726 0.50386504834746326 -0.0081914106781212272 -0.0071950989964678349 12.700000286102297 0.16259306184030101
decision_type=2 2 2 2 2 2 2 2 2 2 2 2 2 2 2
left_child=7 2 8 -4 5 -3 -6 10 -2 14 11 -1 -12 -11 -9
right_child=1 4 3 -5 6 -7 -8 9 -10 13 12 -13 -14 -15 -16
leaf_value=0.027440839930495772 -0.0029178674624465075 -0.050098058653873435 -0.0081076810121530687 0.02536020666526256 -0.0055361431011868708 0.0057049183057200628 0.0012203980415701789 -0.033789894092670074 0.042002319997431314 -0.0022027537949928576 0.065126756533863905 0.0055033521218533481 -0.003544221942973564 0.072226328728718037 -0.08631292321183319
leaf_weight=264.31315940618515 40.227418348193169 124.10149469971657 434.5281690210104 225.5776699334383 4637.2434151023626 75.715322390198708 9842.9165775030851 15.107047513127329 200.69775779545307 8.9259340763092023 33.943911895155907 259.36720915138721 5.7476751059293738 5.4334712177515021 9.1748663038015348
leaf_count=1087 162 498 1755 916 18607 303 39510 61 818 36 140 1062 24 22 37
internal_value=6.21432e-05 -0.000573479 0.0116645 0.00332929 -0.00132462 -0.028953 -0.000943371 0.016513 0.034502 -0.0240571 0.0192957 0.0165757 0.0551826 0.0259605 -0.0536356
internal_weight=16183 15581 901.031 660.106 14680 199.817 14480.2 602.013 240.925 38.6413 563.372 523.68 39.6916 14.3594 24.2819
internal_count=65038 62569 3651 2671 58918 801 58117 2469 980 156 2313 2149 164 58 98
is_linear=0
shrinkage=0.05


Tree=21
num_leaves=15
num_cat=0
split_feature=12 17 14 14 13 12 13 74 17 11 14 86 3 89
split_gain=61.4701 50.9539 46.256 76.9526 60.5138 44.549 40.5637 51.1307 38.3679 37.0513 36.6571 20.8845 19.2619 13.1773
threshold=-0.057298080995678895 0.55795146995637002 0.45771727809590251 0.48674460915820378 0.48461768527164134 -3.3523532152175899 -0.023187531017662643 3.250460267066956 -2.1108473370649672 -52.165761947631829 0.52643158594751516 -10.942472964791492 5.05900001525879 4.0038943396874673
decision_type=2 2 2 2 2 2 2 2 2 2 2 2 2 2
left_child=5 8 4 -4 -3 10 11 -8 13 -10 12 -7 -1 -2
right_child=1 2 3 -5 -6 6 7 -9 9 -11 -12 -13 -14 -15
leaf_value=-0.043024707248456452 -0.081516240085834468 0.0076369391782043182 -0.015185021379938022 0.0023657004923550353 0.071578976714027048 0.035875334158935387 0.0026154198160155606 0.014783599799923108 0.020275841745690425 -0.0077847407803505785 0.069332406417560763 -0.023406695703208899 0.0053001155993681118 0.0083460464821871767
leaf_weight=97.64244756102562 23.048926413059238 960.64631520211697 844.46554771065712 2398.373173892498 38.483971983194351 16.158743411302567 6866.8150436729193 987.46477010846138 121.61229048669338 3600.195911154151 9.4529424607753736 184.34861977398396 26.140943184494972 4.9568861573934546
leaf_count=394 93 3859 3382 9617 154 65 27629 4001 490 14449 39 741 105 20
internal_value=5.92626e-05 -0.00306022 0.000693462 -0.00220467 0.0100998 0.00310399 0.00357832 0.00414524 -0.00730657 -0.00686784 -0.0255718 -0.0186292 -0.0328193 -0.0656111
internal_weight=16179.8 7991.78 4241.97 3242.84 999.13 8188.02 8054.79 7854.28 3749.81 3721.81 133.236 200.507 123.783 28.0058
internal_count=65038 32064 17012 12999 4013 32974 32436 31630 15052 14939 538 806 499 113
is_linear=0
shrinkage=0.05


Tree=22
num_leaves=16
num_cat=0
split_feature=19 19 16 115 19 15 12 14 14 4 14 56 48 1 48
split_gain=60.5819 52.6743 92.9495 146.987 74.2531 60.2289 61.8358 60.2425 24.663 20.5528 20.1493 22.9318 8.56523 7.75051 7.13373
threshold=-1.3949999809265134 0.53499999642372142 -0.16511544467733275 -0.0023681908167824308 1.5549999475479128 0.26017123919809665 0.47501751780509954 0.51685982805545383 0.50503065658142721 45.158500671386726 0.50386504834746326 -0.0081914106781212272 -0.0071950989964678349 50.500000000000007 -0.024929325901339942
decision_type=2 2 2 2 2 2 2 2 2 2 2 2 2 2 2
left_child=8 5 3 -3 -4 6 -2 -7 10 13 11 -1 -12 -10 -11
right_child=1 2 4 -5 -6 7 -8 -9 9 14 12 -13 -14 -15 -16
leaf_value=0.026104238669314918 -0.0033164873912566897 -0.088617586550217287 0.0047597981161838282 0.050393712642976311 -0.008058901501426706 0.0025757667084097473 -0.016841469936608507 -0.013318424759891302 -0.0094264682005428188 0.06124118033723961 0.062516012481453984 0.0051482981086316965 -0.0035482220409640969 -0.070088310763633241 -0.0094196909743082518
leaf_weight=263.12770253419876 2551.6937506049871 21.21134640276432 4885.332159653306 183.7356420904398 1469.5302141606808 4512.7342239171267 1263.583810672164 686.9096322208643 7.6985115259885815 6.8854064643383026 33.519485533237457 259.08800947666168 5.7474570721387854 16.66094870865345 7.4223321825265867
leaf_count=1087 10236 85 19678 740 5901 18088 5083 2758 31 28 140 1062 24 67 30
internal_value=5.63166e-05 -0.00054436 0.00286438 0.0360065 0.00179554 -0.00302477 -0.00779583 0.000476032 0.0156447 -0.0229795 0.0183046 0.0157073 0.0528463 -0.0509169 0.0245849
internal_weight=16174.9 15574.7 6559.81 204.947 6354.86 9014.92 3815.28 5199.64 600.15 38.6672 561.483 522.216 39.2669 24.3595 14.3077
internal_count=65038 62569 26404 825 25579 36165 15319 20846 2469 156 2313 2149 164 98 58
is_linear=0
shrinkage=0.05


Tree=23
num_leaves=16
num_cat=0
split_feature=19 13 16 19 13 14 11 11 14 14 17 4 48 1 9
split_gain=54.8474 49.8641 62.2578 59.0782 57.0367 53.4491 50.6922 23.6723 22.3127 18.5597 21.9764 18.5152 7.92344 6.96056 6.65795
threshold=-1.3949999809265134 -0.0070064090780493351 -0.0097577800614953008 0.83499997854232799 -0.0045726992229612176 0.48434760678679251 1.3224202990531924 -11.240687847137449 0.50503065658142721 0.50386504834746326 -0.15659198053386267 45.158500671386726 -0.0071950989964678349 50.500000000000007 12.700000286102297
decision_type=2 2 2 2 2 2 2 2 2 2 2 2 2 2 2
left_child=8 2 7 -4 5 -3 -6 -2 9 10 -1 13 -11 -10 -13
right_child=1 4 3 -5 6 -7 -8 -9 11 12 -12 14 -14 -15 -16
leaf_value=0.039690486834267825 -0.0022407067839397164 -0.047914258893675857 -0.0077807040422811198 0.023798394033441601 -0.0037006420640479619 0.0053783335427087468 0.0022218548888217208 0.03980296650719279 -0.0089500533265397149 0.060216493241819324 0.01069551103540247 -0.0030283707428235482 -0.0033683655698024972 -0.066402556908787741 0.067537683102687901
leaf_weight=76.620576977729797 40.236754819750786 124.26793760061264 434.57718680799007 224.67302446067333 7509.23706138134 75.714593067765236 6963.4737959802151 199.35853506624699 7.7027767300605801 33.070937782526016 444.30901442468166 8.9124458134174329 5.7515221387147895 16.705104127526283 5.3486631810665122
leaf_count=324 162 498 1755 916 30140 303 27977 818 31 140 1825 36 24 67 22
internal_value=5.36545e-05 -0.000517207 0.0109145 0.00298148 -0.00121751 -0.0277374 -0.000851062 0.0327423 0.0149081 0.0174457 0.0149602 -0.0218251 0.0507964 -0.0482714 0.0234376
internal_weight=16170 15571.5 898.846 659.25 14672.7 199.983 14472.7 239.595 598.421 559.752 520.93 38.669 38.8225 24.4079 14.2611
internal_count=65038 62569 3651 2671 58918 801 58117 980 2469 2313 2149 156 164 98 58
is_linear=0
shrinkage=0.05


Tree=24
num_leaves=15
num_cat=0
split_feature=12 17 19 12 12 14 19 115 71 16 14 14 3 67
split_gain=52.2118 43.025 43.0094 39.8695 39.7318 37.1396 67.8583 52.4067 35.6093 34.3858 33.8793 20.8644 17.7227 16.5902
threshold=-0.057298080995678895 0.55795146995637002 2.4850000143051152 -3.3523532152175899 0.38742293417453771 0.4674756876214668 -0.67500001192092884 -0.011225794362738151 24.658649444580082 -0.24601578851814793 0.52643158594751516 0.51685982805545383 5.05900001525879 20.424300580916228
decision_type=2 2 2 2 2 2 2 2 2 2 2 2 2 2
left_child=3 5 4 10 -3 6 -2 -7 9 -5 12 -10 -1 -4
right_child=1 2 13 8 -6 7 -8 -9 11 -11 -12 -13 -14 -15
leaf_value=-0.041105826177353734 0.02486024284017755 -0.0087220819414342288 0.014871052246761716 0.030869075065992541 0.0035990842877040145 -0.028042624505689513 -0.005470731318771036 -0.0069294398735000986 0.0007080307172887809 0.0053900008169772314 0.067383450250920005 -0.012364722672514641 0.0052677568549513 -0.055686900243628545
leaf_weight=97.230322748422623 201.94769829511642 811.83397530019283 10.179076209664343 136.40145480632782 3371.7611380517483 415.15026330947876 2122.6911740452051 1006.4416360259056 3035.7500116825104 4536.0710738748312 9.3611565530300123 339.33682517707348 26.142409577965736 45.887428775429726
leaf_count=394 811 3257 41 551 13529 1668 8533 4040 12241 18283 39 1361 105 185
internal_value=5.11938e-05 -0.0028247 0.000625148 0.00285875 0.00120814 -0.00672895 -0.0028358 -0.0130952 0.00330704 0.0061338 -0.0243211 -0.000606326 -0.0312794 -0.0428768
internal_weight=16166.2 7985.89 4239.66 8180.29 4183.6 3746.23 2324.64 1421.59 8047.56 4672.47 132.734 3375.09 123.373 56.0665
internal_count=65038 32064 17012 32974 16786 15052 9344 5708 32436 18834 538 13602 499 226
is_linear=0
shrinkage=0.05


Tree=25
num_leaves=16
num_cat=0
split_feature=12 13 16 13 12 13 73 18 18 17 12 11 13 80 13
split_gain=55.7805 48.9884 45.918 68.5968 52.4172 40.2736 39.8837 35.7408 64.9634 42.8816 28.5166 18.2313 13.503 10.3709 9.36288
threshold=-0.057298080995678895 -0.008885218292987716 1.0000000180025095e-35 0.42981934537605421 1.8382301330566408 -0.034439586689557697 0.58847778641741277 -2.8068350150663721 -2.5372548097143346 0.12082202298804125 0.51419386267662059 -3.2453719377517696 -0.038174947090943288 -4.8300730811425634 -0.038174947090943288
decision_type=2 2 2 2 2 2 2 2 2 2 2 2 2 2 2
left_child=5 10 4 -4 -3 6 14 9 -9 -7 11 -2 -8 -12 -1
right_child=1 2 3 -5 -6 7 12 8 -10 -11 13 -13 -14 -15 -16
leaf_value=-0.038106052073551222 0.0670348155693124 -0.010237251675146233 -0.002785927299089806 0.014484937112149709 0.0039206818237774539 0.030711728067079471 0.019484088956078047 -0.049350804737408722 0.0029857915959170364 -0.0023601713206761877 0.078235050403608508 -0.0053600294947978222 -0.026013979059557074 0.034539328271293794 -0.082163907039680698
leaf_weight=23.147056177258492 9.7775600701570493 3149.7097560912371 3159.8768954277039 702.80408738553524 824.9874509125948 249.40470995008945 35.824387639760971 59.757554933428764 7615.1776415407658 161.47333446145058 16.598539590835571 78.651793077588081 29.933180958032608 74.655562981963158 25.172942698001862
leaf_count=93 41 12662 12669 2818 3318 1039 144 240 30670 657 69 315 120 305 101
internal_value=3.16828e-05 -0.00293399 -0.00352579 0.000356459 -0.00729863 0.00293123 -0.0265699 0.00334744 0.0025783 0.0177146 0.0228791 0.00264461 -0.00122686 0.0424873 -0.0610586
internal_weight=16217 8017.06 7837.38 3862.68 3974.7 8199.89 114.078 8085.81 7674.94 410.878 179.683 88.4294 65.7576 91.2541 48.32
internal_count=65261 32197 31467 15487 15980 33064 458 32606 30910 1696 730 356 264 374 194
is_linear=0
shrinkage=0.05


Tree=26
num_leaves=16
num_cat=0
split_feature=12 19 16 13 17 115 14 13 73 102 18 11 11 13 13
split_gain=50.3588 45.0002 53.6565 100.382 57.4256 48.8169 39.4543 36.3952 36.0898 35.1262 51.1486 29.4827 14.4657 12.1986 8.62289
threshold=-0.057298080995678895 2.1450001001358037 1.0000000180025095e-35 -0.00046237447085164385 9.5160326335256116 0.020298011776845974 0.522306497868959 -0.034439586689557697 0.58847778641741277 59.831012725830085 -2.8068350150663721 16.442725181579593 25.402019500732425 -0.038174947090943288 -0.038174947090943288
decision_type=2 2 2 2 2 2 2 2 2 2 2 2 2 2 2
left_child=7 2 3 -2 -4 6 -3 8 14 10 -9 -11 -7 -10 -1
right_child=1 5 4 -5 -6 12 -8 9 13 11 -12 -13 -14 -15 -16
leaf_value=-0.036149375661233565 0.029841877061670741 -0.0513510124116974 0.0027343312200074563 -0.0079454963773079573 -0.058563493680169991 -0.050755353738392864 0.016741333660215279 0.026992659172878283 0.01853233257227924 0.00026600944941052696 0.0044393069187569174 -0.017528175745259167 0.01807819142410726 -0.024733158265384858 -0.078467316245343866
leaf_weight=23.179036647081375 184.28816601634026 28.507361903786659 3761.9750610291958 3794.6371101886034 38.600103110074997 114.42655226588249 83.834031522274017 264.57385496795177 35.782076194882393 2516.4580443352461 5045.8014077991247 256.51088729500771 8.1782577931880933 29.909697040915489 25.043910220265388
leaf_count=93 747 117 15081 15263 156 464 336 1098 144 10140 20324 1044 33 120 101
internal_value=3.02147e-05 -0.00278811 -0.00213701 -0.00619533 0.00211177 -0.0243473 -0.000537544 0.00278568 -0.0252792 0.00318119 0.00556296 -0.00138002 -0.0461639 -0.0011666 -0.0581266
internal_weight=16211.7 8014.45 7779.5 3978.93 3800.58 234.946 112.341 8197.26 113.915 8083.34 5310.38 2772.97 122.605 65.6918 48.2229
internal_count=65261 32197 31247 16010 15237 950 453 33064 458 32606 21422 11184 497 264 194
is_linear=0
shrinkage=0.05


Tree=27
num_leaves=15
num_cat=0
split_feature=12 13 11 17 115 14 11 115 11 12 49 14 79 55
split_gain=45.4684 41.8049 40.9261 37.3901 36.1364 40.2256 91.1265 40.1423 34.2299 27.0023 23.7139 20.5294 8.31179 3.80672
threshold=-0.057298080995678895 -0.031266296629700409 60.187828063964851 1.6071904806873489 -0.12267490313459416 0.50560731101892353 14.934586048126222 0.24729140653089374 5.7423367500305185 -0.59732362627983082 0.12526308091530983 0.50996750858312112 2.3830649284926353 -0.048230609488056832
decision_type=2 2 2 2 2 2 2 2 2 2 2 2 2 2
left_child=4 12 3 -3 8 7 -7 -6 10 -10 -1 -4 13 -2
right_child=1 2 11 -5 5 6 -8 -9 9 -11 -12 -13 -14 -15
leaf_value=0.04266972539181374 0.02003065150242558 -0.005597616237477494 0.048834321404507441 0.0017761844167293213 0.0027708484262472864 -0.0010504415298726011 -0.041993271956231565 0.017771252429476966 0.059842508409918144 -0.037279039206001861 -0.021082531468760771 -0.012329609011167871 -0.00971499389042332 0.068675299812173116
leaf_weight=22.17379654943943 4.7617984861135509 5373.6241785287857 56.463988333940506 2527.8768871575594 6116.2485931813717 1303.0517631471157 151.72747777402401 481.08266998827457 69.972813248634338 7.9719973355531684 42.629320874810219 18.122284308075905 4.7891650497913352 25.87978595495224
leaf_count=89 20 21594 228 10154 24686 5232 608 1965 281 32 171 73 20 108
internal_value=2.86609e-05 -0.00264986 -0.00289059 -0.00323856 0.00264726 0.00220518 -0.00532061 0.00386469 0.0275841 0.0499092 0.00073169 0.0339733 0.0515416 0.0611158
internal_weight=16206.4 8011.52 7976.09 7901.5 8194.86 8052.11 1454.78 6597.33 142.748 77.9448 64.8031 74.5863 35.4307 30.6416
internal_count=65261 32197 32049 31748 33064 32491 5840 26651 573 313 260 301 148 128
is_linear=0
shrinkage=0.05


Tree=28
num_leaves=16
num_cat=0
split_feature=12 19 19 12 115 115 17 115 19 19 11 19 47 70 11
split_gain=41.0463 41.0975 49.5444 92.8171 62.084 44.5244 35.6152 32.7113 51.2976 93.7318 37.6309 32.5236 27.5946 18.1189 13.2826
threshold=-0.057298080995678895 2.1450001001358037 0.56499999761581432 0.34748840332031256 0.021240070013783956 0.020298011776845974 -0.76659571841285323 -0.12267490313459416 1.6749999523162844 1.8949999809265139 -7.6643941402435294 1.9750000238418581 -0.00079760918681979467 210.85240531697517 25.402019500732425
decision_type=2 2 2 2 2 2 2 2 2 2 2 2 2 2 2
left_child=7 2 4 -4 -2 6 -3 11 10 -10 -9 13 -13 -1 -7
right_child=1 5 3 -5 -6 14 -8 8 9 -11 -12 12 -14 -15 -16
leaf_value=0.056660361637288603 0.00019966983708138392 -0.048992672434104823 -0.012980198103258112 0.0074619540307004273 -0.011469892609929991 -0.048504158008767562 0.015936107767476233 -0.0052206848223766995 -0.041125976746891717 0.024733796489131845 0.0043110421849511587 -0.021201868560267855 0.051337945030189958 -0.01724460090806516 0.017435301943828339
leaf_weight=69.175027504563332 2449.8682083934546 28.230612695217133 715.56983377039433 2478.9697063863277 2131.2960567623377 113.72806721925735 83.855691641569138 1229.155848890543 170.25053811073303 79.135125979781151 6571.6421500295401 45.384195446968079 18.435908287763596 9.4229658395051938 8.1869479566812497
leaf_count=279 9829 117 2876 9959 8583 464 336 4956 682 317 26536 182 74 38 33
internal_value=2.73571e-05 -0.00251784 -0.00189653 0.00288296 -0.00522936 -0.0231636 -0.000417177 0.00251573 0.0020955 -0.0202273 0.00280915 0.0262693 -0.000247071 0.0478 -0.0440761
internal_weight=16202.3 8009.71 7775.7 3194.54 4581.16 234.001 112.086 8192.6 8050.18 249.386 7800.8 142.418 63.8201 78.598 121.915
internal_count=65261 32197 31247 12835 18412 950 453 33064 32491 999 31492 573 256 317 497
is_linear=0
shrinkage=0.05


Tree=29
num_leaves=16
num_cat=0
split_feature=13 13 115 11 101 13 13 11 12 14 14 115 13 12 35
split_gain=41.7993 81.2329 54.8629 73.6512 50.2827 50.1874 61.919 47.509 53.246 44.4254 43.756 49.1146 39.2073 29.2852 24.859
threshold=0.42981934537605421 0.48676883019440936 1.0000000180025095e-35 7.2797138690948495 2.2926632165908818 -0.0070064090780493351 -0.034439586689557697 60.187828063964851 -2.9298244714736934 0.39476502255674989 0.50867443483931229 -0.0048264230954773195 -0.0045726992229612176 0.42107871174812322 55.904430484104644
decision_type=2 2 2 2 2 2 2 2 2 2 2 2 2 2 2
left_child=5 2 3 -2 -4 6 14 12 -9 -8 13 -12 -7 -3 -1
right_child=1 10 4 -5 -6 7 9 8 -10 -11 11 -13 -14 -15 -16
leaf_value=-0.04691446550888128 -0.038643956578794228 0.0033193802409846231 0.026505504102920303 0.02633667836674318 -0.0011424109083442442 -0.023908561311531532 0.0059681400596884662 -0.060370928518820824 0.030351298718168246 0.030363532593358833 0.03712639914982218 -0.013488649522271683 -0.0018373413873117807 0.035819679677452344 -0.00013004157995040664
leaf_weight=58.261853322386742 98.386910259723663 348.96229182183743 752.69013927876949 78.318602845072746 210.42426374554634 204.49038368463516 484.55280311405659 17.742171183228493 182.90692590177059 303.51333737373352 51.384105935692787 712.61618980765343 12551.037005588412 86.492524459958076 55.385295450687408
leaf_count=235 395 1420 3032 314 847 819 1982 72 766 1243 206 2865 50494 348 223
internal_value=2.5956e-05 0.00620816 0.0157662 -0.00984354 0.0204649 -0.00101763 0.0103881 -0.00181143 0.0223293 0.0153637 -0.00287468 -0.0100845 -0.00219118 0.00977478 -0.0241143
internal_weight=16197.2 2339.28 1139.82 176.706 963.114 13857.9 901.713 12956.2 200.649 788.066 1199.46 764 12755.5 435.455 113.647
internal_count=65261 9427 4588 709 3879 55834 3683 52151 838 3225 4839 3071 51313 1768 458
is_linear=0
shrinkage=0.05


Tree=30
num_leaves=15
num_cat=0
split_feature=14 14 115 15 16 11 51 9 46 46 40 21 71 79
split_gain=44.5638 50.1905 38.9277 47.5714 44.3966 35.7566 13.851 11.6243 9.90427 13.7084 11.767 7.7077 6.56849 5.26354
threshold=0.68290459746846299 0.63654864461716676 0.1012578125107305 0.53644356536374194 -0.064539153909788441 6.3421227931976327 -0.017770102498208217 18.000000000000004 -0.010272716587903966 -0.014263003878080832 0.019120218834723462 -0.075194056791218808 17.948390007019047 -1.9649308631341935
decision_type=2 2 2 2 2 2 2 2 2 2 2 2 2 2
left_child=1 2 4 -4 -1 6 -3 -7 9 12 13 -12 -2 -10
right_child=8 5 3 -5 -6 7 -8 -9 10 -11 11 -13 -14 -15
leaf_value=-0.010109458304621632 0.0045281585952507784 0.0013345710927353729 0.0027777049747503874 -0.07940496311005589 -0.00090702640693100355 0.054288085499851729 -0.086793404690105352 0.0035143544218099601 -0.032873931191327525 0.047390624641752775 0.040842047702467042 -0.040668248033222255 -0.070354589398879411 -0.070957995473446125
leaf_weight=1574.7033874690533 4.9429905861616152 31.035914421081543 6593.4344884902239 17.655782103538513 7815.902960807085 80.438176169991493 5.2065152525901786 13.109949946403502 12.540135800838469 7.1653250604867926 5.2424578219652176 6.4916436970233899 7.1855854243040085 32.810369819402695
leaf_count=6327 20 125 26672 71 31413 327 21 53 51 29 21 26 29 133
internal_value=-0.000310184 -0.000129779 -0.000380958 0.00255823 -0.00245017 0.0308377 -0.0113257 0.0471726 -0.0384124 -0.00744209 -0.0488799 -0.0042518 -0.0398362 -0.0604271
internal_weight=16207.9 16131.5 16001.7 6611.09 9390.61 129.791 36.2424 93.5481 76.3785 19.2939 57.0846 11.7341 12.1286 45.3505
internal_count=65318 65009 64483 26743 37740 526 146 380 309 78 231 47 49 184
is_linear=0
shrinkage=0.05


Tree=31
num_leaves=12
num_cat=0
split_feature=11 12 11 38 115 85 103 103 101 85 12
split_gain=37.3899 33.7106 51.2351 74.0745 30.2338 18.287 19.7978 15.6005 10.0463 9.87552 6.39907
threshold=78.368366241455092 4.1737890243530282 -8.6189231872558576 -0.019886226453086003 0.1012578125107305 -1.8704917430877683 70.653015136718764 87.744735717773452 -4.7239360809326163 19.52440166473389 -0.44727256894111628
decision_type=2 2 2 2 2 2 2 2 2 2 2
left_child=1 2 3 -1 -4 6 -3 -7 -2 10 -10
right_child=8 5 4 -5 -6 7 -8 -9 9 -11 -12
leaf_value=0.022053806430226666 -0.022625965871857241 0.016013609832445482 -0.0014685686933169763 -0.010115849662399493 0.003335368635253379 0.051017889249807727 -0.052495324660843223 -0.0059966713769371589 0.047644846566731285 -0.017995338666940083 -0.010656979145427452
leaf_weight=194.93783700466156 7.5194277167320243 76.196559801697731 8064.0496020019054 2180.9432636499405 5515.1864946335554 61.614689782261848 12.239276498556135 14.899240419268606 66.241127371788025 7.1858488470315924 5.0664093345403662
leaf_count=790 33 306 32397 8797 22295 249 49 60 289 31 22
internal_value=-0.000294705 -0.000470136 -0.000702621 -0.00747637 0.000482543 0.0220175 0.00653216 0.0399157 0.0325836 0.0378725 0.0435025
internal_weight=16206.1 16120.1 15955.1 2375.88 13579.2 164.95 88.4358 76.5139 86.0128 78.4934 71.3075
internal_count=65318 64943 64279 9587 54692 664 355 309 375 342 311
is_linear=0
shrinkage=0.05


Tree=32
num_leaves=15
num_cat=0
split_feature=14 14 11 115 11 7 51 89 41 49 21 101 47 80
split_gain=40.3773 45.6124 34.2433 32.5545 32.4086 15.4749 12.5738 9.59398 11.6143 10.9877 10.3117 9.20065 7.71112 0.532634
threshold=0.68290459746846299 0.63654864461716676 78.368366241455092 0.23661627733719875 6.3421227931976327 7.0307769775390634 -0.017770102498208217 -6.4140049496525409 111.46657602255256 0.14312436701990269 -0.12386575918278998 -4.7239360809326163 -0.0014523795271696629 1.1478580730487169
decision_type=2 2 2 2 2 2 2 2 2 2 2 2 2 2
left_child=1 2 3 -1 6 -6 -3 10 12 -10 -2 -4 -9 -12
right_child=7 4 11 -5 5 -7 -8 8 9 -11 13 -13 -14 -15
leaf_value=-0.0012657969617032184 -0.014906979521188444 0.0013756055326450026 -0.021349485950014086 0.006310517148844454 0.053057171240296741 -0.0070829988750600219 -0.082787635866456724 -0.059337542031587968 0.028462083988373538 -0.057954520480687256 -0.079440181254553321 0.036401669753844804 -0.011418500746790182 -0.099235024367138644
leaf_weight=14339.607743397355 6.6897995918989208 31.042154833674431 7.5692364275455466 1573.4446779042482 80.732309281826019 12.330077290534971 5.1779650151729575 23.607468366622925 14.05525463819504 4.9821975827217093 6.0558442026376706 77.612429454922676 13.028740599751471 7.7439457625150681
leaf_count=57731 27 125 33 6377 330 50 21 96 57 20 25 342 53 31
internal_value=-0.000279911 -0.000108388 -0.000347423 -0.000516669 0.0294713 0.045089 -0.0106562 -0.0365997 -0.0258341 0.00584642 -0.0658516 0.0312699 -0.0422963 -0.0905483
internal_weight=16203.7 16127.5 15998.2 15913.1 129.283 93.0624 36.2201 76.1633 55.6737 19.0375 20.4896 85.1817 36.6362 13.7998
internal_count=65318 65009 64483 64108 526 380 146 309 226 77 83 375 149 56
is_linear=0
shrinkage=0.05


Tree=33
num_leaves=15
num_cat=0
split_feature=14 14 13 13 11 11 7 51 89 41 49 70 84 73
split_gain=36.5706 41.3715 33.8516 81.9455 37.6149 29.4868 14.1408 11.465 8.74728 10.5429 9.92455 9.1515 7.20828 1.46507
threshold=0.68290459746846299 0.63654864461716676 0.42981934537605421 0.49076748538863574 0.36726410686969763 6.3421227931976327 7.0307769775390634 -0.017770102498208217 -6.4140049496525409 111.46657602255256 0.14312436701990269 27.461965925756548 -2.0930640249713512 4.9008436959486739
decision_type=2 2 2 2 2 2 2 2 2 2 2 2 2 2
left_child=1 2 4 -4 -1 7 -7 -3 11 12 -11 -2 -10 -13
right_child=8 5 3 -5 -6 6 -8 -9 9 10 -12 13 -14 -15
leaf_value=-0.0039435085207816913 -0.0035524155096748676 0.0013067878934188331 0.014089566302615236 -0.0046872706944952732 0.0013036295477380619 0.05077406114212224 -0.0067235731787032267 -0.079365886117164094 -0.076703413970238776 0.027004279927850639 -0.055176268959887642 -0.092252315826310688 -0.026762371544255249 -0.059105720800840825
leaf_weight=6728.9606707692146 4.9252711683511761 31.043033584952354 1232.5938450694084 1099.2667910009623 6936.1971718072891 80.158921360969543 12.339500769972799 5.1322644352912894 9.9239215999841672 14.072827711701395 4.9716504067182532 10.590020343661307 26.570534467697144 4.8651828318834296
leaf_count=27129 20 125 4967 4439 27948 330 50 21 41 57 20 43 108 20
internal_value=-0.000265878 -0.000102883 -0.00033002 0.00523794 -0.00128015 0.0281353 0.0431037 -0.0101384 -0.0348869 -0.0246058 0.00555066 -0.0629039 -0.0403428 -0.081818
internal_weight=16201.6 16125.7 15997 2331.86 13665.2 128.674 92.4984 36.1753 75.9194 55.5389 19.0445 20.3805 36.4945 15.4552
internal_count=65318 65009 64483 9406 55077 526 380 146 309 226 77 83 149 63
is_linear=0
shrinkage=0.05


Tree=34
num_leaves=16
num_cat=0
split_feature=19 19 16 115 19 14 13 11 17 17 15 98 90 110 78
split_gain=33.9871 38.6319 73.4271 122.433 59.0828 46.6615 62.3356 55.7772 25.9736 36.7208 20.6764 18.2426 9.3444 14.2345 12.6847
threshold=-1.3949999809265134 0.60500001907348644 -0.16511544467733275 1.0000000180025095e-35 1.544999957084656 0.51685982805545383 0.4229731585404562 -6.3648276329040518 -0.19904869135808664 0.67229273862827832 0.20925286333095941 4.723099744875463 5.4551047242729718 0.09735628065873965 0.026395412454560965
decision_type=2 2 2 2 2 2 2 2 2 2 2 2 2 2 2
left_child=8 5 3 -3 -4 7 -7 -2 12 11 -11 -10 14 -14 -1
right_child=1 2 4 -5 -6 6 -8 -9 9 10 -12 -13 13 -15 -16
leaf_value=0.065587448639165116 -0.0085594305065412185 -0.07780340463164101 0.0047932335188502727 0.046217993310815303 -0.006620214642396486 -0.028048144373392932 -0.0032700025212800466 0.0008280466905434521 0.017139164348650961 0.0300671101246851 0.00080112606596534353 -0.013659920759813829 -0.032381898413048886 0.058296216106021474 0.014432421196090823
leaf_weight=38.025993406772614 2069.7474104166031 22.409931927919388 3918.0835203826427 177.65408518910408 1595.6605774015188 400.17485250532627 694.07123884558678 6719.2353774011135 63.982895120978355 181.6276892721653 90.384989902377129 193.41676831245422 9.8468836843967456 7.7217527478933325 17.786714106798172
leaf_count=166 8350 90 15836 721 6431 1608 2794 26984 266 761 373 788 42 33 75
internal_value=-0.000252587 -0.000702818 0.0025699 0.0323259 0.00149022 -0.00259488 -0.0123316 -0.00138264 0.0113969 0.00753285 0.0203425 -0.00600407 0.0392746 0.00747287 0.0492851
internal_weight=16199.8 15597 5713.81 200.064 5513.74 9883.23 1094.25 8788.98 602.794 529.412 272.013 257.4 73.3813 17.5686 55.8127
internal_count=65318 62814 23078 811 22267 39736 4402 35334 2504 2188 1134 1054 316 75 241
is_linear=0
shrinkage=0.05


Tree=35
num_leaves=16
num_cat=0
split_feature=12 12 13 13 13 102 18 73 13 11 13 13 18 13 86
split_gain=39.1736 39.0314 35.5285 34.0379 33.5594 39.6527 45.567 32.4023 27.8522 39.3044 34.2126 23.9897 20.9039 13.2416 8.16165
threshold=-0.057298080995678895 0.033320715650916106 -0.008885218292987716 0.0055736104329437855 -0.034439586689557697 57.213863372802741 -2.9497516192050353 0.66881895750183695 0.0055364692991147707 3.5666697025299077 0.0051900437943184019 -0.0070064090780493351 2.5689401516780861 -0.038174947090943288 -2.4958257908121229
decision_type=2 2 2 2 2 2 2 2 2 2 2 2 2 2 2
left_child=4 8 12 -4 7 6 -6 14 10 -10 -2 -7 -3 -9 -1
right_child=1 2 3 -5 5 11 -8 13 9 -11 -12 -13 -14 -15 -16
leaf_value=-0.0089650347238223928 -0.0084122996266643418 0.031298658360772912 -0.0073627588969993512 0.00019615835411019263 0.029364912401821503 0.011158391757312786 0.0048769969687986366 0.021255491966628119 -0.0081505531828358329 -0.044917340564435061 0.061637400603589798 -0.002533338263235639 -0.011112824235441176 -0.024477216077128026 -0.063638524813921557
leaf_weight=8.1630792915821058 221.4890074133873 126.30492466688156 2094.6890246868134 5153.1398984789848 198.48313069343567 356.35218323767185 4429.6016735881567 32.818911477923393 150.60641002655029 140.50096172094345 18.919575676321983 3129.6528574973345 37.733338087797165 30.572894856333733 41.672812581062317
leaf_count=33 890 526 8445 20718 832 1463 17874 132 605 567 76 12621 151 123 169
internal_value=9.83238e-05 -0.00240622 -0.00146765 -0.00198844 0.00251643 0.00289366 0.0059272 -0.0245164 -0.0154944 -0.0258958 -0.00289956 -0.00113372 0.0215428 -0.000800691 -0.0546831
internal_weight=16170.7 7943.38 7411.87 7247.83 8227.32 8114.09 4628.08 113.228 531.516 291.107 240.409 3486.01 164.038 63.3918 49.8359
internal_count=65225 31978 29840 29163 33247 32790 18706 457 2138 1172 966 14084 677 255 202
is_linear=0
shrinkage=0.05


Tree=36
num_leaves=15
num_cat=0
split_feature=19 13 110 13 14 15 11 14 17 17 107 15 45 40
split_gain=38.1724 39.6301 57.2368 47.1708 48.889 40.2186 33.9726 28.9292 20.589 25.7257 19.8319 18.8649 9.0296 8.2783
threshold=-1.3949999809265134 -0.0070064090780493351 0.0087474771489998177 -0.0045726992229612176 0.48434760678679251 0.068703163326819597 1.3224202990531924 0.40953052221242509 -0.15659198053386267 0.67229273862827832 0.17938303199929842 0.20925286333095941 -0.00049465720604243487 -0.0034907916280532757
decision_type=2 2 2 2 2 2 2 2 2 2 2 2 2 2
left_child=8 2 7 4 -3 -4 -5 -2 12 10 -10 -11 13 -1
right_child=1 3 5 6 -6 -7 -8 -9 9 11 -12 -13 -14 -15
leaf_value=0.068879674463727752 0.0050280945358781417 -0.043767077801950362 -0.0034606449408595315 -0.0030067853018578409 0.0061014397416177552 0.031509191819456266 0.0018444548840946717 -0.023364474338490475 0.010135165652101482 0.028726467674876743 -0.01829994038183335 0.0012311605052227541 -0.029008042595050521 0.030672850768262261
leaf_weight=18.794207498431206 338.40333411097527 128.24222806096077 109.69982780516148 7491.8220183700323 79.685721024870872 328.2303155362606 6962.7468256801367 122.08057282865047 133.19985666871071 181.12656472623348 113.62739755213261 95.160413190722466 5.0443591028451911 57.715041875839233
leaf_count=83 1381 514 456 30130 319 1358 28051 495 547 765 462 393 22 249
internal_value=9.34582e-05 -0.000385492 0.00980819 -0.00101009 -0.0246556 0.0227494 -0.000669949 -0.00249916 0.0124191 0.00877612 -0.00295499 0.0192564 0.0357862 0.0400582
internal_weight=16165.6 15560.9 898.414 14662.5 207.928 437.93 14454.6 460.484 604.668 523.114 246.827 276.287 81.5536 76.5092
internal_count=65225 62704 3690 59014 833 1814 58181 1876 2521 2167 1009 1158 354 332
is_linear=0
shrinkage=0.05


Tree=37
num_leaves=14
num_cat=0
split_feature=12 12 19 19 16 12 17 17 13 13 16 86 115
split_gain=34.7333 35.7586 76.6999 63.2054 59.7774 56.3544 45.0792 33.0148 28.7677 43.3788 26.5439 19.2998 0.178867
threshold=-0.057298080995678895 0.34748840332031256 1.4950000047683718 0.56499999761581432 -0.16511544467733275 0.47501751780509954 4.08499901415962 16.378220899094988 -0.023187531017662643 -0.013131323117079622 0.1275008281885113 -1.9289788233384788 0.1012578125107305
decision_type=2 2 2 2 2 2 2 2 2 2 2 2 2
left_child=7 2 6 5 -5 -3 -2 8 11 -10 -4 -1 -9
right_child=1 3 10 4 -6 -7 -8 12 9 -11 -12 -13 -14
leaf_value=0.0066398810005269329 -0.0065093265579918612 0.022056519119445245 -0.044246867585607398 0.034753994739828008 0.0034113334232506402 -0.006278542561264526 0.036646528461174076 0.097293175763397105 0.022630832936300322 0.0020430099368032029 0.0027602594427586953 -0.026802626828244372 0.084210696621626446
leaf_weight=62.594450503587723 1385.3006169646978 184.91303735971451 181.49278578162193 162.0327615737915 2488.3436407893896 3438.6170784085989 63.275282740592957 5.4946587532758695 264.59816136956215 7744.5686775445938 35.986130699515343 138.81712375581264 4.9813127368688583
leaf_count=253 5567 744 737 660 10021 13845 257 22 1102 31288 147 562 20
internal_value=8.90114e-05 -0.00226964 -0.00878105 -0.00054051 0.00532749 -0.00483257 -0.00462423 0.00236701 0.00225383 0.00272317 -0.0364686 -0.0164094 0.0910725
internal_weight=16161 7939.96 1666.05 6273.91 2650.38 3623.53 1448.58 8221.05 8210.58 8009.17 217.479 201.412 10.476
internal_count=65225 31978 6708 25270 10681 14589 5824 33247 33205 32390 884 815 42
is_linear=0
shrinkage=0.05


Tree=38
num_leaves=16
num_cat=0
split_feature=19 13 110 13 14 15 12 11 17 17 107 15 107 65 115
split_gain=34.1981 34.4236 48.9124 42.9193 43.8231 37.4506 34.4539 31.5811 19.0659 23.3119 17.9281 17.0842 8.70698 7.75923 6.68686
threshold=-1.3949999809265134 -0.0070064090780493351 0.0087474771489998177 -0.0045726992229612176 0.48434760678679251 0.068703163326819597 0.51419386267662059 -7.1415758132934561 -0.15659198053386267 0.67229273862827832 0.17938303199929842 0.20925286333095941 0.26668283277727534 0.76972006006701899 0.1727020343324065
decision_type=2 2 2 2 2 2 2 2 2 2 2 2 2 2 2
left_child=8 2 6 4 -3 -4 -2 -5 12 10 -10 -11 13 -1 -14
right_child=1 3 5 7 -6 -7 -8 -9 9 11 -12 -13 14 -15 -16
leaf_value=0.048086433401864137 -0.0082290822408774174 -0.041618404609602595 -0.0041422310142447518 -0.0053708690677022374 0.0056035545602795486 0.029669117168472627 0.02894440095900468 0.0005262777778387549 0.0095809354311455503 0.027348105653725543 -0.017455598494665842 0.0011474325692330532 -0.043267399920980415 -0.01900648060966019 0.02353580453503162
leaf_weight=58.262739762663841 385.51334473490715 128.1241617500782 109.40657310187817 2821.0322496294975 79.688507542014122 325.72390094399452 74.354144379496574 11629.154057458043 132.98456022143364 179.84713235497475 113.77421145141125 95.12509474158287 5.3405366241931942 4.6534684747457495 12.546330124139784
leaf_count=258 1563 514 456 11363 319 1358 313 46818 547 765 462 393 22 21 53
internal_value=8.45915e-05 -0.000368196 0.00915138 -0.000949448 -0.0235105 0.0211678 -0.00221865 -0.000624991 0.0117722 0.00827198 -0.00288492 0.0182841 0.0343727 0.043124 0.00359017
internal_weight=16155.5 15553 894.998 14658 207.813 435.13 459.867 14450.2 602.534 521.731 246.759 274.972 80.8031 62.9162 17.8869
internal_count=65225 62704 3690 59014 833 1814 1876 58181 2521 2167 1009 1158 354 279 75
is_linear=0
shrinkage=0.05


Tree=39
num_leaves=16
num_cat=0
split_feature=13 13 115 13 14 95 14 74 19 19 19 104 19 9 96
split_gain=31.3334 71.6671 50.6246 59.725 46.271 45.9111 39.4484 36.8855 33.2783 30.9793 36.7655 26.3005 26.1722 21.0901 19.204
threshold=0.42981934537605421 0.48676883019440936 1.0000000180025095e-35 0.43782262199455518 0.50867443483931229 3.2365760379747663 0.52611268536233313 3.3678607940673833 0.53499999642372142 -1.424999952316284 -1.1449999809265134 58.94342231750489 0.074999999254941954 15.950000286102297 -1.8838080974030993
decision_type=2 2 2 2 2 2 2 2 2 2 2 2 2 2 2
left_child=7 2 3 -2 13 -4 -6 9 12 14 -11 -10 -9 -3 -1
right_child=1 4 5 -5 6 -7 -8 8 11 10 -12 -13 -14 -15 -16
leaf_value=0.046939631878887771 0.022684829964391945 0.0024062165248039079 0.022877514387435495 -0.035403202416076668 -0.022090398107399458 -0.010764208836211993 0.00061441853144331897 0.0039851672417090447 0.014384435327259091 -0.014298320109079802 -0.0016558693697354895 -9.9208185017120795e-05 -0.016520715867764654 0.026074287188318498 0.0091306524320961258
leaf_weight=38.650274842977524 78.621070683002472 297.24537587165833 852.98243449628353 101.22337576746941 375.44246351718903 115.09948645532131 390.07037410140038 398.97466972470284 952.51607920229435 607.32605256140232 10826.227776795626 467.15954427421093 255.09479311108589 137.73658129572868 256.24994251132011
leaf_count=167 315 1214 3449 407 1506 463 1573 1612 3875 2445 43610 1915 1031 562 1081
internal_value=8.06e-05 0.00541966 0.014352 -0.0100094 -0.00312154 0.0188777 -0.0105211 -0.000827833 0.00531921 -0.00191471 -0.00232741 0.00961844 -0.00401237 0.00990069 0.014086
internal_weight=16150.6 2348.42 1147.93 179.844 1200.49 968.082 765.513 13802.2 2073.75 11728.5 11433.6 1419.68 654.069 434.982 294.9
internal_count=65225 9489 4634 722 4855 3912 3079 55736 8433 47303 46055 5790 2643 1776 1248
is_linear=0
shrinkage=0.05


Tree=40
num_leaves=16
num_cat=0
split_feature=65 15 15 13 19 74 19 100 19 13 17 12 98 13 110
split_gain=34.5975 32.9672 40.387 32.307 23.7332 25.5669 30.5423 28.6634 23.1481 28.3117 26.0997 21.7207 17.4464 18.9849 4.61073
threshold=-0.052483651751224998 0.15661575666400998 0.30461090492772597 0.27558024052662417 -1.3450000286102293 3.3678607940673833 0.55500000715255748 -10.010860919952391 1.6050000190734866 0.0054472982750216276 6.281202319302392 -1.7806420326232908 -1.0021334351293605 0.39460776118482871 0.15427179019421025
decision_type=2 2 2 2 2 2 2 2 2 2 2 2 2 2 2
left_child=1 8 3 -3 12 7 -7 -6 9 -1 -10 -4 14 -14 -2
right_child=4 2 11 -5 5 6 -8 -9 10 -11 -12 -13 13 -15 -16
leaf_value=0.004385372781425193 0.071903876927413179 -0.0084569378168432522 0.023010493960555219 0.0022979450740956168 -0.019507405284689194 -0.0053515934071699332 0.0089820354315341792 -0.0031332917517245908 -0.051642831966732285 0.018564826877044898 0.021592249487713336 0.0041657301006494942 -0.004277495046501642 0.017126703823074803 0.01479696880526186
leaf_weight=810.56612457334995 13.631812497973444 1444.558490216732 162.55670541524887 1351.6230834722519 278.17141999304295 615.30189618468285 938.51641663908958 6820.9565566033125 31.752239137887955 622.30912141501904 19.722162470221519 2576.4307612925768 190.65154646337032 226.88305231928825 4.7717974185943595
leaf_count=3306 57 5813 659 5465 1125 2486 3838 27472 128 2533 79 10353 793 936 20
internal_value=0.000106524 0.00274327 0.00096883 -0.00325822 -0.00192988 -0.00250337 0.00330601 -0.00377489 0.00936017 0.0105436 -0.0235832 0.00528415 0.00945326 0.00735328 0.0570969
internal_weight=16108.4 7019.52 5535.17 2796.18 9088.88 8652.95 1553.82 7099.13 1484.35 1432.88 51.4744 2738.99 435.938 417.535 18.4036
internal_count=65063 28336 22290 11278 36727 34921 6324 28597 6046 5839 207 11012 1806 1729 77
is_linear=0
shrinkage=0.05


Tree=41
num_leaves=16
num_cat=0
split_feature=65 15 15 15 14 16 14 91 115 12 74 14 86 21 14
split_gain=31.2304 29.7888 37.7127 40.0192 28.0598 34.5366 33.1742 26.1978 22.1419 23.6933 27.3315 22.913 13.6331 12.0732 10.07
threshold=-0.052483651751224998 0.15661575666400998 0.22918981388364504 0.22211059953480741 0.47861483946564315 -0.12611841526512155 0.47278935838156771 -6.3491766374737599 0.4080639793484066 -3.3523532152175899 3.3678607940673833 0.52753272552894359 -0.15884832838798882 -0.040752512718279371 0.5342567603951115
decision_type=2 2 2 2 2 2 2 2 2 2 2 2 2 2 2
left_child=1 4 3 -3 6 -6 -1 -4 9 12 -11 13 -2 -10 -13
right_child=8 2 7 -5 5 -7 -8 -9 11 10 -12 14 -14 -15 -16
leaf_value=0.01031837663868624 0.03249288556531435 -0.0036381377429355053 -0.020411056553113413 -0.031904941266327917 0.016266642541996387 -0.018204499858207598 0.046281477512329749 0.0036496558110302967 0.042340231352745145 -0.0031244302847305062 0.0042402452755366587 -0.069766595471759466 -0.036979167697935411 0.0022042232832781661 0.005004673032888189
leaf_weight=1110.6584336310625 7.8726063370704642 989.70325246453285 116.19995313882828 143.35085771977901 119.84407497942448 184.56528794765472 68.053918540477753 4285.5380067974329 64.797925382852554 7382.9250114560127 1518.9713977128267 8.672056660056116 68.566672548651695 26.358475655317307 9.3666994124650937
leaf_count=4536 32 4010 469 577 487 745 278 17234 264 29786 6186 35 279 107 38
internal_value=0.000101284 0.00260677 0.000920486 -0.00721438 0.00889972 -0.00463343 0.0123947 0.00301449 -0.00183359 -0.00210578 -0.00186776 0.0205459 -0.0298241 0.0307346 -0.0309413
internal_weight=16105.4 7017.91 5534.79 1133.05 1483.12 304.409 1178.71 4401.74 9087.53 8978.34 8901.9 109.195 76.4393 91.1564 18.0388
internal_count=65063 28336 22290 4587 6046 1232 4814 17703 36727 36283 35972 444 311 371 73
is_linear=0
shrinkage=0.05


Tree=42
num_leaves=13
num_cat=0
split_feature=14 14 11 13 13 14 70 15 47 56 89 39
split_gain=30.7949 33.32 37.9414 30.2013 66.7687 30.8967 17.2987 12.5953 11.9658 11.6507 9.56324 3.80044
threshold=0.68290459746846299 0.63654864461716676 10.084606647491457 0.42981934537605421 0.48676883019440936 0.51685982805545383 214.67536702232886 0.38563986799016498 -0.024671141859516344 -0.015861913936160699 -6.4140049496525409 35.787463131006724
decision_type=2 2 2 2 2 2 2 2 2 2 2 2
left_child=1 3 7 5 -5 -1 -4 -3 -2 11 -11 -10
right_child=8 2 6 4 -6 -7 -8 -9 9 10 -12 -13
leaf_value=0.00011067921851892035 0.034105337526943447 0.024231776957148482 0.061883413663342934 0.013984801169425853 -0.0030143464223290509 -0.0067276371806557671 -0.018191519642233731 -0.020514051357546238 -0.031282051778843009 -0.065245398811331304 -0.0091238983348793413 -0.075134232494822484
leaf_weight=11662.237704023719 6.3363041281700125 27.177860662341118 57.354376465082169 1133.8555064499378 1177.5364856868982 1924.3406743258238 7.6435219645500174 37.326236799359322 6.6142345219850567 9.8037054240703565 33.628719508647919 19.527385115623474
leaf_count=47117 26 111 241 4584 4765 7752 32 151 27 40 137 80
internal_value=9.62769e-05 0.000246754 0.0255061 4.09953e-05 0.0053246 -0.000857869 0.0524669 -0.00166105 -0.0316749 -0.0376657 -0.0217918 -0.064039
internal_weight=16103.4 16027.5 129.502 15898 2311.39 13586.6 64.9979 64.5041 75.9103 69.574 43.4324 26.1416
internal_count=65063 64753 535 64218 9349 54869 273 262 310 284 177 107
is_linear=0
shrinkage=0.05


Tree=43
num_leaves=16
num_cat=0
split_feature=65 15 15 13 14 14 14 14 12 12 115 115 85 106 104
split_gain=28.1353 26.9893 34.6776 28.1592 25.2868 32.1086 30.287 20.9072 20.1292 25.1825 37.2141 19.6993 14.4323 15.6797 13.1795
threshold=-0.052483651751224998 0.15661575666400998 0.30461090492772597 0.27558024052662417 0.47861483946564315 0.48434760678679251 0.43838158423748436 0.68290459746846299 4.1737890243530282 3.5296870470047002 0.0593554826985127 0.4080639793484066 -2.2143859863281246 8.6612372398376483 63.510137557983406
decision_type=2 2 2 2 2 2 2 2 2 2 2 2 2 2 2
left_child=1 4 3 -3 6 -6 -1 -4 9 11 -11 -2 13 -10 -14
right_child=8 2 7 -5 5 -7 -8 -9 12 10 -12 -13 14 -15 -16
leaf_value=0.004896032670576869 -0.0020341122382245675 -0.0079048041752766401 0.00539640260313194 0.0021365754905835993 -0.043497323067849356 0.0023599194116613541 0.021120755585058333 -0.031084677130846658 0.04277406963370628 0.010351812653452705 -0.051221429115384853 0.019363271512889191 0.039856530871530245 -0.010222765496471385 -0.023411805773951563
leaf_weight=677.49460399150848 8718.6312510073185 1444.4880536198616 2697.9205279052258 1351.3706632405519 44.756028890609741 259.48323521018028 499.84875416755676 39.853665336966515 17.90340319275856 40.771454647183418 61.637768357992172 108.90839077532291 65.426922887563705 63.308565184473991 9.4158832579851133
leaf_count=2778 35233 5813 10849 5465 180 1052 2036 163 72 164 257 444 265 254 38
internal_value=9.1536e-05 0.00247019 0.00086546 -0.00305133 0.00846379 -0.00438605 0.0117843 0.00486535 -0.001745 -0.00205611 -0.0267077 -0.00177013 0.0160576 0.00146053 0.0318968
internal_weight=16101.2 7015.22 5533.63 2795.86 1481.58 304.239 1177.34 2737.77 9086 8929.95 102.409 8827.54 156.055 81.212 74.8428
internal_count=65063 28336 22290 11278 6046 1232 4814 11012 36727 36098 421 35677 629 326 303
is_linear=0
shrinkage=0.05


Tree=44
num_leaves=16
num_cat=0
split_feature=11 11 14 102 115 100 65 11 15 14 101 84 74 100 71
split_gain=25.7611 33.0311 41.899 32.5618 27.7192 27.6643 26.7097 35.5964 24.2307 15.696 19.6677 12.0149 10.5406 8.44448 4.00798
threshold=60.187828063964851 46.15968322753907 0.50802205765472508 55.269535064697273 0.17047500508900942 4.9745993614196786 -0.052483651751224998 -6.1517362594604483 0.15661575666400998 0.50996750858312112 -4.9734168052673331 -1.3959807902265629 4.9181032180786142 -11.373432159423826 27.615400314331058
decision_type=2 2 2 2 2 2 2 2 2 2 2 2 2 2 2
left_child=1 6 5 9 12 -3 8 -8 -1 10 -2 -4 -5 -11 -6
right_child=3 2 11 4 14 -7 7 -9 -10 13 -12 -13 -14 -15 -16
leaf_value=0.0080484229636277969 -0.0063149482458811834 0.030372631311795392 -0.026634065246121993 0.00019021289784755085 -0.077102821834851343 -0.034856994560814869 -0.0073289454832825762 4.2602214590740044e-05 0.00083869217537979254 -0.054025142959619722 0.050091157467944264 -0.081874216391339988 0.064264495171551375 0.01836040062758992 -0.024043262912339523
leaf_weight=1480.1895054280758 18.667453482747078 33.0912916213274 14.443864539265631 45.35612165927887 13.065927997231485 31.946204975247383 2171.556778177619 6661.2520840466022 5479.4338569790125 6.9191874861717251 89.774723902344704 30.906232744455338 7.4766141176223746 9.6461733281612378 4.8915090411901465
leaf_count=6046 78 133 58 198 54 130 8790 26876 22072 28 384 124 33 39 20
internal_value=8.69717e-05 -0.000134963 -0.0273908 0.0181126 -0.00898316 -0.00166795 5.55527e-05 -0.0017697 0.00237208 0.0334566 0.0403813 -0.0642804 0.00925767 -0.0118743 -0.0626497
internal_weight=16098.6 15902.8 110.388 195.798 70.7902 65.0375 15792.4 8832.81 6959.62 125.008 108.442 45.3501 52.8327 16.5654 17.9574
internal_count=65063 64229 445 834 305 263 63784 35666 28118 529 462 182 231 67 74
is_linear=0
shrinkage=0.05


Tree=45
num_leaves=14
num_cat=0
split_feature=11 19 19 16 17 12 11 107 19 85 71 12 76
split_gain=26.3926 25.2835 30.8455 47.0386 34.419 21.7335 29.6481 21.8468 12.9583 6.83643 6.50355 6.39395 2.82865
threshold=78.368366241455092 -1.3949999809265134 0.64499998092651378 -0.16511544467733275 2.9034296627312863 -0.84097498655319203 -9.9702701568603498 0.15274881115325126 0.64499998092651378 19.52440166473389 24.360877037048343 -1.4653377532958982 0.70306935906410228
decision_type=2 2 2 2 2 2 2 2 2 2 2 2 2
left_child=1 5 4 -4 -3 7 -7 -1 9 11 12 -2 -10
right_child=8 2 3 -5 -6 6 -8 -9 10 -11 -12 -13 -14
leaf_value=0.013518966788336029 0.052643651037141852 -0.0013416051560765805 0.026885241945982599 0.0015526733242765317 -0.011618023220843493 0.0011021097873632154 0.031312214644318527 -0.015360035999140896 0.028171102789266961 -0.016276196451352823 -0.060069670389948142 0.015310448014680043 -0.019533176525477525
leaf_weight=131.31845325231552 44.691574260592461 9227.8460276722908 190.08416460454464 5094.3078009337187 893.72266079485416 141.97247090935707 189.77217341959476 130.63603459298611 7.5080036818981188 5.2801226377487174 4.7505243420600882 15.427977144718168 5.3017791360616684
leaf_count=553 202 37143 779 20614 3597 591 825 537 34 23 21 71 24
internal_value=-9.63902e-05 -0.000242242 -0.000632428 0.00246391 -0.002249 0.00988274 0.0183836 -0.000882918 0.0280326 0.0382723 -0.0101031 0.0430631 0.00842701
internal_weight=16082.6 15999.7 15406 5284.39 10121.6 593.699 331.745 261.954 82.96 65.3997 17.5603 60.1196 12.8098
internal_count=65014 64639 62133 21393 40740 2506 1416 1090 375 296 79 273 58
is_linear=0
shrinkage=0.05


Tree=46
num_leaves=14
num_cat=0
split_feature=11 19 19 19 18 15 71 19 98 85 101 71 76
split_gain=24.0828 23.1896 29.6519 42.7731 40.9239 26.4283 21.8787 11.926 11.8082 6.31212 7.3905 5.76126 2.56852
threshold=78.368366241455092 -1.3450000286102293 0.64499998092651378 1.5850000381469729 2.2754983992864011 0.32047696507258389 19.112968444824222 0.64499998092651378 10.911789827502053 19.52440166473389 -3.4190644025802608 24.360877037048343 0.70306935906410228
decision_type=2 2 2 2 2 2 2 2 2 2 2 2 2
left_child=1 5 4 -4 -3 6 -1 9 -7 10 -2 12 -9
right_child=7 2 3 -5 -6 8 -8 11 -10 -11 -12 -13 -14
leaf_value=0.019344378467579477 -0.013021633342035871 -0.0013901040680852318 0.0048703472379092354 -0.0056612460740836949 -0.013693484555358801 0.072097156677631377 0.0011461891374650827 0.027030346540429601 -0.011504546045284088 -0.015391711374184214 0.047261678319534817 -0.056052469937662303 -0.018432650876514994
leaf_weight=228.563431173563 5.6168423593044272 9132.3610056042671 4014.6382747292519 1268.797842502594 729.89660814404488 22.138171762228016 595.38877277076244 7.4355003684759158 5.2195484489202491 5.3037408441305152 53.610382363200188 4.8341684937477103 5.3364845812320709
leaf_count=969 25 36762 16261 5132 2932 90 2472 34 21 23 248 21 24
internal_value=-9.13957e-05 -0.000230053 -0.000681385 0.00234122 -0.00230067 0.00779962 0.00619435 0.0269135 0.0561469 0.0368651 0.0415447 -0.00956191 0.00803466
internal_weight=16079.1 15997 15145.7 5283.44 9862.26 851.31 823.952 82.1371 27.3577 64.531 59.2272 17.6062 12.772
internal_count=65014 64639 61087 21393 39694 3552 3441 375 111 296 273 79 58
is_linear=0
shrinkage=0.05


Tree=47
num_leaves=12
num_cat=0
split_feature=14 12 16 12 12 14 19 91 56 41 89
split_gain=25.3358 24.691 41.4114 52.8749 37.0608 31.2735 41.8406 15.3132 7.68909 5.20449 2.27046
threshold=0.72109233629609026 -0.057298080995678895 -0.065132581879213086 1.8382301330566408 0.34748840332031256 0.56315367002415917 1.735000014305115 9.1782743061705556 -0.0040826580904265216 134.50682661321039 -2.9558472300340042
decision_type=2 2 2 2 2 2 2 2 2 2 2
left_child=1 5 3 -3 -4 6 -1 -7 9 10 -2
right_child=8 2 4 -5 -6 7 -8 -9 -10 -11 -12
leaf_value=0.0017992442319577529 -0.08111468778152453 -0.015886188159013381 -0.0075249314832872369 0.0083427630828424842 0.0015506045986929742 0.020115354721173592 -0.028731535103059348 -0.052563604461149861 0.0055450809558508802 -0.016905991587554601 -0.049061662073412199
leaf_weight=7713.1902132481337 10.976357892155649 971.59876626729965 1433.2199264168739 293.10436920821667 5228.895927965641 277.53580112755299 113.87454882264137 7.4418301582336417 6.9943057000637046 7.5537128895521155 11.123788893222811
leaf_count=31270 46 3931 5777 1188 21085 1124 456 30 29 31 47
internal_value=-8.67134e-05 8.1709e-06 -0.00197641 -0.0102709 -0.000401814 0.00194744 0.00135506 0.0182174 -0.0416123 -0.0527351 -0.0649813
internal_weight=16075.5 16038.9 7926.82 1264.7 6662.12 8112.04 7827.06 284.978 36.6482 29.6539 22.1001
internal_count=65014 64861 31981 5119 26862 32880 31726 1154 153 124 93
is_linear=0
shrinkage=0.05


Tree=48
num_leaves=16
num_cat=0
split_feature=113 17 11 11 13 115 82 19 12 102 19 12 11 19 19
split_gain=22.793 25.1431 37.55 30.1057 36.6588 26.6484 22.5783 36.5239 43.5438 34.9343 30.3454 25.3657 25.1707 21.7678 14.5156
threshold=-0.81430084119982105 5.3045993245596472 7.8158602714538583 26.526336669921879 0.23061048840645573 0.13347516116051986 -0.07608859958792967 0.75499999523162853 -0.44727256894111628 36.720453262329109 -1.4049999713897703 0.83613300323486339 -52.165761947631829 -0.37499999999999994 1.3350000381469729
decision_type=2 2 2 2 2 2 2 2 2 2 2 2 2 2 2
left_child=1 3 14 13 -5 -4 7 10 -9 12 -2 -11 -8 -1 -3
right_child=6 2 5 4 -6 -7 9 8 -10 11 -12 -13 -14 -15 -16
leaf_value=-0.017818387535440901 0.025037748035844659 0.010065039156378769 0.015283963675889804 -0.060314861737890704 0.049383593450748192 0.077471903894985816 0.010868796354068597 0.024152857680782295 0.0048032269296936284 0.0011794781234996726 -0.00082160867069091311 -0.004873763653909239 -0.021665977412791131 -0.0026849123141662683 -0.036044498298049892
leaf_weight=321.59812033176422 118.16472823917866 34.438702702522278 45.674076661467552 49.358078151941299 9.005336716771124 27.658287659287453 73.302275389432907 389.64372219145298 1145.5759689360857 7508.3975910395384 2842.2904943078756 2249.0524759441614 314.5491868853569 909.92738062143326 33.840382069349289
leaf_count=1298 520 140 185 199 37 114 295 1586 4621 30395 11443 9072 1286 3685 138
internal_value=-8.24344e-05 -0.00610412 0.013895 -0.00829974 -0.0433886 0.038739 0.000506328 0.00345594 0.00971423 -0.000800732 0.000210551 -0.000215769 -0.015517 -0.00663684 -0.0127877
internal_weight=16072.5 1431.5 141.611 1289.89 58.3634 73.3324 14641 4495.67 1535.22 10145.3 2960.46 9757.45 387.851 1231.53 68.2791
internal_count=65014 5796 577 5219 236 299 59218 18170 6207 41048 11963 39467 1581 4983 278
is_linear=0
shrinkage=0.05


Tree=49
num_leaves=13
num_cat=0
split_feature=14 11 19 19 115 19 98 85 89 67 71 106
split_gain=23.2271 21.6492 20.7966 25.5583 22.3496 10.988 7.25406 5.84672 5.75137 5.61967 5.10419 1.1748
threshold=0.72109233629609026 78.368366241455092 2.4850000143051152 0.78499999642372142 0.01725596625642108 0.64499998092651378 6.0846638589300293 19.52440166473389 -2.730794703426016 97.320258162523047 24.360877037048343 15.222931385040285
decision_type=2 2 2 2 2 2 2 2 2 2 2 2
left_child=1 2 3 -1 -4 7 8 -3 11 -10 -7 -2
right_child=6 5 4 -5 -6 10 -8 -9 9 -11 -12 -13
leaf_value=-0.0012344409247999706 -0.054977219969281448 0.040030244115669363 0.010176797092796041 0.0032527021884544097 -0.047061652047021604 0.0075398548689056353 -0.0020522873891154077 -0.014721040117888023 -0.05596546558774234 0.010417743550242614 -0.052498026183805641 -0.086202810737139438
leaf_weight=11492.869097143412 4.4849360287189475 58.257208004593849 26.588449329137802 4383.9822588562965 47.560298308730125 12.721224471926691 9.3567988723516446 5.3213900774717322 8.0884076952934283 5.2622963935136786 4.9051203429698935 9.1729163527488691
leaf_count=46446 20 273 107 17735 198 58 38 23 35 22 21 38
internal_value=-7.82517e-05 1.22853e-05 -0.000118811 4.5677e-06 -0.0265369 0.0257635 -0.0399928 0.0354477 -0.0531369 -0.0297999 -0.00916769 -0.075949
internal_weight=16068.6 16032.2 15951 15876.9 74.1487 81.2049 36.3654 63.5786 27.0086 13.3507 17.6263 13.6579
internal_count=65014 64861 64486 64181 305 375 153 296 115 57 79 58
is_linear=0
shrinkage=0.05


Tree=50
num_leaves=16
num_cat=0
split_feature=13 16 19 13 13 15 14 18 11 16 14 75 11 69 115
split_gain=26.4594 56.795 44.4128 68.6628 42.2663 39.5359 33.0172 29.1223 28.193 53.5601 39.3448 24.8117 14.909 14.1543 14.0273
threshold=-0.0070064090780493351 -0.0097577800614953008 0.83499997854232799 -0.013131323117079622 -0.0045726992229612176 0.19867034219467153 0.48434760678679251 0.082929698924197728 -8.462129592895506 0.081475791372542392 0.50560731101892353 0.076909813292850931 -12.059771060943602 45.110779028302552 0.14410279849771623
decision_type=2 2 2 2 2 2 2 2 2 2 2 2 2 2 2
left_child=1 12 3 -3 6 -4 7 -2 9 -6 -10 -8 13 -1 -14
right_child=4 2 5 -5 8 -7 11 -9 10 -11 -12 -13 14 -15 -16
leaf_value=-0.062112084050745343 -0.054195944353495062 -0.0025546244752372542 0.025571028018230753 -0.073905784073423575 -0.0081338551082824045 -0.050313562647226029 -0.0056084665633712501 -0.001126915859499659 0.0023791290391910538 0.013341981201533119 -0.0039911281582963214 0.10035903164245263 0.024842118329456288 0.023432239517870025 0.052712781512417275
leaf_weight=8.2986970543861407 89.921788260340691 391.80375628173351 199.09279415011406 36.89269708096981 2099.9040145128965 18.783606708049774 70.441457763314247 36.281963005661964 9264.6370288729668 336.90086095035076 3282.7590548247099 5.9940261989831916 155.1657952517271 11.587463483214377 63.671535164117813
leaf_count=34 361 1604 837 149 8508 77 282 146 37433 1356 13256 24 649 47 273
internal_value=-6.02203e-05 0.00834236 0.000647169 -0.00869495 -0.000550038 0.0190288 -0.0232324 -0.0389393 -0.000243292 -0.00516471 0.000712487 0.00270144 0.0291845 -0.0122663 0.0329512
internal_weight=16072.1 885.296 646.573 428.696 15186.8 217.876 202.639 126.204 14984.2 2436.8 12547.4 76.4355 238.723 19.8862 218.837
internal_count=65036 3670 2667 1753 61366 914 813 507 60553 9864 50689 306 1003 81 922
is_linear=0
shrinkage=0.05


Tree=51
num_leaves=16
num_cat=0
split_feature=13 13 18 18 14 14 13 16 19 13 14 14 13 87 20
split_gain=24.0385 60.5662 34.5892 35.9763 30.9953 34.0741 29.2522 51.7119 40.2075 35.0387 29.8791 26.1392 24.415 20.1668 14.1211
threshold=0.42981934537605421 0.488467252019186 0.32625691294678077 -0.67927850186194261 0.50752507773822864 0.52611268536233313 -0.0070064090780493351 -0.0097577800614953008 0.83499997854232799 -0.0045726992229612176 0.48434760678679251 0.47735984128046388 0.41148419804187381 -1.0830649403867472 -0.082325744970627848
decision_type=2 2 2 2 2 2 2 2 2 2 2 2 2 2 2
left_child=6 2 3 -2 13 -6 7 14 -9 10 -8 -4 -11 -3 -1
right_child=1 4 11 -5 5 -7 9 8 -10 12 -12 -13 -14 -15 -16
